tree
version=v4
num_class=3
num_tree_per_iteration=3
label_index=0
max_feature_idx=427
objective=multiclass num_class:3
feature_names=league home_elo away_elo elo_diff hometeam_rest_days hometeam_both_roll5_goals_for hometeam_both_roll10_goals_for hometeam_both_decay15_goals_for hometeam_both_roll5_goals_against hometeam_both_roll10_goals_against hometeam_both_decay15_goals_against hometeam_both_roll5_ht_goals_for hometeam_both_roll10_ht_goals_for hometeam_both_decay15_ht_goals_for hometeam_both_roll5_ht_goals_against hometeam_both_roll10_ht_goals_against hometeam_both_decay15_ht_goals_against hometeam_both_roll5_xg_for hometeam_both_decay15_xg_for hometeam_both_decay15_xg_against hometeam_both_roll5_npxg_against hometeam_both_roll5_shots_for hometeam_both_roll10_shots_for hometeam_both_decay15_shots_for hometeam_both_roll5_shots_against hometeam_both_roll10_shots_against hometeam_both_decay15_shots_against hometeam_both_roll5_sot_for hometeam_both_roll10_sot_for hometeam_both_decay15_sot_for hometeam_both_roll5_sot_against hometeam_both_roll10_sot_against hometeam_both_decay15_sot_against hometeam_both_roll5_corners_for hometeam_both_roll10_corners_for hometeam_both_decay15_corners_for hometeam_both_roll5_corners_against hometeam_both_roll10_corners_against hometeam_both_decay15_corners_against hometeam_both_roll5_deep_completions_for hometeam_both_roll10_deep_completions_for hometeam_both_roll5_deep_completions_against hometeam_both_roll10_deep_completions_against hometeam_both_roll5_sot_pct_for hometeam_both_roll10_sot_pct_for hometeam_both_decay15_sot_pct_for hometeam_both_roll5_sot_pct_against hometeam_both_roll10_sot_pct_against hometeam_both_decay15_sot_pct_against hometeam_both_roll5_xg_per_shot_for hometeam_both_decay15_xg_per_shot_for hometeam_both_roll5_xg_per_shot_against hometeam_both_roll10_xg_per_shot_against hometeam_both_roll5_npxg_per_shot_for hometeam_both_roll5_npxg_per_shot_against hometeam_both_roll5_ppda_for hometeam_both_decay15_ppda_for hometeam_both_roll5_points_for hometeam_both_roll10_points_for hometeam_both_decay15_points_for hometeam_both_roll5_saves_for hometeam_both_roll10_saves_for hometeam_both_decay15_saves_for hometeam_both_roll5_saves_against hometeam_both_roll10_saves_against hometeam_both_decay15_saves_against hometeam_both_roll5_save_pct_for hometeam_both_roll10_save_pct_for hometeam_both_decay15_save_pct_for hometeam_both_roll5_save_pct_against hometeam_both_roll10_save_pct_against hometeam_both_decay15_save_pct_against hometeam_both_roll5_clean_sheet_for hometeam_both_roll10_clean_sheet_for hometeam_both_decay15_clean_sheet_for hometeam_both_roll5_elo_for hometeam_both_roll5_std_goals_for hometeam_both_roll10_std_goals_for hometeam_both_roll5_std_points_for hometeam_both_roll10_std_points_for hometeam_both_roll5_std_xg_for hometeam_both_roll10_std_xg_for hometeam_win_streak hometeam_loss_streak hometeam_nowin_streak hometeam_matches_last_14d hometeam_elo_momentum5 hometeam_home_roll5_goals_for hometeam_home_roll10_goals_for hometeam_home_decay15_goals_for hometeam_home_roll5_goals_against hometeam_home_roll10_goals_against hometeam_home_decay15_goals_against hometeam_home_roll5_ht_goals_for hometeam_home_roll10_ht_goals_for hometeam_home_decay15_ht_goals_for hometeam_home_roll5_ht_goals_against hometeam_home_roll10_ht_goals_against hometeam_home_decay15_ht_goals_against hometeam_home_roll5_xg_for hometeam_home_decay15_npxg_for hometeam_home_roll5_npxg_against hometeam_home_roll10_npxg_against hometeam_home_roll5_shots_for hometeam_home_roll10_shots_for hometeam_home_decay15_shots_for hometeam_home_roll5_shots_against hometeam_home_roll10_shots_against hometeam_home_decay15_shots_against hometeam_home_roll5_sot_for hometeam_home_roll10_sot_for hometeam_home_decay15_sot_for hometeam_home_roll5_sot_against hometeam_home_roll10_sot_against hometeam_home_decay15_sot_against hometeam_home_roll5_corners_for hometeam_home_roll10_corners_for hometeam_home_decay15_corners_for hometeam_home_roll5_corners_against hometeam_home_roll10_corners_against hometeam_home_decay15_corners_against hometeam_home_roll5_deep_completions_for hometeam_home_roll10_deep_completions_for hometeam_home_roll5_deep_completions_against hometeam_home_decay15_deep_completions_against hometeam_home_roll5_sot_pct_for hometeam_home_roll10_sot_pct_for hometeam_home_decay15_sot_pct_for hometeam_home_roll5_sot_pct_against hometeam_home_roll10_sot_pct_against hometeam_home_decay15_sot_pct_against hometeam_home_roll5_xg_per_shot_for hometeam_home_roll5_xg_per_shot_against hometeam_home_roll5_npxg_per_shot_for hometeam_home_decay15_npxg_per_shot_for hometeam_home_roll5_npxg_per_shot_against hometeam_home_roll10_npxg_per_shot_against hometeam_home_roll5_ppda_for hometeam_home_roll10_ppda_for hometeam_home_roll5_points_for hometeam_home_roll10_points_for hometeam_home_decay15_points_for hometeam_home_roll5_saves_for hometeam_home_roll10_saves_for hometeam_home_decay15_saves_for hometeam_home_roll5_saves_against hometeam_home_roll10_saves_against hometeam_home_decay15_saves_against hometeam_home_roll5_save_pct_for hometeam_home_roll10_save_pct_for hometeam_home_decay15_save_pct_for hometeam_home_roll5_save_pct_against hometeam_home_roll10_save_pct_against hometeam_home_decay15_save_pct_against hometeam_home_roll5_clean_sheet_for hometeam_home_roll10_clean_sheet_for hometeam_home_decay15_clean_sheet_for hometeam_home_decay15_elo_for awayteam_rest_days awayteam_both_roll5_goals_for awayteam_both_roll10_goals_for awayteam_both_decay15_goals_for awayteam_both_roll5_goals_against awayteam_both_roll10_goals_against awayteam_both_decay15_goals_against awayteam_both_roll5_ht_goals_for awayteam_both_roll10_ht_goals_for awayteam_both_decay15_ht_goals_for awayteam_both_roll5_ht_goals_against awayteam_both_roll10_ht_goals_against awayteam_both_decay15_ht_goals_against awayteam_both_roll10_xg_for awayteam_both_roll5_xg_against awayteam_both_roll10_xg_against awayteam_both_roll5_npxg_for awayteam_both_roll5_shots_for awayteam_both_roll10_shots_for awayteam_both_decay15_shots_for awayteam_both_roll5_shots_against awayteam_both_roll10_shots_against awayteam_both_decay15_shots_against awayteam_both_roll5_sot_for awayteam_both_roll10_sot_for awayteam_both_decay15_sot_for awayteam_both_roll5_sot_against awayteam_both_roll10_sot_against awayteam_both_decay15_sot_against awayteam_both_roll5_corners_for awayteam_both_roll10_corners_for awayteam_both_decay15_corners_for awayteam_both_roll5_corners_against awayteam_both_roll10_corners_against awayteam_both_decay15_corners_against awayteam_both_roll5_deep_completions_for awayteam_both_roll10_deep_completions_for awayteam_both_roll5_deep_completions_against awayteam_both_roll10_deep_completions_against awayteam_both_roll5_sot_pct_for awayteam_both_roll10_sot_pct_for awayteam_both_decay15_sot_pct_for awayteam_both_roll5_sot_pct_against awayteam_both_roll10_sot_pct_against awayteam_both_decay15_sot_pct_against awayteam_both_roll5_xg_per_shot_for awayteam_both_roll10_xg_per_shot_for awayteam_both_roll5_xg_per_shot_against awayteam_both_roll10_xg_per_shot_against awayteam_both_roll5_npxg_per_shot_for awayteam_both_roll5_npxg_per_shot_against awayteam_both_roll5_ppda_for awayteam_both_roll10_ppda_for awayteam_both_roll5_points_for awayteam_both_roll10_points_for awayteam_both_decay15_points_for awayteam_both_roll5_saves_for awayteam_both_roll10_saves_for awayteam_both_decay15_saves_for awayteam_both_roll5_saves_against awayteam_both_roll10_saves_against awayteam_both_decay15_saves_against awayteam_both_roll5_save_pct_for awayteam_both_roll10_save_pct_for awayteam_both_decay15_save_pct_for awayteam_both_roll5_save_pct_against awayteam_both_roll10_save_pct_against awayteam_both_decay15_save_pct_against awayteam_both_roll5_clean_sheet_for awayteam_both_roll10_clean_sheet_for awayteam_both_decay15_clean_sheet_for awayteam_both_roll5_elo_for awayteam_both_roll5_std_goals_for awayteam_both_roll10_std_goals_for awayteam_both_roll5_std_points_for awayteam_both_roll10_std_points_for awayteam_both_roll5_std_xg_for awayteam_both_roll10_std_xg_for awayteam_win_streak awayteam_loss_streak awayteam_unbeaten_streak awayteam_nowin_streak awayteam_matches_last_14d awayteam_elo_momentum5 awayteam_away_roll5_goals_for awayteam_away_roll10_goals_for awayteam_away_decay15_goals_for awayteam_away_roll5_goals_against awayteam_away_roll10_goals_against awayteam_away_decay15_goals_against awayteam_away_roll5_ht_goals_for awayteam_away_roll10_ht_goals_for awayteam_away_decay15_ht_goals_for awayteam_away_roll5_ht_goals_against awayteam_away_roll10_ht_goals_against awayteam_away_decay15_ht_goals_against awayteam_away_roll5_xg_against awayteam_away_roll5_npxg_for awayteam_away_roll10_npxg_for awayteam_away_decay15_npxg_against awayteam_away_roll5_shots_for awayteam_away_roll10_shots_for awayteam_away_decay15_shots_for awayteam_away_roll5_shots_against awayteam_away_roll10_shots_against awayteam_away_decay15_shots_against awayteam_away_roll5_sot_for awayteam_away_roll10_sot_for awayteam_away_decay15_sot_for awayteam_away_roll5_sot_against awayteam_away_roll10_sot_against awayteam_away_decay15_sot_against awayteam_away_roll5_corners_for awayteam_away_roll10_corners_for awayteam_away_decay15_corners_for awayteam_away_roll5_corners_against awayteam_away_roll10_corners_against awayteam_away_decay15_corners_against awayteam_away_roll5_deep_completions_for awayteam_away_roll10_deep_completions_for awayteam_away_roll5_deep_completions_against awayteam_away_decay15_deep_completions_against awayteam_away_roll5_sot_pct_for awayteam_away_roll10_sot_pct_for awayteam_away_decay15_sot_pct_for awayteam_away_roll5_sot_pct_against awayteam_away_roll10_sot_pct_against awayteam_away_decay15_sot_pct_against awayteam_away_roll5_xg_per_shot_for awayteam_away_roll10_xg_per_shot_for awayteam_away_roll5_xg_per_shot_against awayteam_away_decay15_xg_per_shot_against awayteam_away_roll5_npxg_per_shot_for awayteam_away_decay15_npxg_per_shot_for awayteam_away_roll5_npxg_per_shot_against awayteam_away_roll10_npxg_per_shot_against awayteam_away_roll5_ppda_for awayteam_away_roll10_ppda_for awayteam_away_roll5_points_for awayteam_away_roll10_points_for awayteam_away_decay15_points_for awayteam_away_roll5_saves_for awayteam_away_roll10_saves_for awayteam_away_decay15_saves_for awayteam_away_roll5_saves_against awayteam_away_roll10_saves_against awayteam_away_decay15_saves_against awayteam_away_roll5_save_pct_for awayteam_away_roll10_save_pct_for awayteam_away_decay15_save_pct_for awayteam_away_roll5_save_pct_against awayteam_away_roll10_save_pct_against awayteam_away_decay15_save_pct_against awayteam_away_roll10_clean_sheet_for awayteam_away_decay15_clean_sheet_for awayteam_away_decay15_elo_for rest_days_diff both_roll5_goals_for_diff both_roll10_goals_for_diff both_decay15_goals_for_diff both_roll5_goals_against_diff both_roll10_goals_against_diff both_decay15_goals_against_diff both_roll5_ht_goals_for_diff both_roll10_ht_goals_for_diff both_decay15_ht_goals_for_diff both_roll5_ht_goals_against_diff both_roll10_ht_goals_against_diff both_decay15_ht_goals_against_diff both_roll5_xg_for_diff both_roll10_xg_for_diff both_decay15_xg_for_diff both_roll5_xg_against_diff both_roll10_xg_against_diff both_decay15_xg_against_diff both_roll5_npxg_for_diff both_roll10_npxg_for_diff both_decay15_npxg_for_diff both_roll5_npxg_against_diff both_roll10_npxg_against_diff both_decay15_npxg_against_diff both_roll5_shots_for_diff both_roll10_shots_for_diff both_decay15_shots_for_diff both_roll5_shots_against_diff both_roll10_shots_against_diff both_decay15_shots_against_diff both_roll5_sot_for_diff both_roll10_sot_for_diff both_decay15_sot_for_diff both_roll5_sot_against_diff both_roll10_sot_against_diff both_decay15_sot_against_diff both_roll5_corners_for_diff both_roll10_corners_for_diff both_decay15_corners_for_diff both_roll5_corners_against_diff both_roll10_corners_against_diff both_decay15_corners_against_diff both_roll5_deep_completions_for_diff both_roll10_deep_completions_for_diff both_decay15_deep_completions_for_diff both_roll5_deep_completions_against_diff both_roll10_deep_completions_against_diff both_decay15_deep_completions_against_diff both_roll5_sot_pct_for_diff both_roll10_sot_pct_for_diff both_decay15_sot_pct_for_diff both_roll5_sot_pct_against_diff both_roll10_sot_pct_against_diff both_decay15_sot_pct_against_diff both_roll5_xg_per_shot_for_diff both_roll10_xg_per_shot_for_diff both_decay15_xg_per_shot_for_diff both_roll5_xg_per_shot_against_diff both_roll10_xg_per_shot_against_diff both_decay15_xg_per_shot_against_diff both_roll5_npxg_per_shot_for_diff both_roll10_npxg_per_shot_for_diff both_decay15_npxg_per_shot_for_diff both_roll5_npxg_per_shot_against_diff both_roll10_npxg_per_shot_against_diff both_decay15_npxg_per_shot_against_diff both_roll5_ppda_for_diff both_roll10_ppda_for_diff both_decay15_ppda_for_diff both_roll5_points_for_diff both_roll10_points_for_diff both_decay15_points_for_diff both_roll5_saves_for_diff both_roll10_saves_for_diff both_decay15_saves_for_diff both_roll5_saves_against_diff both_roll10_saves_against_diff both_decay15_saves_against_diff both_roll5_save_pct_for_diff both_roll10_save_pct_for_diff both_decay15_save_pct_for_diff both_roll5_save_pct_against_diff both_roll10_save_pct_against_diff both_decay15_save_pct_against_diff both_roll5_clean_sheet_for_diff both_roll10_clean_sheet_for_diff both_decay15_clean_sheet_for_diff both_roll5_std_goals_for_diff both_roll10_std_goals_for_diff both_roll5_std_points_for_diff both_roll10_std_points_for_diff both_roll5_std_xg_for_diff both_roll10_std_xg_for_diff win_streak_diff loss_streak_diff unbeaten_streak_diff nowin_streak_diff matches_last_14d_diff elo_momentum5_diff h2h_goal_diff_last4 h2h_points_last4 season_progress home_position away_position home_pts_to_1st away_pts_to_1st home_pts_to_ucl away_pts_to_ucl home_pts_to_europe away_pts_to_europe home_pts_to_relegation away_pts_to_relegation position_diff
feature_infos=-1:0:3:4:1:2 [1305.6899498281241:1906.761347349252] [1309.8900095146864:1907.5312625945271] [-526.65080719338494:496.33849058374471] [2:8] [0:5.7999999999999998] [0:4.5] [0:4.1349477310161618] [0:5] [0:5] [0:5] [0:3] [0:2.2000000000000002] [0:2.625] [0:5] [0:5] [0:5] [0.030934:3.994828] [0.030934:3.3536800474668045] [0.084219837500000005:4.2596800000000004] [0.16546805000000001:4.2596800000000004] [4.2000000000000002:25] [5:24] [5:24] [3.3999999999999999:27] [4.2999999999999998:27] [4.8554341585779994:27] [0:14.4] [0:13.5] [0:12.00671393637786] [0.80000000000000004:19] [1.2:19] [1.4503118820066616:19] [0:12] [0:10.800000000000001] [0:10] [0:12] [0:12] [0:12] [0:23.199999999999999] [0:19] [0:24] [0:24] [0:0.83000000000000007] [0:0.75326839826839831] [0:0.75] [0.095238095238095205:0.77396825396825408] [0.14694444444444441:0.75] [0.1475840336134453:0.75] [0.015467:0.3153881168831168] [0.015467:0.2943423863636363] [0.026729684090908999:0.29874640952380949] [0.026729684090908999:0.28732714285714278] [0.015467:0.25330961282051279] [0.026729684090908999:0.27159123181818179] [3.4651162790697674:47.017441860465119] [3.4651162790697674:54.540009469696962] [0:3] [0:3] [0:3] [0.20000000000000001:15] [0.59999999999999998:15] [0.85232533246428932:15] [0:12.6] [0:11.800000000000001] [0:10.284388039952956] [-0.024999999999999901:1] [0.074999999999999997:1] [0.09375:1] [0:1] [0:1] [0:1] [0:1] [0:1] [0:1] [1320.8806346503814:1902.1456776186683] [0:4.1472882706655438] [0:3.0110906108363231] [0:2.1213203435596424] [0:2.1213203435596424] [0.0133852876821282:2.3876968291566665] [0.0133852876821282:1.8512116975286617] [0:17] [0:14] [0:30] [0:4] [-64.399124592767066:66.063833195788447] [0:5.7999999999999998] [0:4.7999999999999998] [0:4.387083619049462] [0:5.5] [0:5.5] [0:5] [0:3.2000000000000002] [0:3] [0:3] [0:3] [0:3] [0:3] [0.051407099999999997:4.4200320000000008] [0.051407099999999997:3.9657100000000001] [0.057137100000000003:3.9338700000000002] [0.057137100000000003:3.9338700000000002] [3:27.399999999999999] [3:26.699999999999999] [3:25.318543287972524] [2:26] [2:26] [2:26] [0:15.4] [0:13.800000000000001] [0:13.459860484584976] [0.59999999999999998:13.4] [1:11.199999999999999] [1:11] [0:12.6] [0:11.5] [0:11] [0:12] [0:12] [0:12] [0:23.800000000000001] [0:20.399999999999999] [0:18] [0:18] [0:0.80333333333333334] [0:0.77777777777777779] [0:0.77777777777777779] [0.082626262626262603:0.82857142857142851] [0.1176470588235294:0.82857142857142851] [0.1176470588235294:0.80714285714285716] [0.0171357:0.41834666666666659] [0.0175698833333333:0.34344909090909093] [0.0171357:0.24943666666666661] [0.0171357:0.24943666666666661] [0.0175698833333333:0.28099071428571432] [0.0175698833333333:0.28099071428571432] [2.3125:67.333333333333329] [2.3125:67.333333333333329] [0:3] [0:3] [0:3] [0:9.8000000000000007] [0.5:9] [0.861328125:9] [0:14] [0:12.199999999999999] [0:11.86669335614652] [-0.099999999999999895:1] [0:1] [0:1] [0:1] [0:1] [0:1] [0:1] [0:1] [0:1] [1337.0696313897561:1887.2246240660847] [2:8] [0:5] [0:4.2999999999999998] [0:4] [0:5] [0:5] [0:5] [0:3] [0:3] [0:3] [0:3] [0:3] [0:4.5] [0.199709:3.5914514999999998] [0.057137100000000003:3.9338700000000002] [0.057137100000000003:3.9338700000000002] [0.199709:4.1356240000000009] [3.6000000000000001:25.800000000000001] [5:23.699999999999999] [5:23.17814720299728] [2.6000000000000001:27] [4.4000000000000004:27] [4.7485048887557486:27] [0.59999999999999998:16] [1:13.5] [0.375:12.26926292519938] [0.59999999999999998:13.800000000000001] [1.3:11.800000000000001] [1.5978947836171715:15.984375] [0:12.199999999999999] [0:11] [0:11] [0:12] [0:12] [0:12] [0:21.800000000000001] [0:18.899999999999999] [0:18] [0:18] [0.066071428571428503:0.80666666666666664] [0.1214285714285714:0.77777777777777779] [0.034090909090908998:0.77777777777777779] [0.073333333333333306:0.80000000000000004] [0.1176470588235294:0.80000000000000004] [0.1176470588235294:0.80000000000000004] [0.029186278571428501:0.28732714285714278] [0.029186278571428501:0.28732714285714278] [0.023398083333333299:0.2994733333333332] [0.023398083333333299:0.2994733333333332] [0.029186278571428501:0.25344811588235289] [0.023398083333333299:0.28099071428571432] [2.3125:67.333333333333329] [2.3125:67.333333333333329] [0:3] [0:3] [0:3] [0.20000000000000001:11.199999999999999] [0.80000000000000004:9.4000000000000004] [0.974086094244902:12.921875] [0.20000000000000001:14] [0.75:12] [0.25:10.616343562387533] [0:1] [0:1] [0:1] [0:1] [0:1] [0:1] [0:1] [0:1] [0:1] [1316.6702203667471:1900.3172410378691] [0:3.8340579025361623] [0:2.9814239699997214] [0:2.1213203435596424] [0:2.1213203435596424] [0.0098521187822720995:2.4672104214021147] [0.0098521187822720995:2.131881690443445] [0:18] [0:16] [0:44] [0:29] [0:4] [-71.034377619700535:61.824703872732925] [0:4.7999999999999998] [0:4] [0:4] [0:5] [0:5] [0:5] [0:3] [0:3] [0:3] [0:5] [0:5] [0:5] [0.22284300000000001:4.2596800000000004] [0.030934:3.7037499999999999] [0.030934:3.246623] [0.22284300000000001:4.2596800000000004] [1:24.199999999999999] [1:24] [1:24] [4:30] [5.2000000000000002:30] [5.7363066380462353:27] [0:12] [0:10.5] [0:10.163501887629693] [0.80000000000000004:19] [1:19] [1:19] [0:10.800000000000001] [0:10] [0:10] [0:14] [0:14] [0:14] [0:19.800000000000001] [0:16.600000000000001] [0:24] [0:24] [0:0.79920634920634925] [0:0.78888888888888897] [0:0.78055555555555556] [0.0977777777777777:0.78095238095238095] [0.1111111111111111:0.75] [0.1111111111111111:0.75] [0.015467:0.34344909090909093] [0.015467:0.34344909090909093] [0.024890818181818101:0.41834666666666659] [0.024890818181818101:0.41834666666666659] [0.015467:0.274642] [0.015467:0.274642] [0.024890818181818101:0.25167247619047611] [0.024890818181818101:0.24943666666666661] [3.4651162790697674:89.5] [3.4651162790697674:89.5] [0:3] [0:3] [0:3] [0:15] [0:15] [0:15] [-0.20000000000000001:10.4] [0:9.0999999999999996] [0:8.6019015795543083] [-0.019047619047619001:1] [0:1] [0:1] [0:1] [0:1] [0:1] [0:1] [0:1] [1335.2602680865334:1890.002010928762] [-6:6] [-5:5.2000000000000002] [-3.3999999999999999:3.7999999999999998] [-3.1984118037290656:3.3724059179628725] [-4.7999999999999998:3.3999999999999999] [-4.5:3.8999999999999999] [-4.4634159824738209:3.7289063616459162] [-2.6000000000000001:2.3999999999999999] [-2.2999999999999998:1.8999999999999999] [-2.2271105285613291:2.417970616326826] [-2.7999999999999998:4.2000000000000002] [-2.6000000000000001:4.5999999999999996] [-3.9750906556195522:4.5140109195340656] [-3.1573670200000001:3.266003599999999] [-2.7477253333333334:2.6518307499999998] [-2.4394520377787372:3.0358888593671387] [-2.5116174:2.7550042000000001] [-2.02244:2.7627993000000002] [-3.0094657257883619:2.7111692534127041] [-3.2104028000000007:3.1137695999999999] [-2.5247673333333331:2.4668821000000003] [-2.2486483778062785:2.7725402057765929] [-2.8161372:2.7550042000000001] [-2.576047:2.9143533000000001] [-2.6282908186226663:2.8230732206954672] [-16.600000000000001:16.199999999999999] [-12.75:13.699999999999999] [-12.88478912677922:11.828126576987064] [-16.600000000000001:18.200000000000003] [-17.5:15.5] [-16.954911193150906:15.871016964178963] [-11:10.199999999999999] [-8:7.2000000000000011] [-8.4576881540104036:7.8993677711629555] [-8:13.4] [-7.2000000000000002:12.300000000000001] [-9.3486938238798061:12.496019331634812] [-8.5999999999999996:8.4000000000000004] [-7.4000000000000004:6.1000000000000005] [-6.9459672679740443:6.0812705841379415] [-7.4000000000000004:8.1999999999999993] [-7.0999999999999996:6.5499999999999998] [-7.1824545827757085:6.8849398569964144] [-17.199999999999999:17.800000000000001] [-16.800000000000001:17.600000000000001] [-15.487288613442107:17.485472701076695] [-13:13.4] [-13:13.5] [-15.181760582385614:14.25] [-0.47719576719576717:0.47261904761904749] [-0.47651787296524128:0.4142857142857142] [-0.4846260679754924:0.43626176877543421] [-0.47361111111111098:0.37675053704465478] [-0.3466442189524031:0.38032425091248617] [-0.39903544988298451:0.39914484653105797] [-0.2507812261904761:0.2280801803751803] [-0.2507812261904761:0.2280801803751803] [-0.2507812261904761:0.1877318308080807] [-0.23201969999999991:0.2507812261904761] [-0.23201969999999991:0.2507812261904761] [-0.1686776607198969:0.2507812261904761] [-0.15183836624857591:0.15402061871070111] [-0.1420240833333333:0.14006484222672061] [-0.1681243097222222:0.15795326131628989] [-0.2146705833333333:0.1590222432172658] [-0.2146705833333333:0.1420240833333333] [-0.2146705833333333:0.17755249340277779] [-56.276812337088202:31.105782712595438] [-55.360197444122186:32.430104350022347] [-55.116579528589931:37.99025223379369] [-3:3] [-3:3] [-3:3] [-7.0000000000000009:10.4] [-5.7333333333333325:10.1] [-8.9290147594052485:10.484452432102568] [-9.8000000000000007:9.1999999999999993] [-6.9000000000000004:6.2000000000000002] [-6.7059760216574249:6.7600830194970563] [-0.76666666666666639:0.97142857142857164] [-0.66749999999999998:0.76642857142857146] [-0.67786110299150526:0.74356510476201099] [-0.8600000000000001:0.81269841269841281] [-0.69238095238095243:0.62285714285714278] [-0.76190030331052916:0.72108123680069969] [-1:1] [-0.90000000000000002:1] [-0.904296875:0.92722117015714878] [-3.2863353450309973:3.1472882706655438] [-2.4627609211651129:2.2222799730897087] [-2.1213203435596424:2.1213203435596424] [-2.1213203435596424:2.1213203435596424] [-2.2241319981800758:1.8487131247234851] [-1.6630017685909495:1.5563512638055064] [-18:17] [-16:14] [-44:43] [-26:29] [-3:3] [-98.414302614288076:91.36321648459284] [-6:7] [-1:3] [0.0071942446043165003:1] [1:20] [1:20] [-80:0] [-83:0] [-59:41] [-59:39] [-51:43] [-51:42] [-25:70] [-25:67] [-19:19]
tree_sizes=1692 1817 1741 1901 1801 1913 1918 1691 1911 1915 1785 1913 1901 1802 1901 1899 1683 1915 1905 1808 1914 1896 1807 1922 1914 1678 1908 1903 1782 1891 1902 1791 1905 1912 1786 1908 1923 1791 1906 1906 1658 1898 1921 1776 1906 1915 1798 1918 1910 1791 1920 1901 1796 1903 1886 1904 1928 1896 1791 1796 1893 1902 1923 1905 1888 1918 1919 1797 1903 1896 1793 1918 1903 1565 1888 1893 1562 1914 1903 1665 1887 1918 1670 1901 1898 1665 1773 1906 1566 1914 1902 1779 1919 1907 1795 1904 1898 1579 1927 1908 1792 1902 1909 1577 1914 1907 1682 1910 1913 1793 1913 1911 1791 1908 1901 1891 1915 1893 1808 1910 1913 1688 1908 1910 1794 1907 1891 1795 1912 1909 1913 1908 1791 1685 1888 1913 1787 1916 1906 1797 1918 1804 1790 1891 1898 1904 1914 1910 1799 1909 1909 1687 1908 1910 1566 1914 1804 1582 1894 1915 1575 1917 1922 1792 1905 1884 1796 1893 1912 1800 1920 1890 1781 1904 1805 1787 1918 1900 1792 1904 1900 1684 1904 1787 1902 1807 1790 1688 1921 1897 1473 1899 1912 1590 1918 1805 1924 1917 1907 1910 1787 1895 1920 1912 1904 1479 1919 1906 1581 1922 1903 1900 1917 1907 1796 1904 1796 1681 1921 1802 1674 1926 1908 1695 1913 1680 1683 1931 1811 1813 1897 1785 1694 1795 1910 1908 1910 1922 1796 1912 1892 1899 1909 1906 1688 1916 1795 1692 1910 1914 1694 1926 1917 1679 1905 1901 1795 1807 1796 1803 1692 1912 1897 1889 1910 1683 1910 1800 1917 1902 1904 1697 1894 1798 1803 1898 1791 1784 1901 1905 1787 1919 1908 1691 1929 1803 1785 1811 1898 1579 1907 1920 1686 1916 1809 1804 1898 1795 1782 1921 1906 1676 1921 1893 1807 1916 1907 1689 1914 1803 1811 1928 1797 1356 1915 1790 1578 1910 1919 1687 1896 1911 1788 1913 1905 1895 1801 1893 1804 1922 1905 1696 1892 1908 1469 1915 1901 1471 1909 1793 1806 1922 1910 1574 1924 1900 1909 1925 1901 1578 1907 1917 1696 1894 1916 1800 1924 1917 1683 1912 1697 1793 1908 1920 1910 1907 1915 1683 1924 1914 1918 1891 1908 1809 1797 1813 1585 1810 1807 1800 1919 1909 1577 1905 1795 1572 1910 1908 1582 1694 1918 1696 1784 1913 1790 1813 1909 1470 1910 1879 1920 1892 1801 1684 1923 1926 1575 1802 1905 1807 1805 1902 1475 1934 1902 1804 1911 1914 1468 1797 1918 1675 1890 1902 1470 1799 1909 1451 1789 1913 1370 1924 1912 1812 1787 1927 1806 1917 1913 1804 1799 1920 1461 1912 1908 1353 1802 1912 1353 1902 1796 1472 1804 1905 1789 1915 1792 1459 1901 1913 1464 1911 1905 1903 1807 1893 1900 1695 1665 1579 1802 1781 1809 1907 1895 1683 1911 1904 1570 1799 1898 1337 1909 1905 1812 1904 1923 1794 1927 1920 1584 1898 1921 1573 1920 1797 1456 1897 1916 1574 1784 1812 1351 1923 1689 1135 1909 1681 1457 1908 1688 1029 1802 1905 1679 1917 1900 1797 1914 1796 1698 1923 1792 1911 1806 1797 1694 1912 1804 1480 1911 1802 1480 1792 1915 1576 1791 1798 1578 1902 1919 1468 1915 1911 1471 1919 1808 1922 1813 1928 1686 1927 1800 1472 1808 1798 1811 1921 1922 1795 1811 1806 1360 1805 1798 1893 1691 1801 1690 1902 1802 1811 1916 1914 1807 1811 1792 1250 1930 1894 1685 1914 1805 1470 1916 1797 1572 1809 1914 1796 1914 1794 1463 1922 1917 1802 1813 1682 1574 1920 1920 1463 1917 1928 1474 1927 1808 1565 1916 1915 1463 1898 1936 1586 1904 1899 1694 1796 1909 1461 1915 1594 1136 1927 1900 1580 1910 1794 1033 1916 1916 1583 1803 1918 1343 1915 1909 1147 1915 1906 1693 1923 1901 1357 1925 1803 1694 1923 1926 1247 1923 1907 1901 1795 1915 1246 1898 1910 1467 1807 1803 1347 1907 1916 1346 1913 1804 1690 1806 1796 1903 1919 1583 1690 1810 1919 1465 1799 1679 1584 1899 1802 1915 1908 1920 1366 1690 1799 920 1792 1804 1472 1694 1796 1266 1907 1809 1137 1801 1926 1475 1792 1914 1575 1899 1896 1466 1774 1785 1237 1891 1800 1792 1909 1678 1795 1923 1800 1673 1915 1910 1117 1915 1906 1137 1919 1914 1674 1922 1696 1797 1587 1801 1818 1918 1582 1685 1909 1797 1674 1806 1927 1458 1791 1908 1240 1910 1799 1600 1914 1909 1801 1594 1906 1695 1920 1691 1131 1913 1901 1127 1905 1919 1246 1821 1926 1584 1808 1916 1465 1799 1465 1571 1690 1806 1580 1801 1914 1250 1683 1798 1135 1912 1693 1574 1905 1906 1691 1914 1796 1467 1916 1805 1797 1791 1586 1462 1923 1907 1448 1917 1914 1910 1919 1901 1789 1932 1797 1582 1911 1907 1905 1688 1921 1904 1795 1904 1682 1792 1828 1566 1910 1910 1582 1907 1909 1139 1813 1687 1573 1919 1925 1684 1910 1810 1905 1917 1803 1694 1800 1690 1794 1905 1469 1457 1681 1584 1466 1809 1919 1465 1803 1673 1790 1696 1917 1020 1805 1808 1674 1702 1693 1241 1573 1798 1803 1912 1803 1571 1901 1906 1471 1898 1683 1467 1908 1696 1250 1913 1700 1586 1918 1908 1466 1796 1915 1776 1943 1908 1581 1808 1584 1465 1904 1888 1125 1797 1585 1027 1804 1803 1809 1811 1913 1471 1911 1793 1467 1917 1913 1462 1588 1915 1461 1920 1805 1464 1582 1900 1806 1920 1796 1124 1802 1693 1368 1919 1584 1802 1798 1805 1687 1799 1796 1680 1692 1802 1140 1577 1685 1701 1795 1476 1029 1687 1809 1808 1813 1810 1146 1801 1806 816 1801 1586 1574 1696 1358 1453 1920 1474 1031 1919 1689 1142 1802 1802 1685 1701 1923 1905 1470 1694 1457 1813 1802 1349 1803 1915 1459 1787 1818 1911 1897 1811 1801 1790 1806 1810 1934 1582 920 1687 1481 1354 1902 1696 925 1814 1810 1574 1706 1580 1589 1690 1585 1465 1803 1808 1916 1695 1591 1702 1694 1911 1806 1921 1905 1579 1914 1921 1799 1811 1922 1792 1472 1812 1141 1815 1586 1137 1705 1905 1469 1804 1590 1466 1580 1799 1351 1695 1796 1462 1567 1917 1914 1815 1908 1575 1813 1794 1586 1938 1572 1247 1916 1689 1029 1685 1800 814 1922 1934 1572 1908 1694 1685 1918 1916 1240 1800 1781 1586 1804 1784 1818 1816 1785 1919 1907 1779 1454 1579 1586 1463 1583 1796 1689 1586 1798 1911 1794 1808 1808 1784 1915 1696 1251 1801 923 1472 1795 1242 1577 1469 1900 1690 1925 1578 1921 1584 1358 1811 1691 1138 1691 1920 1911 1589 1698 1693 1793 1805 1689 1926 1807 1672 1699 1935 1688 1578 1920 1687 1474 1467 1570 1911 1582 1687 1684 1809 1462 1692 1808 1713 1804 1807 1363 1807 1815 1577 1914 1922 1242 1789 1910 1033 1797 1803 921 1790 1803 1689 1800 1797 1915 1473 1579 1580 1915 1908 1808 1688 1472 1687 1581 1682 1799 1692 1922 1571 1680 1703 1905 1584 1918 1582 1805 1802 1460 1810 1813 1793 1459 1800 1466 1687 1459 1689 1149 1691 1468 1795 1807 1684 1148 1807 1914 1134 1682 1817 1584 1891 1932 1917 1596 1791 1818 1811 1141 1914 1700 1362 1807 1791 1467 1689 1901 1480 1918 1799 1473 1806 1248 1020 1584 1476 1033 1258 1471 1673 1581 1933 1799 1694 1817 1242 1695 1490 1463 1456 1473 1909 1473 1808 1584 1926 1917 1579 1697 1459 1024 1802 1793 1462 1789 1468 1030 1803 1585 1576 1458 1577 1352 1572 1799 1581 1806 1808 1032 1567 1484 1360 1572 1798 1140 1799 1254 1788 1811 1476 1582 1703 1348 1901 1789 1907 1038 1591 1801 1686 1142 1586 1802 1576 1896 1579 1918 1363 1579 1694 1468 1590 1478 1793 1247 1810 1907 1573 1700 1915 1687 1917 1700 1135 1576 1913 1360 1589 1591 1140 1579 1577 1129 1808 1801 1345 1473 1895 1023 1580 1587 1582 1577 1703 1469 1473 1919 1797 1692 1562 1364 1690 1450 1917 1698 1466 1808 1705 1359 1901 1482 1472 1147 1583 1578 1579 1804 1587 1800 1689 1590 1801 1809 1570 1689 1581 1482 1138 1576 1802 913 1460 1584 1566 1354 1570 1468 1808 1457 1594 1797 1807 1137 1803 1692 1026 1578 1592 1910 1673 1472 1568 1561 1582 1577 1694 1694 1462 1686 1920 1460 1921 1569 1681 1253 1473 930 1465 1689 1680 1916 1804 1132 1795 1792 1021 1819 1801 1682 1688 1798 1899 1143 1678 1568 1802 1800 1355 1480 1683 1831 1468 1806 1695 1358 1690 1909 1898 1476 1570 1470 1590 1703 1800 1479 1248 1800 1914 1450 1254 1332 1463 1576 1365 1588 1791 1678 1689 1248 1771 1581 1359 1591 1572 1586 1588 1798 1027 1574 1695 1030 1565 1588 1924 1578 1150 1577 1572 1250 1808 1575 1025 1461 1682 1696 1576 1697 1345 1585 1682 1901 1687 1688 1139 1791 1908 1788 1694 1796 810 1579 1900 1472 1587 1914 1366 1803 1788 1470 1808 1695 1144 1585 1605 1469 1570 1251 1241 1805 1913 1247 1924 1798 1032 1579 1803 1248 1574 1694 1354 1584 1576 1354 1805 1571 1360 1700 1916 1347 1680 1679 1804 1790 1792 1586 1788 1919 813 1682 1791 1791 1698 1908 1144 1791 1466 1914 1901 1576 1808 1802 1795 1469 1574 1470 1470 1806 1254 1356 1475 1251 1253 1804 1690 1131 1698 1034 1138 1244 1688 1804 1798 1690 1563 1813 1239 1576 1690 1250 1142 1694 1906 1464 1804 1801 1136 1904 1696 1141 1809 1806 1799 1577 1698 1257 1913 1595 1260 1805 1803 1142 1800 1364 1122 1808 1698 1782 1789 1793 818 1359 1802 1352 1586 1694 1479 1040 1355 1581 1143 1916 1581 1248 1469 1588 1930 1690 1134 1245 1574 1136 1587 1688 1136 1245 1586 1568 1789 1580 1366 1700 1576 1567 1888 1676 1470 1692 1355 1478 1148 1694 1469 1792 1355 1251 1685 1579 1145 1788 1590 1586 1917 1355 1573 1028 1458 1580 1147 1464 1360 1460 1905 815 1794 1790 1683 1792 1897 1799 1807 1677 1350 1917 1590 1350 1564 1687 1248 1682 1812 1585 1353 1599 1471 1132 1578 1798 1800 1816 1362 1593 1682 1254 1689 1697 1581 1908 1909 1801 1356 1241 1813 1569 1679 1915 1457 1691 1584 1696 1251 1701 1915 1678 1910 1805 1914 1887 1367 1801 1589 1911 1921 1684 1365 1685 1248 1914 1801 1026 1245 1580 1248 1575 1467 1354 1153 1459 1343 1576 1585 1021 1260 1924 1238 1798 1358 1351 1787 1691 1029 1565 1807 1809 1694 1591 1711 1903 1805 1572 1691 1358 1678 1576 1801 1457 1370 1579 1350 1905 1245 1456 1153 1008 1140 1134 1677 1137 1478 1476 1906 1461 1689 1907 1468 1575 1809 1361 1802 1369 1807 1780 1924 1802 1787 1906 1138 1462 1794 1693 1350 1785 1579 1140 1910 1692 1243 1920 1699 1904 1917 1142 1361 1576 1688 1910 1041 1698 1457 1142 1578 1788 1136 1016 1794 1465 1145 1581 1565 1800 1575 1801 1144 1128 1347 1701 1240 1469 1145 1371 1352 1042 1360 812 1803 1677 1026 1356 1592 1136 1796 1592 1455 1137 1592 1688 1700 1481 1907 1573 1807 1486 1682 1358 1691 1141 1811 1927 1935 1688 1125 1925 1573 1237 1596 1795 1454 1922 1589 1363 1034 1255 1242 1146 1250 1691 1032 1908 1145 1036 1685 1802 1028 1693 1796 814 1905 1142 1812 1587 1690 1810 1800 1807 1935 1135 1465 1475 1355 1463 1704 1349 1135 1239 1584 1350 1576 1141 1467 1346 1031 1354 1793 1568 1696 1582 1461 1474 1806 1581 1678 1797 1799 1777 1470 1694 1580 1698 1584 1691 1880 1356 1136 1574 1461 1553 1575 1359 1797 1674 1462 1131 1028 1808 1140 1029 1146 1243 1134 1915 1138 1367 1364 1038 1693 1806 1123 1586

Tree=0
num_leaves=15
num_cat=0
split_feature=3 3 3 359 343 192 3 353 357 147 121 361 167 328
split_gain=648.479 126.115 117.857 39.2043 29.249 21.5021 18.3121 15.0915 14.7457 12.0904 10.5252 9.26797 7.94124 6.56826
threshold=-67.167441367783553 -204.24414677570903 91.701608636012352 -3.125331599367255 0.79999999999999949 5.2111941517883666 182.97972900376931 0.44139873266807556 0.19999999999999982 5.7983892989233867 3.6333333333333337 1.2 0.92769365217354116 0.82800295500000021
decision_type=2 2 2 8 8 10 2 10 10 8 8 10 10 8
left_child=1 8 4 11 12 -5 10 -6 9 -1 -4 -3 -2 -8
right_child=2 3 6 5 7 -7 13 -9 -10 -11 -12 -13 -14 -15
leaf_value=-1.2056020758419872 -1.2143195063652148 -1.2095225413059156 -1.2110152085956549 -1.2102972923651245 -1.2120118225947103 -1.2125938457141265 -1.2162274812810054 -1.2142270091534486 -1.2118175631523433 -1.2114761509609384 -1.2156079160224404 -1.206424834061447 -1.2120317974865229 -1.2177404429596139
leaf_weight=332.21808969974518 956.53736770153046 59.548525512218475 19.431624114513397 471.37359142303467 505.5356402695179 228.16487669944763 186.79432213306427 150.43838024139404 16.297491192817688 13.790184855461119 569.47195187211037 94.337400943040848 60.802178680896759 258.87937933206558
leaf_count=1060 3052 190 62 1504 1613 728 596 480 52 44 1817 301 194 826
internal_value=-1.21287 -1.20914 -1.21454 -1.21043 -1.21353 -1.21105 -1.21617 -1.21252 -1.2061 -1.20584 -1.21546 -1.20762 -1.21418 -1.21711
internal_weight=3923.62 1215.73 2707.89 853.424 1673.31 699.538 1034.58 655.974 362.306 346.008 588.904 153.886 1017.34 445.674
internal_count=12519 3879 8640 2723 5339 2232 3301 2093 1156 1104 1879 491 3246 1422
is_linear=0
shrinkage=1


Tree=1
num_leaves=16
num_cat=0
split_feature=3 3 347 125 203 100 291 352 355 374 229 180 114 380 192
split_gain=60.1789 25.9271 14.3328 14.0388 12.2171 12.5587 10.7303 10.6435 9.53529 12.5221 7.44138 6.79269 6.6818 5.73155 4.13995
threshold=148.63773405654607 -208.54212565426255 0.44485829796401927 0.44009949284548827 0.093762853536083754 1.2518700539653385 0.16412609163424402 -0.22142857142857142 -0.39999999999999963 0.0062538770432094505 1486.6116073863382 14.455097612531105 4.897442588565796 -0.029538315928654846 4.4235620944932448
decision_type=2 2 10 10 8 10 10 10 10 10 10 10 8 8 10
left_child=1 3 10 12 5 -3 -6 -5 13 -10 11 -2 -1 -4 -12
right_child=2 4 8 7 6 -7 -8 -9 9 -11 14 -13 -14 -15 -16
leaf_value=-1.3803372162641385 -1.3752487381187213 -1.3785071535270801 -1.383787857434345 -1.3790407830092808 -1.3783036839440588 -1.3803734299077961 -1.3723806419369997 -1.3724972273974025 -1.3806872207216461 -1.3755812876285396 -1.3776746357401441 -1.3806003696625593 -1.3825722157426936 -1.3814978046508266 -1.3822349214112037
leaf_weight=194.99505937099457 31.651371955871582 322.73095333576202 48.042261004447937 35.60779345035553 2094.3599782586098 234.84187585115433 11.58666294813156 12.717069089412687 123.77947247028351 21.195115149021149 11.58666294813156 12.434467554092405 68.106970012187958 293.05779212713242 21.195115149021149
leaf_count=690 112 1142 170 126 7411 831 41 45 438 75 41 44 241 1037 75
internal_value=-1.37903 -1.37868 -1.38087 -1.38036 -1.37849 -1.37929 -1.37827 -1.37732 -1.38126 -1.37994 -1.37841 -1.37676 -1.38092 -1.38182 -1.38062
internal_weight=3537.89 2974.95 562.942 311.427 2663.52 557.573 2105.95 48.3249 486.075 144.975 76.8676 44.0858 263.102 341.1 32.7818
internal_count=12519 10527 1992 1102 9425 1973 7452 171 1720 513 272 156 931 1207 116
is_linear=0
shrinkage=1


Tree=2
num_leaves=15
num_cat=0
split_feature=3 3 3 18 263 339 143 117 3 346 365 104 328 313
split_gain=627.937 187.136 90.2674 31.6004 29.2977 23.6142 18.7928 16.504 15.3244 12.8885 10.4364 9.57724 8.49071 5.49778
threshold=-9.5912718673500859 132.89390000585777 -176.30980865980186 1.5216154072108405 14.251306811570037 -0.39999999999999897 3.2928571428571431 5.4204954119236808 259.05664227866981 0.099999999999999825 0.00075577975982015009 16.844444444444449 -0.26177764999999992 1597.0360527285059
decision_type=2 2 2 8 10 10 10 8 2 10 8 8 8 10
left_child=2 5 11 10 9 7 -7 -2 -5 -4 -3 13 -6 -1
right_child=1 3 4 8 12 6 -8 -9 -10 -11 -12 -13 -14 -15
leaf_value=-0.79789332533637136 -0.79756161666292857 -0.79669714151211268 -0.79931629743900434 -0.79221554117724169 -0.79852720872586946 -0.79464734387488145 -0.79662880411023684 -0.79560067044580418 -0.79021520476870122 -0.79776889413478635 -0.79349411777927159 -0.7972518034197098 -0.79677000822310728 -0.80147810285570975
leaf_weight=16.711729913949966 351.6890717446804 56.077138155698776 796.22108745574951 465.32883515954018 136.66481351852417 718.97575807571411 241.02028253674507 299.69702312350273 209.82505336403847 272.58688348531723 121.06719893217087 22.282306551933289 429.67714467644691 511.37893536686897
leaf_count=45 947 151 2144 1253 368 1936 649 807 565 734 326 60 1157 1377
internal_value=-0.796652 -0.794526 -0.799047 -0.792199 -0.798323 -0.795757 -0.795145 -0.796659 -0.791594 -0.798922 -0.794508 -0.801198 -0.797194 -0.801365
internal_weight=4649.2 2463.68 2185.52 852.298 1635.15 1611.38 959.996 651.386 675.154 1068.81 177.144 550.373 566.342 528.091
internal_count=12519 6634 5885 2295 4403 4339 2585 1754 1818 2878 477 1482 1525 1422
is_linear=0
shrinkage=1


Tree=3
num_leaves=16
num_cat=0
split_feature=344 341 75 171 357 427 414 276 59 344 427 75 329 228 177
split_gain=421.344 144.372 104.036 51.4613 41.2994 34.6612 26.3532 20.4758 19.4175 19.0138 18.5105 15.2739 15.0949 13.36 7.86973
threshold=1.0550689564695717 -3.2429111701041218 1607.037829965537 1.6096149071428574 -2.1999999999999997 2.5000000000000004 -0.29166666666666657 8.1000000000000014 0.60644905845090102 5.4124337239597606 5.5000000000000009 1785.4092764108675 -1.1241298944160876 0.28033811416935212 15.43570504432846
decision_type=8 8 10 10 8 8 8 10 8 10 10 10 10 10 10
left_child=2 5 3 8 10 13 -6 11 -1 -7 -3 -4 -5 -2 -9
right_child=1 4 7 12 6 9 -8 14 -10 -11 -12 -13 -14 -15 -16
leaf_value=0.0027246817929979061 -0.00070583337783430226 0.0018775929018793542 -0.0031273151431685233 0.0090209742241501457 0.0019513138232328214 0.005367966669114591 -0.00025811580024144766 -0.0014276391406835435 -0.0011931980247794755 0.0085971603897603503 0.0056095181141451213 -0.0052314378188706235 0.0021465245000878487 0.0041479823139671402 0.0032300309846776958
leaf_weight=49.531681209802628 40.767419964075089 101.95794346928596 730.19645822048187 13.209468603134153 336.92925301194191 275.04044473171234 513.95051741600037 39.141052037477493 1271.5816080868244 91.845476746559143 98.683707356452942 158.4368063211441 136.20871526002884 44.895948082208633 21.004927128553391
leaf_count=158 130 325 2334 42 1074 875 1640 125 4059 292 314 507 434 143 67
internal_value=-9.61499e-05 0.00245583 -0.00168273 -0.000659907 0.00120773 0.0053556 0.000616712 -0.00326792 -0.00104624 0.00617677 0.00371363 -0.0035026 0.00275534 0.00183755 0.000198272
internal_weight=3923.38 1504.07 2419.31 1470.53 1051.52 452.549 850.88 948.779 1321.11 366.886 200.642 888.633 149.418 85.6634 60.146
internal_count=12519 4793 7726 4693 3353 1440 2714 3033 4217 1167 639 2841 476 273 192
is_linear=0
shrinkage=0.00614019


Tree=4
num_leaves=15
num_cat=0
split_feature=157 358 340 280 369 174 272 364 132 201 414 231 355 425
split_gain=48.4883 24.5783 22.3021 13.2362 12.6141 12.3653 10.5922 8.15955 7.87466 7.68195 7.06339 6.40457 5.43255 5.21697
threshold=1724.658974681917 -3.6000000000000001 3.0000000000000009 0.34167249417249423 -0.056768067100744141 1.6822075000000003 4.4244203190832296 -0.029053314461596196 0.08637652442634651 0.28104162650215286 -1.2916666666666663 1.1595018087284048 -0.39999999999999963 29.500000000000004
decision_type=10 8 10 8 8 10 8 10 8 8 10 10 10 8
left_child=1 6 4 -4 -3 9 8 -7 -1 11 -8 -2 -11 -9
right_child=5 2 3 -5 -6 7 10 13 -10 12 -12 -13 -14 -15
leaf_value=0.0056444760836768873 0.0038461007772323586 0.0026432024599703126 -0.0021573633696243657 7.3701326865586712e-05 0.00057405775747370084 0.0060165902602285735 -0.0030058100838153729 0.0019255455803169532 -0.00011655723451712324 -0.0035661765912602642 -0.00096373000040098414 -0.0028969386276997424 -0.0015756922142996681 -0.0037869420845434956
leaf_weight=11.588384062051771 11.855075776576998 116.49873074889183 174.27575322985649 235.89631602168083 2392.6718103885651 9.6093316972255689 114.67551448941231 13.273876130580904 38.999634474515915 181.07350185513496 144.41204673051834 9.5937450230121595 72.56958332657814 11.013247132301329
leaf_count=41 42 412 617 835 8464 34 406 47 138 642 511 34 257 39
internal_value=5.62922e-05 0.000278672 0.000453164 -0.00087413 0.000670163 -0.00226737 -0.00136604 0.0012303 0.00120295 -0.0026986 -0.00186791 0.000827268 -0.00299702 -0.000662916
internal_weight=3538.01 3229.02 2919.34 410.172 2509.17 308.988 309.676 33.8965 50.588 275.092 259.088 21.4488 253.643 24.2871
internal_count=12519 11424 10328 1452 8876 1095 1096 120 179 975 917 76 899 86
is_linear=0
shrinkage=0.00614019


Tree=5
num_leaves=16
num_cat=0
split_feature=347 1 313 347 356 344 1 263 163 323 344 274 163 157 1
split_gain=456.889 197.145 118.612 39.4467 38.6631 33.7947 31.5587 23.0572 21.7867 18.8062 17.2834 12.1203 10.3868 10.0351 8.433
threshold=0.028263751153199304 1636.4625723429044 1592.1679024943294 1.9397835639550938 1.2531189452938909 0.60178977131899203 1548.6633846790567 14.251306811570037 1.2928571428571431 -0.20515396205201072 -0.80015373991271754 5.5277777777777786 1.5277777777777779 1574.9993792544262 1741.7276042396022
decision_type=10 2 10 10 10 10 2 10 10 10 10 8 10 8 2
left_child=2 5 6 8 10 9 7 -1 -3 -2 -4 -8 -7 -6 -5
right_child=1 3 4 14 13 12 11 -9 -10 -11 -12 -13 -14 -15 -16
leaf_value=-0.0020269418410781481 -0.00096563896143967614 0.0018013871250853941 -0.00047310644692981688 0.0049058417202902408 -0.0049257041466805535 -0.0013006038821114737 -8.1309982241124635e-05 -9.096549209208146e-05 0.0043886398645703326 0.0016517966910644828 -0.0028011618990738166 0.0023537686459550859 0.00068007871229183617 -0.0023973011439119489 0.0068070316832513572
leaf_weight=460.02664691209793 119.21717247366905 219.93589827418327 154.08831888437271 164.62444403767586 406.7569722533226 336.43782567977905 144.85085251927376 467.91497668623924 277.94675755500793 783.00089493393898 548.25690904259682 164.54623338580132 141.8730163872242 69.418718844652176 190.31188428401947
leaf_count=1239 321 592 415 443 1096 906 390 1260 748 2108 1477 443 382 187 512
internal_value=3.82882e-05 0.00204025 -0.00181241 0.00436132 -0.00320648 0.000606349 -0.000484539 -0.0010508 0.00324593 0.00130586 -0.00229051 0.00121358 -0.000712979 -0.0045573 0.0059256
internal_weight=4649.21 2233.35 2415.86 852.819 1178.52 1380.53 1237.34 927.942 497.883 902.218 702.345 309.397 478.311 476.176 354.936
internal_count=12519 6012 6507 2295 3175 3717 3332 2499 1340 2429 1892 833 1288 1283 955
is_linear=0
shrinkage=0.00614019


Tree=6
num_leaves=16
num_cat=0
split_feature=229 344 344 346 329 327 334 350 29 421 355 356 320 385 377
split_gain=439.596 149.71 94.9169 52.365 45.1362 37.2523 27.0115 26.2045 23.7719 18.9375 18.8583 18.5849 12.1314 11.778 11.1272
threshold=1640.1658611951382 0.027243404938826803 2.1388224345881475 0.80000000000000016 -0.33771739984621268 -0.64248609999999984 -0.14846489999999987 0.99586792987388562 5.1109811193491881 1.0000000180025095e-35 0.81666666666666721 1.9688180569774965 0.65542523884182369 -0.13809523809523802 -0.058254569875664845
decision_type=10 8 8 10 8 8 10 10 8 8 8 10 10 8 10
left_child=1 3 5 13 11 14 10 -6 -7 -5 -4 -3 -8 -1 -2
right_child=2 4 6 9 7 8 12 -9 -10 -11 -12 -13 -14 -15 -16
leaf_value=-0.00018696471089013945 0.011229439201089948 0.0019556815414248246 0.0040203394228796692 -0.0029273721693680974 -0.00083206687352346408 0.0021498386646223665 -0.00075939765436914479 0.0011360408510016284 -0.0012321451826888359 -0.0050199603381484341 0.0071500698205014561 0.0063220052549490388 0.0058395497556295037 -0.0017815747272545929 0.0044609319172801655
leaf_weight=235.2797104716301 10.411483764648436 184.39521667361259 97.044327288866043 576.74904182553291 741.76372021436691 189.12724384665489 31.439407855272293 388.6981113255024 133.74918404221535 227.55106762051582 289.89990600943565 45.925189346075058 15.749974578619002 678.49847137928009 76.835120052099228
leaf_count=751 33 587 308 1846 2368 602 100 1239 427 730 919 146 50 2169 244
internal_value=-9.5595e-05 -0.00117192 0.00382945 -0.00237691 0.000349428 0.00171095 0.00583055 -0.000155294 0.000748695 -0.00351954 0.00636545 0.00282686 0.00144269 -0.00137107 0.00527074
internal_weight=3923.12 3078.86 844.257 1718.08 1360.78 410.123 434.134 1130.46 322.876 804.3 386.944 230.32 47.1894 913.778 87.2466
internal_count=12519 9836 2683 5496 4340 1306 1377 3607 1029 2576 1227 733 150 2920 277
is_linear=0
shrinkage=0.00614019


Tree=7
num_leaves=14
num_cat=0
split_feature=346 358 111 401 344 75 164 107 289 271 338 184 11
split_gain=45.195 24.8469 18.4148 18.0411 12.5628 10.4513 11.0667 8.82295 8.43158 7.8277 6.32302 4.93068 4.56433
threshold=2.0166666666666679 -3.6000000000000001 5.2110188415898699 0.0053193748293157012 2.4406005744410035 1574.5338576935526 1.1852206210355714 10.387500000000001 0.13643780333934383 4.0500000000000007 -0.76133244644568598 5.5500000000000007 0.55000000000000016
decision_type=10 8 10 10 10 10 10 10 10 8 8 10 8
left_child=1 8 4 -4 -3 6 -2 -8 9 -1 -7 -12 -10
right_child=5 2 3 -5 -6 10 7 -9 12 -11 11 -13 -14
leaf_value=0.001349172922518139 0.0059223220603147608 0.0010809948866150958 0.00064639124409277687 -0.0010793896861754379 -8.2802417469799355e-05 -0.0052309434732929995 0.0039154944854661129 -0.0026240502133600629 0.004869965525326537 -0.0019769745625276558 -0.0026418649466045793 -0.00081731112651595302 -0.000576194106151395
leaf_weight=29.690755933523178 11.305548638105391 1490.4667101800442 440.51360523700714 474.17436307668686 456.77233678102493 27.564339011907578 10.455195307731627 30.23174586892128 11.865016132593157 260.30223986506462 206.80838871002197 76.661345332860947 11.303586483001707
leaf_count=105 40 5270 1558 1679 1615 98 37 107 42 922 734 272 40
internal_value=5.60227e-05 0.000290698 0.000470393 -0.00024819 0.000807968 -0.00199626 0.000550867 -0.000941465 -0.00135126 -0.00163618 -0.00242224 -0.0021487 0.0022113
internal_weight=3538.12 3175.09 2861.93 914.688 1947.24 363.027 51.9925 40.6869 313.162 289.993 311.034 283.47 23.1686
internal_count=12519 11231 10122 3237 6885 1288 184 144 1109 1027 1104 1006 82
is_linear=0
shrinkage=0.00614019


Tree=8
num_leaves=16
num_cat=0
split_feature=1 313 346 229 313 331 1 105 229 340 310 276 167 353 346
split_gain=429.551 204.814 122.112 42.1662 39.694 31.993 29.0374 19.1389 15.6962 12.298 11.6985 10.8075 10.1327 10.0515 9.33194
threshold=1595.9311894820619 1567.8323915245915 0.89444444444444426 1660.6439290052815 1659.2323954699668 0.14680174999999981 1746.5776362568274 14.087371728099974 1634.3848625259891 -0.40000000000000113 0.66931291500882839 6.1000000000000005 1.1174433372975818 0.49768844708364651 -1.1928571428571422
decision_type=2 8 10 10 10 10 2 10 10 8 10 8 10 10 10
left_child=1 5 4 9 10 7 8 -1 -4 -3 -2 -7 -6 -8 -5
right_child=2 3 6 14 12 11 13 -9 -10 -11 -12 -13 -14 -15 -16
leaf_value=0.00014229077195517965 0.0028939765069728625 -0.0026983243703843363 0.0038317801790772642 -0.004859037824931761 -0.00089536783629018434 -0.00093203079206009485 0.0037440088923816274 0.001864547661675662 4.900978478467557e-05 -0.0010025793708621552 0.00093579875943158527 -0.0035722358042202126 -0.0043883804353726944 0.0066341264278589503 -0.0031692611129976581
leaf_weight=1064.3892282545567 188.37656623125076 472.4124664068222 522.29810085892677 404.61112532019615 138.84011545777321 406.20127201080322 58.390183687210083 315.36383190751076 44.947823762893677 245.02701598405838 295.76440292596817 68.302741169929504 40.447232633829117 206.0975313782692 177.70411995053291
leaf_count=2866 507 1273 1405 1091 374 1094 157 849 121 660 796 184 109 554 479
internal_value=3.80185e-05 -0.001247 0.00274876 -0.00311588 0.000783861 6.29833e-05 0.00431595 0.000535996 0.00353215 -0.00211929 0.00169789 -0.00131228 -0.00168397 0.00599651 -0.00434355
internal_weight=4649.17 3154.01 1495.16 1299.75 663.428 1854.26 831.734 1379.75 567.246 717.439 484.141 474.504 179.287 264.488 582.315
internal_count=12519 8496 4023 3503 1786 4993 2237 3715 1526 1933 1303 1278 483 711 1570
is_linear=0
shrinkage=0.00614019


Tree=9
num_leaves=16
num_cat=0
split_feature=344 347 347 329 157 257 335 378 424 323 271 157 341 374 403
split_gain=465.108 137.8 128.413 39.1564 38.9845 32.23 28.0339 22.9159 20.254 16.6821 12.6603 12.0124 11.7847 10.7984 8.96232
threshold=1.1213673661028765 -1.2800995773080677 0.14019976763897632 -0.043532356826437892 1564.190602426326 0.96895183929068451 -0.76938598080843323 0.021640676707536503 -1.0000000180025095e-35 -0.45914790564681857 4.3166666666666673 1497.1567283503862 2.3648857987594227 -0.016302960419950548 -0.56597342110215487
decision_type=8 8 10 8 10 8 8 8 8 10 10 10 10 8 8
left_child=2 5 6 10 13 11 14 -5 -7 -8 -3 -2 -6 -4 -1
right_child=1 3 4 7 12 8 9 -9 -10 -11 -12 -13 -14 -15 -16
leaf_value=0.0081044568927493479 0.010452832297857264 0.0014206637790818825 -0.0036306868935730699 -0.0011551438044806578 -0.0027534318464767274 0.0026822378822510661 0.0019291165332342227 0.0013543239990515005 0.0055258127514512803 -0.00049607436894784222 0.003767509931996529 0.0064765945462135766 -0.0041644504551587554 -0.0010243328254490932 0.0025125617865223784
leaf_weight=18.013444155454636 48.497683465480804 137.02734768390656 70.331958442926407 228.77059662342072 384.26945942640305 151.16732260584831 121.80703476071358 342.65515306591988 252.28467562794685 874.96367973089218 236.35635164380074 70.604596614837646 533.90343338251114 406.201524913311 27.137636631727219
leaf_count=57 153 436 225 730 1232 480 388 1092 798 2794 751 223 1715 1299 86
internal_value=2.85472e-05 0.0027596 -0.0016161 0.00136012 -0.00283443 0.00528974 1.46932e-05 0.000349548 0.00446063 -0.000199632 0.00290648 0.00809707 -0.00357403 -0.00140921 0.00474637
internal_weight=3903.99 1467.36 2436.63 944.809 1394.71 522.554 1041.92 571.426 403.452 996.771 373.384 119.102 918.173 476.533 45.1511
internal_count=12459 4663 7796 3009 4471 1654 3325 1822 1278 3182 1187 376 2947 1524 143
is_linear=0
shrinkage=0.00614019


Tree=10
num_leaves=15
num_cat=0
split_feature=3 341 3 334 149 34 336 123 320 16 357 33 33 341
split_gain=60.4839 19.498 19.7964 11.3674 8.52261 7.79882 7.60351 6.9103 7.18358 6.48588 4.94089 4.4806 4.03617 4.0348
threshold=193.67213284232199 2.8334754170552805 -270.55066872259823 0.44124219999999997 0.818888888888889 7.2428571428571438 0.42666740000000009 3.3666666666666667 -0.51944633261815565 0.32997992341391719 1.2000000000000008 6.9000000000000012 6.9000000000000012 3.584330668306237
decision_type=2 8 2 10 8 10 10 10 8 10 8 10 10 10
left_child=1 2 4 -4 -1 6 -3 10 11 -10 -2 -9 -12 -7
right_child=7 5 3 -5 -6 13 -8 8 9 -11 12 -13 -14 -15
leaf_value=-0.0021202269301646018 0.00020816285562413159 -0.0010553709284826969 0.00065133105931678152 -0.0011572138016853306 0.0040262636205401206 -0.00018628457882082438 0.0027110896072365001 -0.0019879439439081238 0.003119554327208732 -0.0011130120374428696 -0.0042891037583429941 -0.0051661607131753221 -0.0022369645993388461 -0.0048323437264901894
leaf_weight=139.43049898743629 14.071893781423567 281.11912450194359 2539.0741505622864 138.12427654862404 9.04055407643318 9.3132542073726636 21.753415435552597 74.301767438650131 17.165845781564713 66.412436544895172 105.17824929952621 21.636892557144165 55.353828310966492 29.320706754922867
leaf_count=494 50 996 8975 489 32 33 77 264 61 236 374 77 197 104
internal_value=3.37372e-07 0.000269443 0.000436946 0.000557996 -0.00174526 -0.00111629 -0.000784555 -0.00240624 -0.00155951 -0.000242657 -0.00327628 -0.0027059 -0.00358209 -0.00371432
internal_weight=3521.3 3167.18 2825.67 2677.2 148.471 341.507 302.873 354.121 179.517 83.5783 174.604 95.9387 160.532 38.634
internal_count=12459 11200 9990 9464 526 1210 1073 1259 638 297 621 341 571 137
is_linear=0
shrinkage=0.00614019


Tree=11
num_leaves=16
num_cat=0
split_feature=3 3 3 22 3 346 348 335 31 362 328 340 335 185 356
split_gain=634.633 156.72 110.072 28.4261 25.1001 20.5008 19.7928 14.9089 13.9151 13.818 13.8074 11.7193 8.93123 7.65269 7.62337
threshold=12.632170969576579 151.51737953818943 -104.40777422995801 12.112500000000002 -199.96958222299895 0.8000000000000006 1.0250000000000004 -0.23517494334919906 3.7750000000000004 0.066906564688727216 0.31623475000000006 -0.68333333333333257 0.52672335062097697 5.0500000000000007 1.1066500011257332
decision_type=2 2 2 10 2 8 8 8 10 10 10 10 8 10 10
left_child=2 3 4 10 14 8 9 -5 -3 -4 -2 -8 -7 -6 -1
right_child=1 5 6 7 13 12 11 -9 -10 -11 -12 -13 -14 -15 -16
leaf_value=-0.0037975716774863656 -9.6716478045092674e-05 0.0047583623727800815 -1.2252802995413664e-05 -0.0021411894322729804 -0.0031746890803086873 0.0038036534289330086 -0.0028876739792455335 0.002186598612193667 0.0012985958178416308 -0.0016271697200709377 0.0023177580108072163 -0.00094747466291701058 0.0057695324075959162 -0.0013063019423945484 -0.0054773028380959666
leaf_weight=169.03477257490158 548.63017755746841 83.660047322511673 639.04231241345406 31.198625713586807 522.98553788661957 110.11238685250282 273.12689343094826 773.74658304452896 92.197993665933609 290.63924390077591 106.63403528928757 206.05136075615883 423.18345957994461 98.332107812166214 258.24833112955093
leaf_count=456 1477 225 1721 84 1410 296 736 2082 248 783 287 555 1137 265 697
internal_value=-2.43573e-05 0.00239597 -0.00216097 0.00124579 -0.00366726 0.00476416 -0.00103979 0.00201875 0.00294505 -0.000517192 0.000296143 -0.00205354 0.00536383 -0.00287912 -0.00481306
internal_weight=4626.82 2169.36 2457.46 1460.21 1048.6 709.154 1408.86 804.945 175.858 929.682 655.264 479.178 533.296 621.318 427.283
internal_count=12459 5836 6623 3930 2828 1906 3795 2166 473 2504 1764 1291 1433 1675 1153
is_linear=0
shrinkage=0.00614019


Tree=12
num_leaves=16
num_cat=0
split_feature=3 3 3 344 344 125 328 3 335 277 189 344 262 349 165
split_gain=596.16 125.533 122.266 39.8864 37.8761 20.223 18.7796 17.411 14.2459 13.8388 13.2458 12.4157 8.05891 8.04386 4.0113
threshold=-53.738923761154176 93.557583638224415 -191.24567516231852 1.0868273253416352 0.40373257342801505 0.50051763080400857 -0.53451809999999988 197.94360625374341 0.031919625297327163 5.8944444444444457 6.3067332135798155 0.9065223404221181 10.450000000000001 -0.59999999999999976 0.22500000000000003
decision_type=2 2 2 8 8 8 8 2 10 10 10 8 10 10 8
left_child=2 4 5 9 13 10 -5 11 -6 -4 -1 -3 -7 -2 -9
right_child=1 7 3 6 8 12 -8 14 -10 -11 -12 -13 -14 -15 -16
leaf_value=0.0056708552522969271 -0.0020266610895167702 -0.0031620450727964881 3.7139755175193176e-05 0.0053314447563115328 0.0010227981323202777 0.0051265937971251519 0.0026080269137815186 -0.0035331272448031162 -0.0010378118315333639 0.0026240758188060794 0.0080796235829369203 -0.0007748954654074623 -0.0010167474631612658 -0.00086044023426931268 -0.00489657585646664
leaf_weight=221.12769415974617 452.61597833037376 524.23397928476334 307.7031475007534 123.36419206857681 488.24185866117477 13.942602992057799 423.2307433784008 120.07517698407173 170.68315580487251 104.43161296844482 141.51334694027901 97.50118613243103 18.993049263954163 440.04919534921646 256.25938931107521
leaf_count=697 1449 1684 981 390 1556 44 1343 387 545 332 445 312 60 1408 826
internal_value=2.83432e-05 -0.00172039 0.00332059 0.00213538 -0.000627606 0.00619279 0.0032229 -0.00341913 0.000488931 0.000692852 0.00661123 -0.00278781 0.00158296 -0.00145185 -0.00446183
internal_weight=3903.97 2549.66 1354.31 958.73 1551.59 395.577 546.595 998.07 658.925 412.135 362.641 621.735 32.9357 892.665 376.335
internal_count=12459 8167 4292 3046 4958 1246 1733 3209 2101 1313 1142 1996 104 2857 1213
is_linear=0
shrinkage=0.00614019


Tree=13
num_leaves=15
num_cat=0
split_feature=3 358 334 116 100 337 325 366 425 309 238 333 290 356
split_gain=59.7534 17.5637 20.9605 10.933 7.39302 7.29527 6.68826 11.5973 7.17717 6.1364 5.35752 8.8491 4.73698 4.02836
threshold=193.67213284232199 -3.9999999999999991 0.44124219999999997 6.8166666666666673 1.1455867778425117 -0.59554475000000007 -0.17321428571428568 -0.068962954400260831 8.5000000000000018 0.85838744588744598 2.5000000000000004 0.26749590999999978 0.056290061150793554 -0.51636792113169372
decision_type=2 8 10 10 8 10 10 10 10 10 2 10 10 8
left_child=1 6 3 -3 -4 9 7 -1 -8 13 12 -12 -7 -2
right_child=5 2 4 -5 -6 10 8 -9 -10 -11 11 -13 -14 -15
leaf_value=-0.0027886403628604897 -0.0040503126337893009 0.00071888859648127702 0.0035265475622878986 -0.00046968734933828382 -0.0014877433128755403 0.0018254051927515487 -0.0023625015667327739 0.0035978293598582156 0.00011987882036987134 0.0014153669900924515 0.0057544984271465666 -0.0012175973069802949 -0.0023704850001171128 -0.0016180957775538296
leaf_weight=18.358005911111832 131.75922295451164 2310.6443663239479 11.589008450508116 333.87286883592606 247.02122414112091 10.953763395547865 160.25332793593407 25.716633588075638 60.419278740882874 9.8234273195266706 9.2947816550731641 26.111095696687698 133.42313781380653 32.027001619338989
leaf_count=65 470 8164 41 1181 876 39 568 91 214 35 33 93 475 114
internal_value=3.78062e-07 0.00026755 0.000405634 0.000568805 -0.00126265 -0.00239436 -0.00124635 0.000936318 -0.00168259 -0.00329242 -0.00152664 0.000612306 -0.0020516 -0.00357523
internal_weight=3521.27 3167.87 2903.13 2644.52 258.61 353.392 264.747 44.0746 220.673 173.61 179.783 35.4059 144.377 163.786
internal_count=12459 11200 10262 9345 917 1259 938 156 782 619 640 126 514 584
is_linear=0
shrinkage=0.00614019


Tree=14
num_leaves=16
num_cat=0
split_feature=3 3 3 23 3 179 3 327 356 120 229 317 388 356 3
split_gain=626.836 154.559 108.834 34.8137 24.8395 22.9532 20.2636 14.5428 13.7298 13.5252 10.7039 9.62782 9.30247 7.54871 6.77333
threshold=12.632170969576579 151.51737953818943 -104.40777422995801 11.719924120878298 -199.96958222299895 11.105555555555556 197.94360625374341 0.52437640000000008 0.62179706356699038 3.7273651146452047 1399.2634548872554 -0.48267711424205684 -0.094444444444444289 1.1066500011257332 318.72540538855395
decision_type=2 2 2 10 2 10 2 10 8 10 8 10 8 10 2
left_child=2 3 4 9 13 11 10 -7 -5 -2 -3 -4 -6 -1 -8
right_child=1 6 5 8 12 7 14 -9 -10 -11 -12 -13 -14 -15 -16
leaf_value=-0.0037764033837042769 0.0023840202031486469 -0.0018350770366191316 -0.0039696726222892692 0.0023450397770057342 -0.0017468318359524968 -0.00070548155140970467 0.0050918574147984343 0.0025748484564669782 0.00047412272708602561 -0.00038967016576404892 0.0036583571679617791 -0.0017384969020059918 -0.0033693130118513659 -0.0054485179412738271 0.0068556984625181075
leaf_weight=168.92888003587723 77.275798290967941 14.126992017030714 94.577725917100906 732.338747382164 193.98538559675217 940.70861601829529 343.30685645341873 53.853477776050568 185.41643235087395 465.4245622754097 243.73066431283951 319.49455633759499 427.04612028598785 258.0104253590107 108.43180385231972
leaf_count=456 208 38 255 1970 523 2534 922 145 499 1253 655 861 1152 697 291
internal_value=-2.42168e-05 0.00238044 -0.00214841 0.00123814 -0.0036468 -0.0010336 0.00473134 -0.000527769 0.00196713 5.2101e-06 0.00335709 -0.00224836 -0.00286266 -0.00478717 0.00551554
internal_weight=4626.66 2170.05 2456.61 1460.46 1047.97 1408.63 709.596 994.562 917.755 542.7 257.858 414.072 621.032 426.939 451.739
internal_count=12459 5836 6623 3930 2828 3795 1906 2679 2469 1461 693 1116 1675 1153 1213
is_linear=0
shrinkage=0.00614019


Tree=15
num_leaves=16
num_cat=0
split_feature=3 3 3 343 343 194 317 126 3 316 259 29 193 224 165
split_gain=588.202 124.375 119.99 36.5167 35.2888 22.707 19.9615 17.9941 17.2881 13.3037 12.6424 10.414 9.05482 7.51833 4.00484
threshold=-53.738923761154176 93.557583638224415 -191.24567516231852 2.6000000000000014 -0.48333333333333334 6.1055555555555561 -0.15102686203764906 0.46554403521315291 197.94360625374341 -0.84166666666666667 9.4142857142857164 5.6406133180968707 7.3250000000000011 0.75003968253968278 0.22500000000000003
decision_type=2 2 2 8 8 10 10 8 2 10 10 10 10 10 8
left_child=2 4 7 5 13 -4 -6 9 11 -1 -5 -3 -9 -2 -10
right_child=1 8 3 10 6 -7 -8 12 14 -11 -12 -13 -14 -15 -16
leaf_value=0.0074648823576681537 -0.0013289346793786403 -0.0022840295830774391 0.00048405578077062236 3.4813928777059202e-05 0.0015174864125870643 0.0029685998083181166 -0.00046117507459329582 -0.00030071058887517897 -0.0035166785322774874 0.0050265412091815781 0.0042085407476485344 -0.004064155384495104 0.0060432694083777695 -0.0029068854854780398 -0.0048809222493449442
leaf_weight=224.98772832751274 546.88427296280861 449.34858289361 437.09428349137306 30.250812649726868 289.93019041419029 203.185142993927 570.31119874119759 23.139358460903168 119.7618353664875 135.51525020599365 289.46136063337326 171.31846085190773 13.363513201475142 143.90501287579536 255.44598880410194
leaf_count=705 1752 1444 1391 96 924 644 1821 73 387 426 915 552 42 461 826
internal_value=2.81326e-05 -0.00171157 0.00329335 0.00211904 -0.000624248 0.00127263 0.000205641 0.00613261 -0.00340493 0.00654866 0.00381383 -0.00277555 0.00202132 -0.00165778 -0.00444576
internal_weight=3903.9 2546.91 1357 959.992 1551.03 640.279 860.241 397.006 995.875 360.503 319.712 620.667 36.5029 690.789 375.208
internal_count=12459 8167 4292 3046 4958 2035 2745 1246 3209 1131 1011 1996 115 2213 1213
is_linear=0
shrinkage=0.00614019


Tree=16
num_leaves=14
num_cat=0
split_feature=3 358 334 105 46 427 101 234 375 222 36 181 193
split_gain=59.0475 17.4229 20.7406 11.4047 7.3263 7.0474 7.00791 7.47115 5.99518 5.69593 3.94792 4.75534 2.02108
threshold=193.67213284232199 -3.9999999999999991 0.44124219999999997 15.661730904645264 0.30597846597846601 -1.4999999999999998 0.77415770000000017 1.1315720398765856 0.027424579442409402 0.55614699029583081 4.5500000000000007 4.5500000000000007 3.6333333333333337
decision_type=2 8 10 10 10 8 10 8 10 10 10 10 8
left_child=1 5 3 -3 -4 -1 10 8 -8 -7 12 -12 -2
right_child=6 2 4 -5 -6 9 7 -9 -10 -11 11 -13 -14
leaf_value=0.0026175635507062933 -0.0052074359194781306 0.00072811778260336278 0.00048872321018515925 -0.00043331953835257036 -0.0018691277376181867 -0.0041300190815597247 -0.0028611571598819567 0.0040853339913298776 -0.0002302868282488842 -0.0011724336996599242 -0.0030860066285304023 0.00027631953630388359 -0.0033227209846214429
leaf_weight=16.684969335794449 26.571830183267593 2274.9224051833153 67.051055759191513 370.61635011434555 191.35138759016991 27.647941201925278 73.51498606801033 8.997020870447157 58.849569439888 220.26975095272064 44.255181968212128 24.65949735045433 115.8332334458828
leaf_count=59 95 8033 238 1312 679 98 262 32 210 781 158 88 414
internal_value=4.39177e-07 0.000265735 0.000403192 0.000565387 -0.00125708 -0.00124255 -0.00238277 -0.00132361 -0.00169205 -0.00150269 -0.0030909 -0.00188215 -0.00367522
internal_weight=3521.23 3168.54 2903.94 2645.54 258.402 264.603 352.681 141.362 132.365 247.918 211.32 68.9147 142.405
internal_count=12459 11200 10262 9345 917 938 1259 504 472 879 755 246 509
is_linear=0
shrinkage=0.00614019


Tree=17
num_leaves=16
num_cat=0
split_feature=1 229 229 1 343 304 229 359 111 427 343 291 244 332 354
split_gain=463.822 188.878 101.604 57.9154 54.5342 26.0887 26.0032 24.0346 16.7404 13.8432 13.076 11.1795 9.52136 8.75825 6.83077
threshold=1594.510367680072 1582.6403550829284 1667.0829984525469 1732.0073665337015 -0.50000000000000078 2.4777218552660218 1646.1819405157605 1.5418201802236975 4.8150425386884352 -1.0000000180025095e-35 -0.78333333333333222 0.12935501942479369 2.0003717126934042 -0.16458591418768612 0.99999999999999978
decision_type=2 10 10 2 8 8 10 10 10 8 8 10 10 10 10
left_child=1 4 3 5 8 -2 10 -6 -1 11 -3 -4 -8 -5 -11
right_child=2 6 9 13 7 -7 12 -9 -10 14 -12 -13 -14 -15 -16
leaf_value=0.00037009252188534178 0.0039190318148194766 -0.00047487898742013061 0.0021533041138761615 0.0061171604276584217 -0.0013687004148970855 0.0018452550634012531 -0.0037283084711322821 0.0017094631397861042 0.0022492011349959391 -0.00098832667871076715 -0.0028601016713858301 -0.0043353876629008675 -0.0054028289538243486 0.0035509355951885506 -0.003629709469063954
leaf_weight=549.415990203619 376.97929671406746 113.92242789268494 63.158680975437164 269.49129319190979 1057.4742987453938 582.09398066997528 480.54868465662003 105.11699250340462 264.9985483288765 87.907912224531174 362.90481108427048 11.880256026983259 174.97123417258263 61.832844167947769 63.743371874094009
leaf_count=1479 1013 307 170 723 2849 1565 1298 283 713 237 979 32 473 166 172
internal_value=-2.40864e-05 -0.00138211 0.00275921 0.00342524 -0.000236763 0.00266049 -0.00338174 -0.00109032 0.000981625 -0.00103174 -0.00229038 0.00112468 -0.00417545 0.00563857 -0.00209917
internal_weight=4626.44 3109.35 1517.09 1290.4 1977.01 959.073 1132.35 1162.59 814.415 226.69 476.827 75.0389 655.52 331.324 151.651
internal_count=12459 8381 4078 3467 5324 2578 3057 3132 2192 611 1286 202 1771 889 409
is_linear=0
shrinkage=0.00614019


Tree=18
num_leaves=16
num_cat=0
split_feature=3 3 3 356 353 356 347 3 216 3 371 112 179 167 3
split_gain=612.36 104.677 90.3108 26.7603 21.3029 20.4534 17.3325 15.8703 15.347 14.1564 12.9083 10.522 9.41838 8.94844 3.92156
threshold=-60.980000870359952 -176.30980865980186 91.701608636012352 -0.89429234377706834 -2.223935956878377 2.0777537590227309 -0.3053833352857413 205.99831733995271 2.3983171460092523 -10.802596057999265 -0.013253548593573897 4.1000000000000005 9.7750000000000021 0.44505875957884317 307.03504826895909
decision_type=2 2 2 8 10 8 10 2 10 2 8 8 10 10 2
left_child=1 4 6 13 12 -5 9 10 -6 -2 -4 -8 -1 -3 -9
right_child=2 3 7 5 8 -7 11 14 -10 -11 -12 -13 -14 -15 -16
leaf_value=0.0094245977398215164 0.0010000083115220338 0.0027226409159701532 0.00010323711677266924 0.0020732168248276213 0.0064800825141101909 0.0051494899971835503 -0.0019059991422380324 -0.003812488763455771 0.0039172518119213948 -0.00088658922283508406 -0.0028955273725536704 -0.00065844018233346543 0.0058626656011668485 -0.0018660994868553123 -0.0052323088592437792
leaf_weight=67.972967475652695 276.68237978219986 20.086424946784973 59.365541458129883 634.23179039359093 146.11242911219597 93.537293791770935 555.33722093701363 239.23851731419563 222.67192780971527 327.35534358024597 607.70828679203987 471.48131787776947 47.950941026210785 78.873827576637268 106.50653982162476
leaf_count=212 881 64 191 2010 457 295 1779 775 699 1046 1958 1508 150 251 346
internal_value=-4.04622e-05 0.00338983 -0.00174215 0.00206138 0.00565544 0.00246876 -0.000847738 -0.00318225 0.00493298 -2.23208e-05 -0.00262857 -0.00133323 0.0079525 -0.000933874 -0.0042502
internal_weight=3955.11 1311.44 2643.68 826.729 484.708 727.769 1630.86 1012.82 368.784 604.038 667.074 1026.82 115.924 98.9603 345.745
internal_count=12622 4138 8484 2620 1518 2305 5214 3270 1156 1927 2149 3287 362 315 1121
is_linear=0
shrinkage=0.00614019


Tree=19
num_leaves=15
num_cat=0
split_feature=347 358 105 425 177 344 352 335 189 306 254 153 216 24
split_gain=46.6898 17.2452 15.3167 11.944 11.8994 10.3813 9.28334 8.88104 7.61326 6.31145 4.88135 4.83985 3.94477 2.91195
threshold=1.295778188114368 -3.6000000000000001 13.914028869269455 22.500000000000004 14.738871409673877 -3.2742843806756805 2.0000000000000004 0.0038791772479282003 4.2931214950002703 0.84429487179487184 1.6318129000000003 0.61462120301679313 2.972876595045336 12.100000000000001
decision_type=8 8 10 10 10 10 8 8 10 10 10 10 10 10
left_child=1 8 4 6 -3 -4 7 -2 -1 -10 11 -5 -8 -12
right_child=3 2 5 10 -6 -7 12 -9 9 -11 13 -13 -14 -15
leaf_value=0.0036852475007217614 0.00484016671165297 0.0010720109385905145 -0.0017647569396450301 -0.0036404787031817701 -0.00057506823206350392 0.00016576068101527766 -0.0041755648936590371 -0.00056363721178282551 -0.0013240378085747769 0.0035961462309136382 -0.0048137834958339124 -0.0011976217720380555 -0.0016575151409004704 -0.0011829056927727534
leaf_weight=12.726793289184569 11.892011046409605 1531.5887531042099 121.19474458694458 47.794865727424622 185.33008590340614 786.17487180233002 33.700849115848541 311.00679764151573 293.5785151720047 10.152679145336149 49.177994787693024 85.224068462848663 77.709438174962997 10.092040598392485
leaf_count=45 42 5405 430 171 654 2780 120 1105 1041 36 176 304 277 36
internal_value=6.55939e-05 0.000389865 0.000553163 -0.00145616 0.000894181 -9.20455e-05 -0.000891828 -0.000364264 -0.000964091 -0.00115924 -0.00273032 -0.00207606 -0.00242011 -0.00419693
internal_weight=3567.34 2940.75 2624.29 626.598 1716.92 907.37 434.309 322.899 316.458 303.731 192.289 133.019 111.41 59.27
internal_count=12622 10391 9269 2231 6059 3210 1544 1147 1122 1077 687 475 397 212
is_linear=0
shrinkage=0.00614019


Tree=20
num_leaves=16
num_cat=0
split_feature=3 3 3 3 344 344 263 353 332 104 338 99 167 346 99
split_gain=578.878 162.936 93.9053 36.1356 28.8346 18.4177 18.3984 17.4261 16.8223 15.6081 10.5038 9.40359 9.16298 8.99431 7.31158
threshold=-9.5912718673500859 179.8336930892016 -133.82393849252273 89.906545659917256 0.71651908858838642 -0.45753538248756337 11.669518840565006 0.52662739509075884 -0.22873265287886044 15.050000000000002 -0.06871808007366334 1.8219771000000002 0.86754674318052249 1.6000000000000003 1.6101516000000002
decision_type=2 2 2 2 8 10 10 10 10 10 10 8 10 8 10
left_child=2 3 6 5 10 -2 14 -6 13 -5 -4 -10 -8 -3 -1
right_child=1 8 4 9 7 -7 12 -9 11 -11 -12 -13 -14 -15 -16
leaf_value=-0.0051628023350454204 0.0013353195943450447 0.0044365204832481102 0.00023617796375606832 0.0015171665862600094 -0.0025706255637300999 -0.00016474366756547606 -0.0022970836625156865 -6.0870181268185105e-05 0.00053790004615661435 0.0033904821555835129 -0.0014044850454489445 0.0042652737203637981 -0.0042222844868027576 0.0062212452278167726 -0.0030846472757575186
leaf_weight=356.03621196746826 593.63855344057083 179.24197170138359 410.22006088495255 395.33730953931808 604.59469738602638 642.51208171248436 265.49250423908234 126.10993579030037 42.454406380653381 291.47391960024834 229.33330675959587 64.123276174068451 143.9153026342392 264.105697453022 78.052500993013382
leaf_count=963 1597 481 1105 1063 1631 1730 717 340 114 783 618 172 389 708 211
internal_value=-1.57688e-05 0.00202598 -0.00229655 0.00118307 -0.00130425 0.000555591 -0.00390841 -0.00213757 0.00497326 0.00231231 -0.000352057 0.0027813 -0.00297408 0.00549997 -0.00478937
internal_weight=4686.64 2472.89 2213.75 1922.96 1370.26 1236.15 843.497 730.705 549.925 686.811 639.553 106.578 409.408 443.348 434.089
internal_count=12622 6648 5974 5173 3694 3327 2280 1971 1475 1846 1723 286 1106 1189 1174
is_linear=0
shrinkage=0.00614019


Tree=21
num_leaves=16
num_cat=0
split_feature=229 350 341 317 359 350 350 317 377 263 359 392 343 313 215
split_gain=409.076 124.201 87.3078 45.6465 41.3797 36.6696 24.9201 24.4769 19.114 17.1093 17.0944 15.8291 13.6701 11.0008 6.10063
threshold=1640.1658611951382 0.21195399717895255 -0.5822592926348954 0.35039718611801868 -1.4497773886750556 1.010855644832263 0.99586792987388562 0.030629611575086105 -0.033641091528183391 12.044314701521646 -1.8208559820997163 1.1851192970130979 -1.8 1584.0079595351519 2.4722222222222228
decision_type=10 8 10 10 8 8 8 10 8 10 8 10 10 10 10
left_child=1 3 5 10 13 8 -6 12 -2 -7 -1 -5 -4 -3 -9
right_child=2 4 7 11 6 9 -8 14 -10 -11 -12 -13 -14 -15 -16
leaf_value=0.0010515905164454218 0.0065541337772205962 0.0017138847349376391 -0.0024718361355999074 -0.0026048491455798882 -0.0009962777346152155 0.0068965183664953479 0.0010170761152367518 -0.00024484376902696945 0.0024854417286979016 0.0037086379445358799 -0.001498255028189428 -0.0045061583216106761 0.0028531503998497974 0.0044217034237655157 -0.0037179197164769187
leaf_weight=109.6353679895401 53.140666037797928 141.95938012003899 21.961371690034866 549.74690559506416 510.57606881856918 271.89725890755653 424.43755489587784 30.904792129993439 241.44280740618706 82.990152269601822 1030.866260021925 236.21032053232193 104.94254592061043 94.179948270320892 49.946457326412201
leaf_count=349 166 450 70 1775 1632 848 1350 99 761 260 3306 767 332 297 160
internal_value=-4.02897e-05 -0.00107916 0.00371359 -0.0020378 0.000497693 0.00482187 -8.2275e-05 0.000248565 0.00321984 0.00615135 -0.00125308 -0.0031764 0.00193101 0.00279427 -0.00239134
internal_weight=3954.84 3097.61 857.226 1926.46 1171.15 649.471 935.014 207.755 294.583 354.887 1140.5 785.957 126.904 236.139 80.8512
internal_count=12622 9926 2696 6197 3729 2035 2982 661 927 1108 3655 2542 402 747 259
is_linear=0
shrinkage=0.00614019


Tree=22
num_leaves=15
num_cat=0
split_feature=3 358 105 332 133 77 189 402 68 398 372 403 415 359
split_gain=69.9196 16.6699 15.0909 12.9682 9.71103 9.23452 8.02574 7.8701 7.50515 8.2286 6.5757 4.99018 5.75356 3.21814
threshold=179.8336930892016 -3.6000000000000001 14.548559774080692 -0.29542925686691163 0.084959264366017459 0.63245553203367177 4.2931214950002703 0.77613291623258573 0.72799359738620306 -0.10746310372722838 0.007822336614569601 0.24943479003845334 -1.0000000180025095e-35 1.0615838887333189
decision_type=2 8 8 10 8 10 10 8 10 8 10 8 10 8
left_child=1 6 5 11 -4 -3 -1 -8 10 -10 -5 12 -2 -13
right_child=3 2 4 8 -6 -7 7 -9 9 -11 -12 13 -14 -15
leaf_value=0.0038664008589842287 0.0022149071819967956 -0.0011338160827195653 0.0015499354011012357 -0.0033616121356001344 -0.00047282727651474317 0.00088756103500218782 -0.0013638762880076149 0.0035207867763822789 0.0066897172350237665 -0.00012526154230839632 0.00036853678101795841 1.4046288378084134e-05 -0.0023935337059943326 -0.0037470023716661954
leaf_weight=12.471484512090681 11.20709255337715 89.020574748516083 103.17344385385513 35.331086009740829 673.48222631216049 1972.0628683269024 292.03096053004265 12.971453875303267 10.102617830038069 19.619783699512485 35.876150131225586 8.9769800901412946 112.88291358947754 178.22999674081802
leaf_count=44 40 314 365 126 2385 6957 1036 46 36 70 128 32 404 639
internal_value=6.53257e-05 0.000376056 0.00052535 -0.00231282 -0.000204019 0.00080022 -0.000958192 -0.00115581 -0.000399429 0.00219082 -0.00148166 -0.00293295 -0.00197667 -0.00356634
internal_weight=3567.44 3155.21 2837.74 412.227 776.656 2061.08 317.474 305.002 100.93 29.7224 71.2072 311.297 124.09 187.207
internal_count=12622 11147 10021 1475 2750 7271 1126 1082 360 106 254 1115 444 671
is_linear=0
shrinkage=0.00614019


Tree=23
num_leaves=16
num_cat=0
split_feature=341 75 344 317 346 328 75 333 247 172 129 196 298 75 358
split_gain=433.242 135.758 113.31 35.3038 33.7332 27.9182 24.9763 22.7656 21.346 16.1363 15.2172 13.1709 12.0927 11.1257 10.5655
threshold=0.06179514074260866 1622.1260223640415 0.785548750594253 -0.27459589776829846 1.7000000000000008 -0.43307889999999988 1613.5448361553774 -0.18536759999999994 1.4184126195761457 0.69904030000000006 0.43344473315642046 4.5857142857142863 1.1935446371148204 1720.486037413302 1.5928571428571427
decision_type=10 10 10 10 10 8 10 8 10 8 8 10 8 10 10
left_child=2 7 5 8 9 12 -7 11 -4 -3 -9 -2 -1 -6 -5
right_child=1 4 3 14 13 6 -8 10 -10 -11 -12 -13 -14 -15 -16
leaf_value=-0.0002284684090104751 -0.0055051428881741976 -0.0031817316476807547 -0.0043473727305362161 -0.0019354851282464901 0.0039505035808480695 -0.00021237612948076537 0.0025726700427038235 0.0013026199307794083 -0.0023456353605136853 0.0028848710687020399 -0.00062260752273446136 -0.00072174426339684369 -0.0035032883377373509 0.0059416035084246194 0.0011383933823477797
leaf_weight=65.679246187210083 25.953458845615387 17.101378738880157 569.23621213436127 541.31867477297783 195.67622265219688 690.17563813924789 147.29606875777245 927.46796467900276 310.69151970744133 479.64675042033195 185.74056220054626 132.51954430341721 120.73449757695198 231.42876598238945 45.685256004333496
leaf_count=177 70 46 1540 1460 525 1859 396 2496 839 1288 500 357 326 620 123
internal_value=-1.57149e-05 0.00197279 -0.00176851 -0.00286262 0.00376414 -0.000200882 0.000277419 0.000671329 -0.00364069 0.00267583 0.000981335 -0.00150587 -0.00234988 0.00502967 -0.00169613
internal_weight=4686.35 2195.53 2490.82 1466.93 923.853 1023.89 837.472 1271.68 879.928 496.748 1113.21 158.473 186.414 427.105 587.004
internal_count=12622 5902 6720 3962 2479 2758 2255 3423 2379 1334 2996 427 503 1145 1583
is_linear=0
shrinkage=0.00614019


Tree=24
num_leaves=16
num_cat=0
split_feature=347 313 75 344 313 344 353 344 313 313 361 75 315 419 372
split_gain=400.882 145.253 100.119 65.3744 41.8142 24.0729 22.4208 21.0024 17.4073 17.3729 17.3045 13.6973 10.7351 9.75294 7.7671
threshold=-0.58712454047830642 1597.0360527285059 1623.8147243683577 2.2076485019370957 1611.3871962833707 0.848828333884594 -2.223935956878377 -0.16681002011376561 1653.1293336483643 1678.1186042232318 -0.39999999999999897 1467.1944039890948 -0.48333333333333334 -5.4999999999999991 0.045646130235253206
decision_type=10 10 10 8 10 10 10 8 10 10 10 10 10 8 10
left_child=1 7 4 9 5 -2 -5 14 13 -3 -6 -9 -10 -4 -1
right_child=2 3 8 6 10 -7 -8 11 12 -11 -12 -13 -14 -15 -16
leaf_value=-0.0017077814330491454 -0.001553930833110445 0.001156697364666862 -0.0029434188769755722 0.00806159121986731 0.00024792613460992286 0.00012286659818722259 0.0049872747283225202 0.0027383934112319591 0.0034306388389412756 0.0038099449411526333 0.003838159964064774 0.00034562848961233701 -0.0017516845723172224 -0.0043529737646197031 0.0026779572670887993
leaf_weight=181.10825794935226 966.40113964676857 203.03140535950661 455.21143084764481 125.29904693365097 104.80253177881241 484.59217128157616 313.84648340940475 130.59186708927155 18.539049059152603 171.90077358484268 97.9536092877388 291.80287265777588 80.218061566352844 312.65985733270645 16.600883275270462
leaf_count=580 3104 643 1475 389 333 1544 979 413 59 539 309 928 257 1017 53
internal_value=-4.01111e-05 0.00255148 -0.00151485 0.00425693 -0.000628883 -0.000993888 0.00586478 0.000312424 -0.00320539 0.00237341 0.00198283 0.0010856 -0.000777932 -0.00351749 -0.00133908
internal_weight=3954.56 1434.18 2520.38 814.078 1653.75 1450.99 439.146 620.104 866.628 374.932 202.756 422.395 98.7571 767.871 197.709
internal_count=12622 4524 8098 2550 5290 4648 1368 1974 2808 1182 642 1341 316 2492 633
is_linear=0
shrinkage=0.00614019


Tree=25
num_leaves=14
num_cat=0
split_feature=3 401 356 23 118 331 381 276 356 309 78 39 360
split_gain=69.1379 17.7888 14.1968 18.0036 12.7054 9.32751 8.55927 7.92747 7.10856 5.695 5.11438 4.90431 4.09724
threshold=179.8336930892016 -0.40331496424298741 2.2368481011778574 13.05812077818922 3.5500000000000003 -0.39408924999999989 1.4204120783289869 5.4500000000000011 1.0482468244732546 0.86851010101010118 1.5082875444051556 12.900000000000002 3.2000000000000011
decision_type=2 10 8 10 10 10 10 8 10 10 10 10 8
left_child=1 10 3 -3 -4 8 11 -8 9 -2 12 -7 -1
right_child=5 2 4 -5 -6 6 7 -9 -10 -11 -12 -13 -14
leaf_value=-0.0052142736287613877 -0.0033236201260249672 0.00086210703844516988 0.0053767067004182999 -0.00021406484820242223 -0.0014792530320914608 -0.0023088499042960126 0.0043512711026490259 -0.00239274964691339 0.0022616375753518152 0.00090490856341166222 0.0015524635632427656 0.0016001148024554553 -0.0020085139570451722
leaf_weight=24.567391395568851 256.43672269582748 2059.2780214250088 10.742150843143461 819.12382116913795 193.72398632764816 90.105831325054169 18.783613443374637 10.082232624292372 9.5408925116062147 12.570034980773924 9.605968773365019 13.950391680002211 39.019062578678131
leaf_count=87 921 7264 38 2901 685 322 67 36 34 45 34 50 138
internal_value=6.50553e-05 0.000373714 0.000444765 0.000555834 -0.00111847 -0.00230222 -0.000963147 0.00199361 -0.00294094 -0.00312577 -0.00261768 -0.00178409 -0.00324879
internal_weight=3567.53 3156.06 3082.87 2878.4 204.466 411.47 132.922 28.8658 278.548 269.007 73.1924 104.056 63.5865
internal_count=12622 11147 10888 10165 723 1475 475 103 1000 966 259 372 225
is_linear=0
shrinkage=0.00614019


Tree=26
num_leaves=16
num_cat=0
split_feature=3 3 3 3 342 344 332 335 2 304 42 256 100 257 316
split_gain=565.62 158.826 91.7924 35.3103 28.295 18.086 16.5107 14.7174 14.3905 12.1256 10.5437 10.3471 10.1722 7.33526 6.22777
threshold=-9.5912718673500859 179.8336930892016 -133.82393849252273 89.906545659917256 1.0000000180025095e-35 -0.45753538248756337 -0.22873265287886044 -0.16485606373888578 1662.7534887875315 1.7495944332569875 5.2678571428571432 1.3996233000000002 1.6849519793630499 1.0130250237914298 0.90000000000000036
decision_type=2 2 2 2 8 10 10 8 2 8 10 10 10 8 8
left_child=2 3 8 5 9 -2 14 -6 13 -4 -8 -5 -10 -1 -3
right_child=1 6 4 11 7 -7 10 -9 12 -11 -12 -13 -14 -15 -16
leaf_value=-0.0056058848720568428 0.0013213439901493607 0.0047286885325669731 0.0041921387523306741 0.0024443868552148887 -0.0030751179052372533 -0.00016503123651844545 0.0044031277900527755 -0.0013773979975747256 -0.0046048503635658395 -0.00039515427721017955 0.00049781163822969546 -0.0012765954420015902 -0.00098919699406901105 -0.0023233219811553399 0.0061874803460917997
leaf_weight=28.832282423973083 593.81731870770454 230.20844212174416 22.655464053153992 657.77206644415855 306.26166534423828 642.51141548156738 61.179854035377502 519.02811869978905 546.35832735896111 521.79646694660187 45.475637584924698 29.407235026359558 31.054501861333847 236.08156359195709 213.61678683757782
leaf_count=78 1597 617 61 1767 827 1730 164 1400 1480 1406 122 79 84 638 572
internal_value=-1.56644e-05 0.00200148 -0.00227167 0.00116915 -0.00129073 0.000548842 0.00490965 -0.00200752 -0.00386671 -0.000204072 0.00273879 0.00228504 -0.00441052 -0.00268105 0.0054311
internal_weight=4686.06 2473.99 2212.07 1923.51 1369.74 1236.33 550.481 825.29 842.327 544.452 106.655 687.179 577.413 264.914 443.825
internal_count=12622 6648 5974 5173 3694 3327 1475 2227 2280 1467 286 1846 1564 716 1189
is_linear=0
shrinkage=0.00614019


Tree=27
num_leaves=16
num_cat=0
split_feature=2 75 75 344 350 317 229 231 117 334 344 356 370 36 377
split_gain=387.417 153.75 129.753 51.8828 34.0354 29.2909 22.713 22.5172 21.6924 14.94 12.782 12.6255 9.75883 9.22328 5.76676
threshold=1620.3493900109404 1597.6820056842132 1577.107964681036 0.81708263623117106 1.9941941755973691 -0.24091424866818459 1564.0818581674337 1.074967699773141 7.5824999039765215 -0.23330744999999967 -1.004021249101793 0.33406709448786703 0.022808406519829752 4.1000000000000005 -0.010195171408818199
decision_type=2 10 10 8 8 10 8 10 10 8 10 10 10 8 8
left_child=1 3 4 9 7 8 -5 -2 -4 -1 14 -7 -12 -6 -3
right_child=2 10 5 6 13 11 -8 -9 -10 -11 12 -13 -14 -15 -16
leaf_value=0.00047650007320988448 0.0019071150593229485 -0.0018001962155336027 0.0028103813734787703 0.00023824058575349871 0.0023440417343821873 -0.0027127188960401442 0.0025284792244609894 0.0047716424006044849 -0.0042116211914726776 -0.0014533251417067777 -0.0016791081295530533 0.0005074755336935522 -0.0040641579854279334 0.0078622337023459485 -0.0040530265647134136
leaf_weight=179.25297018885612 142.24657276272774 46.554364770650864 148.9596346616745 584.00322923064232 12.567242503166197 119.4859407544136 226.63513147830963 380.4362812936306 18.64746567606926 966.2155037522316 227.85469844937325 74.484835356473923 90.424031317234039 130.10895672440529 555.8396093249321
leaf_count=572 446 151 469 1858 39 384 716 1187 59 3102 736 237 293 403 1810
internal_value=-0.000128182 -0.00128391 0.0031093 -0.000310018 0.00471823 0.000148405 0.000878639 0.00399225 0.00202853 -0.00115127 -0.00335299 -0.00147589 -0.00235702 0.00737684 -0.00387906
internal_weight=3903.72 2876.78 1026.94 1956.11 665.359 361.578 810.638 522.683 167.607 1145.47 920.673 193.971 318.279 142.676 602.394
internal_count=12462 9238 3224 6248 2075 1149 2574 1633 528 3674 2990 621 1029 442 1961
is_linear=0
shrinkage=0.00614019


Tree=28
num_leaves=15
num_cat=0
split_feature=3 3 104 403 26 3 94 263 187 359 365 234 208 7
split_gain=66.0432 23.9863 10.6794 12.826 10.4057 10.2467 9.98384 8.49778 7.88655 7.33611 6.51317 7.27953 6.21527 2.98225
threshold=145.86355998014429 -187.3600017908237 10.316666666666668 -0.70554379431327463 11.373832947737354 236.16675367814597 0.35416666666666669 19.042856773181082 3.7750000000000004 1.4763936073916246 -0.042547877132937138 0.31331743376207127 0.10462077602564102 1.5747797536850319
decision_type=2 2 8 10 8 2 8 8 10 8 10 8 8 10
left_child=1 4 3 -3 6 10 -1 -4 -6 -7 12 -12 -2 -11
right_child=5 2 7 -5 8 9 -8 -9 -10 13 11 -13 -14 -15
leaf_value=0.0061195526889159246 0.0049372458757775944 0.0068827861644865113 0.00050297436781318095 0.0014410311340236916 0.0029129630056743843 0.0013111056532921106 -4.247087713645609e-05 -0.0025268992272303656 -0.0018228466316786854 -0.00096066494724220141 0.0024764219063041341 -0.0017483254260169557 -0.00065249710605500574 -0.0034187894042018896
leaf_weight=12.168610990047453 11.803984820842741 17.866931080818176 2356.7025773525238 189.70899406075478 13.889400541782377 14.536894977092741 53.15614914894104 35.406404405832291 282.93538531661034 20.613412082195282 16.257915735244751 277.27324634790421 20.484084635972977 199.40723541378975
leaf_count=43 42 63 8316 668 49 52 188 125 1002 74 58 990 73 719
internal_value=2.06719e-06 0.000367805 0.000574059 0.00191008 -0.00111258 -0.00193088 0.00110535 0.000458091 -0.00160093 -0.00290963 -0.001226 -0.00151403 0.00139019 -0.00318883
internal_weight=3522.21 2961.83 2599.68 207.576 362.15 560.377 65.3248 2392.11 296.825 234.558 325.819 293.531 32.2881 220.021
internal_count=12462 10454 9172 731 1282 2008 231 8441 1051 845 1163 1048 115 793
is_linear=0
shrinkage=0.00614019


Tree=29
num_leaves=16
num_cat=0
split_feature=1 2 2 1 329 2 266 337 117 318 26 178 346 33 171
split_gain=386.895 170.614 112.809 62.4459 30.143 28.7567 25.1207 18.1419 16.9853 13.6427 11.7763 11.1407 10.3442 9.36465 5.38018
threshold=1594.510367680072 1582.8732924827134 1680.0113035546904 1741.7276042396022 -0.023867582881582746 1667.6437378403341 3.5540416346649431 -0.41897274999999989 6.0537882798879936 -0.20000000000000004 8.8061741539911598 9.4500000000000011 0.40555555555555545 7.4500000000000011 2.0102335500000001
decision_type=2 2 2 2 8 2 8 8 8 10 10 10 8 10 8
left_child=1 4 3 6 9 11 -2 -6 -7 -1 14 -3 -5 -12 -4
right_child=2 5 10 12 7 8 -8 -9 -10 -11 13 -13 -14 -15 -16
leaf_value=6.3895545434325415e-05 0.0037544775100277787 -0.003760900618894324 0.0045889982600182833 0.0024287917954040187 0.002613779779119591 -0.0046284910468569083 0.0017516079905726385 0.00023768382025183356 -0.0018635599417703784 -0.0017776574617558798 -0.0025383231243083721 -0.001679015578763684 0.0060937494050300857 0.0024411647291582793 -0.00050768318987863808
leaf_weight=234.94519880414009 402.20093914866447 122.39314520359039 15.23961326479912 32.429734587669373 134.64092463254929 425.24704101681709 572.2140263915062 1209.0184733867645 104.44204813241959 427.55977365374565 163.72011509537697 466.87886735796928 283.95596554875374 15.573855727910994 15.958669334650038
leaf_count=633 1079 331 41 87 362 1153 1537 3255 283 1153 442 1261 760 42 43
internal_value=0.000106571 -0.00112412 0.00266844 0.00334814 -5.26181e-05 -0.00304513 0.00257841 0.000475846 -0.00408348 -0.0011245 -0.00149934 -0.0021116 0.00571839 -0.00210532 0.00198076
internal_weight=4626.42 3125.13 1501.29 1290.8 2006.16 1118.96 974.415 1343.66 529.689 662.505 210.492 589.272 316.386 179.294 31.1983
internal_count=12462 8431 4031 3463 5403 3028 2616 3617 1436 1786 568 1592 847 484 84
is_linear=0
shrinkage=0.00614019


Tree=30
num_leaves=16
num_cat=0
split_feature=3 3 3 356 344 3 3 356 328 26 263 341 55 351 125
split_gain=546.142 105.807 96.3655 25.2516 24.8272 18.2191 17.1448 15.7494 11.9924 11.7695 9.55704 9.37859 9.07193 7.71655 5.37623
threshold=-67.167441367783553 89.906545659917256 -208.54212565426255 2.0777537590227309 0.36906110203569048 166.63147181186096 -1.2472778753517557 -1.4698990415306705 -0.14762429999999988 11.373832947737354 11.460828059299006 0.28562298110443157 13.521284619594965 -1.2749999999999997 0.25868819776714519
decision_type=2 2 2 8 8 2 2 10 10 8 10 10 10 10 10
left_child=2 4 9 7 13 11 -6 -4 -5 12 -11 -3 -1 -2 -7
right_child=1 5 3 8 6 14 -8 -9 -10 10 -12 -13 -14 -15 -16
leaf_value=0.0025670748136226197 -0.00020133463347058627 -0.001192162928454312 -0.0019247646413091185 0.0058305130317842565 0.0010134452284958407 4.2302961706274135e-05 -0.00086061959383721602 0.0019917409836672411 0.00072164068414688721 0.0074784261153944135 0.0051678635849077706 -0.0029932390253769041 0.008860992684627738 -0.0016697430506000031 -0.004169490181501586
leaf_weight=52.565281838178635 164.49259293079376 159.29707875847816 40.836939334869385 92.938540279865265 380.38994544744492 11.665890574455259 356.52928620576859 735.34048759937286 21.329508632421494 167.67442455887794 113.62638720870018 346.30265760421753 10.340283364057539 753.16585594415665 496.65995910763741
leaf_count=163 528 514 130 290 1208 38 1139 2317 67 516 352 1123 32 2421 1624
internal_value=-0.000127443 -0.00168976 0.00324919 0.00218249 -0.000732583 -0.00325164 0.000106671 0.00178558 0.00487758 0.00600833 0.00654559 -0.00242594 0.00360408 -0.0014066 -0.00407271
internal_weight=3903.16 2668.5 1234.65 890.445 1654.58 1013.93 736.919 776.177 114.268 344.206 281.301 505.6 62.9056 917.658 508.326
internal_count=12462 8595 3867 2804 5296 3299 2347 2447 357 1063 868 1637 195 2949 1662
is_linear=0
shrinkage=0.00614019


Tree=31
num_leaves=15
num_cat=0
split_feature=157 260 105 213 426 110 26 2 243 403 356 395 87 253
split_gain=49.9247 15.1093 19.0239 11.8319 11.204 10.7517 9.58221 9.58129 8.52552 8.31603 10.7729 8.15576 7.3187 3.68271
threshold=1724.658974681917 13.235938322273595 13.547884994906088 1.8146055857522194 13.500000000000002 5.7250000000000005 12.024128866467269 1437.8691187035322 1.8444444444444448 -0.19519657704185558 -0.9664963908324169 0.048477798727285103 0.63333333333333341 0.5085921468553074
decision_type=10 8 10 10 8 10 8 2 10 8 10 8 8 8
left_child=1 2 4 9 -1 -5 12 -4 -7 10 -2 -8 -3 -11
right_child=3 6 7 5 -6 8 11 -9 -10 13 -12 -13 -14 -15
leaf_value=0.0011021228833114015 -0.0036113964229504501 0.0056831883166258753 -0.0021161542586083724 0.0063569872142429928 -0.00021175810545951486 -0.0029124871119916439 -0.0006879902825231985 -2.9814334376769755e-05 0.0033463239227149383 -0.0018271052485929573 0.0040226629783549905 -0.0027369430209546321 0.0001098591713700432 -0.0036742296444051588
leaf_weight=1270.8741967082024 13.606230050325395 9.3423952758312208 90.277309864759445 9.33128774166107 302.94725888967514 26.645888596773148 228.44640702009201 1027.1735627949238 11.836702257394789 52.862466245889664 14.260076969861982 107.88777112960815 177.04702991247177 179.56449326872826
leaf_count=4478 49 33 322 33 1068 95 808 3637 42 190 51 382 626 648
internal_value=2.25086e-06 0.000228614 0.000414169 -0.00235876 0.000849174 0.000447505 -0.000726597 -0.000198442 -0.000985352 -0.00287448 0.000293062 -0.0013455 0.000389878 -0.0032545
internal_weight=3522.1 3214 2691.27 308.107 1573.82 47.8139 522.724 1117.45 38.4826 260.293 27.8663 336.334 186.389 232.427
internal_count=12462 11354 9505 1108 5546 170 1849 3959 137 938 100 1190 659 838
is_linear=0
shrinkage=0.00614019


Tree=32
num_leaves=16
num_cat=0
split_feature=347 2 75 75 75 344 75 349 401 388 111 360 402 2 349
split_gain=415.337 131.186 92.4719 55.2159 32.205 31.6601 23.6587 16.978 15.8145 15.0854 12.9801 12.0944 11.9613 10.5235 6.88889
threshold=0.65838519331129952 1654.2728665072775 1620.4073107459431 1585.7108994047519 1577.107964681036 0.40373257342801505 1745.9647362382832 0.11111111111111156 -0.051487502482143593 -0.60714285714285732 6.0858914143850535 -3.3749999999999996 0.83666002653407689 1680.0113035546904 1.305555555555556
decision_type=10 2 10 10 10 8 10 10 10 10 10 8 10 2 8
left_child=1 3 7 5 14 -1 8 12 -4 -5 -6 -9 -2 -8 -3
right_child=2 4 6 9 10 -7 13 11 -10 -11 -12 -13 -14 -15 -16
leaf_value=-2.7903304431185183e-06 0.001437610569124764 -0.0034622150592130778 0.0013453819095924533 0.0032151743534111952 -0.0025385083789568929 -0.0015806259644057705 0.0059573522930941617 0.0059211632465255241 0.0040213473928325345 0.00078178376174468098 0.00031911558952131964 -0.0004187925547945886 0.0042862195313069376 0.00045003737520879527 -0.0048435404034382996
leaf_weight=884.19344490766525 326.99903652071953 289.54091611504555 105.08968245983124 137.80451664328575 161.27615031599998 1047.6273465156555 267.67146655917168 11.895091533660887 402.56378400325775 317.31497156620026 95.300411313772202 239.90893888473511 66.990695714950562 13.780491352081297 258.1751195192337
leaf_count=2381 879 785 282 370 436 2828 716 32 1079 853 257 646 180 37 701
internal_value=0.000105799 -0.00112787 0.00284953 -0.000405181 -0.00327253 -0.000858487 0.00425966 0.00112633 0.00346756 0.00151878 -0.0014769 -0.000118793 0.00192223 0.00568795 -0.00411353
internal_weight=4626.13 3191.23 1434.9 2386.94 804.293 1931.82 789.105 645.794 507.653 455.119 256.577 251.804 393.99 281.452 547.716
internal_count=12462 8611 3851 6432 2179 5209 2114 1737 1361 1223 693 678 1059 753 1486
is_linear=0
shrinkage=0.00614019


Tree=33
num_leaves=16
num_cat=0
split_feature=2 157 157 343 157 269 339 244 343 317 171 423 26 352 371
split_gain=377.785 145.027 130.262 42.1736 33.9511 27.2547 25.1904 25.0362 17.262 13.4764 13.2961 12.6983 12.5492 10.121 6.9007
threshold=1620.3493900109404 1573.7111455782908 1612.673467626759 1.3250000000000004 1498.4807206938424 3.5781868440190849 -2.4000000000000008 1.7681403023195315 -0.70000000000000051 -0.058369682215843648 1.5159488000000001 -6.4999999999999991 16.053928873742574 -1.2166666666666666 -0.013253548593573897
decision_type=2 10 8 8 10 10 10 10 10 10 10 8 10 10 8
left_child=1 3 4 10 12 -6 -5 13 14 -9 -1 -10 -2 -4 -3
right_child=2 8 7 6 5 -7 -8 9 11 -11 -12 -13 -14 -15 -16
leaf_value=-0.0010884532799672129 0.0055468693682993158 -0.0015715080062862054 0.0009569433921687657 0.002686153190573486 0.0055876091189918445 0.002359806351514419 0.00014871535574474603 0.0031217038988611296 0.00075345410213677199 -0.0020044650689814867 0.0013908632472383559 -0.0024483107974458359 0.0094965380421240704 -0.0027746579640110149 -0.0037982383433504906
leaf_weight=1059.9430532753468 257.52154377102852 57.272750914096832 34.29229462146759 231.86216747760773 141.84536415338516 324.16936174035072 405.55254051089287 76.292856246232986 54.276398450136185 25.873478472232819 88.315974295139313 333.18826860189438 34.461037158966064 135.85232576727867 641.84190556406975
leaf_count=3400 797 186 109 733 439 1014 1288 240 174 83 281 1079 106 436 2097
internal_value=-0.000126715 -0.00127093 0.003063 -0.000194611 0.00437159 0.00334253 0.00107185 -0.000579365 -0.00303966 0.00182283 -0.000897697 -0.00199964 0.0060136 -0.00202219 -0.00361594
internal_weight=3902.56 2872.25 1030.31 1785.67 757.997 466.015 637.415 272.311 1086.58 102.166 1148.26 387.465 291.983 170.145 699.115
internal_count=12462 9238 3224 5702 2356 1453 2021 868 3536 323 3681 1253 903 545 2283
is_linear=0
shrinkage=0.00614019


Tree=34
num_leaves=15
num_cat=0
split_feature=3 3 50 105 220 419 157 363 187 2 2 350 71 403
split_gain=64.6963 23.6619 12.6231 11.1717 10.081 9.77205 8.88552 8.2701 8.05001 6.85494 6.88506 6.38947 6.34563 3.74193
threshold=145.86355998014429 -187.3600017908237 0.10289570131105702 13.547884994906088 0.69992063492063539 -35.499999999999993 1782.7487264779681 -0.15124837580719933 3.7750000000000004 1443.7210430867219 1481.984493609217 0.30301863658914746 0.7150762169779622 0.030758006186071305
decision_type=2 2 8 8 10 10 10 10 10 2 2 8 10 8
left_child=1 8 9 4 -3 -5 7 -4 -1 12 -11 -10 -2 -8
right_child=2 3 6 5 -6 -7 13 -9 11 10 -12 -13 -14 -15
leaf_value=0.0030842535563220131 -0.0044206965151746668 0.00046361936294124343 0.0031384447561643445 -0.0014894598831010752 0.0014742388532854012 0.00030836730852681964 -0.0014978398465490073 -0.0018686955216846691 0.00079643504998417702 0.007578849070118362 0.00094222755955481656 -0.0016387165757105991 0.0022794373900653364 -0.0040002371664437713
leaf_weight=16.469679355621338 12.051534414291384 841.13306200504303 12.867083370685576 129.27068588137627 667.75123459100723 963.14604994654655 28.230703085660934 356.26410713791847 46.981255531311035 8.9477894604206103 17.309997379779816 298.42162066698074 9.5243218541145307 113.61840429902077
leaf_count=58 43 2961 46 456 2350 3405 102 1277 166 32 62 1058 34 412
internal_value=2.44837e-06 0.000363863 -0.00191385 0.000568528 0.000910914 9.55528e-05 -0.00219624 -0.0016939 -0.00110717 0.00110133 0.00320846 -0.0013073 -0.00146058 -0.00350281
internal_weight=3521.99 2963.17 558.814 2601.3 1508.88 1092.42 510.98 369.131 361.873 47.8336 26.2578 345.403 21.5759 141.849
internal_count=12462 10454 2008 9172 5311 3861 1837 1323 1282 171 94 1224 77 514
is_linear=0
shrinkage=0.00614019


Tree=35
num_leaves=16
num_cat=0
split_feature=347 347 1 320 334 1 186 348 298 15 1 231 277 118 422
split_gain=410.056 101.814 92.0461 50.1352 32.6661 22.5681 20.1809 17.0854 14.5451 11.1529 11.0951 9.60212 9.56075 8.68426 7.60303
threshold=0.65838519331129952 -1.4427145829008541 1643.6955238089906 0.53942790171620192 -0.19254440000000003 1741.7276042396022 3.9304266968930963 -0.40000000000000013 0.7631388174455862 0.64583333333333337 1602.4148212713549 1.0327955589886479 4.154761904761906 2.7750000000000004 1.5000000000000002
decision_type=10 10 2 10 8 2 8 10 8 8 2 10 10 10 10
left_child=1 6 7 4 -3 8 11 13 -4 -8 -9 -1 -5 -2 -7
right_child=2 3 5 12 -6 14 9 10 -10 -11 -12 -13 -14 -15 -16
leaf_value=-0.0017520741431611871 -0.00079217678256011633 -0.0015089580641305866 0.0059563337585823951 -0.0014786648679814161 0.00034737804452040995 0.0059647902697895997 -0.00094468375433573459 -7.0990753740613093e-05 0.0029129337396320751 -0.0030749348200307222 0.0024227648790927144 -0.0043918817315275064 -0.003322867648976522 0.0026091421944271147 0.0010963629845805621
leaf_weight=61.241491973400116 30.899949789047241 467.19360589981079 73.217385798692703 209.27928429841995 1520.4972521662712 281.24065470695496 184.53555539250374 307.96535983681679 310.83026441931725 186.34686899185181 86.035188049077988 346.26558849215508 215.13702657818794 332.44429844617844 12.675912916660307
leaf_count=166 83 1261 196 565 4094 752 499 829 833 504 231 940 582 893 34
