tree
version=v4
num_class=1
num_tree_per_iteration=1
label_index=0
max_feature_idx=427
objective=binary sigmoid:1
feature_names=league home_elo away_elo elo_diff hometeam_rest_days hometeam_both_roll5_goals_for hometeam_both_roll10_goals_for hometeam_both_decay15_goals_for hometeam_both_roll5_goals_against hometeam_both_roll10_goals_against hometeam_both_decay15_goals_against hometeam_both_roll5_ht_goals_for hometeam_both_roll10_ht_goals_for hometeam_both_decay15_ht_goals_for hometeam_both_roll5_ht_goals_against hometeam_both_roll10_ht_goals_against hometeam_both_decay15_ht_goals_against hometeam_both_roll5_xg_for hometeam_both_decay15_xg_for hometeam_both_decay15_xg_against hometeam_both_roll5_npxg_against hometeam_both_roll5_shots_for hometeam_both_roll10_shots_for hometeam_both_decay15_shots_for hometeam_both_roll5_shots_against hometeam_both_roll10_shots_against hometeam_both_decay15_shots_against hometeam_both_roll5_sot_for hometeam_both_roll10_sot_for hometeam_both_decay15_sot_for hometeam_both_roll5_sot_against hometeam_both_roll10_sot_against hometeam_both_decay15_sot_against hometeam_both_roll5_corners_for hometeam_both_roll10_corners_for hometeam_both_decay15_corners_for hometeam_both_roll5_corners_against hometeam_both_roll10_corners_against hometeam_both_decay15_corners_against hometeam_both_roll5_deep_completions_for hometeam_both_roll10_deep_completions_for hometeam_both_roll5_deep_completions_against hometeam_both_roll10_deep_completions_against hometeam_both_roll5_sot_pct_for hometeam_both_roll10_sot_pct_for hometeam_both_decay15_sot_pct_for hometeam_both_roll5_sot_pct_against hometeam_both_roll10_sot_pct_against hometeam_both_decay15_sot_pct_against hometeam_both_roll5_xg_per_shot_for hometeam_both_decay15_xg_per_shot_for hometeam_both_roll5_xg_per_shot_against hometeam_both_roll10_xg_per_shot_against hometeam_both_roll5_npxg_per_shot_for hometeam_both_roll5_npxg_per_shot_against hometeam_both_roll5_ppda_for hometeam_both_decay15_ppda_for hometeam_both_roll5_points_for hometeam_both_roll10_points_for hometeam_both_decay15_points_for hometeam_both_roll5_saves_for hometeam_both_roll10_saves_for hometeam_both_decay15_saves_for hometeam_both_roll5_saves_against hometeam_both_roll10_saves_against hometeam_both_decay15_saves_against hometeam_both_roll5_save_pct_for hometeam_both_roll10_save_pct_for hometeam_both_decay15_save_pct_for hometeam_both_roll5_save_pct_against hometeam_both_roll10_save_pct_against hometeam_both_decay15_save_pct_against hometeam_both_roll5_clean_sheet_for hometeam_both_roll10_clean_sheet_for hometeam_both_decay15_clean_sheet_for hometeam_both_roll5_elo_for hometeam_both_roll5_std_goals_for hometeam_both_roll10_std_goals_for hometeam_both_roll5_std_points_for hometeam_both_roll10_std_points_for hometeam_both_roll5_std_xg_for hometeam_both_roll10_std_xg_for hometeam_win_streak hometeam_loss_streak hometeam_nowin_streak hometeam_matches_last_14d hometeam_elo_momentum5 hometeam_home_roll5_goals_for hometeam_home_roll10_goals_for hometeam_home_decay15_goals_for hometeam_home_roll5_goals_against hometeam_home_roll10_goals_against hometeam_home_decay15_goals_against hometeam_home_roll5_ht_goals_for hometeam_home_roll10_ht_goals_for hometeam_home_decay15_ht_goals_for hometeam_home_roll5_ht_goals_against hometeam_home_roll10_ht_goals_against hometeam_home_decay15_ht_goals_against hometeam_home_roll5_xg_for hometeam_home_decay15_npxg_for hometeam_home_roll5_npxg_against hometeam_home_roll10_npxg_against hometeam_home_roll5_shots_for hometeam_home_roll10_shots_for hometeam_home_decay15_shots_for hometeam_home_roll5_shots_against hometeam_home_roll10_shots_against hometeam_home_decay15_shots_against hometeam_home_roll5_sot_for hometeam_home_roll10_sot_for hometeam_home_decay15_sot_for hometeam_home_roll5_sot_against hometeam_home_roll10_sot_against hometeam_home_decay15_sot_against hometeam_home_roll5_corners_for hometeam_home_roll10_corners_for hometeam_home_decay15_corners_for hometeam_home_roll5_corners_against hometeam_home_roll10_corners_against hometeam_home_decay15_corners_against hometeam_home_roll5_deep_completions_for hometeam_home_roll10_deep_completions_for hometeam_home_roll5_deep_completions_against hometeam_home_decay15_deep_completions_against hometeam_home_roll5_sot_pct_for hometeam_home_roll10_sot_pct_for hometeam_home_decay15_sot_pct_for hometeam_home_roll5_sot_pct_against hometeam_home_roll10_sot_pct_against hometeam_home_decay15_sot_pct_against hometeam_home_roll5_xg_per_shot_for hometeam_home_roll5_xg_per_shot_against hometeam_home_roll5_npxg_per_shot_for hometeam_home_decay15_npxg_per_shot_for hometeam_home_roll5_npxg_per_shot_against hometeam_home_roll10_npxg_per_shot_against hometeam_home_roll5_ppda_for hometeam_home_roll10_ppda_for hometeam_home_roll5_points_for hometeam_home_roll10_points_for hometeam_home_decay15_points_for hometeam_home_roll5_saves_for hometeam_home_roll10_saves_for hometeam_home_decay15_saves_for hometeam_home_roll5_saves_against hometeam_home_roll10_saves_against hometeam_home_decay15_saves_against hometeam_home_roll5_save_pct_for hometeam_home_roll10_save_pct_for hometeam_home_decay15_save_pct_for hometeam_home_roll5_save_pct_against hometeam_home_roll10_save_pct_against hometeam_home_decay15_save_pct_against hometeam_home_roll5_clean_sheet_for hometeam_home_roll10_clean_sheet_for hometeam_home_decay15_clean_sheet_for hometeam_home_decay15_elo_for awayteam_rest_days awayteam_both_roll5_goals_for awayteam_both_roll10_goals_for awayteam_both_decay15_goals_for awayteam_both_roll5_goals_against awayteam_both_roll10_goals_against awayteam_both_decay15_goals_against awayteam_both_roll5_ht_goals_for awayteam_both_roll10_ht_goals_for awayteam_both_decay15_ht_goals_for awayteam_both_roll5_ht_goals_against awayteam_both_roll10_ht_goals_against awayteam_both_decay15_ht_goals_against awayteam_both_roll10_xg_for awayteam_both_roll5_xg_against awayteam_both_roll10_xg_against awayteam_both_roll5_npxg_for awayteam_both_roll5_shots_for awayteam_both_roll10_shots_for awayteam_both_decay15_shots_for awayteam_both_roll5_shots_against awayteam_both_roll10_shots_against awayteam_both_decay15_shots_against awayteam_both_roll5_sot_for awayteam_both_roll10_sot_for awayteam_both_decay15_sot_for awayteam_both_roll5_sot_against awayteam_both_roll10_sot_against awayteam_both_decay15_sot_against awayteam_both_roll5_corners_for awayteam_both_roll10_corners_for awayteam_both_decay15_corners_for awayteam_both_roll5_corners_against awayteam_both_roll10_corners_against awayteam_both_decay15_corners_against awayteam_both_roll5_deep_completions_for awayteam_both_roll10_deep_completions_for awayteam_both_roll5_deep_completions_against awayteam_both_roll10_deep_completions_against awayteam_both_roll5_sot_pct_for awayteam_both_roll10_sot_pct_for awayteam_both_decay15_sot_pct_for awayteam_both_roll5_sot_pct_against awayteam_both_roll10_sot_pct_against awayteam_both_decay15_sot_pct_against awayteam_both_roll5_xg_per_shot_for awayteam_both_roll10_xg_per_shot_for awayteam_both_roll5_xg_per_shot_against awayteam_both_roll10_xg_per_shot_against awayteam_both_roll5_npxg_per_shot_for awayteam_both_roll5_npxg_per_shot_against awayteam_both_roll5_ppda_for awayteam_both_roll10_ppda_for awayteam_both_roll5_points_for awayteam_both_roll10_points_for awayteam_both_decay15_points_for awayteam_both_roll5_saves_for awayteam_both_roll10_saves_for awayteam_both_decay15_saves_for awayteam_both_roll5_saves_against awayteam_both_roll10_saves_against awayteam_both_decay15_saves_against awayteam_both_roll5_save_pct_for awayteam_both_roll10_save_pct_for awayteam_both_decay15_save_pct_for awayteam_both_roll5_save_pct_against awayteam_both_roll10_save_pct_against awayteam_both_decay15_save_pct_against awayteam_both_roll5_clean_sheet_for awayteam_both_roll10_clean_sheet_for awayteam_both_decay15_clean_sheet_for awayteam_both_roll5_elo_for awayteam_both_roll5_std_goals_for awayteam_both_roll10_std_goals_for awayteam_both_roll5_std_points_for awayteam_both_roll10_std_points_for awayteam_both_roll5_std_xg_for awayteam_both_roll10_std_xg_for awayteam_win_streak awayteam_loss_streak awayteam_unbeaten_streak awayteam_nowin_streak awayteam_matches_last_14d awayteam_elo_momentum5 awayteam_away_roll5_goals_for awayteam_away_roll10_goals_for awayteam_away_decay15_goals_for awayteam_away_roll5_goals_against awayteam_away_roll10_goals_against awayteam_away_decay15_goals_against awayteam_away_roll5_ht_goals_for awayteam_away_roll10_ht_goals_for awayteam_away_decay15_ht_goals_for awayteam_away_roll5_ht_goals_against awayteam_away_roll10_ht_goals_against awayteam_away_decay15_ht_goals_against awayteam_away_roll5_xg_against awayteam_away_roll5_npxg_for awayteam_away_roll10_npxg_for awayteam_away_decay15_npxg_against awayteam_away_roll5_shots_for awayteam_away_roll10_shots_for awayteam_away_decay15_shots_for awayteam_away_roll5_shots_against awayteam_away_roll10_shots_against awayteam_away_decay15_shots_against awayteam_away_roll5_sot_for awayteam_away_roll10_sot_for awayteam_away_decay15_sot_for awayteam_away_roll5_sot_against awayteam_away_roll10_sot_against awayteam_away_decay15_sot_against awayteam_away_roll5_corners_for awayteam_away_roll10_corners_for awayteam_away_decay15_corners_for awayteam_away_roll5_corners_against awayteam_away_roll10_corners_against awayteam_away_decay15_corners_against awayteam_away_roll5_deep_completions_for awayteam_away_roll10_deep_completions_for awayteam_away_roll5_deep_completions_against awayteam_away_decay15_deep_completions_against awayteam_away_roll5_sot_pct_for awayteam_away_roll10_sot_pct_for awayteam_away_decay15_sot_pct_for awayteam_away_roll5_sot_pct_against awayteam_away_roll10_sot_pct_against awayteam_away_decay15_sot_pct_against awayteam_away_roll5_xg_per_shot_for awayteam_away_roll10_xg_per_shot_for awayteam_away_roll5_xg_per_shot_against awayteam_away_decay15_xg_per_shot_against awayteam_away_roll5_npxg_per_shot_for awayteam_away_decay15_npxg_per_shot_for awayteam_away_roll5_npxg_per_shot_against awayteam_away_roll10_npxg_per_shot_against awayteam_away_roll5_ppda_for awayteam_away_roll10_ppda_for awayteam_away_roll5_points_for awayteam_away_roll10_points_for awayteam_away_decay15_points_for awayteam_away_roll5_saves_for awayteam_away_roll10_saves_for awayteam_away_decay15_saves_for awayteam_away_roll5_saves_against awayteam_away_roll10_saves_against awayteam_away_decay15_saves_against awayteam_away_roll5_save_pct_for awayteam_away_roll10_save_pct_for awayteam_away_decay15_save_pct_for awayteam_away_roll5_save_pct_against awayteam_away_roll10_save_pct_against awayteam_away_decay15_save_pct_against awayteam_away_roll10_clean_sheet_for awayteam_away_decay15_clean_sheet_for awayteam_away_decay15_elo_for rest_days_diff both_roll5_goals_for_diff both_roll10_goals_for_diff both_decay15_goals_for_diff both_roll5_goals_against_diff both_roll10_goals_against_diff both_decay15_goals_against_diff both_roll5_ht_goals_for_diff both_roll10_ht_goals_for_diff both_decay15_ht_goals_for_diff both_roll5_ht_goals_against_diff both_roll10_ht_goals_against_diff both_decay15_ht_goals_against_diff both_roll5_xg_for_diff both_roll10_xg_for_diff both_decay15_xg_for_diff both_roll5_xg_against_diff both_roll10_xg_against_diff both_decay15_xg_against_diff both_roll5_npxg_for_diff both_roll10_npxg_for_diff both_decay15_npxg_for_diff both_roll5_npxg_against_diff both_roll10_npxg_against_diff both_decay15_npxg_against_diff both_roll5_shots_for_diff both_roll10_shots_for_diff both_decay15_shots_for_diff both_roll5_shots_against_diff both_roll10_shots_against_diff both_decay15_shots_against_diff both_roll5_sot_for_diff both_roll10_sot_for_diff both_decay15_sot_for_diff both_roll5_sot_against_diff both_roll10_sot_against_diff both_decay15_sot_against_diff both_roll5_corners_for_diff both_roll10_corners_for_diff both_decay15_corners_for_diff both_roll5_corners_against_diff both_roll10_corners_against_diff both_decay15_corners_against_diff both_roll5_deep_completions_for_diff both_roll10_deep_completions_for_diff both_decay15_deep_completions_for_diff both_roll5_deep_completions_against_diff both_roll10_deep_completions_against_diff both_decay15_deep_completions_against_diff both_roll5_sot_pct_for_diff both_roll10_sot_pct_for_diff both_decay15_sot_pct_for_diff both_roll5_sot_pct_against_diff both_roll10_sot_pct_against_diff both_decay15_sot_pct_against_diff both_roll5_xg_per_shot_for_diff both_roll10_xg_per_shot_for_diff both_decay15_xg_per_shot_for_diff both_roll5_xg_per_shot_against_diff both_roll10_xg_per_shot_against_diff both_decay15_xg_per_shot_against_diff both_roll5_npxg_per_shot_for_diff both_roll10_npxg_per_shot_for_diff both_decay15_npxg_per_shot_for_diff both_roll5_npxg_per_shot_against_diff both_roll10_npxg_per_shot_against_diff both_decay15_npxg_per_shot_against_diff both_roll5_ppda_for_diff both_roll10_ppda_for_diff both_decay15_ppda_for_diff both_roll5_points_for_diff both_roll10_points_for_diff both_decay15_points_for_diff both_roll5_saves_for_diff both_roll10_saves_for_diff both_decay15_saves_for_diff both_roll5_saves_against_diff both_roll10_saves_against_diff both_decay15_saves_against_diff both_roll5_save_pct_for_diff both_roll10_save_pct_for_diff both_decay15_save_pct_for_diff both_roll5_save_pct_against_diff both_roll10_save_pct_against_diff both_decay15_save_pct_against_diff both_roll5_clean_sheet_for_diff both_roll10_clean_sheet_for_diff both_decay15_clean_sheet_for_diff both_roll5_std_goals_for_diff both_roll10_std_goals_for_diff both_roll5_std_points_for_diff both_roll10_std_points_for_diff both_roll5_std_xg_for_diff both_roll10_std_xg_for_diff win_streak_diff loss_streak_diff unbeaten_streak_diff nowin_streak_diff matches_last_14d_diff elo_momentum5_diff h2h_goal_diff_last4 h2h_points_last4 season_progress home_position away_position home_pts_to_1st away_pts_to_1st home_pts_to_ucl away_pts_to_ucl home_pts_to_europe away_pts_to_europe home_pts_to_relegation away_pts_to_relegation position_diff
feature_infos=-1:0:4:3:1:2 [1305.6899498281241:1906.4993183814745] [1309.8900095146864:1907.5312625945271] [-526.65080719338494:496.33849058374471] [2:8] [0:5.7999999999999998] [0:4.5] [0:4.1349477310161618] [0:5] [0:5] [0:5] [0:2.7999999999999998] [0:2.2000000000000002] [0:2.2623613302479937] [0:5] [0:5] [0:5] [0.030934:3.9588540000000001] [0.030934:3.3536800474668045] [0.084219837500000005:3.6942124531250009] [0.16546805000000001:3.3415660000000003] [4.2000000000000002:24.600000000000001] [5:24] [5:24] [3.3999999999999999:27] [4.2999999999999998:27] [4.8554341585779994:27] [0:13.4] [0:13.5] [0:12.00671393637786] [0.80000000000000004:15] [1.2:15] [1.4503118820066616:15] [0:12] [0:10.800000000000001] [0:10] [0:12] [0:12] [0:12] [0:21.399999999999999] [0:18.600000000000001] [0:24] [0:24] [0:0.83000000000000007] [0:0.75326839826839831] [0:0.75] [0.095238095238095205:0.77396825396825408] [0.14694444444444441:0.75] [0.1475840336134453:0.75] [0.015467:0.3153881168831168] [0.015467:0.2943423863636363] [0.026729684090908999:0.29696789848484839] [0.026729684090908999:0.28732714285714278] [0.015467:0.25330961282051279] [0.026729684090908999:0.27159123181818179] [3.827586206896552:47.017441860465119] [3.827586206896552:54.540009469696962] [0:3] [0:3] [0:3] [0.20000000000000001:13] [0.59999999999999998:13] [0.85232533246428932:13] [0:12] [0:11.800000000000001] [0:10.284388039952956] [0.013333333333333501:1] [0.074999999999999997:1] [0.09375:1] [0:1] [0:1] [0:1] [0:1] [0:1] [0:1] [1320.8806346503814:1902.1456776186683] [0:4.1472882706655438] [0:3.0110906108363231] [0:2.1213203435596424] [0:2.1213203435596424] [0.0133852876821282:2.3876968291566665] [0.0133852876821282:1.8512116975286617] [0:17] [0:14] [0:30] [0:4] [-62.956151611328096:66.063833195788447] [0:5.7999999999999998] [0:4.7999999999999998] [0:4.387083619049462] [0:5] [0:5] [0:5] [0:3.2000000000000002] [0:3] [0:3] [0:3] [0:3] [0:3] [0.1147990499999999:4.4200320000000008] [0.067255087500000005:3.9657100000000001] [0.057137100000000003:3.9338700000000002] [0.057137100000000003:3.9338700000000002] [4:27.399999999999999] [4:26.699999999999999] [3.25:25.318543287972524] [3:26] [3:26] [3:26] [0:15.4] [0:13.800000000000001] [0:13.459860484584976] [0.59999999999999998:13.4] [1:11.199999999999999] [1:11] [0:12.6] [0:10.699999999999999] [0:10.244287256029454] [0:12] [0:12] [0:12] [0:23.800000000000001] [0:20.399999999999999] [0:18] [0:18] [0:0.78452380952380951] [0:0.77777777777777779] [0:0.77777777777777779] [0.082626262626262603:0.82857142857142851] [0.1176470588235294:0.82857142857142851] [0.1176470588235294:0.80714285714285716] [0.0233202857142857:0.29575133603896098] [0.0175698833333333:0.34344909090909093] [0.0233202857142857:0.23933670508658] [0.0194485124999999:0.2360225] [0.0175698833333333:0.28099071428571432] [0.0175698833333333:0.28099071428571432] [2.3125:67.333333333333329] [2.3125:67.333333333333329] [0:3] [0:3] [0:3] [0:9.8000000000000007] [0.5:9] [0.861328125:9] [0:14] [0:12.199999999999999] [0:11.86669335614652] [-0.099999999999999895:1] [0:1] [0:1] [0:1] [0:1] [0:1] [0:1] [0:1] [0:1] [1337.0696313897561:1887.2246240660847] [2:8] [0:5] [0:4.2999999999999998] [0:4] [0:5] [0:5] [0:5] [0:3] [0:3] [0:3] [0:3] [0:3] [0:3.2197265625] [0.26435949999999991:3.5914514999999998] [0.057137100000000003:3.5996480000000002] [0.057137100000000003:3.13646] [0.22841892:4.1356240000000009] [3.6000000000000001:25] [5:23] [5:22.620768952294789] [2.6000000000000001:27] [4.4000000000000004:27] [4.7485048887557486:27] [0.59999999999999998:13.4] [1:13.5] [0.375:11.839175188883903] [0.59999999999999998:13.800000000000001] [1.3:11.800000000000001] [1.5978947836171715:15.984375] [1:12.199999999999999] [1:10.5] [0.25:10] [0:12] [0:12] [0:12] [0:21.800000000000001] [0:18.899999999999999] [0:18] [0:18] [0.066071428571428503:0.80666666666666664] [0.1214285714285714:0.77777777777777779] [0.034090909090908998:0.77777777777777779] [0.092307692307692299:0.80000000000000004] [0.1176470588235294:0.80000000000000004] [0.1176470588235294:0.80000000000000004] [0.029186278571428501:0.28732714285714278] [0.029186278571428501:0.28732714285714278] [0.028568550000000002:0.2994733333333332] [0.028568550000000002:0.2994733333333332] [0.029186278571428501:0.25344811588235289] [0.028568550000000002:0.2718474818181818] [2.3125:67.333333333333329] [2.3125:67.333333333333329] [0:3] [0:3] [0:3] [0.20000000000000001:11.199999999999999] [0.80000000000000004:9.3000000000000007] [0.974086094244902:12.921875] [0.20000000000000001:12] [0.75:12] [0.25:10.039300617089092] [0:1] [0:1] [0:1] [0:1] [0:1] [0:1] [0:1] [0:1] [0:1] [1321.4262973311031:1900.3172410378691] [0:3.8340579025361623] [0:2.9814239699997214] [0:2.1213203435596424] [0:2.1213203435596424] [0.049673536123372497:2.4672104214021147] [0.049673536123372497:2.131881690443445] [0:18] [0:15] [0:44] [0:29] [0:4] [-67.223453951587544:61.824703872732925] [0:4.7999999999999998] [0:4] [0:4] [0:4.5999999999999996] [0:4.5] [0:4.671875] [0:3] [0:3] [0:3] [0:3] [0:3] [0:4.5] [0.22284300000000001:4.2596800000000004] [0.033221500000000001:3.5486040000000001] [0.033221500000000001:3.246623] [0.22284300000000001:4.2596800000000004] [3:24.199999999999999] [3:23] [2.5:23] [4:28.199999999999999] [5.2000000000000002:27] [5.7363066380462353:27] [0:11.6] [0:10.5] [0:10.037476859521078] [0.80000000000000004:19] [1:19] [1:19] [0:10.800000000000001] [0:9.4000000000000004] [0:9.75] [0:13] [0:13] [0:13.25] [0:19.800000000000001] [0:16.600000000000001] [0:19] [0:22] [0:0.79920634920634925] [0:0.78888888888888897] [0:0.78055555555555556] [0.0977777777777777:0.76212121212121209] [0.1111111111111111:0.75] [0.1111111111111111:0.75] [0.016610750000000001:0.27705114857142848] [0.016610750000000001:0.274642] [0.032871499999999998:0.41834666666666659] [0.032871499999999998:0.41834666666666659] [0.016610750000000001:0.274642] [0.016610750000000001:0.274642] [0.032871499999999998:0.25167247619047611] [0.032871499999999998:0.24943666666666661] [3.4651162790697674:51.571428571428569] [3.4651162790697674:51.571428571428569] [0:3] [0:3] [0:3] [0:15] [0:15] [0:15] [0:10.4] [0:9] [0:8.6019015795543083] [0:1] [0:1] [0:1] [0:1] [0:1] [0:1] [0:1] [0:1] [1338.8845907396546:1890.002010928762] [-6:6] [-4.4000000000000004:5.2000000000000002] [-3.3999999999999999:3.7999999999999998] [-3.1984118037290656:3.3724059179628725] [-4.7999999999999998:3.3999999999999999] [-4.5:3.8999999999999999] [-4.4634159824738209:3.7289063616459162] [-2.6000000000000001:2.3999999999999999] [-2.2999999999999998:1.8999999999999999] [-2.2271105285613291:1.833047523197826] [-2.7999999999999998:4.2000000000000002] [-2.6000000000000001:4.5999999999999996] [-2.7409886722852157:4.5140109195340656] [-3.1573670200000001:3.266003599999999] [-2.7477253333333334:2.6518307499999998] [-2.4394520377787372:3.0358888593671387] [-2.5116174:2.3271649999999999] [-2.02244:1.84932684] [-3.0094657257883619:2.5516739761885634] [-3.2104028000000007:3.1137695999999999] [-2.5247673333333331:2.4668821000000003] [-2.2486483778062785:2.7725402057765929] [-2.8161372:2.1908394000000002] [-2.576047:1.9432853999999999] [-2.6282908186226663:2.7396859567407441] [-16.600000000000001:16.199999999999999] [-12.75:13.699999999999999] [-12.249499688982125:11.828126576987064] [-16.600000000000001:18.200000000000003] [-17.5:15.5] [-16.954911193150906:15.871016964178963] [-9.5999999999999996:10.199999999999999] [-8:7.2000000000000011] [-8.4576881540104036:7.8993677711629555] [-8:9.5999999999999996] [-7.2000000000000002:8.9000000000000004] [-9.3486938238798061:8.9549823939249045] [-8.5999999999999996:7.7999999999999989] [-6.2000000000000011:5.5999999999999996] [-5.77282351464493:6.0812705841379415] [-7.4000000000000004:8.1999999999999993] [-7.0999999999999996:6.5499999999999998] [-7.1824545827757085:6.8849398569964144] [-17.199999999999999:17.800000000000001] [-16.800000000000001:17.600000000000001] [-15.487288613442107:17.485472701076695] [-13:13.4] [-13:13.5] [-15.181760582385614:13.483555778720071] [-0.47719576719576717:0.47261904761904749] [-0.47651787296524128:0.4142857142857142] [-0.4846260679754924:0.4142857142857142] [-0.47361111111111098:0.37675053704465478] [-0.3466442189524031:0.38032425091248617] [-0.39903544988298451:0.39914484653105797] [-0.2507812261904761:0.2280801803751803] [-0.2507812261904761:0.2280801803751803] [-0.2507812261904761:0.1877318308080807] [-0.23201969999999991:0.2507812261904761] [-0.23201969999999991:0.2507812261904761] [-0.1686776607198969:0.2507812261904761] [-0.15183836624857591:0.15402061871070111] [-0.1420240833333333:0.14006484222672061] [-0.1420240833333333:0.15795326131628989] [-0.2146705833333333:0.1420240833333333] [-0.2146705833333333:0.1420240833333333] [-0.2146705833333333:0.17755249340277779] [-56.276812337088202:31.105782712595438] [-55.360197444122186:32.430104350022347] [-55.116579528589931:37.99025223379369] [-3:3] [-3:3] [-3:3] [-6.7999999999999998:10.199999999999999] [-5.7333333333333325:10.1] [-8.9290147594052485:10.484452432102568] [-7.8000000000000007:9.1999999999999993] [-6.7999999999999998:6.2000000000000002] [-6.6129982927620787:6.7600830194970563] [-0.76666666666666639:0.97142857142857164] [-0.66749999999999998:0.76642857142857146] [-0.67786110299150526:0.74356510476201099] [-0.8600000000000001:0.81269841269841281] [-0.69238095238095243:0.62285714285714278] [-0.76190030331052916:0.72108123680069969] [-1:1] [-0.90000000000000002:1] [-0.904296875:0.92722117015714878] [-3.2863353450309973:3.1472882706655438] [-2.1734072022474091:2.2222799730897087] [-2.1213203435596424:2.1213203435596424] [-2.1213203435596424:2.1213203435596424] [-2.2241319981800758:1.8487131247234851] [-1.6523368290205891:1.5563512638055064] [-18:17] [-14:12] [-44:43] [-26:29] [-3:3] [-98.414302614288076:88.890309466738472] [-6:7] [-1:3] [0.0071942446043165003:1] [1:20] [1:20] [-74:0] [-75:0] [-59:41] [-59:39] [-50:43] [-50:42] [-25:70] [-25:67] [-19:19]
tree_sizes=3281 3633 3663 3656 3530 3632 3408 3520 3401 3634 3519 3416 3295 3310 3641 3421 3294 3556 3413 3648 3312 3641 3545 3094 3549 3299 3546 3680 3520 3432 3531 3204 3292 3303 3191 3662 3542 3534 3643 3441 3535 3551 3543 3519 3417 3306 3191 3300 3204 3634 3298 3533 3652 3425 3539 3205 3548 3529 3556 3640 3639 3502 3568 3417 3426 3322 3209 3317 3439 3212 3565 3647 3435 3413 2990 3533 3552 3431 3533 3306 3195 3202 3323 3104 3103 3435 3504 3443 2891 3391 3309 3334 3509 3196 3323 3520 3546 3426 2752 3223 3206 3322 3428 3311 2870 3323 3310 3427 3221 3238 3350 3533 3533 3332 3229 3318 3220 3432 3104 3196 3432 3347 2883 3094 3224 3411 3557 3325 3537 2987 3104 3211 3083 2978 2996 3202 3090 3334 2771 3107 2677 3211 3202 3325 2896 3301 3318 3214 2891 3109 2991 3533 3097 3309 3437 2987 2763 3425 2789 3438 2665 3100 3088 2427 2669 3224 2767 2988 2672 2873 2867 2996 2865 3328 3321 2986 3005 2959 2978 2878 2886 2211 2685 2654 2448 2104 2773 2348 2768 2982 2986 3319 2552 2969 2660 2666 2875 3333 2764 3427 2338 2321 2881 3412 2859 2547 2888 2433 2638 3090 2873 3202 3314 2891 2763 2772 2877 2995 2667 2339 3319 2774 2757 2783 2768 2654 3081 2988 3211 2783 3317 2433 2874 2867 3327 3002 2989 3107 2659 2110 3219 3216 2541 2895 3307 2003 2997 2759 2214 2855 3225 1771 3110 3112 3336 3316 2331 2011 2217 3331 2421 2437 2659 2331 2336 2755 2642 3314 2782 2899 3001 2885 2772 2662 2966 3205 3097 3101 3006 2440 2229 2883 1787 1682 1892 2561 2334 1689 1341 2547 2324 1893 2762 3205 2875 1349 3319 1559 2319 2976 2201 3105 2975 2330 2432 2662 1452 2436 1460 2538 1786 1354 2546 1992 2545 1561 2880 2205 2768 2218 2866 1571 2003 1989 2553 1676 2779 1889 1893 2223 2878 3100 2771 1573 1895 2661 2116 2571 1899 2457 1572 1910 1684 2234 2120 2118 2220 1793 2873 2673 2420 2003 2112 1795 2110 2548 1450 2003 2005 2543 1999 2327 2339 2769 2014 2214 2661 2339 2558 2560 2199 2429 1553 1901 2232 2119 2663 1778 1788 2740 1563 2216 1783 2440 2007 1456 1784 2322 1781 2228 2770 2438 2223 1996 2007 1667 1685 1567 1443 2099 1238 1246 1784 1691 2018 2354 1777 2876 1777 2327 1667 2554 1790 1677 2552 2133 2893 2418 2667 2442 1774 2328 2010 1676 2982 1675 2445 1562 2115 2771 1441 2548 2224 1781 1996 2559 2115 1890 2552 1775 1782 3320 2228 2882 2220 1460 2754 2229 2655 1549

Tree=0
num_leaves=30
num_cat=0
split_feature=347 229 1 344 157 1 313 229 344 225 344 356 320 160 121 313 347 253 157 386 94 18 198 1 29 149 423 180 313
split_gain=1274.1 510.011 240.367 134.848 93.6117 61.115 51.231 44.0226 36.2389 33.2088 29.3729 27.4998 26.2778 25.8624 23.8515 22.4149 19.5003 18.2319 17.923 17.2608 15.2778 14.671 13.5188 12.393 11.3946 10.8683 10.4536 9.0868 3.98847
threshold=0.11188053610418051 1647.5776033313314 1613.2647371776209 -0.13721785735330885 1586.8916725453971 1560.8888810023207 1616.0917581708707 1554.6496388112862 0.77317508011330383 0.63954215442135076 -1.2479119292716152 1.0856079975573971 -0.23602543717235505 2.0500000000000003 4.1000000000000005 1573.9329357974907 -1.3050829149306769 0.44889266550462142 1597.9291263717844 -0.37786635095078996 0.78888888888888908 1.0501681547299646 0.40656746031746038 1584.619031595686 5.9556077650863717 0.65839285714285734 8.5000000000000018 12.450129821534857 1594.7548183326078
decision_type=10 10 2 8 8 2 8 10 10 10 10 10 10 10 8 10 10 10 10 8 10 8 10 2 10 10 8 10 10
left_child=1 3 6 12 11 7 8 -5 14 22 26 21 20 24 -2 -7 -13 -11 -14 -10 -1 -3 -6 25 -12 -8 27 -4 -28
right_child=2 4 10 5 9 15 23 -9 19 17 13 16 18 -15 -16 -17 -18 -19 -20 -21 -22 -23 -24 -25 -26 -27 28 -29 -30
leaf_value=0.42019672549620463 0.41500833350822941 0.39588434740274558 0.4253050277236135 0.41207103781317533 0.40732746473938763 0.42242317589904244 0.4121405546576597 0.40596101338089258 0.40769784794876934 0.40881910400424881 0.42433356287836965 0.39430413913196849 0.41511743469198015 0.41041887699054991 0.42266597852321158 0.4126665107820639 0.40182684822587156 0.41997379609548113 0.42352221570383219 0.41736515374453764 0.42784565927676999 0.40334153572277603 0.39660963190177084 0.41942576072040649 0.42940855360475921 0.40148241873931417 0.43311323695065707 0.42985995792293991 0.42795659346836162
leaf_weight=137.94314289093018 59.871155768632889 44.544139891862869 74.240233153104782 342.46301099658012 36.641147330403328 68.971571445465088 24.427431553602219 275.40731653571129 27.540731653571129 40.472901299595833 163.80748218297958 205.95677584409714 213.85976840555668 14.369077384471892 435.86201399564743 54.602494060993195 56.99734029173851 35.683208838105202 38.796508938074112 181.05037504434586 44.783624514937401 146.80407394468784 26.10382391512394 12.453200399875639 88.130341291427612 25.145885422825813 135.54829666018486 240.92153081297874 22.751039192080498
leaf_count=576 250 186 310 1430 153 288 102 1150 115 169 684 860 893 60 1820 228 238 149 162 756 187 613 109 52 368 105 566 1006 95
internal_value=0.415968 0.409424 0.42366 0.413759 0.400822 0.410808 0.419194 0.409347 0.420067 0.408996 0.428286 0.398323 0.418785 0.425262 0.421741 0.418112 0.395934 0.414046 0.416408 0.416089 0.422072 0.401605 0.402867 0.409282 0.426109 0.406733 0.429986 0.428787 0.432373
internal_weight=3276.15 1770.03 1506.12 1176.83 593.203 741.444 766.351 617.87 704.324 138.901 739.768 454.302 435.383 266.307 495.733 123.574 262.954 76.1561 252.656 208.591 182.727 191.348 62.745 62.0265 251.938 49.5733 473.461 315.162 158.299
internal_count=13680 7391 6289 4914 2477 3096 3200 2580 2941 580 3089 1897 1818 1112 2070 516 1098 318 1055 871 763 799 262 259 1052 207 1977 1316 661
is_linear=0
shrinkage=1


Tree=1
num_leaves=32
num_cat=0
split_feature=341 317 1 263 386 342 386 317 335 414 359 75 354 167 180 263 312 359 263 341 122 401 75 335 52 212 19 269 26 59 325
split_gain=1193.38 327.959 239.802 102.715 90.4411 63.7621 51.2925 39.4013 36.9975 35.5274 28.1948 26.9901 26.2774 26.1661 27.347 25.2623 22.906 21.976 21.1097 20.8872 18.408 17.0677 16.1285 15.7307 15.5582 14.1722 11.9723 11.265 8.72199 8.48179 7.90104
threshold=-0.055829473384251892 -0.50283297523532111 1602.4602862557706 11.666378838005736 -0.23900900237710246 1.6000000000000003 -0.34175217879684366 -0.15024162794969534 0.018843063645256303 -0.70833333333333315 -1.2656315669297376 1573.6458214524225 1.3666666666666667 0.62485112510969143 11.246347523167193 14.246153603102224 0.16277371043490221 -1.6905765384672562 13.126512366003634 2.4471442484008405 4.1055555555555561 -0.15720537414764194 1554.1119146409717 0.11510950147240306 0.089377533825509212 1.5857142857142861 1.5165869905504041 4.4695974914863728 10.947706853926821 1.7408343485526381 0.20714285714285718
decision_type=10 8 2 10 8 8 8 10 10 8 10 10 10 10 10 10 10 10 8 10 8 10 10 8 10 10 10 10 10 8 8
left_child=1 3 6 17 15 11 10 18 -7 12 27 -6 -5 20 -15 24 -11 22 29 21 -8 -9 -1 -21 -3 -17 -12 -2 -20 -4 -19
right_child=2 4 7 9 5 8 13 19 -10 16 26 -13 -14 14 -16 25 -18 30 28 23 -22 -23 -24 -25 -26 -27 -28 -29 -30 -31 -32
leaf_value=-0.020772881563778357 -0.01952358965293377 -0.00091435566268873488 0.0036199363526991505 -0.0094207565512086956 -0.00011966129246248962 -0.0064947052531639498 -0.0010260504166553826 0.00038259149212158057 0.0035736326394443271 -0.00025516951102488882 0.0030581613677057007 0.005789561881777705 -0.018539484845343818 -0.011758251468575107 0.0017044671234282165 -0.0060998947647989705 -0.0085924304320082259 -0.013118076541579983 0.016295965475058748 -0.00046361209762227237 0.0057871464013803239 0.010505819462609747 -0.013978832884655432 0.013940528899085907 -0.012132560916866797 0.0057913888095147336 -0.0047163161721225063 -0.0064270840366571292 0.0037297325730593482 -0.0082564604051843255 0
leaf_weight=202.13903982937336 16.556176453828812 17.753719389438629 12.687504485249518 108.23305583000183 297.48348534107208 270.40142019093037 57.716502025723457 23.436309531331062 57.234191611409187 64.7076386064291 51.022155582904816 150.7314231544733 65.794507294893265 23.003412991762161 129.26808516681194 45.047629535198212 125.20484614372253 15.600908741354941 13.622086971998216 10.036370918154715 463.08865304291248 270.04471410810947 58.341270908713341 432.06678411364555 162.89443288743496 18.214924663305283 51.526105538010597 17.50146572291851 15.067533105611799 20.118065431714058 9.5998541414737719
leaf_count=841 69 74 53 451 1242 1128 241 98 239 270 213 630 274 96 540 188 522 65 57 42 1935 1130 243 1809 679 76 215 73 63 84 40
internal_value=-0.000109067 -0.00684558 0.00688997 -0.0131636 -0.00282074 -0.000920958 0.00252902 0.0113198 -0.00473575 -0.00915517 -0.00382698 0.0018675 -0.0128687 0.00381909 -0.00032921 -0.0088635 -0.00575197 -0.0182698 0.00257049 0.0120512 0.00503202 0.00969755 -0.0192515 0.0136134 -0.0110303 -0.0026754 -0.000847825 -0.0127955 0.00969839 -0.00366218 -0.00812148
internal_weight=3276.14 1669.38 1606.76 649.621 1019.76 775.851 809.683 797.079 327.636 363.94 136.606 448.215 174.028 673.077 152.271 243.911 189.912 285.681 61.4952 735.584 520.805 293.481 260.48 442.103 180.648 63.2626 102.548 34.0576 28.6896 32.8056 25.2008
internal_count=13680 6962 6718 2706 4256 3239 3382 3336 1367 1517 570 1872 725 2812 636 1017 792 1189 257 3079 2176 1228 1084 1851 753 264 428 142 120 137 105
is_linear=0
shrinkage=0.011377


Tree=2
num_leaves=32
num_cat=0
split_feature=427 346 346 343 350 343 350 317 362 276 256 105 350 340 317 358 301 350 414 320 365 353 353 88 100 337 244 337 377 354 413
split_gain=1157.96 276.118 265.23 98.1804 93.449 60.1164 58.2588 49.7213 39.4064 39.3268 34.3582 31.5275 27.2634 23.5398 23.2137 22.4038 21.5482 21.4021 19.2154 17.9161 17.2568 16.7047 14.5352 14.3856 13.9619 12.7537 12.6926 12.3554 12.295 12.0292 5.1095
threshold=2.5000000000000004 -1.3999999999999997 0.71666666666666667 0.40555555555555595 -0.44200087980837471 3.4000000000000017 0.047725910922721909 -0.12034171836683603 -1.1435463207885237 5.5500000000000007 1.2092878500000002 12.591009474664885 -0.28013128033521484 4.4000000000000021 0.35751539858299924 -2.1833333333333327 3.2693867781730606 0.5476614663160958 -0.58333333333333315 -0.0066418921543188493 -0.055806062514757393 -0.7903161220362539 0.094579299843782216 2.1055555555555561 1.1125819423166532 1.0000000180025095e-35 2.0178250632876877 0.10898610000000017 -0.0014771056476090996 -1.9666666666666657 -36.912287053357538
decision_type=8 8 10 8 10 10 10 10 10 10 10 8 10 10 10 10 8 10 10 10 10 10 10 8 10 10 10 10 10 10 10
left_child=2 5 4 8 14 10 13 17 20 16 12 28 -2 23 22 26 -5 -6 -9 -11 -3 -10 -1 -4 -17 -16 -7 -12 -8 -13 -15
right_child=1 3 6 9 7 15 11 18 21 19 27 29 -14 30 25 24 -18 -19 -20 -21 -22 -23 -24 -25 -26 -27 -28 -29 -30 -31 -32
leaf_value=0.0019721899728411593 0.0011685344518780367 -0.0026518665291310451 0.0088225490346610057 -0.0078888624713314114 -0.0022570341912236266 -0.018562434521218651 -0.012808967445149691 -0.0027887161568913681 -0.010418062193390212 -0.0022471106454115385 -0.01066195990030523 0.014784545009368551 -0.010227399681649336 0.0085678646224124182 0.011679259180312139 -0.016818513664644579 -0.0020852670024425028 -0.0092631640338948999 0.0029296168134817896 -0.01370338410560562 0.0056359431501720224 -0.0016988801806209755 0.0068235640582092741 0.013098049689565999 -0.00024691939952562999 -0.0029748007680056305 -0.024860521888471966 -0.017714411991469874 0.00037954668498819353 0.0059037463884597007 0.015301605278983402
leaf_weight=167.76507763564587 34.549139991402626 41.196574732661247 292.89334245026112 179.56954091787338 127.80318421125412 125.29625411331654 13.645466655492781 104.93032003939152 37.186984524130821 20.392773285508156 47.864468574523926 22.911406338214874 127.16862909495831 15.724518552422522 94.758819788694382 14.909733757376673 153.71921993792057 101.09303663671017 276.4162712842226 132.73552082479 154.26881761848927 120.97886840999126 152.74606555700302 156.3041817098856 11.787482038140295 8.360826298594473 62.00736403465271 98.266855239868164 27.743420913815498 143.06579986214638 207.95158234238625
leaf_count=701 144 172 1227 748 533 520 57 438 155 85 199 96 529 66 397 62 641 421 1155 552 645 505 639 656 49 35 257 408 116 599 873
internal_value=-0.000107714 -0.00812662 0.00559775 -0.00408893 0.00168998 -0.0146262 0.0101875 -0.00115984 0.00047259 -0.00740527 -0.0114062 0.00491474 -0.00779257 0.0118124 0.00579524 -0.0192579 -0.00521228 -0.00535155 0.00135607 -0.012178 0.00388899 -0.00374924 0.00428436 0.0103104 -0.00950378 0.0104907 -0.0206479 -0.0154049 -0.00396808 0.00713005 0.0148285
internal_weight=3276.01 1361.9 1914.11 840.048 1033.87 521.85 880.24 610.243 353.631 486.417 307.849 207.366 161.718 672.874 423.631 214.001 333.289 228.896 381.347 153.128 195.465 158.166 320.511 449.198 26.6972 103.12 187.304 146.131 41.3889 165.977 223.676
internal_count=13680 5671 8009 3503 4319 2168 3690 2547 1477 2026 1280 868 673 2822 1772 888 1389 954 1593 637 817 660 1340 1883 111 432 777 607 173 695 939
is_linear=0
shrinkage=0.011377


Tree=3
num_leaves=32
num_cat=0
split_feature=317 343 75 346 359 340 353 422 275 359 337 388 343 401 401 317 328 330 415 346 184 75 15 275 246 256 359 389 337 157 398
split_gain=1110.16 317.559 313.294 115.027 89.1036 58.5723 44.831 39.7268 38.1513 37.8868 29.579 29.245 28.6289 23.7214 21.8033 21.4431 21.1259 20.3594 20.1407 19.9542 18.9056 18.9014 17.1817 16.6913 16.5613 16.1232 15.6446 10.4101 10.3388 8.98572 4.67734
threshold=-0.095147735914595688 0.60555555555555618 1599.7801551482626 -1.6999999999999995 -1.5624798888681435 -0.79999999999999793 0.21261895136983441 -7.4999999999999991 4.9142980857755161 -1.8534888166068557 0.46992640000000019 -0.89444444444444404 4.3285714285714301 -0.19400669937162404 -0.12418000288561058 -0.8432182990325473 -0.17931294999999997 0.91783010000000009 0.29166666666666669 0.91666666666666685 6.1000000000000005 1549.1802670272566 0.89444444444444449 5.2557621227531444 0.81666666666666676 0.92422400000000005 -2.6217186558708749 -1.1653799261457225 -0.14731299999999997 1657.393243596209 0.034829365913020056
decision_type=10 8 10 8 8 10 10 8 10 8 10 10 10 10 10 10 10 10 8 10 10 10 10 10 8 10 10 10 8 10 10
left_child=1 4 5 12 13 7 8 17 14 21 24 22 20 30 -4 -13 -15 -2 -11 28 -3 -5 -6 -9 -7 -12 -14 -10 -8 -21 -1
right_child=2 3 6 9 11 10 19 23 27 18 25 15 26 16 -16 -17 -18 -19 -20 29 -22 -23 -24 -25 -26 -27 -28 -29 -30 -31 -32
leaf_value=-0.013469185211021806 0.0012977248136723232 -0.0151254456445422 -0.010857484113849842 -0.015385070826821882 0.0073715779530140997 -0.0090720940147822199 0.012747135703185974 -0.012461033218927511 0.015579789256647519 -0.010189511444218306 0.00090749280362645594 -0.0091496656031951444 -0.022390130073055313 -0.0093589654568383886 0.0035677818234842243 0.00041639299707547917 0.0016893457787343562 -0.016561528861763413 -0.0043728463335419116 0.011112458724475027 -0.0017792881123517277 -0.0057078761926994074 -0.0033765242052214237 -0.003903231366228051 0.0043157487493808199 -0.012974207578027596 -0.011275169390482094 0.0085911396063510156 0.0067302132463085236 0.01486182013414517 -0.02375791658681561
leaf_weight=10.120762616395952 186.85215395689011 212.16597618162632 17.228337600827217 113.60841424763203 118.13515417277813 12.210488900542257 61.421656608581543 54.562459543347359 33.527721419930458 114.75437434017658 22.762596398591995 33.902969181537628 118.12300372123718 98.125036582350731 63.699695959687233 287.64409928023815 29.020841494202614 8.6421799659728986 234.66873390972614 111.78692443668842 14.697214335203169 33.948731139302254 22.992705255746841 64.266181528568268 574.72549344599247 20.648016422986984 19.057295724749565 156.31924597918987 92.974316701292992 319.90996572375298 13.258574843406675
leaf_count=42 780 879 72 471 494 51 258 227 141 477 95 141 488 408 267 1201 121 36 977 470 61 141 96 268 2405 86 79 656 390 1347 55
internal_value=-0.000106384 -0.00742798 0.00588496 -0.0118841 -0.00117091 0.00136635 0.0108665 -0.00264535 0.00703752 -0.00832484 0.00336685 0.0013027 -0.0167428 -0.00877429 0.000496186 -0.000592159 -0.00683692 0.000507856 -0.00628326 0.0126354 -0.014261 -0.013159 0.00562019 -0.00783319 0.00403713 -0.00569469 -0.0208465 0.00982573 0.00912425 0.0138911 -0.0193073
internal_weight=3275.76 1474.22 1801.54 861.024 613.2 944.67 856.868 314.323 270.775 496.98 630.347 462.675 364.043 150.525 80.928 321.547 127.146 195.494 349.423 586.093 226.863 147.557 141.128 118.829 586.936 43.4106 137.18 189.847 154.396 431.697 23.3793
internal_count=13680 6131 7549 3573 2558 3948 3601 1311 1136 2066 2637 1932 1507 626 339 1342 529 816 1454 2465 940 612 590 495 2456 181 567 797 648 1817 97
is_linear=0
shrinkage=0.011377


Tree=4
num_leaves=31
num_cat=0
split_feature=427 75 263 340 160 340 358 75 102 274 343 320 183 323 183 265 75 323 288 343 43 332 180 275 272 389 121 320 333 193
split_gain=1109.54 269.879 267.474 101.812 81.8567 68.6336 65.859 37.294 37.1232 36.9172 34.795 30.1383 28.334 26.453 25.9987 24.9154 24.8932 22.852 21.2374 18.0637 17.6134 17.2462 15.703 15.499 15.145 13.4125 12.7264 12.6467 12.4859 8.57198
threshold=2.5000000000000004 1617.274279147776 12.301497964515839 -0.999999999999999 2.2250000000000005 -0.79999999999999793 -1.9999999999999993 1580.3374956534769 1.3322592 6.5277777777777786 -0.40000000000000113 -0.28824798757762304 5.1543489319063562 -0.65161494242444207 4.0986207749037549 5.9500000000000011 1550.1046904026423 -0.093886070558408335 0.10448657393269072 -0.40000000000000113 0.26393798377464439 0.46263629792574529 11.528928597951225 4.7233157407561519 5.1661376833965456 -0.19317298092073137 7.9000000000000012 -0.90978587906240871 -0.4173467899999998 11.900000000000002
decision_type=8 10 8 10 10 8 10 10 10 8 10 10 10 10 10 10 10 10 8 10 10 10 10 10 10 10 10 10 10 8
left_child=1 5 6 9 10 12 7 21 16 13 27 26 19 -4 -13 -12 -5 -9 23 -1 -10 -2 -14 -8 -20 -6 -7 -3 -11 -27
right_child=2 4 3 8 25 11 18 17 20 28 15 14 22 -15 -16 -17 -18 -19 24 -21 -22 -23 -24 -25 -26 29 -28 -29 -30 -31
leaf_value=0.0034144737085797855 -0.01569214463134903 0.016495434357625779 -0.018916862593273121 -0.00029919822153172323 0.0010894617891699376 0.0060417654764956486 -0.017386665152357539 -0.012305990332685009 -0.019229232286061142 -0.0033925004360943192 0.008568317121950433 0.0040997411052065887 -0.012242514278119549 -0.0083749545198440797 -0.0018297713481669738 -0.0064741810420245001 0.0062945056264063727 0.0035864407818292409 -0.00078970539814296698 -0.0022463630328218294 -0.0044347076374969948 -0.020853558227912128 -0.0027941418743880329 -0.0062989525962441686 -0.011219682954563636 -0.0053157992338861947 0.013200355818820049 0.01203770481761891 0.0071575337887212305 -0.021043273637553438
leaf_weight=113.607366964221 217.79195998609066 101.61312562227249 34.568107053637505 215.48451635241508 14.108069717884062 230.01860558986664 36.418578058481216 41.521968439221382 12.494162276387213 59.372335240244865 208.27501426637173 298.4519307166338 44.591970458626747 283.97648659348488 140.88721053302288 15.29479146003723 112.95029999315739 16.30598109960556 61.338914781808853 203.93289570510387 62.66812963783741 136.39230464398861 46.549191877245903 29.597207501530647 25.520147725939751 8.4115221351385134 37.38147734105587 437.0014386922121 19.217365756630898 9.6327274292707425
leaf_count=475 900 429 143 899 59 964 151 172 52 247 875 1250 185 1179 589 64 473 68 255 850 261 562 194 123 106 35 157 1843 80 40
internal_value=-0.000105073 0.00549438 -0.00793568 -0.00370655 0.0105624 0.00188516 -0.0139304 -0.0162968 0.000317576 -0.00779624 0.0113126 0.00403123 -0.00182598 -0.00951919 0.00219818 0.00753901 0.00196832 -0.00782411 -0.0075524 -0.000220938 -0.00689497 -0.01768 -0.00741748 -0.0124166 -0.00385479 -0.00721834 0.00704275 0.0128788 -0.000812113 -0.0137154
internal_weight=3275.38 1909.76 1365.62 800.731 794.337 1115.42 564.887 412.012 403.597 397.134 762.184 706.739 408.681 318.545 439.339 223.57 328.435 57.8279 152.875 317.54 75.1623 354.184 91.1412 66.0158 86.8591 32.1523 267.4 538.615 78.5897 18.0442
internal_count=13680 8009 5671 3334 3345 4664 2337 1702 1685 1649 3211 2960 1704 1322 1839 939 1372 240 635 1325 313 1462 379 274 361 134 1121 2272 327 75
is_linear=0
shrinkage=0.011377


Tree=5
num_leaves=32
num_cat=0
split_feature=3 3 3 344 3 353 343 357 317 344 275 225 3 92 360 231 337 346 157 301 217 65 285 3 388 329 301 363 3 289 33
split_gain=1563.73 354.817 211.092 62.306 54.5656 45.4335 33.2986 23.2475 23.0477 21.3592 19.6008 17.7531 17.2029 16.8529 16.8313 16.7532 13.7642 13.571 13.2148 12.6805 12.6702 13.8728 12.2608 11.9635 11.4162 11.1256 9.91111 6.94312 6.68353 6.90715 0.729522
threshold=-58.802967154653516 88.37875081746985 -178.3306297506127 0.028921001212079706 199.79932313952773 0.25121177632688291 3.7999999999999998 0.19999999999999954 -0.10118930701732538 0.73710474884705779 6.4198040146429678 0.82083818714415546 6.0141836198129122 1.5263017478118743 -0.79999999999999927 1.074967699773141 -0.049796899999999991 -1.7666666666666666 1456.9459397621579 3.3935705950746944 3.5500000000000003 3.1378193646169841 0.36490192527702076 -293.34540638336858 -0.85357142857142831 -0.023886999650526545 3.746429380485027 -0.087331116950682144 330.25227498129101 0.083085938140104662 7.7000000000000002
decision_type=2 2 2 8 2 10 8 8 10 8 10 8 2 10 8 10 8 10 8 10 10 10 10 2 10 8 10 10 2 8 10
left_child=2 3 15 12 9 6 10 22 14 25 -4 -11 18 -10 -5 20 27 -8 -2 -9 21 -1 -7 -18 -14 -3 -22 -17 29 -6 -30
right_child=1 4 5 8 28 7 17 19 13 11 -12 -13 24 -15 -16 16 23 -19 -20 -21 26 -23 -24 -25 -26 -27 -28 -29 30 -31 -32
leaf_value=-0.011990070030306764 0.0090327491203469924 0.0041733827138808327 -0.0083175764431921012 0.0030180027724243338 0.0033703274566928058 -0.010453285865942437 -0.019286063236853244 -0.0024074465429561064 0.0020001892079959389 0.0058674335307112527 -0.001204610773510468 -0.0085369987558189305 0.0081103639514749221 -0.0040670140971208711 -0.0051337441256877336 -0.0030286362185517508 -0.022601179500839393 -0.011335285662882265 0.00072578936661677352 0.0057782276180509415 -0.019906557290703657 0.0039301592011048323 0.00021597176146486872 -0.017766417628473724 0.0040601465727016402 0.010350403288546473 -0.0062318995200818066 -0.016102418350200591 0.018007092066428219 0.01392829155823979 0.015067660695043053
leaf_weight=34.139637053012848 27.955510482192039 41.468559756875038 348.36392325162888 39.154572889208794 8.2828079462051374 46.21648471057415 41.996795400977135 51.453311368823051 285.64180307090282 100.08617621660233 58.593150123953819 12.448919191956518 139.79915347695351 74.766410380601883 201.32492373883724 10.171079486608507 97.363332137465477 82.325963780283928 218.75700882077217 46.743656277656555 36.415511280298233 8.9345344305038434 19.953204125165939 208.23094892501831 253.50033831596375 422.88426370918751 8.4665209650993329 10.903946980834005 60.384832605719566 264.46861547231674 13.685789108276365
leaf_count=141 117 174 1445 163 35 192 173 214 1194 420 244 52 587 312 837 42 400 341 915 195 150 37 83 858 1063 1783 35 45 256 1119 58
internal_value=-0.000103785 0.00552658 -0.0110809 0.00155241 0.0108654 -0.00725088 -0.00886811 -0.00202324 -0.00107855 0.00872111 -0.00729357 0.00427351 0.0040226 0.00074143 -0.00380631 -0.0175066 -0.0186936 -0.0140217 0.00166729 0.00148874 -0.0130972 -0.00868695 -0.00723553 -0.0193071 0.00549994 0.00979887 -0.0173282 -0.0097956 0.0144318 0.0136078 0.0174649
internal_weight=3274.88 2164.61 1110.27 1240.9 923.71 695.646 531.28 164.367 600.888 576.888 406.957 112.535 640.012 360.408 240.479 414.626 326.669 124.323 246.713 98.197 87.9562 43.0742 66.1697 305.594 393.299 464.353 44.882 21.075 346.822 272.751 74.0706
internal_count=13680 9085 4595 5188 3897 2887 2203 684 2506 2429 1689 472 2682 1506 1000 1708 1345 514 1032 409 363 178 275 1258 1650 1957 185 87 1468 1154 314
is_linear=0
shrinkage=0.011377


Tree=6
num_leaves=30
num_cat=0
split_feature=3 3 3 344 3 341 256 341 343 342 344 225 372 3 3 377 291 157 182 253 157 307 260 40 129 426 3 167 372
split_gain=1527.03 348.255 205.148 60.9559 53.7847 43.0178 25.134 25.0983 21.8135 21.235 20.9871 17.3581 16.8912 16.8552 15.6881 14.1284 13.8365 12.9475 11.7983 11.3834 10.5113 9.77347 9.24325 9.1275 8.68683 6.96006 6.60815 5.11191 1.50661
threshold=-58.802967154653516 88.37875081746985 -178.3306297506127 0.028921001212079706 199.79932313952773 -3.1380110975820608 1.2933116000000002 -0.60229928943930744 3.7999999999999998 1.0000000180025095e-35 0.73710474884705779 0.82083818714415546 0.023865672866104404 6.0141836198129122 -261.22566841256622 0.023244043907280503 0.10733177717800001 1456.9459397621579 7.6333333333333337 0.70237896478134265 1565.9189085530245 0.8100090047912174 11.674149664766107 2.7888888888888892 0.54318519672621857 49.500000000000007 330.25227498129101 0.34876252280293435 0.01132874147935565
decision_type=2 2 2 8 2 10 10 10 8 10 8 8 10 2 2 10 10 8 10 10 10 10 10 8 8 10 2 8 10
left_child=2 3 14 13 10 8 9 15 18 -7 20 -12 -9 17 24 -5 -8 -2 -4 -15 -3 23 -10 -16 25 -1 27 -6 -28
right_child=1 4 5 7 26 6 16 12 22 -11 11 -13 -14 19 21 -17 -18 -19 -20 -21 -22 -23 -24 -25 -26 -27 28 -29 -30
leaf_value=-0.021240127180854797 0.0089472362082528307 0.0061271632326833124 -0.0080721820684183446 -0.0042836392842770183 0.010976265066901136 -0.0010033178534670627 -0.0025187899965093004 0.002333489991720152 -0.0081727960689798318 -0.0062893583008482275 0.0058081285706632372 -0.0084251551778294874 -0.0051934865125792245 0.0074580199123632906 -0.0044480049200387815 0.0038427345375717896 -0.012697289298897267 0.00071764156110088156 -0.021497333245000319 0.0035810407123568126 0.01052947557685802 -0.0069950696843996277 -0.019651214898205056 -0.016460969540557729 -0.0092652980115860133 -0.013300263068119961 0.017917569485760017 0.014464214863952688 0.012725672260488763
leaf_weight=148.61311069130898 27.901930719614029 86.339060559868813 108.1185087710619 264.30009905993938 75.431951001286507 159.91627682745457 21.97694031894207 260.48285749554634 11.148517966270445 255.65578337013721 99.958567008376122 12.470568940043448 45.297215834259987 188.74039487540722 8.5194393247365934 30.926682695746422 81.194519862532616 218.72383220493793 9.1971196979284269 204.08887031674385 376.97621189057827 16.758119776844978 49.357611581683159 216.58718867599964 9.4817122071981412 15.856393799185751 65.5363809466362 196.44178058207035 8.2223244458436948
leaf_count=609 117 363 447 1099 320 666 91 1089 46 1060 420 52 189 793 35 129 336 915 38 857 1594 69 203 891 39 65 279 834 35
internal_value=-0.000102509 0.00547079 -0.0109339 0.00153531 0.0107691 -0.00715885 -0.00550333 -0.00106605 -0.011988 -0.00425534 0.00863913 0.00422891 0.00121832 0.00398033 -0.0172576 -0.0034322 -0.0105296 0.00164892 -0.00912536 0.00544392 0.00970922 -0.0153824 -0.0175373 -0.0160065 -0.0198644 -0.0204751 0.014317 0.0134967 0.0173397
internal_weight=3274.22 2161.84 1112.38 1240.46 921.377 696.565 518.744 601.007 177.822 415.572 575.744 112.429 305.78 639.455 415.816 295.227 103.171 246.626 117.316 392.829 463.315 241.865 60.5061 225.107 173.951 164.47 345.632 271.874 73.7587
internal_count=13680 9085 4595 5188 3897 2887 2153 2506 734 1726 2429 472 1278 2682 1708 1228 427 1032 485 1650 1957 995 249 926 713 674 1468 1154 314
is_linear=0
shrinkage=0.011377


Tree=7
num_leaves=31
num_cat=0
split_feature=3 3 3 344 3 353 344 341 334 344 229 341 3 337 256 126 377 161 35 256 209 392 329 282 149 131 3 167 229 244
split_gain=1491.29 341.837 199.451 59.635 53.0265 43.7755 28.5429 24.5166 23.0192 20.6229 19.3679 19.1593 16.5145 15.8785 15.835 14.2501 14.0516 13.9142 15.4919 12.8342 12.5005 12.4639 10.9403 9.67557 7.84817 7.41604 6.5366 5.04509 2.94184 1.47049
threshold=-58.802967154653516 88.37875081746985 -178.3306297506127 0.028921001212079706 199.79932313952773 0.25121177632688291 0.96769783385241859 -0.51790568220523692 -0.035664800000000087 0.73710474884705779 1645.5015069276724 -4.5006076038837444 6.0141836198129122 0.094417100000000059 0.75077438333333346 0.33613511896600134 0.023244043907280503 2.7075902152245961 5.5239129057633418 0.91226365000000009 19.049000000000003 1.2886183473741057 -0.023886999650526545 0.41353557573205174 0.57410714285714304 0.13271508030303028 330.25227498129101 0.34876252280293435 1848.3330122392581 1.2367409008508379
decision_type=2 2 2 8 2 10 8 10 8 8 10 10 2 8 10 10 10 10 8 10 10 10 8 10 10 8 2 8 10 8
left_child=2 3 13 12 9 6 10 16 23 22 -4 -8 20 24 -9 -11 -5 18 -15 -10 -2 -14 -3 -7 -1 -26 27 -6 -19 -28
right_child=1 4 5 7 26 8 11 14 19 15 -12 -13 21 17 -16 -17 -18 28 -20 -21 -22 -23 -24 -25 25 -27 29 -29 -30 -31
leaf_value=-0.019665498465526812 0.002196745051516381 0.0040345095836634513 -0.0028126434883406241 -0.004146096971228504 0.010880351043532252 -0.0051455416765648415 -0.016469669420164094 0.0040493565130726838 0.0037021698248872821 -0.0027464025127352095 -0.010890455196527713 -0.0093748354110531444 0.0047270726035811735 -0.01799374855805471 -0.0012158019337889742 0.006553725706696034 0.0039188167532021112 -0.02480193733637202 -0.011025772154453342 -0.0054263145987087872 -0.0099663077753726938 0.01160807800636075 0.010169266783261875 -0.016272374155994692 -0.011206460241754561 0.000824002144698685 0.017790119835470814 0.014350457362702343 -0.018809711720692679 0.012653973970813996
leaf_weight=10.451274767518042 235.07118503749371 41.348006621003151 135.54899789392948 273.38880942761898 75.232313558459282 48.222523719072342 59.632858395576477 140.28026559948921 76.612375557422638 28.606320008635521 53.627573505043983 284.05706238746643 354.65503394603729 265.19559378921986 156.31143932044506 83.716020360589027 31.142538338899612 39.180811747908592 48.971160098910332 26.94337759912014 11.467685788869856 37.704395323991776 420.9195408821106 12.807483360171316 29.934663876891136 8.5120588243007642 65.236184179782867 195.75031718611717 14.690998584032057 8.2037292420864087
leaf_count=43 984 174 563 1136 320 200 245 587 319 120 222 1173 1491 1086 653 352 130 160 201 112 48 159 1783 53 123 35 279 834 60 35
internal_value=-0.000101257 0.00541567 -0.0107899 0.00151841 0.0106742 -0.00706833 -0.00865241 -0.00105371 -0.00193938 0.00855812 -0.00510283 -0.010606 0.00393851 -0.0170151 0.00127437 0.00418482 -0.0033212 -0.0178246 -0.0169078 0.00132667 0.00163075 0.00538847 0.00962064 -0.00748168 -0.0109211 -0.00854204 0.0142042 0.0133873 -0.0231694 0.0172173
internal_weight=3273.42 2159.03 1114.39 1240.02 919.012 697.452 532.866 601.123 164.586 574.59 189.177 343.69 638.898 416.937 296.592 112.322 304.531 368.039 314.167 103.556 246.539 392.359 462.268 61.03 48.898 38.4467 344.423 270.983 53.8718 73.4399
internal_count=13680 9085 4595 5188 3897 2887 2203 2506 684 2429 785 1418 2682 1708 1240 472 1266 1507 1287 431 1032 1650 1957 253 201 158 1468 1154 220 314
is_linear=0
shrinkage=0.011377


Tree=8
num_leaves=30
num_cat=0
split_feature=3 3 3 3 3 342 286 349 342 101 355 313 104 189 327 189 97 102 40 103 320 161 368 306 426 234 3 167 372
split_gain=1456.51 335.555 193.997 52.2918 39.7737 38.357 23.8741 23.1159 20.8768 17.7856 17.6788 17.4455 16.4894 15.5462 15.2096 20.8391 15.0278 14.9013 14.3462 14.2056 12.6068 13.2806 11.9424 9.66892 8.46257 7.67007 6.46874 4.98067 1.49481
threshold=-58.802967154653516 88.37875081746985 -178.3306297506127 199.79932313952773 6.0141836198129122 1.6000000000000003 0.11021301990896355 -0.39999999999999897 2.6250000000000013 1.6810229000000005 1.0000000000000004 1617.6806089109343 12.133333333333335 4.5467806018909753 -0.15388799999999997 6.1027344863458142 0.81666666666666676 1.2575572500000003 3.3166666666666669 7.9000000000000012 0.50819590936753722 2.7075902152245961 0.026607428585954253 0.54255952380952388 10.500000000000002 0.90480280990474904 330.25227498129101 0.34876252280293435 0.01132874147935565
decision_type=2 2 2 2 2 8 10 8 10 10 8 10 8 10 8 10 8 10 8 8 8 10 10 10 10 10 2 8 10
left_child=2 4 11 10 8 6 9 22 19 -4 18 24 -9 -8 23 -16 -10 -12 -3 -2 21 -13 -6 -7 -1 -22 27 -5 -28
right_child=1 3 5 26 7 14 13 12 16 -11 17 20 -14 -15 15 -17 -18 -19 -20 -21 25 -23 -24 -25 -26 -27 28 -29 -30
leaf_value=-0.00040107750106850007 -0.013437920970450438 -0.0053383822688497281 -0.0013503599632143726 0.010785630256913321 0.0046733675525384693 -0.0035009907261853487 -0.0017319855902107805 -0.002517543518401992 -0.0027133442168099002 -0.015975731997726186 0.0052344427121086287 -0.013308439607674492 0.0029125567306935579 -0.010948850192265576 -0.0050970638965690618 -0.013593113860004436 -0.012250924450231949 -0.010309687904393764 0.0095229972720003251 0.00091628131814219598 -0.017597163460560426 -0.022581329668978474 0.010763958114132046 -0.012994098278920571 -0.01351964033446881 -0.021949278558998503 0.017676179805300059 0.014238586867206336 0.01248530139272736
leaf_weight=11.423512607812883 9.1226999759674055 8.5506229698657972 213.41943374276161 75.030747219920158 261.530079215765 15.314044564962385 32.752906918525696 99.880216538906097 125.84839920699596 11.332766696810721 68.299141779541969 126.09975503385067 262.88325656950474 85.684670075774193 138.09697209298611 51.246453389525414 25.764221712946892 9.0357714891433698 487.54400449991226 404.96294343471527 165.28219723701477 23.782064378261566 49.58542700111866 150.45844672620296 14.388871341943739 77.005690291523933 64.95276215672493 195.04777029156685 8.1616346687078458
leaf_count=47 38 36 886 320 1100 63 136 417 523 47 288 516 1102 354 571 211 107 38 2067 1692 675 97 209 619 59 314 279 834 35
internal_value=-0.000100025 0.00536119 -0.0106488 0.0105804 0.0015017 -0.0069793 -0.0042667 0.00336891 -0.000722525 -0.00208814 0.00847799 -0.0167792 0.00141737 -0.0084004 -0.00960065 -0.00739688 -0.00433451 0.00341755 0.00926675 0.000599885 -0.0173756 -0.0147803 0.00564427 -0.0121174 -0.00771589 -0.0189807 0.0140932 0.0132796 0.0170976
internal_weight=3272.49 2156.2 1116.29 916.622 1239.58 698.306 343.19 673.879 565.698 224.752 573.43 417.982 362.763 118.438 355.116 189.343 151.613 77.3349 496.095 414.086 392.17 149.882 311.116 165.772 25.8124 242.288 343.193 270.079 73.1144
internal_count=13680 9085 4595 3897 5188 2887 1423 2828 2360 933 2429 1708 1519 490 1464 782 630 326 2103 1730 1602 613 1309 682 106 989 1468 1154 314
is_linear=0
shrinkage=0.011377


Tree=9
num_leaves=32
num_cat=0
split_feature=317 313 75 343 1 313 313 332 359 35 339 92 345 1 157 420 166 313 414 315 192 313 164 393 139 420 419 294 13 332 310
split_gain=979.567 306.069 258.95 104.09 86.5369 85.7346 45.0545 38.7481 32.6319 30.8851 30.0919 26.0722 25.7018 25.4245 23.8586 23.6463 23.0547 21.9507 19.8715 19.7024 18.6303 16.5866 14.0616 13.6879 13.0467 12.4865 11.7606 10.3803 8.58206 4.86991 4.38239
threshold=-0.095147735914595688 1638.4381332752225 1599.7801551482626 0.84999999999999976 1565.062630442736 1611.1591738685872 1619.2657562083343 0.45432993497569202 -1.7723384708847669 5.6468020317896093 -1.9999999999999993 2.0503804810976463 0.40000000000000024 1767.2090980349526 1538.2119111354593 -11.499999999999998 1.1055555555555558 1536.0075469151909 -0.41666666666666657 -0.87499999999999989 5.5223222350552463 1443.0957412097143 1.5568783374955391 -0.064285714285714238 0.70833333333333337 -9.4999999999999982 -22.499999999999996 11.718756295121372 0.52074178154011397 0.37486144912493852 0.66628418359130037
decision_type=10 10 10 8 2 10 8 10 8 10 10 8 10 2 8 10 10 8 8 10 10 10 8 8 10 10 10 10 10 10 10
left_child=1 3 5 8 16 7 13 14 24 17 23 -10 25 21 -2 19 20 -5 -12 -6 -3 -4 -11 -8 -1 -7 -17 -14 -9 -18 -15
right_child=2 4 6 9 15 12 10 28 11 22 18 -13 27 30 -16 26 29 -19 -20 -21 -22 -23 -24 -25 -26 -27 -28 -29 -30 -31 -32
leaf_value=-0.015743843114129883 0.0019628691993578669 -0.015237097542370752 0.015151717268655702 -0.0046172269692854448 -0.0096799936036408851 -0.0085731676658384048 -0.016839933409556026 -0.0011900155195912969 0.0026689749710916738 -0.0015081776060320454 -0.0020592534665308452 -0.016266337524947626 0.0024856051958932848 0.012975016630014019 0.0061227220212754768 -0.01712424365290894 -0.018192277605020818 -0.010345516718956876 0.010058350136008332 0.0078636292204263165 -0.0047801974533068971 0.0094598547542889214 0.013582929454414824 -0.0002713621579344023 -0.0036503972958401689 -0.018853076417695132 -0.0070624047511730218 -0.011870992454566215 -0.0098191005523340456 -0.023197433814184105 0.016850606976031884
leaf_weight=14.276291728019713 484.91008985042572 297.26950959861279 76.839348807930946 146.70620949566364 12.56776003539562 38.26983730494976 10.518265441060064 26.946555882692337 396.25281152129173 32.862969323992729 23.566363230347633 9.6385909765958768 28.679107248783112 61.15451143682003 282.43278102576733 17.577629074454308 50.555380433797836 211.42850343883038 68.173644930124283 24.305877313017845 23.83474038541317 483.27027954161167 10.55645766854286 16.709691882133487 60.450377508997917 25.505758196115494 104.29190409183502 8.4335618019103986 33.451725572347641 50.486819237470627 99.50413079559803
leaf_count=59 2031 1214 329 608 52 158 44 112 1659 136 99 40 119 263 1189 72 206 871 289 101 98 2058 44 70 251 105 430 35 139 205 428
internal_value=3.89212e-05 -0.00684765 0.00573656 -0.002625 -0.0132603 0.00159649 0.0103148 0.0028034 0.000947084 -0.00690048 0.00382777 0.00221915 -0.00830508 0.0113855 0.00349403 -0.0060989 -0.0159531 -0.00799913 0.00694516 0.00188293 -0.0144611 0.0102408 0.00216049 -0.00667409 -0.00596171 -0.0126855 -0.00851424 -0.000776285 -0.00597006 -0.020694 0.0153758
internal_weight=3231.43 1463.06 1768.37 882.172 580.89 928.629 839.736 827.741 480.618 401.554 118.968 405.891 100.888 720.768 767.343 158.743 422.146 358.135 91.74 36.8736 321.104 560.11 43.4194 27.228 74.7267 63.7756 121.87 37.1127 60.3983 101.042 160.659
internal_count=13514 6046 7468 3668 2378 3888 3580 3471 2009 1659 502 1699 417 3078 3220 655 1723 1479 388 153 1312 2387 180 114 310 263 502 154 251 411 691
is_linear=0
shrinkage=0.011377


Tree=10
num_leaves=31
num_cat=0
split_feature=347 313 75 1 75 337 350 2 350 2 75 354 350 180 120 121 313 398 138 322 426 329 364 22 175 209 289 86 125 64
split_gain=1049.33 360.791 200.546 94.2844 78.1483 53.9678 46.0652 43.3409 38.1819 37.6308 26.3174 22.5329 22.4752 21.8593 18.1721 18.1252 26.0413 17.9086 16.7703 15.3024 14.5189 12.9505 12.8254 11.113 10.789 10.6937 9.76799 8.69886 7.28428 5.186
threshold=0.029984758418375852 1611.1591738685872 1598.1479672953894 1567.4324802073381 1558.3772793138462 0.14677045000000014 0.94158734734551264 1671.6816179279087 1.0479399697281957 1706.8092713365979 1707.0398403102961 -2.1999999999999997 -0.85224867459526721 12.570628981745639 5.5147332243476743 4.1000000000000005 1616.0917581708707 -0.11433118383510954 8.8297049000537253 -0.39999999999999991 3.5000000000000004 -0.15075430061401943 0.049891623898976854 14.450000000000001 10.700000000000001 10.624943086402467 0.11237878317720706 8.3373587487775485 0.26672320885169182 4.5500000000000007
decision_type=10 10 10 2 10 10 10 2 8 2 10 8 10 10 10 8 10 10 10 8 10 8 10 10 8 10 8 8 10 10
left_child=1 4 6 7 5 8 15 11 -1 10 13 -3 27 -4 -14 18 -17 -7 -2 -9 24 22 -8 -11 -6 -22 -23 -5 -12 -25
right_child=2 3 9 12 20 17 21 19 -10 23 28 -13 14 -15 -16 16 -18 -19 -20 -21 25 26 -24 29 -26 -27 -28 -29 -30 -31
leaf_value=0.00044005191363690561 -0.012362352186794953 0.0045338930734031913 0.0063702940915168369 0.0099840252510519714 -0.0012735313842629895 -0.00056488767257734443 -0.0035475173760145451 -0.018962359111931483 -0.0075686491940188004 -0.013376714144435409 0.0031730183564334159 -0.011313137710111998 -0.0057725047887103023 0.011504092090183802 -0.019416027422394264 0.005414546094654517 -0.0054053365242916537 -0.0093249340951276228 0.0013374545908114261 -0.014078045466381873 0.0047891471373879566 0.0026056502999152482 -0.022207596939308426 0.0090520296451409819 0.011061135205346715 -0.0022363826509122402 -0.0039409794321643432 -0.004418205212645309 0.013914363406994805 -0.0031590569421760489
leaf_weight=402.61315912008286 13.862440869212149 12.332770854234694 182.28280340135098 15.515842214226721 10.904014602303503 36.214386314153671 10.904007628560068 201.15751318633556 95.286295771598816 8.4149474203586596 8.3964988142251951 198.05080164968967 168.7449032664299 261.35984283685684 13.660591155290602 486.99416907131672 30.596337124705315 182.38646392524242 69.735075607895851 141.60674683749676 92.558731362223625 44.246906191110611 8.4791863858699781 8.3144529014825839 57.815191760659218 40.222429230809212 88.478783905506134 8.3428271710872668 320.96147190034389 9.8064541816711408
leaf_count=1679 58 51 774 65 46 150 45 817 394 35 36 813 697 1117 56 2050 127 753 292 577 389 184 35 35 244 169 369 35 1381 41
internal_value=3.8591e-05 -0.00620031 0.00677805 -0.0120015 -0.00140122 -0.0031616 0.00256576 -0.0144495 -0.00109258 0.0107467 0.011204 -0.010384 -0.00543639 0.00939486 -0.00679471 0.00398094 0.00477486 -0.0078739 -0.000934098 -0.0169447 0.00485814 -0.00302727 -0.0117139 -0.00257355 0.0091034 0.00266067 -0.00175823 0.00494635 0.0136407 0.00244208
internal_weight=3230.25 1677.41 1552.83 759.412 918.001 716.5 753.297 553.148 497.899 799.536 773.001 210.384 206.264 443.643 182.405 601.188 517.591 218.601 83.5975 342.764 201.5 152.109 19.3832 26.5359 68.7192 132.781 132.726 23.8587 329.358 18.1209
internal_count=13514 6935 6579 3111 3824 2976 3160 2258 2073 3419 3308 864 853 1891 753 2527 2177 903 350 1394 848 633 80 111 290 558 553 100 1417 76
is_linear=0
shrinkage=0.011377


Tree=11
num_leaves=30
num_cat=0
split_feature=347 313 75 75 75 344 2 313 344 263 75 231 2 337 389 386 358 418 313 151 23 46 355 12 424 386 406 13 224
split_gain=1026.12 351.688 197.061 91.0152 76.416 63.7748 41.7448 37.1658 30.6855 30.1406 25.6417 26.5152 25.1497 21.7353 19.4812 18.7718 17.4586 15.3241 14.6225 14.486 14.2981 14.0768 12.8392 10.5226 9.62792 9.26302 7.90963 7.60433 6.01647
threshold=0.029984758418375852 1611.1591738685872 1598.1479672953894 1576.4589484671903 1556.3162854233558 0.80410050465062544 1700.0125734163146 1666.7137628954661 1.4777598459411643 13.967613915556152 1707.0398403102961 1.7029386365926411 1545.7955918146461 0.0097873000000001514 -0.69227249915678335 -0.70524278532195106 -0.6999999999999994 15.500000000000002 1616.0917581708707 0.6932828282828285 14.116039695648569 0.41350891884173618 0.49999999999999983 0.43650793650793651 6.5000000000000009 0.14792603306101984 -0.41216159109209577 0.61094331917508704 0.64905844155844161
decision_type=10 10 10 10 10 8 2 10 10 10 10 10 2 10 8 8 10 8 10 8 8 10 10 10 10 8 8 10 10
left_child=1 4 8 6 5 13 14 10 18 16 11 -4 -7 -1 -3 -10 -5 26 19 -2 -9 -17 -8 -20 -22 -12 -6 -19 -11
right_child=2 3 7 9 17 12 22 20 15 28 25 -13 -14 -15 -16 21 -18 27 23 -21 24 -23 -24 -25 -26 -27 -28 -29 -30
leaf_value=0.0020351480096701979 0.0024212101232227593 -0.00044008964631615365 0.010001299363004186 -0.0083926006975651377 -0.0029939485560396763 -0.0038919199253322572 -0.012572939382547983 -0.0093296379694309366 -0.015397060957280098 0.002632486963532331 0.0049468787078294097 -0.0062443562584288221 -0.0099011047088327659 -0.0046403865692078465 -0.011910559316964203 0.0012135854434030067 0.00026110926844565371 0.0071382620454608801 -0.013207391386885294 0.0061730610325908151 0.0087036480894018605 -0.0064813858035649768 -0.018527047232630454 0.00087584454442004016 -0.0033480502352464603 0.01420013954798391 0.0040659563241141469 0.016939331172584834 0.016181914703905027
leaf_weight=255.8743944466114 264.64346328377724 20.611368849873543 418.25362814962864 130.71795020997524 24.072533786296844 212.36737076938152 59.739832982420921 12.463693916797636 11.689876571297644 8.3837911635637301 14.705536514520643 13.417073249816893 156.68852657079697 83.807820424437523 274.48204571008682 137.1929312646389 39.221634179353714 30.055095851421356 10.152657464146616 268.29827469587326 25.72619903087616 39.665738314390182 218.88377690315247 21.196910247206688 12.866284281015394 299.86593037843704 139.73517327010632 15.568724289536474 8.6022551506757718
leaf_count=1070 1115 85 1788 539 101 880 243 52 48 35 63 57 644 348 1123 572 163 127 42 1130 109 165 887 88 54 1296 588 66 36
internal_value=3.8266e-05 -0.00612458 0.0067127 -0.0118457 -0.00138499 -0.0031692 -0.0140921 0.0106544 0.00253814 -0.00495065 0.0112969 0.00949624 -0.00644336 0.000388001 -0.0111095 -0.0014353 -0.00639514 0.00465275 0.00386587 0.00431009 0.00126264 -0.000512079 -0.0172507 -0.00368443 0.0046848 0.0137677 0.0030282 0.0104843 0.00949775
internal_weight=3228.95 1678.81 1550.14 760.643 918.17 708.738 573.717 797.298 752.84 186.926 746.242 431.671 369.056 339.682 295.093 188.549 169.94 209.432 564.291 532.942 51.0562 176.859 278.624 31.3496 38.5925 314.571 163.808 45.6238 16.986
internal_count=13514 6935 6579 3111 3824 2942 2338 3419 3160 773 3204 1845 1524 1418 1208 785 702 882 2375 2245 215 737 1130 130 163 1359 689 193 71
is_linear=0
shrinkage=0.011377


Tree=12
num_leaves=29
num_cat=0
split_feature=3 3 3 344 350 346 3 353 358 3 42 271 347 313 325 287 175 23 347 344 86 37 180 49 376 75 358 3
split_gain=1296.74 242.213 219.254 60.9212 38.098 33.0094 31.7696 24.6734 24.4902 22.3756 22.0843 23.6139 21.8512 15.2999 15.0626 14.6171 14.5405 14.3095 13.3837 12.2191 11.8005 13.9753 11.6404 11.2412 10.1676 10.1625 9.13233 6.31521
threshold=-38.662146544107365 120.52559837110608 -159.08424105798596 0.96769783385241859 0.047725910922721909 0.69999999999999962 186.40830882912738 1.0954739737996488 0.099999999999999825 -243.82473092513951 6.6125000000000007 5.9500000000000011 -0.97708622375792265 1569.9132772774074 -0.26666666666666661 0.12754409514915638 11.29166666666667 13.440002677968527 0.76505992520979349 2.402249304104942 24.063701309487332 5.366666666666668 10.739761410739986 0.099553525198412665 -0.018266935539713498 1585.0233406147024 -1.2000000000000004 330.25227498129101
decision_type=2 2 2 8 8 10 2 10 8 2 8 8 10 10 8 10 10 8 10 8 8 8 10 8 8 10 10 2
left_child=2 4 9 8 5 15 19 18 22 20 11 -6 -12 -9 -11 -2 -10 -16 -5 23 26 -22 -4 -3 -8 -7 -1 -26
right_child=1 6 3 7 10 25 24 13 16 14 12 -13 -14 -15 17 -17 -18 -19 -20 -21 21 -23 -24 -25 27 -27 -28 -29
leaf_value=-0.019085831784640888 0.0034504584051580399 0.0039692839930876231 -0.013333896180700499 -0.0092090362193830242 0.0045747807809952022 0.0057796594359702498 0.00334763337512537 0.010491313849533312 0.0053534025612550174 -0.0016654086903734886 -0.007535696036944815 -0.013127062103950394 0.00014661762387721615 -0.0072504840648327908 -0.01438966497407969 -0.0028848193001165191 -0.001215842071625492 -0.0066562580138411374 0.00068872826976934087 -0.0013638260729821115 0.00086172015004949047 -0.01720285102109434 -0.0037996246315321774 0.010064004231574114 0.013043691095102545 0.010170635142688915 -0.0087515672812421962 0.016733522034842539
leaf_weight=183.52635559439659 407.76805983483791 47.115145355463028 18.704695865511894 380.05589346587658 184.3903670758009 157.59762620925903 12.506856411695479 14.462489515542986 67.447461321949959 15.203696534037588 57.900947868824005 10.295944601297377 278.01405592262745 11.130391657352446 223.86680145561695 53.293698087334633 123.38620434701443 35.971444204449654 18.538269311189651 15.410801962018011 9.3597852289676684 13.577650144696234 145.80102227628231 233.08098669350147 301.80367706716061 120.41398103535175 11.799192562699316 75.113645747303963
leaf_count=742 1716 201 77 1561 773 666 54 60 282 62 240 43 1164 46 911 224 513 147 77 65 38 55 604 998 1305 514 48 328
internal_value=3.79432e-05 0.00585717 -0.00889869 -0.0051423 0.00291543 0.00458528 0.0113095 -0.0080533 -0.00166715 -0.0148345 0.000589434 0.00363829 -0.00117749 0.00277392 -0.0126752 0.00271808 0.0011058 -0.0133193 -0.0087486 0.00849687 -0.0175551 -0.00983041 -0.00488409 0.00903935 0.0134443 0.0076817 -0.0184619 0.0137792
internal_weight=3227.54 1954.71 1272.83 779.526 1269.67 739.073 685.031 424.187 355.339 493.305 530.601 194.686 335.915 25.5929 275.042 461.062 190.834 259.838 398.594 295.607 218.263 22.9374 164.506 280.196 389.424 278.012 195.326 376.917
internal_count=13514 8291 5223 3220 5340 3120 2951 1744 1476 2003 2220 816 1404 106 1120 1940 795 1058 1638 1264 883 93 681 1199 1687 1180 790 1633
is_linear=0
shrinkage=0.011377


Tree=13
num_leaves=29
num_cat=0
split_feature=3 3 3 342 341 3 341 347 3 234 347 21 291 291 343 167 131 176 397 120 120 38 415 348 3 370 335 61
split_gain=1267.31 238.071 213.671 55.593 40.6736 31.3677 25.7624 22.1826 21.8149 18.7 18.5364 17.068 16.5938 16.5082 16.2654 15.7412 14.7881 14.3177 11.2607 11.0437 10.852 10.5081 10.2007 8.62822 7.83139 6.56923 6.51173 1.39524
threshold=-38.662146544107365 120.52559837110608 -159.08424105798596 1.599999999999999 1.0000000180025095e-35 186.40830882912738 -3.0855408704875402 0.37154484165678997 -243.82473092513951 1.2982406591744995 1.4180222617345206 15.900000000000002 0.12803845130404173 0.10122030420138041 -1.6833333333333325 0.82666181536527328 0.085881570453609765 9.1333333333333346 -0.0027777777777775992 5.1291653311984584 4.022852709917097 5.2154563122547506 1.0000000180025095e-35 0.59999999999999987 330.25227498129101 -0.023011361747150298 -0.71516999957887062 3.354166666666667
decision_type=2 2 2 8 10 2 10 10 2 10 10 10 10 10 8 10 8 10 8 10 10 8 10 10 2 8 8 10
left_child=2 4 8 7 9 16 18 13 21 14 15 19 -8 -4 -2 -6 -3 -9 -5 -10 -18 23 -12 -1 25 -7 -23 -26
right_child=1 5 3 6 10 24 12 17 11 -11 22 -13 -14 -15 -16 -17 20 -19 -20 -21 -22 26 -24 -25 27 -27 -28 -29
leaf_value=-0.0088157472989209874 0.0045411546930193497 -0.0021535707825552819 -0.0016818652273151164 -0.0096596977324817195 0.0044097985411292243 0.0030949525445450828 -0.0055981289559452604 0.014343083952488843 -0.011374639849814329 -0.011505084736348866 0.0010861518155864339 0.0013597154297207133 -0.01786873670040667 -0.0071675767681969576 -0.00012777465833073415 -0.0019168135599169666 0.011334151009113832 0.0011703473570401784 -0.016972751716143819 -0.016245126152562572 0.0068420682127016694 -0.022351223103142543 0.0096861653711792645 -0.016654820688191737 0.017193754548349857 0.012835094167892408 -0.017242578258937716 0.012318810791615382
leaf_weight=26.690729960799217 125.55763390660286 16.179042428731918 223.90525330603123 63.131573542952538 511.97833572328091 9.2480745762586576 250.66292849183083 12.885093882679937 171.39570547640324 16.061615496873856 21.006538197398186 11.018245905637739 15.127857074141501 103.99772776663303 418.38774839043617 56.514278039336205 135.92431837320328 62.418324187397957 48.029866963624954 93.068744093179703 142.85625405609608 54.097023501992226 119.28727178275585 57.185955747961998 66.758819878101349 303.27839133143425 80.667458385229111 8.6730550527572614
leaf_count=108 529 69 928 258 2162 40 1032 54 697 67 89 45 62 429 1747 238 584 261 196 378 611 218 508 231 293 1316 326 38
internal_value=3.76242e-05 0.00579951 -0.00878734 -0.00507963 0.0028843 0.0112156 -0.00822065 -0.002143 -0.0146412 0.000592554 0.00469493 -0.0125109 -0.00629681 -0.00342187 0.000949887 0.00378079 0.00841875 0.00342517 -0.0128201 -0.0130889 0.00903247 -0.0173251 0.00839877 -0.0141611 0.0133419 0.012547 -0.0192939 0.0166341
internal_weight=3225.99 1951.71 1274.28 780.159 1268.79 682.918 376.952 403.206 494.124 560.007 708.786 275.483 265.791 327.903 543.945 568.493 294.96 75.3034 111.161 264.464 278.781 218.641 140.294 83.8767 387.958 312.526 134.764 75.4319
internal_count=13514 8291 5223 3220 5340 2951 1548 1672 2003 2343 2997 1120 1094 1357 2276 2400 1264 315 454 1075 1195 883 597 339 1687 1356 544 331
is_linear=0
shrinkage=0.011377


Tree=14
num_leaves=32
num_cat=0
split_feature=341 229 75 75 229 75 229 341 229 342 269 301 333 338 421 329 320 132 70 229 67 235 167 44 13 333 316 284 392 21 421
split_gain=895.596 325.069 191.929 104.796 74.836 48.6858 37.5697 35.2951 32.2522 29.9785 29.02 24.7514 21.413 21.1336 20.7487 20.6688 20.1973 19.7062 15.2776 14.3967 14.3885 13.8912 13.2569 11.8632 11.3405 11.3093 10.6143 10.0506 9.79567 9.18089 7.60145
threshold=-0.055829473384251892 1563.4579917972708 1598.1479672953894 1577.5519600080554 1676.29520453693 1524.7262429242198 1582.3348881700492 2.4471442484008405 1715.5275758267478 1.599999999999999 3.4869422251857851 3.1898986003006056 -0.24174570999999992 0.49819346002561815 -13.499999999999998 0.34058113142741775 -0.27404168961204217 0.10439420551226541 0.63501443001443014 1641.8706855464222 0.85545634920634928 1.0896960616739675 0.82666181536527328 0.37882061973973735 1.0609341734267721 -0.17208600000000018 -0.99999999999999978 0.29251942377741613 0.43568025610281597 14.100000000000001 3.5000000000000004
decision_type=10 10 10 10 10 10 10 10 10 8 8 10 8 10 8 8 10 10 10 10 10 10 10 10 10 10 8 10 10 10 10
left_child=1 5 6 4 9 13 12 10 11 -3 27 -5 18 21 25 28 -14 19 -2 -8 -16 -1 -12 -15 -10 -7 -6 -4 -9 -19 -17
right_child=2 3 7 8 26 14 17 15 24 -11 22 -13 16 23 20 30 -18 29 -20 -21 -22 -23 -24 -25 -26 -27 -28 -29 -30 -31 -32
leaf_value=-0.00099795004996502024 0.0057222515017970208 -0.005224798658751674 0.0035417254967178183 -0.0036898724083696704 -0.01795169297241726 -0.0052047483013489592 0.0034267802132760682 -0.0049441158041540713 -0.0071766741527437509 -0.01140536731370193 0.0092047268437038653 0.0061620023402869815 0.0069723523265266514 -0.0058686377336672826 0.0063739029671646399 0.011957045425272121 0.0024969410367771437 -0.0063158137400335171 -0.0069347345594191478 -0.0075837155222627127 -0.0089266734475846737 -0.014816299614742316 0.0028106826306892705 -0.019171571740065077 -0.020248337253936759 0.005184151091764057 -0.013900421040066956 -0.012895420095190142 0.0077978098151346769 -0.017590152137163365 0.015283825999526284
leaf_weight=357.26303131878376 17.421362861990929 174.50176550447941 8.2980842292308825 82.430027946829796 177.1367132216692 41.131821304559708 50.230982631444931 10.311071410775183 74.512465760111809 243.20556356012821 271.46131601929665 55.049860864877701 189.79904280602932 27.72733935713768 197.5953815728426 271.18957631289959 418.08093467354774 34.265889421105385 42.322529867291451 22.146303802728653 8.2852347046136838 9.6697838902473432 49.671030417084694 12.638215556740759 9.7142394334077817 20.230112344026566 159.09057927131653 11.457126230001448 32.133713841438293 12.867691665887831 132.52704280614853
leaf_count=1486 73 719 35 343 714 172 209 44 305 992 1168 231 804 114 835 1177 1758 141 177 91 35 40 211 52 40 85 644 48 138 53 580
internal_value=3.73041e-05 -0.005819 0.00617636 -0.0100176 -0.0120396 0.000253784 0.00220394 0.0101492 -0.00314142 -0.0088235 0.0073925 0.000254784 0.00325559 -0.00222199 0.00402719 0.0122552 0.00389439 -0.00367057 -0.00324324 5.70907e-05 0.00575789 -0.00136229 0.00821587 -0.0100354 -0.00868522 -0.001779 -0.016035 -0.0059895 0.00470143 -0.00939523 0.0130493
internal_weight=3224.37 1650.18 1574.18 975.641 753.935 674.541 787.135 787.049 221.707 417.707 340.888 137.48 667.624 407.298 267.243 446.161 607.88 119.511 59.7439 72.3773 205.881 366.933 321.132 40.3656 84.2267 61.3619 336.227 19.7552 42.4448 47.1336 403.717
internal_count=13514 6807 6707 3988 3069 2819 3306 3401 919 1711 1462 574 2812 1692 1127 1939 2562 494 250 300 870 1526 1379 166 345 257 1358 83 182 194 1757
is_linear=0
shrinkage=0.011377


Tree=15
num_leaves=30
num_cat=0
split_feature=3 3 3 263 341 3 389 327 3 157 406 272 341 326 363 394 40 403 120 27 273 122 356 77 3 273 370 392 244
split_gain=1213.05 230.611 203.488 47.0652 38.8638 30.7766 27.0497 22.4091 20.8032 20.1275 19.4636 18.4249 17.2238 15.4413 15.1459 14.6418 14.3971 13.8143 12.0554 13.6946 11.3393 11.1965 9.26027 11.1535 7.74449 7.57479 6.45944 5.73384 1.44072
threshold=-38.662146544107365 120.52559837110608 -159.08424105798596 12.524298005728772 1.0000000180025095e-35 186.40830882912738 0.68515757176828596 -0.16041246666666648 -243.82473092513951 1565.9189085530245 -0.75182230104233105 4.3205250929776033 -3.2420198546419861 -0.049987507966895342 -0.21011877856443067 0.046744227994227956 3.7888888888888892 -0.54704771705773314 5.1291653311984584 5.9000000000000012 3.2666666666666671 6.0500000000000007 1.4268403861818155 1.2516655570345734 330.25227498129101 5.1000000000000005 -0.023011361747150298 -0.18608670770267166 1.2367409008508379
decision_type=2 2 2 10 10 2 8 8 2 8 8 10 10 10 10 10 10 10 10 10 10 8 8 8 2 10 8 10 8
left_child=2 4 8 12 10 17 7 -5 22 13 -2 -8 16 -6 -12 -14 -4 -3 19 -10 -11 -19 23 -1 26 -20 -7 -24 -26
right_child=1 5 3 6 9 24 11 -9 18 20 14 -13 15 -15 -16 -17 -18 21 25 -21 -22 -23 27 -25 28 -27 -28 -29 -30
leaf_value=-0.015998078808359309 -0.012456214635383593 -0.0027258052265041813 -0.018396560102579042 -0.0050768486392930605 0.005399845870435115 0.0029779154575321487 -0.0026958133186794513 0.00087221455439931439 -0.011405256258905911 -0.003504316527950579 -0.012098751769210579 -0.011109296106918324 -0.0047325561256007986 0.00082974343250880305 0.0012057135504524332 -0.011087391445226214 -0.0086058118068858963 0.0035831521741123522 -0.018243786441140622 4.0815924118588118e-05 0.0071622541500038824 0.009810744184775325 -0.019758396162308282 -0.0056553791855578472 0.017001866556334424 -0.011786856053773187 0.012651781528966269 -0.011735895072948515 0.011918547150571441
leaf_weight=77.891759157180786 14.429420426487921 14.081553786993025 36.601812675595284 126.14424486458302 171.8765321969986 9.2195161730051023 63.269666284322739 233.93835233151913 165.45364412665367 13.46204501390457 11.307333588600157 72.102677762508392 136.01892115175724 215.95588420331478 534.14910320937634 71.684090614318848 41.522184625267982 44.457321614027023 54.661688163876534 14.727585971355436 305.86329106986523 235.12672917544842 112.13550053536892 16.342932179570198 66.573870316147804 41.395423710346222 301.23072598874569 12.893774479627607 8.1814797073602659
leaf_count=314 60 60 149 520 726 40 261 972 671 57 47 296 559 910 2236 294 169 190 221 60 1304 1014 451 66 295 168 1316 52 36
internal_value=3.69856e-05 0.00569099 -0.00858011 -0.00496292 0.00282409 0.0110417 -0.00284186 -0.00121177 -0.0142834 0.00459705 0.000584695 -0.00717743 -0.0086394 0.0028552 0.000929795 -0.00692606 -0.0131937 0.00826684 -0.0122058 -0.0104695 0.00671244 0.00882065 -0.0169005 -0.0142049 0.013157 -0.0154619 0.0123646 -0.0189316 0.0164464
internal_weight=3222.7 1945.91 1276.78 781.282 1267.04 678.871 495.455 360.083 495.502 707.158 559.886 135.372 285.827 387.832 545.456 207.703 78.124 293.666 276.238 180.181 319.325 279.584 219.264 94.2347 385.206 96.0571 310.45 125.029 74.7554
internal_count=13514 8291 5223 3220 5340 2951 2049 1492 2003 2997 2343 557 1171 1636 2283 853 318 1264 1120 731 1361 1204 883 380 1687 389 1356 503 331
is_linear=0
shrinkage=0.011377


Tree=16
num_leaves=29
num_cat=0
split_feature=3 3 3 343 3 347 362 174 100 316 347 362 272 28 35 320 117 119 272 133 45 257 156 347 80 3 289 244
split_gain=1185.68 226.891 198.47 46.0444 42.8857 40.3035 27.5503 22.6713 22.6238 22.4089 22.1268 19.6839 17.546 16.4658 16.3177 15.6099 15.4303 14.2636 12.8909 12.6503 12.3523 12.0021 11.6742 10.1572 7.77747 7.68354 8.04232 1.42968
threshold=-38.662146544107365 102.59485101149552 -159.08424105798596 3.3999999999999995 186.40830882912738 0.19222154794803312 0.73352941873253241 1.0456923000000005 1.6908425667525859 -0.99999999999999978 0.14345345871398818 0.2662225645184671 4.4353351117014013 5.2111111111111121 4.5917913881634922 0.80653850453115583 7.1113665852112637 4.3166666666666673 5.2667111533731186 0.11879044727459356 0.42956575568780414 1.6550270942885448 0.12887552188553744 -2.5813498572545499 0.75255771810541783 330.25227498129101 0.083085938140104662 1.2367409008508379
decision_type=2 2 2 8 2 10 10 10 10 8 10 10 10 10 10 8 8 8 10 10 10 8 10 10 8 2 8 8
left_child=2 6 8 5 13 11 10 21 9 16 15 -4 22 20 -9 -2 -1 -12 -11 -7 -3 -8 -5 -14 -15 26 -6 -27
right_child=1 4 3 12 25 19 7 14 -10 18 17 -13 23 24 -16 -17 -18 -19 -20 -21 -22 -23 -24 -25 -26 27 -28 -29
leaf_value=-0.017797092352305279 0.0017499100162777002 0.0065108011996793461 -0.00321695612887484 -0.01550132895021282 0.001895761287584176 0.0034923276508620096 0.0046336514969537185 -0.0087600691432953518 -0.0010030414400249883 -0.010145570230344535 0.0069396004290764608 -0.0079910463469372063 -0.022573235885070035 0.0061249749188246024 -0.00054571648177994809 -0.013270695354612906 -0.0027193019981561883 0.0030400994734935752 -0.015354582547144618 -0.0073390334736272381 -0.0047339918646361499 -0.0061237494589846259 -0.0024320472345907155 -0.011545207413727904 0.011979607083192673 0.016899424128311476 0.012593210910908249 0.011825976197384458
leaf_weight=214.88399513065815 432.13526986539364 231.83079621195793 305.30472713708878 10.975700601935385 9.3906770199537259 114.27414113283157 83.557921662926674 58.445358738303185 16.503904938697815 152.33451840281487 238.95584245026112 176.40411955118179 12.113730475306509 38.657711535692215 67.42030531167984 9.1422509253025037 9.1669379323720914 246.94207814335823 103.24834702908993 15.895015120506285 13.368494927883146 15.989568218588827 45.63547882437706 101.25629134476185 122.74525626003742 66.217474952340126 299.93692202866077 8.1518988311290723
leaf_count=865 1812 994 1260 45 41 477 350 243 67 617 1016 723 49 167 282 38 37 1046 417 66 57 67 187 413 532 295 1315 36
internal_value=3.66691e-05 0.00563511 -0.00847438 -0.0049028 0.0103303 -0.00344748 0.00241567 -0.00115155 -0.0141027 -0.0145533 0.00328297 -0.00496536 -0.0101411 0.00775549 -0.00436041 0.00143857 -0.0171804 0.0049579 -0.0122501 0.00216931 0.00589753 0.00290529 -0.00496707 -0.0127243 0.0105777 0.0130587 0.0122686 0.0163442
internal_weight=3220.88 1942.89 1278 781.859 790.299 611.878 1152.59 225.413 496.138 479.634 927.175 481.709 169.981 406.602 125.866 441.278 224.051 485.898 255.583 130.169 245.199 99.5475 56.6112 113.37 161.403 383.697 309.328 74.3694
internal_count=13514 8291 5223 3220 3437 2526 4854 942 2003 1936 3912 1983 694 1750 525 1850 902 2062 1034 543 1051 417 232 462 699 1687 1356 331
is_linear=0
shrinkage=0.011377


Tree=17
num_leaves=31
num_cat=0
split_feature=317 229 75 350 229 157 346 352 332 392 269 356 358 356 418 157 353 362 353 75 322 317 13 358 392 332 376 335 316 404
split_gain=830.401 248.811 223.888 98.5057 72.6181 65.0959 48.9471 37.5318 28.9818 28.6409 26.7309 24.9797 20.3398 18.4902 17.6008 17.4237 15.8557 15.7003 15.2948 14.6614 13.9628 13.9141 12.9184 11.5371 10.5438 10.3541 10.3381 9.23359 8.05555 8.04931
threshold=-0.095147735914595688 1649.2763361602217 1599.7801551482626 0.18328843975938239 1563.4579917972708 1605.6152962040983 0.8000000000000006 -0.9888888888888886 0.45432993497569202 0.50269516467638076 4.357619661892806 1.0856079975573971 0.3000000000000001 0.60758632855946415 3.5000000000000004 1542.350173024415 1.8009694474396312 0.96122012620192276 0.99802414944417628 1573.6458214524225 -0.30714285714285711 -1.2401391495511054 1.0095846846524352 -0.078571428571428445 -0.25666457537719717 -0.073990756504506788 0.0096395707512379018 0.20962866379979253 0.49999999999999989 0.17493430231043625
decision_type=10 10 10 8 10 8 10 10 10 10 10 10 10 10 10 8 10 10 10 10 10 10 10 8 10 10 10 8 10 8
left_child=1 3 4 9 8 11 10 19 15 17 13 20 14 -4 -6 -2 -9 -1 25 -5 -3 -7 -23 -11 -13 -8 -12 -20 -10 -14
right_child=2 5 6 7 12 21 18 16 28 23 26 24 29 -15 -16 -17 -18 -19 27 -21 -22 22 -24 -25 -26 -27 -28 -29 -30 -31
leaf_value=0.00056531868343126263 0.0024746077177707319 -0.013767929847926482 0.0036725067108850638 -0.011117305527264696 -0.015429932676049394 -0.015094010547165342 0.010670303068250807 -0.0042800522977438872 -0.0026855160393130465 -0.00043742968322818602 0.0058877541813371799 -0.017248729054562668 -0.00093615159419652117 -0.0085484760017046184 -0.0048488975059365058 0.006343883824655297 0.0088488392204026569 -0.0067090705018013801 0.0022304389720706544 0.0027125601370841094 -0.0075077303927809924 -0.00084533333517081458 -0.014600411173817071 0.0086107546882469941 -0.010534549080304396 0.0049719239545791046 0.011417364545362893 0.013649390310068735 -0.013477184180569479 0.010660125865522254
leaf_weight=299.89553016424179 459.41929069161415 101.97835238277912 51.21466551721096 170.87112377583981 24.014183193445206 12.816299229860304 202.97373960912228 277.85798102617264 40.031324580311775 23.781382381916046 120.88315600156784 231.27702350914478 21.109312683343887 23.318997085094452 133.46243436634541 224.17381812632084 12.435910597443579 44.040872305631638 9.4702711254358274 10.528178632259367 84.276462003588676 77.973178908228874 9.966663330793379 78.167502194643021 34.885136887431145 51.850379005074501 68.654499009251595 293.87170402705669 11.53646209836006 12.233373284339903
leaf_count=1254 1933 412 218 698 98 52 888 1145 166 100 520 930 88 98 551 953 52 182 41 44 342 321 41 332 141 224 297 1294 48 51
internal_value=3.63575e-05 -0.00626366 0.0053365 -0.00263028 0.00149986 -0.0122904 0.00965715 -0.00625455 0.00312309 0.00120368 0.00562114 -0.0141323 -0.00475364 -0.000150638 -0.00646287 0.00374355 -0.00371743 -0.000366088 0.0115665 -0.0103144 -0.0109356 -0.00401974 -0.00240502 0.00649977 -0.016369 0.00951103 0.007891 0.013293 -0.00510097 0.00331777
internal_weight=3218.97 1470.75 1748.22 917.578 925.98 553.173 822.237 471.693 735.161 445.885 264.071 452.417 190.819 74.5337 157.477 683.593 290.294 343.936 558.166 181.399 186.255 100.756 87.9398 101.949 266.162 254.824 189.538 303.342 51.5678 33.3427
internal_count=13514 6046 7468 3807 3888 2239 3580 1939 3100 1868 1133 1825 788 316 649 2886 1197 1436 2447 742 754 414 362 432 1071 1112 817 1335 214 139
is_linear=0
shrinkage=0.011377


Tree=18
num_leaves=30
num_cat=0
split_feature=341 2 1 1 1 335 329 2 317 350 2 389 356 421 262 269 261 426 317 329 10 27 129 288 234 349 89 364 189
split_gain=873.869 297.861 178.998 94.865 60.0237 51.982 45.394 42.754 36.3727 35.6445 27.9403 26.8427 26.7189 25.4441 25.1329 24.8498 21.1718 20.3217 17.7517 17.5547 17.2338 14.7457 13.9968 12.5206 11.6398 10.7765 9.90357 8.0453 7.9679
threshold=-0.055829473384251892 1583.2494075235043 1602.4602862557706 1567.4324802073381 1524.6766328027641 -0.18250731172650106 0.47393076856015709 1671.6816179279087 -0.37817958198598406 0.80921102094140529 1485.7037030905371 0.80413529732574107 -1.0123177407551716 -7.4999999999999991 11.844444444444447 4.5504200332280096 12.100000000000001 22.500000000000004 -0.38704437501416539 0.060123122089577458 1.5952930365923372 4.291666666666667 0.53666539343009945 0.13442096488858837 0.7814025560900254 -0.6000000000000002 1.9478341486588013 -0.10523084874361958 5.7062841696405915
decision_type=10 2 2 2 2 8 8 2 10 8 2 10 8 8 8 8 8 8 10 10 10 10 8 8 10 10 10 10 10
left_child=1 4 5 7 9 14 15 12 20 16 28 -10 -3 19 -2 23 -1 -12 -8 -6 -5 -16 -9 -4 -11 -20 -15 -17 -7
right_child=2 3 6 8 13 10 18 22 11 24 17 -13 -14 26 21 27 -18 -19 25 -21 -22 -23 -24 -25 -26 -27 -28 -29 -30
leaf_value=-0.0077526108528350431 -0.019186255756445555 0.0028717734996717946 -0.0010051609856427642 -0.01019363928966417 -0.0023265798496151834 0.0057714080526307041 -0.0048177469795336004 -0.015959176973620398 0.0028691220906714643 -0.0055628580835805925 0.0021270605609707768 -0.0096167134580832144 -0.010378365862318774 0.0049102729333568079 -0.0066004782279086112 -0.0021324072933505489 0.00061300338115136089 -0.0083660721980341815 0.013182129481628582 0.0080086771100570803 0.0061700581366640941 0.0059946620924980218 -0.0072840250883717877 0.011485433999798306 -0.01237293581885031 0.009827506456492904 0.01184549180518267 0.0093605617454054612 0.014859999190743439
leaf_weight=46.659050360321999 16.186948046088219 21.140542313456535 72.972158074378967 103.35967762768269 109.96080969274044 242.02566842734814 8.275643661618231 318.1447589546442 97.622063353657722 135.55267979204655 442.58197082579136 28.877832055091858 287.76102292537689 132.18619893491268 45.337887585163116 8.4065971821546537 243.48242273926735 25.249388471245766 342.8994856774807 26.371598273515701 9.0564927309751493 16.372617304325104 26.06773653626442 12.109055966138838 42.748197212815285 194.38362477719784 33.399030178785324 125.32321457564831 13.170127287507055
leaf_count=193 66 87 311 422 461 1029 35 1279 408 558 1860 119 1171 559 188 36 1014 104 1514 112 37 68 105 52 175 849 144 544 56
internal_value=-8.09275e-05 -0.00582525 0.0060197 -0.0103006 -0.000643016 0.00226115 0.00995792 -0.0125446 -0.00416602 -0.00319258 0.00321255 1.83963e-05 -0.00947142 0.00331265 -0.00656887 0.00557964 -0.000732227 0.00156062 0.0117139 -0.000326995 -0.00887491 -0.00325811 -0.0153024 0.000772339 -0.00719594 0.0119686 0.00630949 0.00863778 0.00624072
internal_weight=3227.68 1662.39 1565.29 892.03 770.36 800.925 764.37 653.114 238.916 468.442 723.027 126.5 308.902 301.918 77.8975 218.811 290.141 467.831 545.559 136.332 112.416 61.7105 344.212 85.0812 178.301 537.283 165.585 133.73 255.196
internal_count=13556 6844 6712 3628 3216 3371 3341 2642 986 1940 3049 527 1258 1276 322 943 1207 1964 2398 573 459 256 1384 363 733 2363 703 580 1085
is_linear=0
shrinkage=0.011377


Tree=19
num_leaves=32
num_cat=0
split_feature=341 313 1 350 157 313 1 317 427 313 313 1 121 370 350 350 263 230 99 156 269 46 131 65 86 67 126 13 357 343 126
split_gain=854.663 291.392 175.931 77.6419 72.6995 55.9555 36.4189 35.3274 33.0755 28.5156 28.2667 25.6256 25.6044 21.3876 19.2725 19.0117 18.1176 17.6029 17.4612 16.1909 15.197 13.4379 12.5973 11.8727 11.5651 11.1571 10.7062 9.73032 8.66983 7.38122 7.034
threshold=-0.055829473384251892 1619.2657562083343 1602.4602862557706 0.22561917138391416 1585.4503546317785 1585.9807004601362 1578.692017728345 -0.074989454442319983 -1.0000000180025095e-35 1567.3283889806014 1726.4714335376291 1524.6766328027641 4.1000000000000005 -0.0085269889885223483 -0.80726304176952823 0.99593921430645638 13.126512366003634 0.89442719099991586 1.3905683000000002 0.18543644654336164 4.5040336280343753 0.34005656108597282 0.13174992210499362 4.0724943803764502 14.5832620620904 0.66340909090909095 0.36903332778332781 0.74701552465565146 -0.43333333333333351 -3.9999999999999991 0.32546563943303075
decision_type=10 10 2 8 8 10 2 10 8 10 10 2 8 8 10 10 8 10 8 10 10 10 10 10 8 10 10 10 10 10 10
left_child=1 3 5 6 10 12 9 16 26 -1 13 19 25 -3 29 -14 22 18 -7 -5 -10 -13 -4 -16 -19 -2 -6 -8 -12 -9 -18
right_child=2 4 7 11 8 17 27 14 20 -11 28 21 15 -15 23 -17 30 24 -20 -21 -22 -23 -24 -25 -26 -27 -28 -29 -30 -31 -32
leaf_value=0.0014618148627982487 -0.0060460470598304103 -0.014598473868969071 0.00063773039800609724 -0.0098063502650301091 0.011383502925564689 -0.01042473432555008 0.0050207955241957621 0.014096689019469423 -0.009884112883789084 -0.0069738394051006743 -0.016999151594810413 -0.0055874924536095235 0.0052126339059359091 -0.008814176916639516 0.0069827139268503306 -0.00058259064987419636 -0.00090734443980148454 -0.0063920441593477871 0.0041310805718930907 -0.0046373088933070773 0.00051030656650454572 0.0017401697190464931 -0.014996466201830191 0.011852888909188357 -0.018255947521847379 0.0020093968439079844 -0.00021831444118161741 0.012146448630847774 -0.0070955961642893165 0.010932200191472603 0.010865362815659028
leaf_weight=284.23001785576344 46.273957446217537 139.06690269708633 32.774374946951866 121.63273613154888 15.27823133766651 14.803066238760946 74.945308640599251 177.72735074162483 90.688281625509262 63.444226562976837 200.6136491894722 49.123132541775703 503.85652972757816 204.47946184873581 202.74968087673187 85.726666495203972 8.3858938217163068 55.593170344829559 38.166338190436363 221.01452718675137 22.770090132951736 95.097490698099136 8.3722625970840436 95.291795983910561 13.157921418547629 42.863458350300789 31.538697615265846 37.103214636445045 12.152495607733725 206.5698127001524 30.217440187931061
leaf_count=1191 194 561 138 498 64 61 320 790 370 262 805 204 2137 829 882 358 36 229 158 908 94 397 35 418 54 180 132 160 49 912 130
internal_value=-7.99716e-05 -0.0057562 0.00596186 -0.00161279 -0.0112294 0.00223681 0.00174031 0.0098743 -0.00447772 -7.74622e-05 -0.0131745 -0.004779 0.0035107 -0.0111558 0.0107118 0.00436993 0.00270857 -0.00486613 6.227e-05 -0.00647237 -0.00779774 -0.000755494 -0.0025431 0.00854004 -0.00866367 -0.00217205 0.00356735 0.00738088 -0.0164337 0.0123959 0.00830705
internal_weight=3225.71 1663.18 1562.53 946.591 716.588 800.441 459.723 762.089 160.275 347.674 556.313 486.868 678.721 343.546 682.339 589.583 79.75 121.72 52.9694 342.647 113.458 144.221 41.1466 298.041 68.7511 89.1374 46.8169 112.049 212.766 384.297 38.6033
internal_count=13556 6844 6712 3940 2904 3371 1933 3341 660 1453 2244 2007 2869 1390 3002 2495 339 502 219 1406 464 601 173 1300 283 374 196 480 854 1702 166
is_linear=0
shrinkage=0.011377


Tree=20
num_leaves=29
num_cat=0
split_feature=3 3 3 353 335 3 350 3 332 335 294 307 33 291 110 273 345 194 180 335 172 171 171 247 3 294 219 335
split_gain=1157.16 238.183 163.028 56.0791 39.5176 37.6349 23.9559 21.3221 17.5771 16.5248 17.8408 17.4741 16.2974 15.8119 15.146 14.4843 14.3392 13.8612 13.7473 12.612 11.8806 11.6954 11.1122 10.4968 9.30113 9.21054 7.53563 2.01753
threshold=-44.410277787394641 90.117973724489858 -193.45325395896566 0.19565731341469283 0.19375530492506843 196.59505120573681 0.087825014243595859 -101.67499535622709 -0.08274606279315759 0.028699172865386355 14.20514532766855 0.72536374037279383 7.4500000000000011 0.12803845130404173 5.5500000000000007 4.5500000000000007 -0.19999999999999998 8.6333333333333346 12.825611467768699 0.30131004494125319 0.81944550000000016 1.4190332000000001 1.0807197000000002 1.5406483581822679 301.8430678063998 14.021795271224297 2.8695725647981276 0.44166249769932203
decision_type=2 2 2 10 8 2 8 2 10 10 10 10 8 8 10 10 10 10 10 8 8 8 8 10 2 10 10 8
left_child=2 6 12 7 13 14 16 21 -9 11 -11 -8 15 -5 20 23 22 -16 -6 -18 -3 -4 -2 -1 26 -17 -7 -26
right_child=1 5 3 4 18 24 9 8 -10 10 -12 -13 -14 -15 17 25 19 -19 -20 -21 -22 -23 -24 -25 27 -27 -28 -29
leaf_value=-0.018167021825153246 0.0067329695124267626 -0.0058495387034169163 -0.0059590822602975397 -0.0039540122972288507 0.00013213551341525749 0.013308236056193823 -0.0027983904127125768 -0.0025628346752317945 -0.0081538444426498824 0.0056358557153138016 -0.0029014722930793633 0.0036854977512042258 -0.00065355075130108257 -0.017447643034688237 0.010450043938008115 -0.013782374975995352 0.0025302129351182636 -0.0029745264388577886 0.0087072576106764516 0.0068063026641397755 0.0065024228376499718 -0.010740753765907515 0.00033201219814989798 -0.0066929768208366996 0.009951086925116398 -0.0043259869897608223 0.0092248515066923713 0.015968682823921256
leaf_weight=184.75195732712746 41.457648247480392 10.469593241810797 87.792948544025421 113.69541282951832 48.934437781572342 129.21733547747135 266.25650967657566 142.40460130572319 148.92703458666801 104.83288304507732 45.397403508424759 67.417446434497833 9.9228463768959028 12.4746758043766 240.45019640028477 148.29220090806484 169.51435993611813 10.379922851920126 47.888854190707207 188.71722581982613 267.11554750800133 269.95169053971767 229.13909468054771 10.945443496108053 7.8390404134988785 14.664918914437292 107.11319559812546 97.691873222589493
leaf_count=741 175 45 358 468 202 575 1110 587 610 441 191 282 40 51 1051 596 718 45 200 806 1150 1095 964 44 35 59 476 441
internal_value=-7.90316e-05 0.00531251 -0.00869672 -0.00601544 -0.00109307 0.00977101 0.00182543 -0.00770648 -0.0054211 -7.74389e-05 0.00305574 -0.00148822 -0.0150406 -0.00528873 0.00786779 -0.0154385 0.00328981 0.00989433 0.00437389 0.004783 0.00603637 -0.00956745 0.00131288 -0.0175255 0.0127127 -0.0129317 0.0114578 0.0155223
internal_weight=3223.66 1983.01 1240.65 872.07 222.993 870.277 1112.73 649.076 291.332 483.904 150.23 333.674 368.577 126.17 528.415 358.655 628.828 250.83 96.8233 358.232 277.585 357.745 270.597 195.697 341.861 162.957 236.331 105.531
internal_count=13556 8505 5051 3571 921 3818 4687 2650 1197 2024 632 1392 1480 519 2291 1440 2663 1096 402 1524 1195 1453 1139 785 1527 655 1051 476
is_linear=0
shrinkage=0.011377


Tree=21
num_leaves=32
num_cat=0
split_feature=341 317 1 332 335 1 275 424 335 332 426 231 266 390 353 275 157 317 254 367 327 90 231 353 120 126 205 102 108 322 363
split_gain=819.975 202.945 169.936 81.7238 49.5543 47.981 44.9931 39.0287 36.1894 25.3761 24.3584 22.4812 21.2699 21.1111 17.8352 17.5458 16.6096 16.2955 14.6986 14.468 12.9394 12.4848 12.1894 10.9551 10.3098 9.8307 9.36392 9.15974 9.04836 8.77834 6.36157
