tree
version=v4
num_class=1
num_tree_per_iteration=1
label_index=0
max_feature_idx=427
objective=binary sigmoid:1
feature_names=league home_elo away_elo elo_diff hometeam_rest_days hometeam_both_roll5_goals_for hometeam_both_roll10_goals_for hometeam_both_decay15_goals_for hometeam_both_roll5_goals_against hometeam_both_roll10_goals_against hometeam_both_decay15_goals_against hometeam_both_roll5_ht_goals_for hometeam_both_roll10_ht_goals_for hometeam_both_decay15_ht_goals_for hometeam_both_roll5_ht_goals_against hometeam_both_roll10_ht_goals_against hometeam_both_decay15_ht_goals_against hometeam_both_roll5_xg_for hometeam_both_decay15_xg_for hometeam_both_decay15_xg_against hometeam_both_roll5_npxg_against hometeam_both_roll5_shots_for hometeam_both_roll10_shots_for hometeam_both_decay15_shots_for hometeam_both_roll5_shots_against hometeam_both_roll10_shots_against hometeam_both_decay15_shots_against hometeam_both_roll5_sot_for hometeam_both_roll10_sot_for hometeam_both_decay15_sot_for hometeam_both_roll5_sot_against hometeam_both_roll10_sot_against hometeam_both_decay15_sot_against hometeam_both_roll5_corners_for hometeam_both_roll10_corners_for hometeam_both_decay15_corners_for hometeam_both_roll5_corners_against hometeam_both_roll10_corners_against hometeam_both_decay15_corners_against hometeam_both_roll5_deep_completions_for hometeam_both_roll10_deep_completions_for hometeam_both_roll5_deep_completions_against hometeam_both_roll10_deep_completions_against hometeam_both_roll5_sot_pct_for hometeam_both_roll10_sot_pct_for hometeam_both_decay15_sot_pct_for hometeam_both_roll5_sot_pct_against hometeam_both_roll10_sot_pct_against hometeam_both_decay15_sot_pct_against hometeam_both_roll5_xg_per_shot_for hometeam_both_decay15_xg_per_shot_for hometeam_both_roll5_xg_per_shot_against hometeam_both_roll10_xg_per_shot_against hometeam_both_roll5_npxg_per_shot_for hometeam_both_roll5_npxg_per_shot_against hometeam_both_roll5_ppda_for hometeam_both_decay15_ppda_for hometeam_both_roll5_points_for hometeam_both_roll10_points_for hometeam_both_decay15_points_for hometeam_both_roll5_saves_for hometeam_both_roll10_saves_for hometeam_both_decay15_saves_for hometeam_both_roll5_saves_against hometeam_both_roll10_saves_against hometeam_both_decay15_saves_against hometeam_both_roll5_save_pct_for hometeam_both_roll10_save_pct_for hometeam_both_decay15_save_pct_for hometeam_both_roll5_save_pct_against hometeam_both_roll10_save_pct_against hometeam_both_decay15_save_pct_against hometeam_both_roll5_clean_sheet_for hometeam_both_roll10_clean_sheet_for hometeam_both_decay15_clean_sheet_for hometeam_both_roll5_elo_for hometeam_both_roll5_std_goals_for hometeam_both_roll10_std_goals_for hometeam_both_roll5_std_points_for hometeam_both_roll10_std_points_for hometeam_both_roll5_std_xg_for hometeam_both_roll10_std_xg_for hometeam_win_streak hometeam_loss_streak hometeam_nowin_streak hometeam_matches_last_14d hometeam_elo_momentum5 hometeam_home_roll5_goals_for hometeam_home_roll10_goals_for hometeam_home_decay15_goals_for hometeam_home_roll5_goals_against hometeam_home_roll10_goals_against hometeam_home_decay15_goals_against hometeam_home_roll5_ht_goals_for hometeam_home_roll10_ht_goals_for hometeam_home_decay15_ht_goals_for hometeam_home_roll5_ht_goals_against hometeam_home_roll10_ht_goals_against hometeam_home_decay15_ht_goals_against hometeam_home_roll5_xg_for hometeam_home_decay15_npxg_for hometeam_home_roll5_npxg_against hometeam_home_roll10_npxg_against hometeam_home_roll5_shots_for hometeam_home_roll10_shots_for hometeam_home_decay15_shots_for hometeam_home_roll5_shots_against hometeam_home_roll10_shots_against hometeam_home_decay15_shots_against hometeam_home_roll5_sot_for hometeam_home_roll10_sot_for hometeam_home_decay15_sot_for hometeam_home_roll5_sot_against hometeam_home_roll10_sot_against hometeam_home_decay15_sot_against hometeam_home_roll5_corners_for hometeam_home_roll10_corners_for hometeam_home_decay15_corners_for hometeam_home_roll5_corners_against hometeam_home_roll10_corners_against hometeam_home_decay15_corners_against hometeam_home_roll5_deep_completions_for hometeam_home_roll10_deep_completions_for hometeam_home_roll5_deep_completions_against hometeam_home_decay15_deep_completions_against hometeam_home_roll5_sot_pct_for hometeam_home_roll10_sot_pct_for hometeam_home_decay15_sot_pct_for hometeam_home_roll5_sot_pct_against hometeam_home_roll10_sot_pct_against hometeam_home_decay15_sot_pct_against hometeam_home_roll5_xg_per_shot_for hometeam_home_roll5_xg_per_shot_against hometeam_home_roll5_npxg_per_shot_for hometeam_home_decay15_npxg_per_shot_for hometeam_home_roll5_npxg_per_shot_against hometeam_home_roll10_npxg_per_shot_against hometeam_home_roll5_ppda_for hometeam_home_roll10_ppda_for hometeam_home_roll5_points_for hometeam_home_roll10_points_for hometeam_home_decay15_points_for hometeam_home_roll5_saves_for hometeam_home_roll10_saves_for hometeam_home_decay15_saves_for hometeam_home_roll5_saves_against hometeam_home_roll10_saves_against hometeam_home_decay15_saves_against hometeam_home_roll5_save_pct_for hometeam_home_roll10_save_pct_for hometeam_home_decay15_save_pct_for hometeam_home_roll5_save_pct_against hometeam_home_roll10_save_pct_against hometeam_home_decay15_save_pct_against hometeam_home_roll5_clean_sheet_for hometeam_home_roll10_clean_sheet_for hometeam_home_decay15_clean_sheet_for hometeam_home_decay15_elo_for awayteam_rest_days awayteam_both_roll5_goals_for awayteam_both_roll10_goals_for awayteam_both_decay15_goals_for awayteam_both_roll5_goals_against awayteam_both_roll10_goals_against awayteam_both_decay15_goals_against awayteam_both_roll5_ht_goals_for awayteam_both_roll10_ht_goals_for awayteam_both_decay15_ht_goals_for awayteam_both_roll5_ht_goals_against awayteam_both_roll10_ht_goals_against awayteam_both_decay15_ht_goals_against awayteam_both_roll10_xg_for awayteam_both_roll5_xg_against awayteam_both_roll10_xg_against awayteam_both_roll5_npxg_for awayteam_both_roll5_shots_for awayteam_both_roll10_shots_for awayteam_both_decay15_shots_for awayteam_both_roll5_shots_against awayteam_both_roll10_shots_against awayteam_both_decay15_shots_against awayteam_both_roll5_sot_for awayteam_both_roll10_sot_for awayteam_both_decay15_sot_for awayteam_both_roll5_sot_against awayteam_both_roll10_sot_against awayteam_both_decay15_sot_against awayteam_both_roll5_corners_for awayteam_both_roll10_corners_for awayteam_both_decay15_corners_for awayteam_both_roll5_corners_against awayteam_both_roll10_corners_against awayteam_both_decay15_corners_against awayteam_both_roll5_deep_completions_for awayteam_both_roll10_deep_completions_for awayteam_both_roll5_deep_completions_against awayteam_both_roll10_deep_completions_against awayteam_both_roll5_sot_pct_for awayteam_both_roll10_sot_pct_for awayteam_both_decay15_sot_pct_for awayteam_both_roll5_sot_pct_against awayteam_both_roll10_sot_pct_against awayteam_both_decay15_sot_pct_against awayteam_both_roll5_xg_per_shot_for awayteam_both_roll10_xg_per_shot_for awayteam_both_roll5_xg_per_shot_against awayteam_both_roll10_xg_per_shot_against awayteam_both_roll5_npxg_per_shot_for awayteam_both_roll5_npxg_per_shot_against awayteam_both_roll5_ppda_for awayteam_both_roll10_ppda_for awayteam_both_roll5_points_for awayteam_both_roll10_points_for awayteam_both_decay15_points_for awayteam_both_roll5_saves_for awayteam_both_roll10_saves_for awayteam_both_decay15_saves_for awayteam_both_roll5_saves_against awayteam_both_roll10_saves_against awayteam_both_decay15_saves_against awayteam_both_roll5_save_pct_for awayteam_both_roll10_save_pct_for awayteam_both_decay15_save_pct_for awayteam_both_roll5_save_pct_against awayteam_both_roll10_save_pct_against awayteam_both_decay15_save_pct_against awayteam_both_roll5_clean_sheet_for awayteam_both_roll10_clean_sheet_for awayteam_both_decay15_clean_sheet_for awayteam_both_roll5_elo_for awayteam_both_roll5_std_goals_for awayteam_both_roll10_std_goals_for awayteam_both_roll5_std_points_for awayteam_both_roll10_std_points_for awayteam_both_roll5_std_xg_for awayteam_both_roll10_std_xg_for awayteam_win_streak awayteam_loss_streak awayteam_unbeaten_streak awayteam_nowin_streak awayteam_matches_last_14d awayteam_elo_momentum5 awayteam_away_roll5_goals_for awayteam_away_roll10_goals_for awayteam_away_decay15_goals_for awayteam_away_roll5_goals_against awayteam_away_roll10_goals_against awayteam_away_decay15_goals_against awayteam_away_roll5_ht_goals_for awayteam_away_roll10_ht_goals_for awayteam_away_decay15_ht_goals_for awayteam_away_roll5_ht_goals_against awayteam_away_roll10_ht_goals_against awayteam_away_decay15_ht_goals_against awayteam_away_roll5_xg_against awayteam_away_roll5_npxg_for awayteam_away_roll10_npxg_for awayteam_away_decay15_npxg_against awayteam_away_roll5_shots_for awayteam_away_roll10_shots_for awayteam_away_decay15_shots_for awayteam_away_roll5_shots_against awayteam_away_roll10_shots_against awayteam_away_decay15_shots_against awayteam_away_roll5_sot_for awayteam_away_roll10_sot_for awayteam_away_decay15_sot_for awayteam_away_roll5_sot_against awayteam_away_roll10_sot_against awayteam_away_decay15_sot_against awayteam_away_roll5_corners_for awayteam_away_roll10_corners_for awayteam_away_decay15_corners_for awayteam_away_roll5_corners_against awayteam_away_roll10_corners_against awayteam_away_decay15_corners_against awayteam_away_roll5_deep_completions_for awayteam_away_roll10_deep_completions_for awayteam_away_roll5_deep_completions_against awayteam_away_decay15_deep_completions_against awayteam_away_roll5_sot_pct_for awayteam_away_roll10_sot_pct_for awayteam_away_decay15_sot_pct_for awayteam_away_roll5_sot_pct_against awayteam_away_roll10_sot_pct_against awayteam_away_decay15_sot_pct_against awayteam_away_roll5_xg_per_shot_for awayteam_away_roll10_xg_per_shot_for awayteam_away_roll5_xg_per_shot_against awayteam_away_decay15_xg_per_shot_against awayteam_away_roll5_npxg_per_shot_for awayteam_away_decay15_npxg_per_shot_for awayteam_away_roll5_npxg_per_shot_against awayteam_away_roll10_npxg_per_shot_against awayteam_away_roll5_ppda_for awayteam_away_roll10_ppda_for awayteam_away_roll5_points_for awayteam_away_roll10_points_for awayteam_away_decay15_points_for awayteam_away_roll5_saves_for awayteam_away_roll10_saves_for awayteam_away_decay15_saves_for awayteam_away_roll5_saves_against awayteam_away_roll10_saves_against awayteam_away_decay15_saves_against awayteam_away_roll5_save_pct_for awayteam_away_roll10_save_pct_for awayteam_away_decay15_save_pct_for awayteam_away_roll5_save_pct_against awayteam_away_roll10_save_pct_against awayteam_away_decay15_save_pct_against awayteam_away_roll10_clean_sheet_for awayteam_away_decay15_clean_sheet_for awayteam_away_decay15_elo_for rest_days_diff both_roll5_goals_for_diff both_roll10_goals_for_diff both_decay15_goals_for_diff both_roll5_goals_against_diff both_roll10_goals_against_diff both_decay15_goals_against_diff both_roll5_ht_goals_for_diff both_roll10_ht_goals_for_diff both_decay15_ht_goals_for_diff both_roll5_ht_goals_against_diff both_roll10_ht_goals_against_diff both_decay15_ht_goals_against_diff both_roll5_xg_for_diff both_roll10_xg_for_diff both_decay15_xg_for_diff both_roll5_xg_against_diff both_roll10_xg_against_diff both_decay15_xg_against_diff both_roll5_npxg_for_diff both_roll10_npxg_for_diff both_decay15_npxg_for_diff both_roll5_npxg_against_diff both_roll10_npxg_against_diff both_decay15_npxg_against_diff both_roll5_shots_for_diff both_roll10_shots_for_diff both_decay15_shots_for_diff both_roll5_shots_against_diff both_roll10_shots_against_diff both_decay15_shots_against_diff both_roll5_sot_for_diff both_roll10_sot_for_diff both_decay15_sot_for_diff both_roll5_sot_against_diff both_roll10_sot_against_diff both_decay15_sot_against_diff both_roll5_corners_for_diff both_roll10_corners_for_diff both_decay15_corners_for_diff both_roll5_corners_against_diff both_roll10_corners_against_diff both_decay15_corners_against_diff both_roll5_deep_completions_for_diff both_roll10_deep_completions_for_diff both_decay15_deep_completions_for_diff both_roll5_deep_completions_against_diff both_roll10_deep_completions_against_diff both_decay15_deep_completions_against_diff both_roll5_sot_pct_for_diff both_roll10_sot_pct_for_diff both_decay15_sot_pct_for_diff both_roll5_sot_pct_against_diff both_roll10_sot_pct_against_diff both_decay15_sot_pct_against_diff both_roll5_xg_per_shot_for_diff both_roll10_xg_per_shot_for_diff both_decay15_xg_per_shot_for_diff both_roll5_xg_per_shot_against_diff both_roll10_xg_per_shot_against_diff both_decay15_xg_per_shot_against_diff both_roll5_npxg_per_shot_for_diff both_roll10_npxg_per_shot_for_diff both_decay15_npxg_per_shot_for_diff both_roll5_npxg_per_shot_against_diff both_roll10_npxg_per_shot_against_diff both_decay15_npxg_per_shot_against_diff both_roll5_ppda_for_diff both_roll10_ppda_for_diff both_decay15_ppda_for_diff both_roll5_points_for_diff both_roll10_points_for_diff both_decay15_points_for_diff both_roll5_saves_for_diff both_roll10_saves_for_diff both_decay15_saves_for_diff both_roll5_saves_against_diff both_roll10_saves_against_diff both_decay15_saves_against_diff both_roll5_save_pct_for_diff both_roll10_save_pct_for_diff both_decay15_save_pct_for_diff both_roll5_save_pct_against_diff both_roll10_save_pct_against_diff both_decay15_save_pct_against_diff both_roll5_clean_sheet_for_diff both_roll10_clean_sheet_for_diff both_decay15_clean_sheet_for_diff both_roll5_std_goals_for_diff both_roll10_std_goals_for_diff both_roll5_std_points_for_diff both_roll10_std_points_for_diff both_roll5_std_xg_for_diff both_roll10_std_xg_for_diff win_streak_diff loss_streak_diff unbeaten_streak_diff nowin_streak_diff matches_last_14d_diff elo_momentum5_diff h2h_goal_diff_last4 h2h_points_last4 season_progress home_position away_position home_pts_to_1st away_pts_to_1st home_pts_to_ucl away_pts_to_ucl home_pts_to_europe away_pts_to_europe home_pts_to_relegation away_pts_to_relegation position_diff
feature_infos=-1:0:3:4:1:2 [1305.6899498281241:1906.761347349252] [1309.8900095146864:1907.5312625945271] [-526.65080719338494:496.33849058374471] [2:8] [0:5.7999999999999998] [0:4.5] [0:4.1349477310161618] [0:5] [0:5] [0:5] [0:3] [0:2.2000000000000002] [0:2.625] [0:5] [0:5] [0:5] [0.030934:3.994828] [0.030934:3.3536800474668045] [0.084219837500000005:4.2596800000000004] [0.16546805000000001:4.2596800000000004] [4.2000000000000002:25] [5:24] [5:24] [3.3999999999999999:27] [4.2999999999999998:27] [4.8554341585779994:27] [0:14.4] [0:13.5] [0:12.00671393637786] [0.80000000000000004:19] [1.2:19] [1.4503118820066616:19] [0:12] [0:10.800000000000001] [0:10] [0:12] [0:12] [0:12] [0:23.199999999999999] [0:19] [0:24] [0:24] [0:0.83000000000000007] [0:0.75326839826839831] [0:0.75] [0.095238095238095205:0.77396825396825408] [0.14694444444444441:0.75] [0.1475840336134453:0.75] [0.015467:0.3153881168831168] [0.015467:0.2943423863636363] [0.026729684090908999:0.29874640952380949] [0.026729684090908999:0.28732714285714278] [0.015467:0.25330961282051279] [0.026729684090908999:0.27159123181818179] [3.4651162790697674:47.017441860465119] [3.4651162790697674:54.540009469696962] [0:3] [0:3] [0:3] [0.20000000000000001:15] [0.59999999999999998:15] [0.85232533246428932:15] [0:12.6] [0:11.800000000000001] [0:10.284388039952956] [-0.024999999999999901:1] [0.074999999999999997:1] [0.09375:1] [0:1] [0:1] [0:1] [0:1] [0:1] [0:1] [1320.8806346503814:1902.1456776186683] [0:4.1472882706655438] [0:3.0110906108363231] [0:2.1213203435596424] [0:2.1213203435596424] [0.0133852876821282:2.3876968291566665] [0.0133852876821282:1.8512116975286617] [0:17] [0:14] [0:30] [0:4] [-64.399124592767066:66.063833195788447] [0:5.7999999999999998] [0:4.7999999999999998] [0:4.387083619049462] [0:5.5] [0:5.5] [0:5] [0:3.2000000000000002] [0:3] [0:3] [0:3] [0:3] [0:3] [0.051407099999999997:4.4200320000000008] [0.051407099999999997:3.9657100000000001] [0.057137100000000003:3.9338700000000002] [0.057137100000000003:3.9338700000000002] [3:27.399999999999999] [3:26.699999999999999] [3:25.318543287972524] [2:26] [2:26] [2:26] [0:15.4] [0:13.800000000000001] [0:13.459860484584976] [0.59999999999999998:13.4] [1:11.199999999999999] [1:11] [0:12.6] [0:11.5] [0:11] [0:12] [0:12] [0:12] [0:23.800000000000001] [0:20.399999999999999] [0:18] [0:18] [0:0.80333333333333334] [0:0.77777777777777779] [0:0.77777777777777779] [0.082626262626262603:0.82857142857142851] [0.1176470588235294:0.82857142857142851] [0.1176470588235294:0.80714285714285716] [0.0171357:0.41834666666666659] [0.0175698833333333:0.34344909090909093] [0.0171357:0.24943666666666661] [0.0171357:0.24943666666666661] [0.0175698833333333:0.28099071428571432] [0.0175698833333333:0.28099071428571432] [2.3125:67.333333333333329] [2.3125:67.333333333333329] [0:3] [0:3] [0:3] [0:9.8000000000000007] [0.5:9] [0.861328125:9] [0:14] [0:12.199999999999999] [0:11.86669335614652] [-0.099999999999999895:1] [0:1] [0:1] [0:1] [0:1] [0:1] [0:1] [0:1] [0:1] [1337.0696313897561:1887.2246240660847] [2:8] [0:5] [0:4.2999999999999998] [0:4] [0:5] [0:5] [0:5] [0:3] [0:3] [0:3] [0:3] [0:3] [0:4.5] [0.199709:3.5914514999999998] [0.057137100000000003:3.9338700000000002] [0.057137100000000003:3.9338700000000002] [0.199709:4.1356240000000009] [3.6000000000000001:25.800000000000001] [5:23.699999999999999] [5:23.17814720299728] [2.6000000000000001:27] [4.4000000000000004:27] [4.7485048887557486:27] [0.59999999999999998:16] [1:13.5] [0.375:12.26926292519938] [0.59999999999999998:13.800000000000001] [1.3:11.800000000000001] [1.5978947836171715:15.984375] [0:12.199999999999999] [0:11] [0:11] [0:12] [0:12] [0:12] [0:21.800000000000001] [0:18.899999999999999] [0:18] [0:18] [0.066071428571428503:0.80666666666666664] [0.1214285714285714:0.77777777777777779] [0.034090909090908998:0.77777777777777779] [0.073333333333333306:0.80000000000000004] [0.1176470588235294:0.80000000000000004] [0.1176470588235294:0.80000000000000004] [0.029186278571428501:0.28732714285714278] [0.029186278571428501:0.28732714285714278] [0.023398083333333299:0.2994733333333332] [0.023398083333333299:0.2994733333333332] [0.029186278571428501:0.25344811588235289] [0.023398083333333299:0.28099071428571432] [2.3125:67.333333333333329] [2.3125:67.333333333333329] [0:3] [0:3] [0:3] [0.20000000000000001:11.199999999999999] [0.80000000000000004:9.4000000000000004] [0.974086094244902:12.921875] [0.20000000000000001:14] [0.75:12] [0.25:10.616343562387533] [0:1] [0:1] [0:1] [0:1] [0:1] [0:1] [0:1] [0:1] [0:1] [1316.6702203667471:1900.3172410378691] [0:3.8340579025361623] [0:2.9814239699997214] [0:2.1213203435596424] [0:2.1213203435596424] [0.0098521187822720995:2.4672104214021147] [0.0098521187822720995:2.131881690443445] [0:18] [0:16] [0:44] [0:29] [0:4] [-71.034377619700535:61.824703872732925] [0:4.7999999999999998] [0:4] [0:4] [0:5] [0:5] [0:5] [0:3] [0:3] [0:3] [0:5] [0:5] [0:5] [0.22284300000000001:4.2596800000000004] [0.030934:3.7037499999999999] [0.030934:3.246623] [0.22284300000000001:4.2596800000000004] [1:24.199999999999999] [1:24] [1:24] [4:30] [5.2000000000000002:30] [5.7363066380462353:27] [0:12] [0:10.5] [0:10.163501887629693] [0.80000000000000004:19] [1:19] [1:19] [0:10.800000000000001] [0:10] [0:10] [0:14] [0:14] [0:14] [0:19.800000000000001] [0:16.600000000000001] [0:24] [0:24] [0:0.79920634920634925] [0:0.78888888888888897] [0:0.78055555555555556] [0.0977777777777777:0.78095238095238095] [0.1111111111111111:0.75] [0.1111111111111111:0.75] [0.015467:0.34344909090909093] [0.015467:0.34344909090909093] [0.024890818181818101:0.41834666666666659] [0.024890818181818101:0.41834666666666659] [0.015467:0.274642] [0.015467:0.274642] [0.024890818181818101:0.25167247619047611] [0.024890818181818101:0.24943666666666661] [3.4651162790697674:89.5] [3.4651162790697674:89.5] [0:3] [0:3] [0:3] [0:15] [0:15] [0:15] [-0.20000000000000001:10.4] [0:9.0999999999999996] [0:8.6019015795543083] [-0.019047619047619001:1] [0:1] [0:1] [0:1] [0:1] [0:1] [0:1] [0:1] [1335.2602680865334:1890.002010928762] [-6:6] [-5:5.2000000000000002] [-3.3999999999999999:3.7999999999999998] [-3.1984118037290656:3.3724059179628725] [-4.7999999999999998:3.3999999999999999] [-4.5:3.8999999999999999] [-4.4634159824738209:3.7289063616459162] [-2.6000000000000001:2.3999999999999999] [-2.2999999999999998:1.8999999999999999] [-2.2271105285613291:2.417970616326826] [-2.7999999999999998:4.2000000000000002] [-2.6000000000000001:4.5999999999999996] [-3.9750906556195522:4.5140109195340656] [-3.1573670200000001:3.266003599999999] [-2.7477253333333334:2.6518307499999998] [-2.4394520377787372:3.0358888593671387] [-2.5116174:2.7550042000000001] [-2.02244:2.7627993000000002] [-3.0094657257883619:2.7111692534127041] [-3.2104028000000007:3.1137695999999999] [-2.5247673333333331:2.4668821000000003] [-2.2486483778062785:2.7725402057765929] [-2.8161372:2.7550042000000001] [-2.576047:2.9143533000000001] [-2.6282908186226663:2.8230732206954672] [-16.600000000000001:16.199999999999999] [-12.75:13.699999999999999] [-12.88478912677922:11.828126576987064] [-16.600000000000001:18.200000000000003] [-17.5:15.5] [-16.954911193150906:15.871016964178963] [-11:10.199999999999999] [-8:7.2000000000000011] [-8.4576881540104036:7.8993677711629555] [-8:13.4] [-7.2000000000000002:12.300000000000001] [-9.3486938238798061:12.496019331634812] [-8.5999999999999996:8.4000000000000004] [-7.4000000000000004:6.1000000000000005] [-6.9459672679740443:6.0812705841379415] [-7.4000000000000004:8.1999999999999993] [-7.0999999999999996:6.5499999999999998] [-7.1824545827757085:6.8849398569964144] [-17.199999999999999:17.800000000000001] [-16.800000000000001:17.600000000000001] [-15.487288613442107:17.485472701076695] [-13:13.4] [-13:13.5] [-15.181760582385614:14.25] [-0.47719576719576717:0.47261904761904749] [-0.47651787296524128:0.4142857142857142] [-0.4846260679754924:0.43626176877543421] [-0.47361111111111098:0.37675053704465478] [-0.3466442189524031:0.38032425091248617] [-0.39903544988298451:0.39914484653105797] [-0.2507812261904761:0.2280801803751803] [-0.2507812261904761:0.2280801803751803] [-0.2507812261904761:0.1877318308080807] [-0.23201969999999991:0.2507812261904761] [-0.23201969999999991:0.2507812261904761] [-0.1686776607198969:0.2507812261904761] [-0.15183836624857591:0.15402061871070111] [-0.1420240833333333:0.14006484222672061] [-0.1681243097222222:0.15795326131628989] [-0.2146705833333333:0.1590222432172658] [-0.2146705833333333:0.1420240833333333] [-0.2146705833333333:0.17755249340277779] [-56.276812337088202:31.105782712595438] [-55.360197444122186:32.430104350022347] [-55.116579528589931:37.99025223379369] [-3:3] [-3:3] [-3:3] [-7.0000000000000009:10.4] [-5.7333333333333325:10.1] [-8.9290147594052485:10.484452432102568] [-9.8000000000000007:9.1999999999999993] [-6.9000000000000004:6.2000000000000002] [-6.7059760216574249:6.7600830194970563] [-0.76666666666666639:0.97142857142857164] [-0.66749999999999998:0.76642857142857146] [-0.67786110299150526:0.74356510476201099] [-0.8600000000000001:0.81269841269841281] [-0.69238095238095243:0.62285714285714278] [-0.76190030331052916:0.72108123680069969] [-1:1] [-0.90000000000000002:1] [-0.904296875:0.92722117015714878] [-3.2863353450309973:3.1472882706655438] [-2.4627609211651129:2.2222799730897087] [-2.1213203435596424:2.1213203435596424] [-2.1213203435596424:2.1213203435596424] [-2.2241319981800758:1.8487131247234851] [-1.6630017685909495:1.5563512638055064] [-18:17] [-16:14] [-44:43] [-26:29] [-3:3] [-98.414302614288076:91.36321648459284] [-6:7] [-1:3] [0.0071942446043165003:1] [1:20] [1:20] [-80:0] [-83:0] [-59:41] [-59:39] [-51:43] [-51:42] [-25:70] [-25:67] [-19:19]
tree_sizes=972 1024 1022 1027 1020 896 1023 921 1023 1023 915 910 1024 917 1027 925 893 788 1030 1025 1004 1007 1020 920 1023 1022 1028 905 910 1005 1020 919 1009 1024 1006 1025 1017 1010 1012 1025 900 920 921 921 1028 914 920 911 1024 921 919 1026 928 918 921 1035 1006 1030 922 920 810 914 917 921 1035 921 918 910 920 1034 1031 1036 922 926 906 1029 902 1032 1034 1029 1029 914 1020 1022 1019 1015 1019 1020 913 1022 1026 1030 1027 1038 1026

Tree=0
num_leaves=8
num_cat=0
split_feature=3 3 1 282 95 342 238
split_gain=127.728 43.7098 21.9309 20.6078 20.3739 15.0526 9.81652
threshold=148.63773405654607 -187.3600017908237 1741.7276042396022 0.46795086137321296 0.77534583965506854 -1.3749999999999989 2.5000000000000004
decision_type=2 2 2 10 8 8 2
left_child=1 3 5 -1 -3 -2 -4
right_child=2 4 6 -5 -6 -7 -8
leaf_value=-1.0973429328125202 -1.1001522419824632 -1.0848353616849575 -1.1083189665634641 -1.0818386847947183 -1.0897060661479905 -1.08944822640818 -1.0941747113101223
leaf_weight=272.80468928813934 168.05371743440628 1624.582068875432 154.30044235289097 49.737871527671814 576.88394930958748 111.34500785171986 32.216575875878334
leaf_count=1448 892 8623 819 264 3062 591 171
internal_value=-1.08923 -1.08725 -1.09997 -1.09491 -1.08612 -1.09593 -1.10595
internal_weight=2989.92 2524.01 465.916 322.543 2201.47 279.399 186.517
internal_count=15870 13397 2473 1712 11685 1483 990
is_linear=0
shrinkage=1


Tree=1
num_leaves=8
num_cat=0
split_feature=3 3 157 157 282 348 331
split_gain=122.714 41.802 22.9155 20.9315 19.7764 14.5301 10.2857
threshold=148.63773405654607 -187.3600017908237 1724.658974681917 1580.5932685178595 0.46795086137321296 -2.1999999999999997 -0.65700524999999987
decision_type=2 2 10 8 10 8 10
left_child=1 4 5 -3 -1 -2 -4
right_child=2 3 6 -5 -6 -7 -8
leaf_value=-0.0082013464104262468 -0.015104898405922291 0.0041299390946328233 -0.021596117147481331 -0.00075593002117326467 0.0069669562267365339 -0.0029401507565207548 -0.011241003970106415
leaf_weight=271.6722913980484 68.026891589164734 1608.7755100429058 100.88698950409889 595.83345654606819 49.914252161979675 187.48996974527836 106.98692446947098
leaf_count=1448 363 8525 540 3160 264 998 572
internal_value=-0.000231958 0.00170284 -0.0108006 0.00280416 -0.00580705 -0.00623572 -0.0163418
internal_weight=2989.59 2526.2 463.391 2204.61 321.587 255.517 207.874
internal_count=15870 13397 2473 11685 1712 1361 1112
is_linear=0
shrinkage=0.0223408


Tree=2
num_leaves=8
num_cat=0
split_feature=3 3 157 157 282 342 331
split_gain=117.899 39.9777 22.2777 19.9481 18.9783 16.4976 10.0801
threshold=148.63773405654607 -187.3600017908237 1724.658974681917 1580.5932685178595 0.46795086137321296 -1.3749999999999989 -0.65700524999999987
decision_type=2 2 10 8 10 8 10
left_child=1 4 5 -3 -1 -2 -4
right_child=2 3 6 -5 -6 -7 -8
leaf_value=-0.00805164549306925 -0.010794760923711247 0.004029358493769176 -0.021349177870330853 -0.00073932847440393902 0.0067885453919122717 0.00068575680618042779 -0.011053424223950824
leaf_weight=270.55816912651062 151.88601306080818 1612.0634330809116 99.789040952920914 595.6101383715868 50.085766553878784 102.84082528948784 106.38260094821453
leaf_count=1448 814 8525 540 3160 264 547 572
internal_value=-0.000227389 0.0016632 -0.0106196 0.00273753 -0.00569355 -0.00611707 -0.0161123
internal_weight=2989.22 2528.32 460.898 2207.67 320.644 254.727 206.172
internal_count=15870 13397 2473 11685 1712 1361 1112
is_linear=0
shrinkage=0.0223408


Tree=3
num_leaves=8
num_cat=0
split_feature=3 3 157 157 282 342 355
split_gain=113.251 38.2332 21.6651 19.0127 18.2122 15.9088 9.14312
threshold=148.63773405654607 -187.3600017908237 1724.658974681917 1580.5932685178595 0.46795086137321296 -2.0000000000000009 -0.39999999999999963
decision_type=2 2 10 8 10 8 10
left_child=1 4 5 -3 -1 -2 -4
right_child=2 3 6 -5 -6 -7 -8
leaf_value=-0.0079042709856891741 -0.011418319398894206 0.0039314512534668602 -0.018749380005616038 -0.00072308549269027415 0.0066154040695307163 -0.00013524363932075959 -0.0075169905058980026
leaf_weight=269.46225774288177 130.79995006322861 1615.2675361186266 151.0885653346777 595.39169447124004 50.252564191818237 123.13526491820812 53.396952614188194
leaf_count=1448 705 8525 822 3160 264 656 290
internal_value=-0.000222729 0.00162452 -0.0104405 0.00267258 -0.00558206 -0.0059986 -0.0158858
internal_weight=2988.79 2530.37 458.421 2210.66 319.715 253.935 204.486
internal_count=15870 13397 2473 11685 1712 1361 1112
is_linear=0
shrinkage=0.0223408


Tree=4
num_leaves=8
num_cat=0
split_feature=3 3 157 95 282 342 331
split_gain=108.839 36.8916 21.2162 17.9121 17.4768 14.9004 9.64099
threshold=145.86355998014429 -187.3600017908237 1724.658974681917 0.77534583965506854 0.46795086137321296 -1.3749999999999989 -0.65700524999999987
decision_type=2 2 10 8 10 8 10
left_child=1 4 5 -3 -1 -2 -4
right_child=2 3 6 -5 -6 -7 -8
leaf_value=-0.007759199218854965 -0.010267169502281345 0.0038422720786497034 -0.020725943240972169 -0.0007382001513233067 0.0064473373370333344 0.00042166954725828259 -0.010607705791690254
leaf_weight=268.384406208992 155.7708093225956 1629.940311819315 98.228967815637589 571.37022303044796 50.414790630340576 108.14963738620281 106.09525074064732
leaf_count=1448 843 8593 542 3027 264 575 578
internal_value=-0.000218335 0.00161569 -0.0101102 0.00264806 -0.00547255 -0.00584592 -0.0155478
internal_weight=2988.35 2520.11 468.245 2201.31 318.799 263.92 204.324
internal_count=15870 13332 2538 11620 1712 1418 1120
is_linear=0
shrinkage=0.0223408


Tree=5
num_leaves=7
num_cat=0
split_feature=1 104 194 163 173 176
split_gain=88.3923 31.6468 32.8053 21.3214 19.1256 5.69889
threshold=1736.8099589667434 16.050000000000004 7.8166666666666673 0.95000000000000007 1.1712718500000003 14.050000000000002
decision_type=2 10 10 8 8 10
left_child=1 2 -1 -2 -3 -5
right_child=3 4 -4 5 -6 -7
leaf_value=0.0028286881538020199 0 0.0048624309884835494 -0.0049830779832577997 -0.01896850978701178 -0.0078284985240817187 -0.0078802589833384742
leaf_weight=2089.3439157009125 47.10536502301693 73.065985113382339 306.69785231351852 148.51995466649532 290.4681448340416 32.671574026346207
leaf_count=11043 255 389 1636 820 1549 178
internal_value=-0.000213866 0.000887803 0.00182346 -0.0135694 -0.00524387 -0.0170468
internal_weight=2987.87 2759.58 2396.04 228.297 363.534 181.192
internal_count=15870 14617 12679 1253 1938 998
is_linear=0
shrinkage=0.0223408


Tree=6
num_leaves=8
num_cat=0
split_feature=3 3 157 268 344 342 331
split_gain=101.805 34.908 19.7868 19.2374 18.2649 14.2879 9.47815
threshold=145.86355998014429 -169.58119165461821 1724.658974681917 5.366666666666668 -2.5003554555530498 -1.3749999999999989 -0.65700524999999987
decision_type=2 2 10 10 8 8 10
left_child=1 3 5 -1 -3 -2 -4
right_child=2 4 6 -5 -6 -7 -8
leaf_value=-0.0066041834823143608 -0.010061638716282453 -0.002242747553820651 -0.020320408697947909 0.0087067215962833688 0.0035246497933152793 0.00041619276011214918 -0.010214980889590521
leaf_weight=330.88936702907085 154.81138169765472 319.65705978870392 96.391677051782608 45.91876508295536 1826.7994529753923 108.16214774549007 104.8177403062582
leaf_count=1780 843 1686 542 243 9623 575 578
internal_value=-0.000209513 0.00155556 -0.00982571 -0.00470285 0.00266011 -0.00571069 -0.0151325
internal_weight=2987.45 2523.26 464.183 376.808 2146.46 262.974 201.209
internal_count=15870 13332 2538 2023 11309 1418 1120
is_linear=0
shrinkage=0.0223408


Tree=7
num_leaves=7
num_cat=0
split_feature=157 229 392 281 164 355
split_gain=82.5443 25.8924 31.6597 24.602 21.5704 9.20006
threshold=1724.658974681917 1732.1415473068782 0.77801931234888266 0.45921266233766239 0.91309336138226294 -0.39999999999999963
decision_type=10 10 10 10 8 10
left_child=1 2 -1 -3 -2 -6
right_child=4 3 -4 -5 5 -7
leaf_value=0.002774450527017963 0.0028011214720338497 -0.010115473311325607 -0.0036509415386089088 0.0077071112114847308 -0.018326121759872683 -0.0075512023415419075
leaf_weight=2041.1620838940144 37.482862517237663 179.70851334929466 469.48932936787605 48.290856048464775 150.66470995545387 60.14824090898037
leaf_count=10769 202 972 2495 255 845 332
internal_value=-0.00020523 0.000909426 0.00156798 -0.00628491 -0.0125365 -0.0153195
internal_weight=2986.95 2738.65 2510.65 227.999 248.296 210.813
internal_count=15870 14491 13264 1227 1379 1177
is_linear=0
shrinkage=0.0223408


Tree=8
num_leaves=8
num_cat=0
split_feature=3 3 157 268 157 342 238
split_gain=95.2325 32.6916 18.3383 18.1388 17.8274 13.7232 9.39525
threshold=145.86355998014429 -169.58119165461821 1724.658974681917 5.366666666666668 1580.5932685178595 -1.3749999999999989 2.5000000000000004
decision_type=2 2 10 10 8 8 2
left_child=1 3 5 -1 -3 -2 -4
right_child=2 4 6 -5 -6 -7 -8
leaf_value=-0.0064303935528048015 -0.0098751064952608495 0.0037992288252021679 -0.016973804185285116 0.0084018629388425189 -0.00077040692471792198 0.00040264639465414448 -0.0036733635277388724
leaf_weight=329.34099370241165 153.9428805410862 1571.7095292359591 163.42378406226635 46.178980633616447 579.0357208698988 108.19422397017479 34.641526877880096
leaf_count=1780 843 8240 927 243 3069 575 193
internal_value=-0.000200912 0.00149802 -0.00954883 -0.00457096 0.00256353 -0.00559152 -0.0147141
internal_weight=2986.47 2526.27 460.202 375.52 2150.75 262.137 198.065
internal_count=15870 13332 2538 2023 11309 1418 1120
is_linear=0
shrinkage=0.0223408


Tree=9
num_leaves=8
num_cat=0
split_feature=3 3 157 416 282 348 331
split_gain=91.4704 31.0313 17.7381 17.3789 15.88 13.2036 9.6528
threshold=148.63773405654607 -187.3600017908237 1724.658974681917 0.96399637047119069 0.46795086137321296 -2.1999999999999997 -0.65700524999999987
decision_type=2 2 10 2 10 8 10
left_child=1 4 5 -3 -1 -2 -4
right_child=2 3 6 -5 -6 -7 -8
leaf_value=-0.0073129346155689405 -0.014133375583461935 0.0028808688867870847 -0.019931407204530797 -0.0053020474515323955 0.0062145958313344889 -0.0023755521167186967 -0.0095957377168242944
leaf_weight=265.06827430427074 65.767927303910255 2087.546188056469 93.32877379655838 136.94857859611511 50.637630999088287 184.92728520929813 101.69485601782799
leaf_count=1448 363 10966 540 719 264 998 572
internal_value=-0.000196791 0.00143735 -0.00953228 0.00237129 -0.00510287 -0.00551738 -0.0146201
internal_weight=2985.92 2540.2 445.719 2224.49 315.706 250.695 195.024
internal_count=15870 13397 2473 11685 1712 1361 1112
is_linear=0
shrinkage=0.0223408


Tree=10
num_leaves=7
num_cat=0
split_feature=3 3 341 125 287 347
split_gain=74.7059 25.5222 32.1307 16.0724 9.63989 7.65756
threshold=240.89507700192362 -208.54212565426255 2.48439632068636 0.43135505299298404 0.1086206624513258 1.1804108962745081
decision_type=2 2 10 10 10 10
left_child=1 3 -3 -1 5 -2
right_child=4 2 -4 -5 -6 -7
leaf_value=-0.0087550512037075749 -0.0054522017595544526 0.0025884232373107417 -0.0041463722692770214 0.0052432845832263561 -0.0044947349374483674 -0.019934941594296207
leaf_weight=203.5767237842083 25.105207517743111 2139.6826233565807 422.22666573524475 49.940321713685989 41.593236297369003 106.79440830647945
leaf_count=1112 141 11257 2264 266 236 611
internal_value=-7.26859e-05 0.000800611 0.00147359 -0.00594876 -0.0142945 -0.0172821
internal_weight=2988.92 2815.43 2561.91 253.517 173.493 131.9
internal_count=15887 14899 13521 1378 988 752
is_linear=0
shrinkage=0.0223408


Tree=11
num_leaves=7
num_cat=0
split_feature=3 3 341 126 287 28
split_gain=71.9848 24.438 30.7157 12.4648 9.39679 7.47007
threshold=240.89507700192362 -208.54212565426255 2.48439632068636 0.3884932250412127 0.1086206624513258 5.9500000000000011
decision_type=2 2 10 10 10 10
left_child=1 3 -3 -1 5 -2
right_child=4 2 -4 -5 -6 -7
leaf_value=-0.008779883308216465 -0.010606376877605924 0.0025273664427288242 -0.004062359068399495 0.0024062756543477364 -0.0044056818470228666 -0.021993435429947104
leaf_weight=187.20123092830181 57.94867542386055 2142.3915328085423 421.34559126198292 65.523738220334053 41.491821050643921 72.710769459605217
leaf_count=1028 329 11257 2264 350 236 423
internal_value=-7.1469e-05 0.000782257 0.00143949 -0.00583348 -0.0140894 -0.0170611
internal_weight=2988.61 2816.46 2563.74 252.725 172.151 130.659
internal_count=15887 14899 13521 1378 988 752
is_linear=0
shrinkage=0.0223408


Tree=12
num_leaves=8
num_cat=0
split_feature=3 3 341 125 290 28 208
split_gain=69.3641 23.3993 29.3632 15.097 9.19975 10.2429 7.32183
threshold=240.89507700192362 -208.54212565426255 2.48439632068636 0.43135505299298404 0.089097192698412667 5.9500000000000011 0.099906843000108672
decision_type=2 2 10 10 10 10 10
left_child=1 3 -3 -1 5 -2 -6
right_child=4 2 -4 -5 6 -7 -8
leaf_value=-0.0084648156132638673 -0.0095291832352350728 0.0024678292216645638 -0.0039799028353862528 0.0050945090756775047 0.0025822230071518714 -0.023715240460528482 -0.013096847934087771
leaf_weight=201.8589351028204 49.108502805233002 2145.034627020359 420.48154638707638 50.088063806295395 24.465542733669281 63.574742779135704 33.676232740283012
leaf_count=1112 280 11257 2264 266 140 374 194
internal_value=-7.02901e-05 0.000764329 0.0014062 -0.00572018 -0.0138872 -0.0176696 -0.00631317
internal_weight=2988.29 2817.46 2565.52 251.947 170.825 112.683 58.1418
internal_count=15887 14899 13521 1378 988 654 334
is_linear=0
shrinkage=0.0223408


Tree=13
num_leaves=7
num_cat=0
split_feature=3 3 110 125 287 347
split_gain=66.8292 22.4041 28.2444 14.5068 9.07746 8.33463
threshold=240.89507700192362 -208.54212565426255 6.0500000000000007 0.43135505299298404 0.1086206624513258 1.1345082952812
decision_type=2 2 10 10 10 10
left_child=1 3 -3 -1 5 -2
right_child=4 2 -4 -5 -6 -7
leaf_value=-0.0083131275322147393 -0.0040432222881049548 0.0024519263256038565 -0.0037232761029931142 0.0049685987235522887 -0.0041449222872522416 -0.019395242852188826
leaf_weight=200.96465976536274 23.854520559310913 2121.0050923228264 446.24276702105999 50.214435547590256 41.195244699716568 104.45904017984867
leaf_count=1112 136 11128 2393 266 236 616
internal_value=-6.90645e-05 0.000746825 0.00137371 -0.00560886 -0.0136868 -0.0166454
internal_weight=2987.94 2818.43 2567.25 251.179 169.509 128.314
internal_count=15887 14899 13521 1378 988 752
is_linear=0
shrinkage=0.0223408


Tree=14
num_leaves=8
num_cat=0
split_feature=3 332 3 340 250 126 89
split_gain=64.5886 25.1342 24.0453 19.9187 14.2306 11.3374 10.8141
threshold=179.8336930892016 -0.21714995593091532 -208.54212565426255 3.0000000000000009 0.37017936611309371 0.3884932250412127 2.580873453640038
decision_type=2 10 2 10 8 10 10
left_child=2 6 5 -4 -3 -1 -2
right_child=1 4 3 -5 -6 -7 -8
leaf_value=-0.0083434961063802212 -0.0094170733068365837 0.016144852065076053 0.0025109157880878023 -0.0037527597715168591 -0.0054944496349847343 0.0023325374101035674 -0.019636680390021154
leaf_weight=184.80536597967148 185.42659588158131 25.232264757156372 2126.4965084344149 286.09554770588875 36.310207471251488 65.617373585700989 77.598278656601906
leaf_count=1028 1051 140 11130 1526 202 350 460
internal_value=-6.79118e-05 -0.00947709 0.00107517 0.00176296 0.00321406 -0.00549947 -0.0124916
internal_weight=2987.58 324.567 2663.01 2412.59 61.5425 250.423 263.025
internal_count=15887 1853 14034 12656 342 1378 1511
is_linear=0
shrinkage=0.0223408


Tree=15
num_leaves=7
num_cat=0
split_feature=157 229 341 350 281 346
split_gain=52.4205 23.7331 28.1269 21.8103 13.1457 10.1998
threshold=1724.658974681917 1732.1415473068782 2.48439632068636 1.0000000180025095e-35 0.45921266233766239 0.19999999999999954
decision_type=10 10 8 10 10 8
left_child=1 2 -1 5 -3 -2
right_child=3 4 -4 -5 -6 -7
leaf_value=0.0024365330852947637 -0.00025897029828624555 -0.0090563733315325579 -0.0039984025147393734 0.0033653745186969335 0.0041965082334648315 -0.015658013165398343
leaf_weight=2130.1403307467699 26.544570580124855 174.03468607366085 401.83170808851719 46.132639929652214 46.046422556042671 162.46166941523552
leaf_count=11154 147 963 2165 256 243 959
internal_value=-6.67056e-05 0.000794719 0.00141036 -0.0101897 -0.0062285 -0.0135606
internal_weight=2987.19 2752.05 2531.97 235.139 220.081 189.006
internal_count=15887 14525 13319 1362 1206 1106
is_linear=0
shrinkage=0.0223408


Tree=16
num_leaves=7
num_cat=0
split_feature=3 194 23 39 347 291
split_gain=60.6578 20.4921 27.6849 10.9581 9.54003 8.80465
threshold=240.89507700192362 8.6333333333333346 12.701507318428609 8.2250000000000014 0.9712305098455275 0.09017085538562912
decision_type=2 10 8 8 10 10
left_child=1 2 -1 -3 -2 -6
right_child=4 3 -4 -5 5 -7
leaf_value=0.0030519631809317795 0 -0.0071657631426077116 -0.0018148680236311006 0.0045904262479835884 -0.019477247628890196 -0.0073476269092178047
leaf_weight=1649.1597862094641 23.133291125297546 225.69548247754574 899.26189674437046 46.527486562728882 92.890469118952751 50.131759956479073
leaf_count=8625 133 1223 4801 250 560 295
internal_value=-6.5407e-05 0.000703798 0.00132997 -0.00511094 -0.013177 -0.0153268
internal_weight=2986.8 2820.64 2548.42 272.223 166.156 143.022
internal_count=15887 14899 13426 1473 988 855
is_linear=0
shrinkage=0.0223408


Tree=17
num_leaves=6
num_cat=0
split_feature=3 401 341 347 291
split_gain=58.4259 19.928 20.4091 9.27679 8.62461
threshold=240.89507700192362 -0.42008641030416649 2.8334754170552805 0.9712305098455275 0.09017085538562912
decision_type=2 8 10 10 10
left_child=1 -1 -3 -2 -5
right_child=3 2 -4 4 -6
leaf_value=-0.013802388374282664 0 0.001657418185679612 -0.0041567347023507058 -0.019262153750310006 -0.007214370534392011
leaf_weight=46.256506487727165 23.133291125297546 2432.4292104691267 342.86248813569546 91.843745246529579 49.923735275864601
leaf_count=251 133 12784 1864 560 295
internal_value=-6.42067e-05 0.000687697 0.000934594 -0.012984 -0.0151213
internal_weight=2986.45 2821.55 2775.29 164.901 141.767
internal_count=15887 14899 14648 988 855
is_linear=0
shrinkage=0.0223408


Tree=18
num_leaves=8
num_cat=0
split_feature=89 229 341 338 281 135 313
split_gain=49.415 22.5608 29.5105 17.9916 13.5417 9.84143 9.40754
threshold=2.2774366733273621 1732.1415473068782 2.8334754170552805 -0.47143408469232623 0.45921266233766239 0.087766789567711667 1592.1679024943294
decision_type=10 10 10 10 10 8 10
left_child=1 2 -1 6 -3 -5 -2
right_child=3 4 -4 5 -6 -7 -8
leaf_value=0.0023710598628123233 -0.018334730698850717 -0.0090101378483631034 -0.0049087293105378009 0.0033984043843113773 0.0044522481339083521 -0.0086611174646746072 -0.0041009219823806521
leaf_weight=2182.6675540357828 102.20272380113602 169.89696989953518 317.41625790297985 59.158478125929832 46.3138317912817 75.33580470085144 33.127262800931931
leaf_count=11419 607 946 1741 330 244 418 182
internal_value=-6.31268e-05 0.00083897 0.00144171 -0.00918102 -0.00607022 -0.00327237 -0.0149505
internal_weight=2986.12 2716.29 2500.08 269.824 216.211 134.494 135.33
internal_count=15887 14350 13160 1537 1190 748 789
is_linear=0
shrinkage=0.0223408


Tree=19
num_leaves=8
num_cat=0
split_feature=3 332 3 340 401 89 56
split_gain=55.0773 23.6848 21.6333 20.0576 13.9518 9.98444 9.93343
threshold=179.8336930892016 -0.21714995593091532 -160.72060776580722 3.0000000000000009 -0.40331496424298741 2.580873453640038 9.4031721654757305
decision_type=2 10 2 10 10 10 10
left_child=2 5 4 -4 -1 -2 -3
right_child=1 6 3 -5 -6 -7 -8
leaf_value=-0.016219408899095518 -0.0088779418792601372 -0.0065418139838276995 0.0026284763631632701 -0.0037254197902635241 -0.0023454174480756905 -0.018871589284572467 0.011417736826466717
leaf_weight=40.553426399827003 182.17656111717224 26.382194861769676 1983.9057626277208 281.77808211743832 361.67470109462738 74.49658277630806 34.77107284963131
leaf_count=225 1051 149 10329 1514 1966 460 193
internal_value=-6.20256e-05 -0.00885345 0.00098155 0.00183275 -0.0037821 -0.0118389 0.00348221
internal_weight=2985.74 317.826 2667.91 2265.68 402.228 256.673 61.1533
internal_count=15887 1853 14034 11843 2191 1511 342
is_linear=0
shrinkage=0.0223408


Tree=20
num_leaves=8
num_cat=0
split_feature=89 335 2 376 202 86 48
split_gain=56.523 26.1931 24.0845 18.2642 11.8884 11.7894 9.14641
threshold=2.2774366733273621 0.54631728241139521 1736.4765592611866 0.010734520849846052 0.31179751402764322 4.5773867945515585 0.40102414269110759
decision_type=10 10 2 8 10 8 10
left_child=1 2 -1 5 -5 -2 -3
right_child=3 6 -4 4 -6 -7 -8
leaf_value=0.0023542470326540083 -0.0078929722497701731 -0.0052126583144390028 -0.0055651830575044522 0 -0.01510722398025669 0.011170045499082548 -0.019856528106256786
leaf_weight=2386.2605245709419 35.216716185212135 108.81177282333374 207.42064997553825 29.908491641283035 172.4977762401104 29.421719089150429 27.752661570906639
leaf_count=12506 197 602 1147 171 1004 163 154
internal_value=0.000246176 0.00120978 0.00171593 -0.00955398 -0.0128554 0.000611126 -0.00830352
internal_weight=2997.29 2730.25 2593.68 267.045 202.406 64.6384 136.564
internal_count=15944 14409 13653 1535 1175 360 756
is_linear=0
shrinkage=0.0223408


Tree=21
num_leaves=8
num_cat=0
split_feature=89 335 194 376 202 86 48
split_gain=54.2758 25.1242 26.3678 17.6694 11.547 11.2493 8.89981
threshold=2.2774366733273621 0.54631728241139521 7.7500000000000009 0.010734520849846052 0.31179751402764322 4.5773867945515585 0.40102414269110759
decision_type=10 10 10 8 10 8 10
left_child=1 2 -1 5 -5 -2 -3
right_child=3 6 -4 4 -6 -7 -8
leaf_value=0.0025723506417245153 -0.0077504065309478105 -0.0051105187957280881 -0.0039861758020730362 0 -0.014895969850098395 0.010858785349973331 -0.019622273815960285
leaf_weight=2242.9725966453552 35.069228991866112 108.51500472426414 352.83042120933533 29.908491641283035 171.05537775158882 29.59362068772316 27.462613552808762
leaf_count=11749 197 602 1904 171 1004 163 154
internal_value=0.000240123 0.00118168 0.00167607 -0.00939126 -0.0126594 0.000592919 -0.00815648
internal_weight=2997.41 2731.78 2595.8 265.627 200.964 64.6628 135.978
internal_count=15944 14409 13653 1535 1175 360 756
is_linear=0
shrinkage=0.0223408


Tree=22
num_leaves=8
num_cat=0
split_feature=3 194 104 173 111 1 21
split_gain=54.6743 26.7296 25.1748 17.7454 12.7223 12.6847 5.72771
threshold=201.65308670365405 7.7500000000000009 10.387500000000001 1.7047040500000001 4.8289802736263203 1751.7102065071015 14.100000000000001
decision_type=2 10 8 8 8 2 10
left_child=1 2 -1 5 -3 -2 -5
right_child=3 4 -4 6 -6 -7 -8
leaf_value=0.0096801031223707409 0.0033107213822279702 -0.0079797805124976213 0.0013296042833580467 -0.0093407212901734562 0.00012546133887533282 -0.010323101100938864 -0.020662141636984929
leaf_weight=197.10662460327148 58.998185753822327 211.80640630424023 2170.3389157652855 41.078431487083435 172.43315967917442 77.038251012563705 68.712148264050484
leaf_count=1021 334 1152 11375 240 925 470 427
internal_value=0.000234212 0.00114019 0.00203071 -0.00985044 -0.00431388 -0.00432808 -0.0165621
internal_weight=2997.51 2751.69 2367.45 245.827 384.24 136.036 109.791
internal_count=15944 14473 12396 1471 2077 804 667
is_linear=0
shrinkage=0.0223408


Tree=23
num_leaves=7
num_cat=0
split_feature=1 229 340 281 332 393
split_gain=51.1475 21.3424 24.0768 16.5959 15.1183 6.00285
threshold=1741.7276042396022 1740.7728888328618 3.0000000000000009 0.46162214978004462 -0.13303668616463019 -0.082857142857142727
decision_type=2 10 10 8 10 8
left_child=1 2 -1 -3 5 -2
right_child=4 3 -4 -5 -6 -7
leaf_value=0.0023741448272540421 -0.0069161149164180986 -0.0094327938122714238 -0.0040338770866844131 0.0054807903783280695 0.0014538603715379503 -0.017080358532397442
leaf_weight=2266.7181165516376 46.80429270863533 157.84260085225105 334.64350771903992 47.476202115416527 37.61335888504982 106.45228236913681
leaf_count=11822 287 890 1826 250 212 657
internal_value=0.000228674 0.000993909 0.00154499 -0.00592462 -0.0109497 -0.0140683
internal_weight=2997.55 2806.68 2601.36 205.319 190.87 153.257
internal_count=15944 14788 13648 1140 1156 944
is_linear=0
shrinkage=0.0223408


Tree=24
num_leaves=8
num_cat=0
split_feature=3 194 104 173 377 111 21
split_gain=51.0244 25.1174 23.7452 17.3637 12.5513 12.2553 5.57767
threshold=201.65308670365405 7.7500000000000009 10.387500000000001 1.7047040500000001 0.025230596235473305 4.8289802736263203 14.100000000000001
decision_type=2 10 8 8 10 8 10
left_child=1 2 -1 4 -2 -3 -5
right_child=3 5 -4 6 -6 -7 -8
leaf_value=0.0093617794674162903 0.0026414617550546012 -0.0078135527711784784 0.001272763348087993 -0.0091240405631392834 -0.010852369947338588 0.00015085279794271053 -0.020364623731724641
leaf_weight=198.21761873364449 66.786682680249214 210.78461596369743 2172.8587909042835 40.775739520788193 68.324612572789192 172.31874765455723 67.476136818528175
leaf_count=1021 393 1152 11375 240 411 925 427
internal_value=0.000223203 0.00109378 0.00195482 -0.00957242 -0.00410203 -0.0042025 -0.016268
internal_weight=2997.54 2754.18 2371.08 243.363 135.111 383.103 108.252
internal_count=15944 14473 12396 1471 804 2077 667
is_linear=0
shrinkage=0.0223408


Tree=25
num_leaves=8
num_cat=0
split_feature=3 194 104 331 75 377 356
split_gain=49.0359 24.0217 22.5587 15.4064 12.0043 9.04285 6.51715
threshold=201.65308670365405 7.7500000000000009 10.387500000000001 -0.7187617999999999 1539.7765008654746 0.025230596235473305 -0.51636792113169372
decision_type=2 10 8 10 10 10 8
left_child=1 2 -1 6 -3 -5 -2
right_child=3 4 -4 5 -6 -7 -8
leaf_value=0.009112249183624339 -0.018577204879849658 -0.0078149889636107001 0.0012435557574357688 0.0016335249181271753 5.4060028438755508e-05 -0.0099080173269934617 -0.0046752637194592385
leaf_weight=199.09234358370304 85.53537517786026 204.02524228394032 2174.1988178789616 65.092754736542702 178.2418604195118 67.160899117588997 24.210739597678185
leaf_count=1021 541 1119 11375 379 958 403 148
internal_value=0.000217917 0.00106884 0.00190945 -0.00941422 -0.0041172 -0.00414556 -0.015634
internal_weight=2997.56 2755.56 2373.29 242 382.267 132.254 109.746
internal_count=15944 14473 12396 1471 2077 782 689
is_linear=0
shrinkage=0.0223408


Tree=26
num_leaves=8
num_cat=0
split_feature=89 335 347 376 86 301 48
split_gain=47.757 22.8206 22.7789 16.4921 10.7747 10.5053 8.71528
threshold=2.2774366733273621 0.54631728241139521 -2.1976764836398561 0.010734520849846052 4.5773867945515585 2.8881938844443238 0.40102414269110759
decision_type=10 10 8 8 8 10 10
left_child=1 2 -1 4 -2 -5 -3
right_child=3 6 -4 5 -6 -7 -8
leaf_value=-0.0049647309960696145 -0.0074849631725660819 -0.0048396288527778079 0.0022279414110912997 -0.0025029508854724739 0.010747866119167849 -0.015003457372259268 -0.019295678485076566
leaf_weight=241.23470221459866 34.775282129645348 107.65078896284103 2360.5460599213839 46.389562055468559 29.642156958580017 150.27934809029102 27.031882092356682
leaf_count=1306 197 602 12347 271 163 904 154
internal_value=0.000212771 0.00108791 0.00155613 -0.00890724 0.000731042 -0.0121212 -0.00785677
internal_weight=2997.55 2736.46 2601.78 261.086 64.4174 196.669 134.683
internal_count=15944 14409 13653 1535 360 1175 756
is_linear=0
shrinkage=0.0223408


Tree=27
num_leaves=7
num_cat=0
split_feature=3 340 194 266 254 260
split_gain=46.6382 21.5105 26.4446 14.9177 8.53096 3.32689
threshold=266.21403711008901 3.0000000000000009 7.7500000000000009 3.5275769931123122 1.5547161 11.033413999074501
decision_type=2 10 10 10 8 10
left_child=1 2 -1 -3 -2 -6
right_child=4 3 -4 -5 5 -7
leaf_value=0.0024616604066665629 -0.0044852679148743172 -0.008412877073894617 -0.0039690735182313528 0.00058610291886006119 -0.021236609173598299 -0.009525805651426111
leaf_weight=2145.108808606863 36.677637681365013 199.27211484313011 373.54416488111019 166.21337607502937 54.971319660544395 21.811023786664009
leaf_count=11162 229 1094 2035 923 358 143
internal_value=0.000207362 0.000764432 0.00150295 -0.00429035 -0.0138221 -0.018102
internal_weight=2997.6 2884.14 2518.65 365.485 113.46 76.7823
internal_count=15944 15214 13197 2017 730 501
is_linear=0
shrinkage=0.0223408


Tree=28
num_leaves=7
num_cat=0
split_feature=3 89 3 376 256 250
split_gain=44.975 20.3139 22.2637 13.1558 10.4092 2.03155
threshold=266.21403711008901 2.2774366733273621 -304.94161334463564 0.010734520849846052 0.85834140000000014 0.32497164141733165
decision_type=2 10 2 8 10 8
left_child=1 2 -1 -3 5 -2
right_child=4 3 -4 -5 -6 -7
leaf_value=-0.010347944472130539 -0.013453928999606693 0.0026079943565561398 0.0015987930991755632 -0.010297344575261949 -0.0047716994438130904 -0.02302295918598847
leaf_weight=79.791943937540054 29.440217718482018 54.609715774655342 2620.9201431125402 129.76936089992523 44.083918660879135 38.988689169287682
leaf_count=453 192 299 13722 740 279 259
internal_value=0.000202176 0.000746935 0.0012406 -0.00641266 -0.0136348 -0.0191374
internal_weight=2997.6 2885.09 2700.71 184.379 112.513 68.4289
internal_count=15944 15214 14175 1039 730 451
is_linear=0
shrinkage=0.0223408


Tree=29
num_leaves=8
num_cat=0
split_feature=157 194 347 19 331 139 167
split_gain=43.3108 19.4486 22.5746 14.9574 13.2772 12.7554 8.49973
threshold=1724.658974681917 7.7500000000000009 1.295778188114368 0.97084471544778717 -0.11727789999999998 2.291666666666667 0.84594395271584499
decision_type=10 10 10 10 10 10 10
left_child=1 2 -1 -3 6 -6 -2
right_child=4 3 -4 -5 5 -7 -8
leaf_value=0.0025409234186286869 -0.014433443123907812 0.011835824512878287 -0.003697938051883216 -0.0052475108350639611 -0.010457383174189639 0.012127789917001188 0
leaf_weight=2088.2305171340704 144.03459697961807 27.142803132534027 334.47087447345257 329.30414359271526 24.664258807897568 24.661938086152077 25.091320604085922
leaf_count=10827 918 147 1827 1799 139 141 146
internal_value=0.000197087 0.000954126 0.00167446 -0.0039067 -0.0093708 0.000600588 -0.0123455
internal_weight=2997.6 2779.15 2422.7 356.447 218.452 49.3262 169.126
internal_count=15944 14600 12654 1946 1344 280 1064
is_linear=0
shrinkage=0.0223408


Tree=30
num_leaves=8
num_cat=0
split_feature=3 344 183 37 157 363 269
split_gain=48.519 26.216 19.2863 17.8008 15.6003 12.3766 11.4402
threshold=95.221880907118148 2.0219154061255602 3.9413620969320067 2.9500000000000006 1721.5650364101082 -0.10157239578447004 4.1023639785002599
decision_type=2 8 8 8 10 8 8
left_child=1 3 -3 -1 5 -2 -6
right_child=4 2 -4 -5 6 -7 -8
leaf_value=0.020721724719318893 0.0078942136553281448 0.0054906420224333447 -0.0034978757988300105 0.0029668710124606582 0.00084251238957831309 -0.0040967371245345221 -0.012900953698639563
leaf_weight=28.765447154641151 46.49276028573513 146.61772786080837 617.28081242740154 1477.5286150127649 35.099420621991158 467.94077049195766 163.49005562067032
leaf_count=152 249 754 3275 7666 205 2530 1041
internal_value=3.95377e-06 0.00160469 -0.0017561 0.00331691 -0.00507495 -0.00298704 -0.0104144
internal_weight=2983.22 2270.19 763.899 1506.29 713.023 514.434 198.589
internal_count=15872 11847 4029 7818 4025 2779 1246
is_linear=0
shrinkage=0.0223408


Tree=31
num_leaves=7
num_cat=0
split_feature=335 355 151 262 131 34
split_gain=42.0873 21.5971 17.0691 15.4658 8.41193 7.93738
threshold=0.55795569181000038 2.5125000000000006 0.68149350649350671 12.050000000000002 0.10786116762159402 5.2750000000000012
decision_type=10 8 10 10 10 10
left_child=1 2 -1 -3 -2 -6
right_child=4 3 -4 -5 5 -7
leaf_value=0.0031206856860739266 3.94090133317921e-05 -0.012458467140635386 -0.00050725300225608284 0.0013085194543970349 -0.003764216999442775 -0.013891056662181111
leaf_weight=1284.4521513879299 39.851369857788086 101.31447280943394 1295.0371275097132 65.53284153342247 58.919313549995422 137.76188719272614
leaf_count=6780 232 552 6798 341 337 832
internal_value=3.83508e-06 0.000786875 0.00129482 -0.0069863 -0.00902992 -0.0109253
internal_weight=2982.87 2746.34 2579.49 166.847 236.533 196.681
internal_count=15872 14471 13578 893 1401 1169
is_linear=0
shrinkage=0.0223408


Tree=32
num_leaves=8
num_cat=0
split_feature=3 347 423 157 124 363 269
split_gain=45.8428 25.1786 19.8983 14.8049 14.638 11.7812 11.1214
threshold=95.221880907118148 -2.1976764836398561 -24.499999999999996 1721.5650364101082 4.5817723730177926 -0.10157239578447004 4.1023639785002599
decision_type=2 10 8 10 10 8 8
left_child=1 4 -3 5 -1 -2 -5
right_child=3 2 -4 6 -6 -7 -8
leaf_value=0 0.0076747616647500619 -0.0072605635807891818 0.0028803545295571073 0.00092241582861352946 -0.011092893873204878 -0.0040017620635617026 -0.012650349722555672
leaf_weight=127.95698547363281 46.687256336212158 100.83715964853764 1930.3867413252592 35.025870367884636 113.22073458135128 466.79336823523045 161.77714700996876
leaf_count=688 249 525 10008 205 626 2530 1041
internal_value=3.41469e-06 0.00155589 0.00237034 -0.00494569 -0.00525032 -0.00291414 -0.0101766
internal_weight=2982.69 2272.4 2031.22 710.284 241.178 513.481 196.803
internal_count=15872 11847 10533 4025 1314 2779 1246
is_linear=0
shrinkage=0.0223408


Tree=33
num_leaves=8
num_cat=0
split_feature=3 344 183 37 157 269 148
split_gain=43.8978 24.3193 18.1521 16.8074 14.3106 10.7829 9.90433
threshold=95.221880907118148 2.0219154061255602 3.9413620969320067 2.9500000000000006 1721.5650364101082 4.1023639785002599 0.90000000000000036
decision_type=2 8 8 8 10 8 10
left_child=1 3 -3 -1 6 -6 -2
right_child=4 2 -4 -5 5 -7 -8
leaf_value=0.019981378213691225 -0.0020993971822434758 0.0052914275650620618 -0.0034165748282108015 0.0028229737625013475 0.00090147864872361491 -0.012465062114825102 -0.016222766554886019
leaf_weight=29.090780898928642 486.44511997699738 147.16920131444931 616.00022549927235 1481.7841369509697 35.043879464268684 160.53152044117451 26.263308361172676
leaf_count=152 2636 754 3275 7666 205 1041 143
internal_value=2.91033e-06 0.00151959 -0.00172078 0.00316418 -0.00484886 -0.0100115 -0.00285289
internal_weight=2982.33 2274.04 763.169 1510.87 708.284 195.575 512.708
internal_count=15872 11847 4029 7818 4025 1246 2779
is_linear=0
shrinkage=0.0223408


Tree=34
num_leaves=8
num_cat=0
split_feature=3 347 423 124 157 363 269
split_gain=42.0526 23.644 18.9985 14.0668 13.8264 11.2782 10.4535
threshold=95.221880907118148 -2.1976764836398561 -24.499999999999996 4.5817723730177926 1721.5650364101082 -0.10157239578447004 4.1023639785002599
decision_type=2 10 8 10 10 8 8
left_child=1 3 -3 -1 5 -2 -6
right_child=4 2 -4 -5 6 -7 -8
leaf_value=0 0.007550602915699635 -0.0071532528967974737 0.0027681517683038437 -0.010879143331774494 0.00088102723445815574 -0.0038632805170031584 -0.01228168562670467
leaf_weight=127.90776762366295 46.798471316695213 100.55680550634861 1934.7177287042141 112.4514823704958 35.061478704214096 465.17213036119938 159.30582000315189
leaf_count=688 249 525 10008 626 205 2530 1041
internal_value=2.61078e-06 0.0014847 0.00227141 -0.00512364 -0.0047545 -0.00279397 -0.00984847
internal_weight=2981.97 2275.63 2035.27 240.359 706.338 511.971 194.367
internal_count=15872 11847 10533 1314 4025 2779 1246
is_linear=0
shrinkage=0.0223408


Tree=35
num_leaves=8
num_cat=0
split_feature=3 344 298 173 157 363 269
split_gain=40.2664 22.8473 17.449 16.4589 13.3609 10.7801 10.1331
threshold=95.221880907118148 2.0219154061255602 1.693945730697467 0.95598740000000004 1721.5650364101082 -0.10157239578447004 4.1023639785002599
decision_type=2 8 10 8 10 8 8
left_child=1 3 -3 -1 5 -2 -6
right_child=4 2 -4 -5 6 -7 -8
leaf_value=0.01178956356026426 0.0073550414446926443 6.1810233795588852e-05 -0.0081270175911926576 0.0024076660799955863 0.00086104971948839412 -0.0037845721779321785 -0.012100200193547654
leaf_weight=100.65219242870808 46.973647937178612 597.89638981223106 164.70518511533737 1413.9313978850842 35.078677788376808 464.25326623022556 158.09994135797024
leaf_count=531 249 3109 920 7287 205 2530 1041
internal_value=2.1493e-06 0.00145012 -0.00169327 0.00304064 -0.00466102 -0.00273508 -0.00968742
internal_weight=2981.59 2277.19 762.602 1514.58 704.406 511.227 193.179
internal_count=15872 11847 4029 7818 4025 2779 1246
is_linear=0
shrinkage=0.0223408


Tree=36
num_leaves=8
num_cat=0
split_feature=3 355 419 229 3 250 177
split_gain=38.561 22.0746 16.2291 14.2033 12.91 10.6878 8.01896
threshold=95.221880907118148 2.4125000000000005 -46.499999999999993 1555.1131242367853 252.48324817927838 0.34073220407773158 11.296831167692782
decision_type=2 8 8 8 2 8 10
left_child=1 2 -1 -3 5 -2 -6
right_child=4 3 -4 -5 6 -7 -8
leaf_value=-0.004644475340913775 0.00088153336215165794 0.004345637288757624 0.0026343488020144283 -0.0099363909914502464 -0.016695732451838505 -0.005409558235050735 -0.0050837160705551323
leaf_weight=164.68987464904785 208.00331020355225 45.87236812710762 1937.6437236368656 130.47451028227806 63.957192242145538 367.69769184291363 62.84742496907711
leaf_count=857 1134 235 10043 712 429 2035 427
internal_value=2.05439e-06 0.00141685 0.00205809 -0.00615364 -0.00456919 -0.00311664 -0.0110532
internal_weight=2981.19 2278.68 2102.33 176.347 702.506 575.701 126.805
internal_count=15872 11847 10900 947 4025 3169 856
is_linear=0
shrinkage=0.0223408


Tree=37
num_leaves=8
num_cat=0
split_feature=3 347 151 124 157 363 345
split_gain=36.9327 21.9256 15.3215 13.3273 12.6601 10.3335 9.78919
threshold=95.221880907118148 -2.1976764836398561 0.68149350649350671 4.5817723730177926 1721.5650364101082 -0.10157239578447004 0.60000000000000009
decision_type=2 10 10 10 10 8 8
left_child=1 3 -3 -1 5 -2 -6
right_child=4 2 -4 -5 6 -7 -8
leaf_value=0 0.0072610400324612835 0.0041370312852951844 0.00025093241432417348 -0.010629421002457343 -0.00086002022823677656 -0.003638780559040539 -0.01249080541659712
leaf_weight=127.94762620329857 47.057313665747643 988.15950492024422 1052.5283808857203 111.53611043095589 51.80745030939579 462.5319552719593 139.28892175853252
leaf_count=688 249 5096 5437 626 318 2530 928
internal_value=1.56028e-06 0.00138408 0.00213873 -0.00499308 -0.00447957 -0.00260626 -0.00940415
internal_weight=2980.86 2280.17 2040.69 239.484 700.686 509.589 191.096
internal_count=15872 11847 10533 1314 4025 2779 1246
is_linear=0
shrinkage=0.0223408


Tree=38
num_leaves=8
num_cat=0
split_feature=3 344 345 37 3 117 177
split_gain=35.3724 21.129 20.1586 15.7009 12.2383 13.4018 7.86725
threshold=95.221880907118148 2.0219154061255602 -1.3083333333333329 2.9500000000000006 252.48324817927838 4.2253640107498054 11.296831167692782
decision_type=2 8 10 8 2 10 10
left_child=1 3 -3 -1 5 -2 -6
right_child=4 2 -4 -5 6 -7 -8
leaf_value=0.019009187986718367 0.013905537125657197 -0.0056171000099128794 0.0016569869071826251 0.0025469291054278295 -0.016393052554886486 -0.0036809105430164954 -0.004823259031857422
leaf_weight=29.523417040705681 22.03734502196312 350.47735027968884 411.61740626394749 1489.97755856812 62.91114941239357 551.62943986058235 62.29510685801506
leaf_count=152 116 1888 2141 7666 429 3053 427
internal_value=1.13197e-06 0.00135214 -0.00167349 0.00287741 -0.00439158 -0.00297941 -0.0107503
internal_weight=2980.47 2281.6 762.095 1519.5 698.873 573.667 125.206
internal_count=15872 11847 4029 7818 4025 3169 856
is_linear=0
shrinkage=0.0223408


Tree=39
num_leaves=8
num_cat=0
split_feature=335 355 423 191 141 156 45
split_gain=34.5584 18.7427 16.3479 14.8796 8.61637 9.80429 9.79133
threshold=0.55795569181000038 2.5125000000000006 -24.499999999999996 4.2678571428571432 1.9135536796729238 0.26638124192244522 0.39840461679042632
decision_type=10 8 8 10 10 8 10
left_child=1 2 -1 -3 5 -2 -6
right_child=4 3 -4 -5 6 -7 -8
leaf_value=-0.0073564475843223461 -0.011687756823208974 -0.010126993211413122 0.0015446420997212971 0.0060027743030155256 -0.015904283983628871 0.0055849036150390514 -0.0045709037971778015
leaf_weight=106.84157110750675 27.403725907206535 129.46279464662075 2477.9320615753531 35.45142936706543 92.57452680170536 39.451955318450928 70.975086249411106
leaf_count=562 152 708 13016 185 579 222 448
internal_value=9.04817e-07 0.000701538 0.00117152 -0.0065846 -0.00830168 -0.00133521 -0.0110715
internal_weight=2980.09 2749.69 2584.77 164.914 230.405 66.8557 163.55
internal_count=15872 14471 13578 893 1401 374 1027
is_linear=0
shrinkage=0.0223408


Tree=40
num_leaves=7
num_cat=0
split_feature=347 423 356 75 272 256
split_gain=32.6285 22.5995 21.2057 18.6298 8.48445 8.43802
threshold=1.8490632215861507 -23.499999999999996 2.1634501930932837 1578.5253193625388 4.3962333168511156 1.0764685000000001
decision_type=8 8 8 8 10 10
left_child=1 4 -3 -2 -1 -5
right_child=3 2 -4 5 -6 -7
leaf_value=-0.0023452688859268269 0.0050887616982774027 0.0015604826257558603 -0.0062109569728796884 -0.011694326538426983 -0.013731204074722664 0
leaf_weight=66.160232916474342 48.131244674324989 2359.6992103308439 188.62682136893272 205.04044067114592 70.700926706194878 34.367676421999931
leaf_count=344 255 12351 1018 1293 381 210
internal_value=-0.00026136 0.00050068 0.000980099 -0.00741331 -0.00832647 -0.00997849
internal_weight=2972.73 2685.19 2548.33 287.539 136.861 239.408
internal_count=15852 14094 13369 1758 725 1503
is_linear=0
shrinkage=0.0223408


Tree=41
num_leaves=7
num_cat=0
split_feature=317 423 104 25 294 153
split_gain=30.6226 21.625 17.9052 16.8466 11.2971 10.9196
threshold=0.91820067599453792 -23.499999999999996 10.450000000000001 12.535714285714286 11.866513749519944 0.74279723776776096
decision_type=8 8 10 10 8 10
left_child=1 5 -3 4 -2 -1
right_child=3 2 -4 -5 -6 -7
leaf_value=-0.0029161200899080935 -0.0029971234572291638 0.0068001980639550708 0.00028363102852256968 0.003736146157412639 -0.014816441484667148 -0.016040582149808365
leaf_weight=82.354192510247231 63.480802573263645 231.33699071407318 2366.3938428685069 47.632501669228077 126.52892925590277 54.319449692964554
leaf_count=438 397 1192 12457 268 811 289
internal_value=-0.000255761 0.000408936 0.000869051 -0.00794654 -0.0109382 -0.00823684
internal_weight=2972.05 2734.4 2597.73 237.642 190.01 136.674
internal_count=15852 14376 13649 1476 1208 727
is_linear=0
shrinkage=0.0223408


Tree=42
num_leaves=7
num_cat=0
split_feature=347 423 356 75 153 120
split_gain=30.5592 20.8426 20.3784 17.7809 10.3491 10.1489
threshold=1.8490632215861507 -23.499999999999996 2.1634501930932837 1578.5253193625388 0.74279723776776096 4.5125003015729588
decision_type=8 8 8 8 10 10
left_child=1 4 -3 -2 -1 -5
right_child=3 2 -4 5 -6 -7
leaf_value=-0.0028614265567085727 0.0049869296206998242 0.0015107471942211563 -0.0061160936228919563 -0.0074004227749223141 -0.015706487656014949 -0.0195237478231035
leaf_weight=82.247596979141235 48.228328809142113 2362.0760681629181 188.15650448203087 192.93941885232925 53.500571370124817 44.270953223109245
leaf_count=438 255 12351 1018 1235 287 268
internal_value=-0.000250257 0.000484432 0.000942907 -0.00719974 -0.00802883 -0.00972961
internal_weight=2971.42 2685.98 2550.23 285.439 135.748 237.21
internal_count=15852 14094 13369 1758 725 1503
is_linear=0
shrinkage=0.0223408


Tree=43
num_leaves=7
num_cat=0
split_feature=347 423 259 75 153 120
split_gain=29.337 20.0013 19.1992 17.1273 10.024 9.90624
threshold=1.8490632215861507 -23.499999999999996 13.414285714285716 1578.5253193625388 0.74279723776776096 4.5125003015729588
decision_type=8 8 8 8 10 10
left_child=1 4 -3 -2 -1 -5
right_child=3 2 -4 5 -6 -7
leaf_value=-0.0028016848204952083 0.0048640424422039122 0.0017668154813126891 -0.0035293095529062486 -0.0072679033305899973 -0.015480087809207326 -0.019306625511429139
leaf_weight=82.131032973527908 48.346629366278648 2146.3869775533676 404.97914861142635 192.08235953748226 53.078486815094948 43.776850648224354
leaf_count=438 255 11180 2189 1235 287 268
internal_value=-0.000245087 0.000473111 0.000921292 -0.00707046 -0.00788391 -0.00956914
internal_weight=2970.78 2686.58 2551.37 284.206 135.21 235.859
internal_count=15852 14094 13369 1758 725 1503
is_linear=0
shrinkage=0.0223408


Tree=44
num_leaves=8
num_cat=0
split_feature=347 259 320 88 356 414 255
split_gain=28.2253 19.6458 18.3066 17.4378 16.5031 16.4376 7.91689
threshold=1.737097034792314 13.316666666666668 -0.28652026017247861 1.7071428571428573 1.8736458783081209 0.58333333333333337 0.70971600000000012
decision_type=8 10 10 8 10 10 8
left_child=1 2 -1 5 -3 -2 -5
right_child=3 4 -4 6 -6 -7 -8
leaf_value=-0.0019783899763757308 0.010175856901678547 -0.0012811877565423774 0.0026101562913329172 -0.018765322481079528 -0.011337637350910737 -0.0098394330946027179 -0.0076712464501782918
leaf_weight=590.13317420333624 50.646749064326286 338.61974020302296 1616.3435759544373 41.334268398582935 108.55791759490967 33.704234287142754 190.78620731085539
leaf_count=3124 274 1815 8355 270 611 197 1206
internal_value=-0.000240022 0.000508159 0.0013775 -0.00654662 -0.0037535 0.0020338 -0.00971437
internal_weight=2970.13 2653.65 2206.48 316.471 447.178 84.351 232.12
internal_count=15852 13905 11479 1947 2426 471 1476
is_linear=0
shrinkage=0.0223408


Tree=45
num_leaves=7
num_cat=0
split_feature=3 138 423 331 78 274
split_gain=27.367 19.9478 19.2029 10.2882 9.33922 6.32046
threshold=246.07716950550721 17.953858343478213 -23.499999999999996 -0.57503994999999974 1.3038404810405302 5.4722222222222232
decision_type=2 10 8 10 8 10
left_child=1 2 -1 5 -5 -2
right_child=3 -3 -4 4 -6 -7
leaf_value=-0.0082714329576471044 -0.0032972517988668452 0.016235506861911067 0.00042809568348468988 0.0070540712390273919 -0.010800753985737136 -0.01878602047809402
leaf_weight=132.7313399463892 19.446523502469063 38.125041037797928 2660.9966398030519 26.161380544304848 31.617429599165916 60.339030407369137
leaf_count=714 140 199 13974 175 210 440
internal_value=-0.000235177 0.000233826 9.90092e-06 -0.0099596 -0.00251716 -0.0151788
internal_weight=2969.42 2831.85 2793.73 137.564 57.7788 79.7856
internal_count=15852 14887 14688 965 385 580
is_linear=0
shrinkage=0.0223408


Tree=46
num_leaves=7
num_cat=0
split_feature=317 423 356 25 294 153
split_gain=26.8039 18.5019 19.2049 15.9192 11.0692 9.9775
threshold=0.91820067599453792 -23.499999999999996 1.9688180569774965 12.535714285714286 11.866513749519944 0.74279723776776096
decision_type=8 8 8 10 8 10
left_child=1 5 -3 4 -2 -1
right_child=3 2 -4 -5 -6 -7
leaf_value=-0.0025930390005368419 -0.0025496982806567929 0.0014207959599351323 -0.0052424957895064739 0.0038666172373142209 -0.014338911635423876 -0.015264940513361226
leaf_weight=81.717995673418045 62.617833450436592 2363.6657260358334 236.83772172033787 47.454422377049923 123.6710107922554 52.853855028748512
leaf_count=438 397 12370 1279 268 811 289
internal_value=-0.000230101 0.000386621 0.000808995 -0.00749011 -0.0104475 -0.00767525
internal_weight=2968.82 2735.08 2600.5 233.743 186.289 134.572
internal_count=15852 14376 13649 1476 1208 727
is_linear=0
shrinkage=0.0223408


Tree=47
num_leaves=7
num_cat=0
split_feature=3 138 356 331 78 274
split_gain=25.7912 18.9292 17.89 10.0103 8.99626 6.2105
threshold=246.07716950550721 17.953858343478213 2.1634501930932837 -0.57503994999999974 1.3038404810405302 5.4722222222222232
decision_type=2 10 8 10 8 10
left_child=1 2 -1 5 -5 -2
right_child=3 -3 -4 4 -6 -7
leaf_value=0.00051977955886879526 -0.0031180187202263158 0.015755522851590601 -0.006289432045332337 0.0069863792174146315 -0.010569780427260112 -0.018537161757579489
leaf_weight=2585.8026554435492 19.328131198883057 38.416939571499825 207.83755341172218 26.20097404718399 31.320030048489571 59.301409177482128
leaf_count=13553 140 199 1135 175 210 440
internal_value=-0.000225352 0.000227544 8.49344e-06 -0.0097168 -0.00237274 -0.0149169
internal_weight=2968.21 2832.06 2793.64 136.151 57.521 78.6295
internal_count=15852 14887 14688 965 385 580
is_linear=0
shrinkage=0.0223408


Tree=48
num_leaves=8
num_cat=0
split_feature=347 423 356 88 36 153 255
split_gain=25.6604 17.4484 17.6668 16.407 13.5502 9.5182 7.76299
threshold=1.737097034792314 -23.499999999999996 2.1634501930932837 1.7071428571428573 5.2250000000000005 0.74279723776776096 0.70971600000000012
decision_type=8 8 8 8 10 10 8
left_child=1 5 -3 4 -2 -1 -5
right_child=3 2 -4 6 -6 -7 -8
leaf_value=-0.0024150375648937096 -0.0037477849745600551 0.0014418575407589521 -0.0057008666801488458 -0.018431354799148047 0.015550602165697695 -0.014878429777724309 -0.0073477354539890263
leaf_weight=81.238667011260986 58.508411645889282 2335.2568419575691 185.92608991265297 40.495428271591663 25.779499635100365 51.861598506569862 188.53351102769375
leaf_count=436 332 12167 1016 270 139 286 1206
internal_value=-0.000220487 0.000489338 0.000909958 -0.00626733 0.00204164 -0.00737726 -0.00937563
internal_weight=2967.6 2654.28 2521.18 313.317 84.2879 133.1 229.029
internal_count=15852 13905 13183 1947 471 722 1476
is_linear=0
shrinkage=0.0223408


Tree=49
num_leaves=7
num_cat=0
split_feature=347 259 162 356 75 120
split_gain=24.6331 17.6733 18.5887 15.3345 15.326 10.0685
threshold=1.8490632215861507 13.316666666666668 1.4500000000000002 1.8736458783081209 1578.5253193625388 4.5125003015729588
decision_type=8 8 10 10 8 10
left_child=1 2 -1 -3 -2 -6
right_child=4 3 -4 -5 5 -7
leaf_value=0.0028674296354689894 0.0047036834202203058 -0.0012327869727211988 -0.0013072875880694561 -0.010930046929700715 -0.0066140125321102437 -0.018873720720376474
leaf_weight=1374.8623515963554 48.493276119232178 341.03330133855343 863.92596907913685 108.25907796621323 187.66915670782328 42.717463612556458
leaf_count=7157 255 1827 4493 617 1235 268
internal_value=-0.000216048 0.000435727 0.00125121 -0.00360007 -0.00653579 -0.00895506
internal_weight=2966.96 2688.08 2238.79 449.292 278.88 230.387
internal_count=15852 14094 11650 2444 1758 1503
is_linear=0
shrinkage=0.0223408


Tree=50
num_leaves=7
num_cat=0
split_feature=87 413 104 241 18 198
split_gain=31.921 18.3634 21.5673 15.265 11.9203 9.56898
threshold=2.2250000000000005 38.435064463061856 10.316666666666668 20.909888694320561 1.392518620374199 0.34753082714499123
decision_type=10 10 8 10 8 10
left_child=1 2 -1 4 -2 -3
right_child=3 5 -4 -5 -6 -7
leaf_value=0.0076198972191078886 0.0043002188009538742 -0.0011858544207322312 0.00040190836684148479 0.0062575607890451293 -0.0095362551468097159 -0.012299332750141317
leaf_weight=228.23309901356697 33.399795472621918 81.290493197739124 2215.2818173915148 40.732758425176144 291.7940583601594 78.415577448904514
leaf_count=1172 176 426 11683 236 1744 412
internal_value=-0.000267044 0.000597487 0.00108158 -0.00644605 -0.00807684 -0.00672627
internal_weight=2969.15 2603.22 2443.51 365.927 325.194 159.706
internal_count=15849 13693 12855 2156 1920 838
is_linear=0
shrinkage=0.0223408


Tree=51
num_leaves=8
num_cat=0
split_feature=89 241 194 43 89 83 393
split_gain=30.6983 21.033 20.1038 23.1206 16.7087 14.2907 10.482
threshold=1.574681509279291 20.909888694320561 7.5357142857142865 0.35727106227106226 2.7021020168552403 1.0000000180025095e-35 0.11666666666666696
decision_type=10 10 10 10 10 2 8
left_child=2 4 3 -1 -2 -3 -4
right_child=1 5 6 -5 -6 -7 -8
leaf_value=5.2905915553097057e-05 -0.0033317508671835117 0.00094444056465811015 -0.0016761742722861109 0.0054909489317188712 -0.013474194995492529 0.018219552016875407 -0.012573670674851689
leaf_weight=900.21893644332886 917.59478217363358 102.86071335524321 170.90465791523457 694.62167130410671 89.912343613803387 31.597934663295746 60.826638981699944
leaf_count=4626 5017 569 951 3567 614 167 338
internal_value=-0.000261068 -0.00313737 0.0015309 0.00242926 -0.00425149 0.00511614 -0.00459723
internal_weight=2968.54 1141.97 1826.57 1594.84 1007.51 134.459 231.731
internal_count=15849 6367 9482 8193 5631 736 1289
is_linear=0
shrinkage=0.0223408


Tree=52
num_leaves=7
num_cat=0
split_feature=323 223 358 388 240 151
split_gain=28.7411 20.7081 17.659 13.9043 12.5018 7.35526
threshold=0.40365724481739212 0.33285714285714285 -4.1499999999999986 -0.80000000000000038 1.0000000180025095e-35 0.54769841269841291
decision_type=10 8 8 10 2 10
left_child=1 -1 -3 5 -5 -2
right_child=3 2 -4 4 -6 -7
leaf_value=0.019385030649514214 -0.023626261717557846 -0.0062418472338857996 0.00084690696506409355 0.010142385929341739 -0.0051398328923772645 -0.0094201051202495931
leaf_weight=28.5716682523489 25.346929527819157 188.78821206092834 2404.227279625833 30.141581706702709 202.23635417968035 88.497791461646557
leaf_count=151 168 1065 12567 170 1165 563
internal_value=-0.000255354 0.000539658 0.000325738 -0.00630553 -0.00309872 -0.0127282
internal_weight=2967.81 2621.59 2593.02 346.223 232.378 113.845
internal_count=15849 13783 13632 2066 1335 731
is_linear=0
shrinkage=0.0223408


Tree=53
num_leaves=7
num_cat=0
split_feature=1 223 416 337 74 314
split_gain=29.193 17.9324 16.3893 13.1733 7.99293 5.12912
threshold=1736.8099589667434 0.33285714285714285 0.99640287769784186 -0.3525594449999998 0.47131119618865353 1.0000000180025095e-35
decision_type=2 8 2 10 10 8
left_child=1 -1 -3 5 -5 -2
right_child=3 2 -4 4 -6 -7
leaf_value=0.017542915863247632 -0.016636641868609615 0.0003884154549726549 -0.011169923672304306 -0.0069912818068793145 0.0084531184490056078 -0.0048110110257961903
leaf_weight=29.600686520338058 82.341480396687984 2693.4968828707933 62.398994445800781 45.827297650277615 25.704725332558155 27.804966457188129
leaf_count=155 588 14131 330 285 158 202
internal_value=-0.000249832 0.000312327 0.000121511 -0.00892308 -0.00126763 -0.0137747
internal_weight=2967.18 2785.5 2755.9 181.678 71.532 110.146
internal_count=15849 14616 14461 1233 443 790
is_linear=0
shrinkage=0.0223408


Tree=54
num_leaves=7
num_cat=0
split_feature=87 413 422 221 422 243
split_gain=28.7279 17.5217 15.6067 13.5277 15.613 8.95652
threshold=2.2250000000000005 38.435064463061856 -38.499999999999993 0.53011904761904771 -3.4999999999999996 1.1833333333333336
decision_type=10 10 8 10 8 10
left_child=1 2 -1 -2 -5 -3
right_child=3 5 -4 4 -6 -7
leaf_value=-0.014001856385861175 0.0082256493123130572 -0.0020885671741315667 0.0012592559052500708 -0.01115256408930658 -0.0010305258375124143 -0.013076755913393776
leaf_weight=33.575317643582821 29.116389259696007 95.120783671736717 2411.5110070705414 209.54187653958797 123.66056632250547 64.022614285349846
leaf_count=183 172 500 12672 1287 697 338
internal_value=-0.000244423 0.00057165 0.00104356 -0.00613922 -0.00743471 -0.00659571
internal_weight=2966.55 2604.23 2445.09 362.319 333.202 159.143
internal_count=15849 13693 12855 2156 1984 838
is_linear=0
shrinkage=0.0223408


Tree=55
num_leaves=8
num_cat=0
split_feature=111 235 198 241 361 323 203
split_gain=27.6834 22.0295 22.5306 18.9862 16.3486 14.5897 14.2018
threshold=5.2759431643450343 0.79394205716345645 0.48787464985994405 18.544410158736245 -0.43650793650793668 0.38771748289050412 0.080382729229367067
decision_type=10 10 10 10 10 10 10
left_child=1 2 -1 5 -5 -2 -3
right_child=3 6 -4 4 -6 -7 -8
leaf_value=0.0021968930253145518 -0.0028394930274478225 -0.016000667927144833 0.018834900531843054 -0.00056867053178737072 0.015925096260401991 -0.009630930464585765 -0.0016048634333732576
leaf_weight=1420.9447969794273 620.91246472299099 36.91422712802887 41.833754226565361 101.74051140248775 41.565007120370865 215.89352200180292 486.20666556060314
leaf_count=7332 3370 191 215 570 222 1372 2577
internal_value=-0.000239339 0.00127265 0.0026837 -0.00331454 0.00415114 -0.00460795 -0.00264991
internal_weight=2966.01 1985.9 1462.78 980.112 143.306 836.806 523.121
internal_count=15849 10315 7547 5534 792 4742 2768
is_linear=0
shrinkage=0.0223408


Tree=56
num_leaves=8
num_cat=0
split_feature=89 241 194 43 89 83 38
split_gain=27.2139 19.4702 18.6055 22.1423 15.1235 13.2331 12.9695
threshold=1.574681509279291 20.909888694320561 7.5357142857142865 0.35727106227106226 2.7021020168552403 1.0000000180025095e-35 5.5712835666407212
decision_type=10 10 10 10 10 2 8
left_child=2 4 3 -1 -2 -3 -4
right_child=1 5 6 -5 -6 -7 -8
leaf_value=0 -0.0031638156112437058 0.00093601446896536848 -0.00036042978035150894 0.0052982069387595828 -0.012931694490500389 0.017496651907220332 -0.011440111624178365
leaf_weight=901.50241307169199 913.47381593286991 102.83904554694891 146.65905287861824 697.10892318189144 87.622302919626236 31.953137077391148 84.212695404887199
leaf_count=4626 5017 569 812 3567 614 167 477
internal_value=-0.000234251 -0.00295347 0.00144777 0.00230892 -0.00403335 0.00497253 -0.00446034
internal_weight=2965.37 1135.89 1829.48 1598.61 1001.1 134.792 230.872
internal_count=15849 6367 9482 8193 5631 736 1289
is_linear=0
shrinkage=0.0223408


Tree=57
num_leaves=8
num_cat=0
split_feature=1 104 235 344 337 8 314
split_gain=26.3879 17.035 18.8112 13.4963 12.7721 8.13328 5.08831
threshold=1736.8099589667434 10.316666666666668 0.84859182754339313 5.5564561987781538 -0.3525594449999998 0.77500000000000013 1.0000000180025095e-35
decision_type=2 8 10 10 10 10 8
left_child=1 2 -1 -3 6 -6 -2
right_child=4 3 -4 -5 5 -7 -8
leaf_value=0.009293974756893154 -0.016266599829150866 7.7575628792443069e-05 -0.0052825171276923242 -0.0085055068954619454 0.0093507123596664604 -0.0065307268463451109 -0.0044111544601937959
leaf_weight=189.88890554010868 80.567721396684647 2444.8688227161765 56.28793478012085 94.674055159091949 23.949958667159081 47.013235606253147 27.411024481058121
leaf_count=960 588 12834 297 525 148 295 202
internal_value=-0.00022923 0.000301179 0.00591137 -0.000238507 -0.00854199 -0.000992053 -0.013382
internal_weight=2964.66 2785.72 246.177 2539.54 178.942 70.9632 107.979
internal_count=15849 14616 1257 13359 1233 443 790
is_linear=0
shrinkage=0.0223408


Tree=58
num_leaves=7
num_cat=0
split_feature=87 413 104 241 216 368
split_gain=25.6147 16.7675 18.174 13.6553 11.8622 7.73362
threshold=2.2250000000000005 40.102406223642795 10.316666666666668 20.909888694320561 2.8011048228687243 -0.024140639660185245
decision_type=10 10 8 10 10 10
left_child=1 2 -1 4 -2 -3
right_child=3 5 -4 -5 -6 -7
leaf_value=0.0069228945519908026 -0.0015556626488210476 -0.0014358943653556141 0.00034819814862161158 0.0061655819363092583 -0.010664586457017023 -0.012196859169708306
leaf_weight=232.01045601069927 115.30962860584259 68.443450838327408 2234.3878290727735 40.775487825274467 202.5695418715477 70.500667802989483
leaf_count=1181 674 364 11778 236 1246 370
internal_value=-0.000224395 0.000542204 0.000972047 -0.00582274 -0.00740099 -0.00699205
internal_weight=2964 2605.34 2466.4 358.655 317.879 138.944
internal_count=15849 13693 12959 2156 1920 734
is_linear=0
shrinkage=0.0223408


Tree=59
num_leaves=7
num_cat=0
split_feature=1 223 358 379 294 5
split_gain=25.0338 16.9036 15.5931 13.0494 9.34504 6.87551
threshold=1736.8099589667434 0.33285714285714285 -4.1499999999999986 -0.019192824077107495 11.719945110445112 1.7750000000000001
decision_type=2 8 8 10 8 10
left_child=1 -1 -3 5 -5 -2
right_child=3 2 -4 4 -6 -7
leaf_value=0.016947974097644179 -0.0028241856691715228 -0.0060909843312929347 0.00056809513474734687 0.0046090568828228689 -0.010328716191190175 -0.017560334985327199
leaf_weight=29.870712831616402 23.052166342735291 188.08349737524986 2567.9289898648858 47.271047279238701 36.492158025503159 70.758141085505486
leaf_count=155 156 1067 13394 297 257 523
internal_value=-0.000219535 0.000295078 0.000108892 -0.00834926 -0.00176887 -0.0140806
internal_weight=2963.46 2785.88 2756.01 177.574 83.7632 93.8103
internal_count=15849 14616 14461 1233 554 679
is_linear=0
shrinkage=0.0223408


Tree=60
num_leaves=6
num_cat=0
split_feature=3 138 344 347 238
split_gain=34.2711 19.1552 15.2119 10.9517 8.75355
threshold=151.51737953818943 18.417225090127399 5.283928908103471 0.24154961521668364 3.5000000000000004
decision_type=2 10 10 10 2
left_child=1 2 -1 -2 -5
right_child=3 -3 -4 4 -6
leaf_value=0.0012585051551831611 0.0041738643251585071 0.017730525862659417 -0.0064687915382788761 -0.0085507697867596277 0.0054292230046435637
leaf_weight=2434.1153997480869 43.719209343194962 33.861342489719391 133.55500508844852 308.22592730820179 22.889840319752693
leaf_count=12612 245 173 737 2015 143
internal_value=0.000163248 0.00107723 0.000851434 -0.00614551 -0.00754561
internal_weight=2976.37 2601.53 2567.67 374.835 331.116
internal_count=15925 13522 13349 2403 2158
is_linear=0
shrinkage=0.0223408


Tree=61
num_leaves=7
num_cat=0
split_feature=3 138 344 338 198 69
split_gain=32.8486 18.1475 14.5755 10.3152 9.4622 9.00359
threshold=151.51737953818943 18.417225090127399 5.283928908103471 -0.14725559061324237 0.39178734610799831 0.60010822510822537
decision_type=2 10 10 10 8 10
left_child=1 2 -1 4 -2 -5
right_child=3 -3 -4 5 -6 -7
leaf_value=0.0012296493309846956 -0.010234696384749661 0.017196552810902099 -0.0063459762220044605 0.012068068923486063 -0.001167041488910771 -0.0043618693772419018
leaf_weight=2435.5686691254377 221.07927616685629 34.13684406876564 133.10785387456417 25.886379145085812 81.801759898662567 44.639900088310242
leaf_count=12612 1449 173 737 152 537 265
internal_value=0.00015963 0.00105263 0.000831953 -0.00603018 -0.0078274 0.00152182
internal_weight=2976.22 2602.81 2568.68 373.407 302.881 70.5263
internal_count=15925 13522 13349 2403 1986 417
is_linear=0
shrinkage=0.0223408


Tree=62
num_leaves=7
num_cat=0
split_feature=3 138 332 344 189 198
split_gain=31.5014 17.1995 14.5552 13.9653 8.39999 7.97807
threshold=151.51737953818943 18.417225090127399 -0.18817297140737746 5.283928908103471 4.5317699694544249 0.39029201190965901
decision_type=2 10 10 10 10 8
left_child=1 3 5 -1 -4 -2
right_child=2 -3 4 -5 -6 -7
leaf_value=0.0012014725230159204 -0.010364114392519419 0.016684705433731871 0.011742089168702034 -0.0062251851997322406 -0.0034045141436103731 -0.0019795890033942947
leaf_weight=2436.9880175441504 217.15131919085979 34.402120053768158 31.082104727625847 132.66870179772377 41.979694649577141 81.828920856118202
leaf_count=12612 1434 173 183 737 248 538
internal_value=0.000155811 0.00102861 -0.00591834 0.000812923 0.00289507 -0.00811207
internal_weight=2976.1 2604.06 372.042 2569.66 73.0618 298.98
internal_count=15925 13522 2403 13349 431 1972
is_linear=0
shrinkage=0.0223408


Tree=63
num_leaves=7
num_cat=0
split_feature=3 138 332 345 189 282
split_gain=30.2093 16.3073 14.0074 12.7264 7.98407 7.84132
threshold=151.51737953818943 18.417225090127399 -0.18817297140737746 -1.4833333333333332 4.5317699694544249 0.35868755921555523
decision_type=2 10 10 10 10 8
left_child=1 3 5 -1 -4 -2
right_child=2 -3 4 -5 -6 -7
leaf_value=-0.0018691499321856684 -0.011295762169237535 0.016193640620129394 0.011406971438559413 0.0017221161706987734 -0.0033352498318461165 -0.0038269458736143306
leaf_weight=660.75596213340759 163.29658345133066 34.657582357525826 31.284947767853737 1909.8557560294867 41.899907261133194 134.21282097697258
leaf_count=3505 1079 173 183 9844 248 893
internal_value=0.000152077 0.00100514 -0.00580842 0.000794335 0.00282225 -0.00797166
internal_weight=2975.96 2605.27 370.694 2570.61 73.1849 297.509
internal_count=15925 13522 2403 13349 431 1972
is_linear=0
shrinkage=0.0223408


Tree=64
num_leaves=8
num_cat=0
split_feature=320 117 343 344 264 322 272
split_gain=24.5293 14.7413 13.7031 16.6745 12.3861 12.1885 10.6931
threshold=-0.28652026017247861 4.2035324560444938 -3.1000000000000001 1.6396120370161784 4.4500000000000011 -0.37142857142857139 4.0481239137684151
decision_type=8 10 8 8 10 10 10
left_child=1 6 5 -4 -3 -2 -1
right_child=2 4 3 -5 -6 -7 -8
leaf_value=0.017048022904962275 0.0087603699126228944 -0.0056235615764096084 0.0038034240041866806 -0.00034456935527993413 0.00093305854236217932 -0.0065569918581787484 -0.0010707497585347569
leaf_weight=29.215723320841789 29.862995997071266 573.93317415565252 1097.2675812318921 856.15463633090258 187.89029885828495 167.77459817379713 33.730403855443001
leaf_count=149 154 3260 5687 4538 1050 915 172
internal_value=0.000148434 -0.00312225 0.00140818 0.00197956 -0.00399122 -0.00417535 0.00718398
internal_weight=2975.83 824.77 2151.06 1953.42 761.823 197.638 62.9461
internal_count=15925 4631 11294 10225 4310 1069 321
is_linear=0
shrinkage=0.0223408


Tree=65
num_leaves=7
num_cat=0
split_feature=3 138 332 345 216 219
split_gain=28.3871 15.4294 13.3583 12.2352 8.29114 7.59255
threshold=151.51737953818943 18.417225090127399 -0.18817297140737746 -1.4833333333333332 3.1299819000496951 3.742805604724937
decision_type=2 10 10 10 10 8
left_child=1 3 5 -1 -4 -2
right_child=2 -3 4 -5 -6 -7
leaf_value=-0.0018488288571384568 -0.0092132312370458071 0.015687834200784102 -0.0022813553675015991 0.0016726305464691209 0.013544461979875907 0.00091206380596578246
leaf_weight=660.43291985988617 254.71883700788021 34.920550227165222 49.303735800087452 1911.7411393970251 23.978663817048073 40.750623196363449
leaf_count=3505 1705 173 289 9844 142 267
internal_value=0.000144962 0.000969593 -0.00565019 0.000763788 0.00276302 -0.00777726
internal_weight=2975.85 2607.09 368.752 2572.17 73.2824 295.469
internal_count=15925 13522 2403 13349 431 1972
is_linear=0
shrinkage=0.0223408


Tree=66
num_leaves=7
num_cat=0
split_feature=3 138 344 332 74 282
split_gain=27.2088 14.6396 13.1261 12.8497 8.41238 7.50574
threshold=151.51737953818943 18.417225090127399 5.283928908103471 -0.18817297140737746 0.26733133175088103 0.35868755921555523
decision_type=2 10 10 10 10 8
left_child=1 2 -1 5 -5 -2
right_child=3 -3 -4 4 -6 -7
leaf_value=0.0011219405167421075 -0.0109218957349807 0.015236072876609408 -0.0060909253909660847 -0.0069028199808690857 0.0085879069190118902 -0.0035746165021108482
leaf_weight=2440.9087046831846 160.88118600100279 35.156863018870354 132.16869492828846 27.152599431574345 46.249274149537086 133.16321102529764
leaf_count=12612 1079 173 737 159 272 893
internal_value=0.000141676 0.000947517 0.000746344 -0.0055433 0.00269373 -0.00764009
internal_weight=2975.68 2608.23 2573.08 367.446 73.4019 294.044
internal_count=15925 13522 13349 2403 431 1972
is_linear=0
shrinkage=0.0223408


Tree=67
num_leaves=7
num_cat=0
split_feature=3 138 393 89 241 294
split_gain=26.1138 13.3448 12.872 10.6341 11.7748 7.88316
threshold=132.89390000585777 18.417225090127399 0.16333333333333347 2.6599090222684141 0.73114446859733573 13.285487148200794
decision_type=2 10 10 10 8 8
left_child=1 2 -1 4 -2 -5
right_child=3 -3 -4 5 -6 -7
leaf_value=0.00154092345062482 -0.0068764197653557249 0.014703359754366364 -0.0027931488359250155 -0.0043421338258345047 0.0010555668045600796 -0.019019519428951945
leaf_weight=2083.4945281147957 199.56457952409983 34.975256145000458 407.47247686982155 37.050208337605 171.13529846072197 41.82322171330452
leaf_count=10783 1221 171 2117 269 1027 337
internal_value=0.00013825 0.00102517 0.000827026 -0.00481666 -0.00318442 -0.0123071
internal_weight=2975.52 2525.94 2490.97 449.573 370.7 78.8734
internal_count=15925 13071 12900 2854 2248 606
is_linear=0
shrinkage=0.0223408


Tree=68
num_leaves=7
num_cat=0
split_feature=3 332 223 225 34 198
split_gain=25.075 12.3204 11.8128 12.7707 7.82648 7.39866
threshold=151.51737953818943 -0.18817297140737746 0.33285714285714285 0.60581636334873201 5.9500000000000011 0.39029201190965901
decision_type=2 10 8 8 10 8
left_child=2 5 -1 -4 -3 -2
right_child=1 4 3 -5 -6 -7
leaf_value=0.015077233460299757 -0.0096203737191117161 0.0080896426226559088 -0.0024438134670430492 0.0015176525578319841 -0.0071004074317838868 -0.0014748312058201079
leaf_weight=28.88447792828083 211.00489193946123 48.212620057165623 502.84065324068069 2078.6542301923037 25.14067580550909 80.624182321131229
leaf_count=146 1434 273 2635 10741 158 538
internal_value=0.000134876 -0.00534339 0.000905771 0.000741293 0.00271721 -0.00741183
internal_weight=2975.36 364.982 2610.38 2581.49 73.3533 291.629
internal_count=15925 2403 13522 13376 431 1972
is_linear=0
shrinkage=0.0223408


Tree=69
num_leaves=8
num_cat=0
split_feature=320 117 343 344 323 264 272
split_gain=21.6183 13.6532 12.7701 15.6863 14.7729 11.6211 10.1331
threshold=-0.28652026017247861 4.2035324560444938 -3.1000000000000001 1.6396120370161784 0.42849017460686845 4.4500000000000011 4.0481239137684151
decision_type=8 10 8 8 10 10 10
left_child=1 6 4 -4 -2 -3 -1
right_child=2 5 3 -5 -6 -7 -8
leaf_value=0.016489390390679419 -0.0014390542632733601 -0.0053847578110021548 0.0036253142660938914 -0.00039389956425087927 -0.018658602250816506 0.00097538199777168037 -0.0011013398153827479
leaf_weight=29.461618795990944 167.63816240429878 569.48918350785971 1100.8989329487085 856.97411715984344 29.421798825263977 187.58851902186871 33.746136769652367
leaf_count=149 883 3260 5687 4538 186 1050 172
internal_value=0.000131618 -0.00295009 0.00131035 0.00186022 -0.00408875 -0.00379345 0.00694231
internal_weight=2975.22 820.285 2154.93 1957.87 197.06 757.078 63.2078
internal_count=15925 4631 11294 10225 1069 4310 321
is_linear=0
shrinkage=0.0223408


Tree=70
num_leaves=8
num_cat=0
split_feature=343 106 22 171 114 397 89
split_gain=20.6754 17.8971 17.2177 15.1014 13.328 12.9154 8.79708
threshold=-3.1000000000000001 14.225000000000001 12.633333333333335 1.3849890500000004 4.6433299268059862 0.017366522366522252 2.2774366733273621
decision_type=8 10 8 10 10 10 10
left_child=3 2 -2 6 -3 -5 -1
right_child=1 4 -4 5 -6 -7 -8
leaf_value=-0.0049440941578227492 0.0028294608392443856 -0.010456401415452172 -0.0012428433028488716 0.013081963662306132 -0.0010598307428803277 -0.0052315837478312862 -0.014522256146936741
leaf_weight=324.35617861151695 1357.2645752951503 113.73193749040365 833.21368078142405 40.320615269243717 232.46466653048992 35.234236411750317 58.337244734168053
leaf_count=1784 7014 596 4551 233 1209 195 455
internal_value=-0.00026006 0.000524842 0.00127509 -0.00462875 -0.00418577 0.00439615 -0.00644291
internal_weight=2994.92 2536.67 2190.48 458.248 346.197 75.5549 382.693
internal_count=16037 13370 11565 2667 1805 428 2239
is_linear=0
shrinkage=0.0223408


Tree=71
num_leaves=8
num_cat=0
split_feature=343 106 22 171 397 330 423
split_gain=19.8169 17.1326 16.6382 14.4875 12.2717 11.1782 8.12961
threshold=-3.1000000000000001 14.225000000000001 11.633333333333335 1.3849890500000004 0.017366522366522252 0.89216030000000013 6.5000000000000009
decision_type=8 10 8 10 10 10 10
left_child=3 2 -2 6 -5 -3 -1
right_child=1 5 -4 4 -6 -7 -8
leaf_value=-0.0048382580303714994 0.0034135247535730592 -0.0055607249683332759 -0.00049456132153006551 0.012702228813077884 -0.0051291861093544265 0.0069723797678266199 -0.013902693376575294
leaf_weight=320.45858217775822 978.91868524253368 306.32529065012932 1212.8433704227209 40.601997673511505 35.140479497611523 39.182721421122551 60.846335679292679
leaf_count=1785 5035 1592 6530 233 195 213 454
internal_value=-0.000254709 0.000512613 0.00124572 -0.00453833 0.00428377 -0.00410154 -0.00632322
internal_weight=2994.32 2537.27 2191.76 457.047 75.7425 345.508 381.305
internal_count=16037 13370 11565 2667 428 1805 2239
is_linear=0
shrinkage=0.0223408


Tree=72
num_leaves=7
num_cat=0
split_feature=343 106 22 341 114 183
split_gain=19.023 15.7966 16.226 15.5866 11.7002 9.33195
threshold=-3.2999999999999998 14.225000000000001 12.633333333333335 -1.6934520240827717 4.6433299268059862 5.4342802169076228
decision_type=8 10 8 10 10 10
left_child=3 2 -2 -1 -3 -5
right_child=1 4 -4 5 -6 -7
leaf_value=0.010715070266974516 0.0026481732237175733 -0.0098707911196651375 -0.0012568522084882938 -0.0069898271139682815 -0.0010516183518758443 0.0059397895126802039
leaf_weight=29.50686252117157 1380.5097538381815 113.29820989817381 858.17257376015186 350.43697293102741 232.71449989825487 29.098622307181358
leaf_count=152 7117 598 4703 2080 1213 174
internal_value=-0.000249265 0.000455162 0.00114598 -0.00472701 -0.00397812 -0.00596444
internal_weight=2993.74 2584.7 2238.68 409.042 346.013 379.536
internal_count=16037 13631 11820 2406 1811 2254
is_linear=0
shrinkage=0.0223408


Tree=73
num_leaves=7
num_cat=0
split_feature=343 419 22 272 341 183
split_gain=18.2344 16.3812 14.7771 12.4398 11.9351 8.76409
threshold=-3.1000000000000001 -46.499999999999993 11.633333333333335 4.6418611426288043 -1.8462521807510963 5.4342802169076228
decision_type=8 8 8 10 10 10
left_child=4 3 -3 -2 -1 -6
right_child=1 2 -4 -5 5 -7
leaf_value=0.0087181007205719696 -0.00078095462400771729 0.0029035725486490807 -0.00063564473127666042 -0.012947203115737507 -0.0063471938303584002 0.0051486795691178767
leaf_weight=31.493252038955688 99.550463452935219 1084.0662333145738 1279.5068187117577 75.237231761217117 388.44073120504618 34.863556243479252
leaf_count=161 517 5561 6885 407 2301 205
internal_value=-0.000243826 0.00049021 0.000982773 -0.00609555 -0.00436478 -0.00537023
internal_weight=2993.16 2538.36 2363.57 174.788 454.798 423.304
internal_count=16037 13370 12446 924 2667 2506
is_linear=0
shrinkage=0.0223408


Tree=74
num_leaves=7
num_cat=0
split_feature=343 345 22 341 313 49
split_gain=17.4776 15.3709 20.1672 14.3997 13.7836 8.84305
threshold=-3.2999999999999998 -1.4833333333333332 12.633333333333335 -1.6934520240827717 1665.0263863007731 0.15397634848820763
decision_type=8 10 10 10 10 10
left_child=3 4 -3 -1 -2 -5
right_child=1 2 -4 5 -6 -7
leaf_value=0.010223374053657041 0 0.0033480403847176098 -0.0012858356144695114 -0.0046708139493060203 -0.0066990545892317288 -0.017316365108658579
leaf_weight=29.757511630654335 409.4001724049449 1139.0395293012261 791.74687395244837 346.36577346175909 245.45613624155521 30.813301123678684
leaf_count=152 2097 5809 4347 2048 1378 206
internal_value=-0.00023851 0.000434781 0.00144182 -0.00454332 -0.00251583 -0.00574517
internal_weight=2992.58 2585.64 1930.79 406.937 654.856 377.179
internal_count=16037 13631 10156 2406 3475 2254
is_linear=0
shrinkage=0.0223408


Tree=75
num_leaves=8
num_cat=0
split_feature=343 106 259 171 114 89 25
split_gain=16.7712 15.7984 15.8539 13.5442 12.3715 8.54519 7.95503
threshold=-3.1000000000000001 14.225000000000001 11.387500000000001 1.3849890500000004 4.6433299268059862 2.2774366733273621 8.7500000000000018
decision_type=8 10 8 10 10 10 10
left_child=3 2 -2 5 -3 -1 -5
right_child=1 4 -4 6 -6 -7 -8
leaf_value=-0.00446433339410567 0.002891819728479321 -0.010054958963020052 -0.0009174981361454533 -0.0055144408528282609 -0.00096281116807289766 -0.014017106567160298 0.0095665512540681358
leaf_weight=320.28456526994705 1206.3831498473883 112.45159339904785 988.46242686361074 25.467117369174957 231.95716186612844 56.717116892337799 50.166443102061749
leaf_count=1784 6306 596 5259 153 1209 455 275
internal_value=-0.000233456 0.000468683 0.00117098 -0.00419667 -0.00397046 -0.0059405 0.00433171
internal_weight=2991.89 2539.25 2194.85 452.635 344.409 377.002 75.6336
internal_count=16037 13370 11565 2667 1805 2239 428
is_linear=0
shrinkage=0.0223408


Tree=76
num_leaves=7
num_cat=0
split_feature=343 345 336 341 313 49
split_gain=16.0864 14.5367 19.2048 13.6162 13.1594 8.60509
threshold=-3.2999999999999998 -1.4833333333333332 1.0076926600000005 -1.6934520240827717 1665.0263863007731 0.15397634848820763
decision_type=8 10 10 10 10 10
left_child=3 4 -3 -1 -2 -5
right_child=1 2 -4 5 -6 -7
leaf_value=0.0099461547616732822 0 0.0010150553833444054 0.014754951516317482 -0.0044908279004620601 -0.0065557892263058016 -0.017048095062464096
leaf_weight=29.898643627762794 409.40401040762663 1880.4659717530012 52.136146262288094 344.5817039757967 244.4576608389616 30.37231632322073
leaf_count=152 2097 9886 270 2048 1378 206
internal_value=-0.00022868 0.000415458 0.00139355 -0.00437085 -0.00245691 -0.00554938
internal_weight=2991.32 2586.46 1932.6 404.853 653.862 374.954
internal_count=16037 13631 10156 2406 3475 2254
is_linear=0
shrinkage=0.0223408


Tree=77
num_leaves=8
num_cat=0
split_feature=104 178 194 217 93 247 68
split_gain=16.2699 16.59 14.8878 14.0874 13.9179 10.4488 9.7483
threshold=16.050000000000004 14.700000000000001 7.6333333333333337 3.9000000000000004 1.0000000180025095e-35 1.3900575779905349 0.62534315777995986
decision_type=10 10 10 8 10 10 10
left_child=2 3 4 -2 -1 -4 -3
right_child=1 6 5 -5 -6 -7 -8
leaf_value=0.0082814905465351755 -0.0046374556151081098 0.00014456855628638474 -0.0065959598596092564 0.0048009757180943928 0.00071140464615478442 0.0018438685777176791 -0.01615547593071549
leaf_weight=129.14325861632824 269.77471881359816 22.371748015284538 227.93990223109722 110.32383591681719 2051.8382952287793 104.89099928736687 74.433715894818306
leaf_count=661 1640 145 1285 628 10638 564 476
internal_value=-0.000223638 -0.00400844 0.000490003 -0.00186567 0.0011659 -0.00390132 -0.0122757
internal_weight=2990.72 476.904 2513.81 380.099 2180.98 332.831 96.8055
internal_count=16037 2889 13148 2268 11299 1849 621
is_linear=0
shrinkage=0.0223408


Tree=78
num_leaves=8
num_cat=0
split_feature=104 178 419 217 93 46 68
split_gain=15.5858 16.0237 14.7558 13.4816 12.7929 10.2606 9.48357
threshold=16.050000000000004 14.700000000000001 -46.499999999999993 3.9000000000000004 1.0000000180025095e-35 0.47079992991757708 0.62534315777995986
decision_type=10 10 8 8 10 10 10
left_child=2 3 5 -2 -4 -1 -3
right_child=1 6 4 -5 -6 -7 -8
