tree
version=v4
num_class=1
num_tree_per_iteration=1
label_index=0
max_feature_idx=427
objective=binary sigmoid:1
feature_names=league home_elo away_elo elo_diff hometeam_rest_days hometeam_both_roll5_goals_for hometeam_both_roll10_goals_for hometeam_both_decay15_goals_for hometeam_both_roll5_goals_against hometeam_both_roll10_goals_against hometeam_both_decay15_goals_against hometeam_both_roll5_ht_goals_for hometeam_both_roll10_ht_goals_for hometeam_both_decay15_ht_goals_for hometeam_both_roll5_ht_goals_against hometeam_both_roll10_ht_goals_against hometeam_both_decay15_ht_goals_against hometeam_both_roll5_xg_for hometeam_both_decay15_xg_for hometeam_both_decay15_xg_against hometeam_both_roll5_npxg_against hometeam_both_roll5_shots_for hometeam_both_roll10_shots_for hometeam_both_decay15_shots_for hometeam_both_roll5_shots_against hometeam_both_roll10_shots_against hometeam_both_decay15_shots_against hometeam_both_roll5_sot_for hometeam_both_roll10_sot_for hometeam_both_decay15_sot_for hometeam_both_roll5_sot_against hometeam_both_roll10_sot_against hometeam_both_decay15_sot_against hometeam_both_roll5_corners_for hometeam_both_roll10_corners_for hometeam_both_decay15_corners_for hometeam_both_roll5_corners_against hometeam_both_roll10_corners_against hometeam_both_decay15_corners_against hometeam_both_roll5_deep_completions_for hometeam_both_roll10_deep_completions_for hometeam_both_roll5_deep_completions_against hometeam_both_roll10_deep_completions_against hometeam_both_roll5_sot_pct_for hometeam_both_roll10_sot_pct_for hometeam_both_decay15_sot_pct_for hometeam_both_roll5_sot_pct_against hometeam_both_roll10_sot_pct_against hometeam_both_decay15_sot_pct_against hometeam_both_roll5_xg_per_shot_for hometeam_both_decay15_xg_per_shot_for hometeam_both_roll5_xg_per_shot_against hometeam_both_roll10_xg_per_shot_against hometeam_both_roll5_npxg_per_shot_for hometeam_both_roll5_npxg_per_shot_against hometeam_both_roll5_ppda_for hometeam_both_decay15_ppda_for hometeam_both_roll5_points_for hometeam_both_roll10_points_for hometeam_both_decay15_points_for hometeam_both_roll5_saves_for hometeam_both_roll10_saves_for hometeam_both_decay15_saves_for hometeam_both_roll5_saves_against hometeam_both_roll10_saves_against hometeam_both_decay15_saves_against hometeam_both_roll5_save_pct_for hometeam_both_roll10_save_pct_for hometeam_both_decay15_save_pct_for hometeam_both_roll5_save_pct_against hometeam_both_roll10_save_pct_against hometeam_both_decay15_save_pct_against hometeam_both_roll5_clean_sheet_for hometeam_both_roll10_clean_sheet_for hometeam_both_decay15_clean_sheet_for hometeam_both_roll5_elo_for hometeam_both_roll5_std_goals_for hometeam_both_roll10_std_goals_for hometeam_both_roll5_std_points_for hometeam_both_roll10_std_points_for hometeam_both_roll5_std_xg_for hometeam_both_roll10_std_xg_for hometeam_win_streak hometeam_loss_streak hometeam_nowin_streak hometeam_matches_last_14d hometeam_elo_momentum5 hometeam_home_roll5_goals_for hometeam_home_roll10_goals_for hometeam_home_decay15_goals_for hometeam_home_roll5_goals_against hometeam_home_roll10_goals_against hometeam_home_decay15_goals_against hometeam_home_roll5_ht_goals_for hometeam_home_roll10_ht_goals_for hometeam_home_decay15_ht_goals_for hometeam_home_roll5_ht_goals_against hometeam_home_roll10_ht_goals_against hometeam_home_decay15_ht_goals_against hometeam_home_roll5_xg_for hometeam_home_decay15_npxg_for hometeam_home_roll5_npxg_against hometeam_home_roll10_npxg_against hometeam_home_roll5_shots_for hometeam_home_roll10_shots_for hometeam_home_decay15_shots_for hometeam_home_roll5_shots_against hometeam_home_roll10_shots_against hometeam_home_decay15_shots_against hometeam_home_roll5_sot_for hometeam_home_roll10_sot_for hometeam_home_decay15_sot_for hometeam_home_roll5_sot_against hometeam_home_roll10_sot_against hometeam_home_decay15_sot_against hometeam_home_roll5_corners_for hometeam_home_roll10_corners_for hometeam_home_decay15_corners_for hometeam_home_roll5_corners_against hometeam_home_roll10_corners_against hometeam_home_decay15_corners_against hometeam_home_roll5_deep_completions_for hometeam_home_roll10_deep_completions_for hometeam_home_roll5_deep_completions_against hometeam_home_decay15_deep_completions_against hometeam_home_roll5_sot_pct_for hometeam_home_roll10_sot_pct_for hometeam_home_decay15_sot_pct_for hometeam_home_roll5_sot_pct_against hometeam_home_roll10_sot_pct_against hometeam_home_decay15_sot_pct_against hometeam_home_roll5_xg_per_shot_for hometeam_home_roll5_xg_per_shot_against hometeam_home_roll5_npxg_per_shot_for hometeam_home_decay15_npxg_per_shot_for hometeam_home_roll5_npxg_per_shot_against hometeam_home_roll10_npxg_per_shot_against hometeam_home_roll5_ppda_for hometeam_home_roll10_ppda_for hometeam_home_roll5_points_for hometeam_home_roll10_points_for hometeam_home_decay15_points_for hometeam_home_roll5_saves_for hometeam_home_roll10_saves_for hometeam_home_decay15_saves_for hometeam_home_roll5_saves_against hometeam_home_roll10_saves_against hometeam_home_decay15_saves_against hometeam_home_roll5_save_pct_for hometeam_home_roll10_save_pct_for hometeam_home_decay15_save_pct_for hometeam_home_roll5_save_pct_against hometeam_home_roll10_save_pct_against hometeam_home_decay15_save_pct_against hometeam_home_roll5_clean_sheet_for hometeam_home_roll10_clean_sheet_for hometeam_home_decay15_clean_sheet_for hometeam_home_decay15_elo_for awayteam_rest_days awayteam_both_roll5_goals_for awayteam_both_roll10_goals_for awayteam_both_decay15_goals_for awayteam_both_roll5_goals_against awayteam_both_roll10_goals_against awayteam_both_decay15_goals_against awayteam_both_roll5_ht_goals_for awayteam_both_roll10_ht_goals_for awayteam_both_decay15_ht_goals_for awayteam_both_roll5_ht_goals_against awayteam_both_roll10_ht_goals_against awayteam_both_decay15_ht_goals_against awayteam_both_roll10_xg_for awayteam_both_roll5_xg_against awayteam_both_roll10_xg_against awayteam_both_roll5_npxg_for awayteam_both_roll5_shots_for awayteam_both_roll10_shots_for awayteam_both_decay15_shots_for awayteam_both_roll5_shots_against awayteam_both_roll10_shots_against awayteam_both_decay15_shots_against awayteam_both_roll5_sot_for awayteam_both_roll10_sot_for awayteam_both_decay15_sot_for awayteam_both_roll5_sot_against awayteam_both_roll10_sot_against awayteam_both_decay15_sot_against awayteam_both_roll5_corners_for awayteam_both_roll10_corners_for awayteam_both_decay15_corners_for awayteam_both_roll5_corners_against awayteam_both_roll10_corners_against awayteam_both_decay15_corners_against awayteam_both_roll5_deep_completions_for awayteam_both_roll10_deep_completions_for awayteam_both_roll5_deep_completions_against awayteam_both_roll10_deep_completions_against awayteam_both_roll5_sot_pct_for awayteam_both_roll10_sot_pct_for awayteam_both_decay15_sot_pct_for awayteam_both_roll5_sot_pct_against awayteam_both_roll10_sot_pct_against awayteam_both_decay15_sot_pct_against awayteam_both_roll5_xg_per_shot_for awayteam_both_roll10_xg_per_shot_for awayteam_both_roll5_xg_per_shot_against awayteam_both_roll10_xg_per_shot_against awayteam_both_roll5_npxg_per_shot_for awayteam_both_roll5_npxg_per_shot_against awayteam_both_roll5_ppda_for awayteam_both_roll10_ppda_for awayteam_both_roll5_points_for awayteam_both_roll10_points_for awayteam_both_decay15_points_for awayteam_both_roll5_saves_for awayteam_both_roll10_saves_for awayteam_both_decay15_saves_for awayteam_both_roll5_saves_against awayteam_both_roll10_saves_against awayteam_both_decay15_saves_against awayteam_both_roll5_save_pct_for awayteam_both_roll10_save_pct_for awayteam_both_decay15_save_pct_for awayteam_both_roll5_save_pct_against awayteam_both_roll10_save_pct_against awayteam_both_decay15_save_pct_against awayteam_both_roll5_clean_sheet_for awayteam_both_roll10_clean_sheet_for awayteam_both_decay15_clean_sheet_for awayteam_both_roll5_elo_for awayteam_both_roll5_std_goals_for awayteam_both_roll10_std_goals_for awayteam_both_roll5_std_points_for awayteam_both_roll10_std_points_for awayteam_both_roll5_std_xg_for awayteam_both_roll10_std_xg_for awayteam_win_streak awayteam_loss_streak awayteam_unbeaten_streak awayteam_nowin_streak awayteam_matches_last_14d awayteam_elo_momentum5 awayteam_away_roll5_goals_for awayteam_away_roll10_goals_for awayteam_away_decay15_goals_for awayteam_away_roll5_goals_against awayteam_away_roll10_goals_against awayteam_away_decay15_goals_against awayteam_away_roll5_ht_goals_for awayteam_away_roll10_ht_goals_for awayteam_away_decay15_ht_goals_for awayteam_away_roll5_ht_goals_against awayteam_away_roll10_ht_goals_against awayteam_away_decay15_ht_goals_against awayteam_away_roll5_xg_against awayteam_away_roll5_npxg_for awayteam_away_roll10_npxg_for awayteam_away_decay15_npxg_against awayteam_away_roll5_shots_for awayteam_away_roll10_shots_for awayteam_away_decay15_shots_for awayteam_away_roll5_shots_against awayteam_away_roll10_shots_against awayteam_away_decay15_shots_against awayteam_away_roll5_sot_for awayteam_away_roll10_sot_for awayteam_away_decay15_sot_for awayteam_away_roll5_sot_against awayteam_away_roll10_sot_against awayteam_away_decay15_sot_against awayteam_away_roll5_corners_for awayteam_away_roll10_corners_for awayteam_away_decay15_corners_for awayteam_away_roll5_corners_against awayteam_away_roll10_corners_against awayteam_away_decay15_corners_against awayteam_away_roll5_deep_completions_for awayteam_away_roll10_deep_completions_for awayteam_away_roll5_deep_completions_against awayteam_away_decay15_deep_completions_against awayteam_away_roll5_sot_pct_for awayteam_away_roll10_sot_pct_for awayteam_away_decay15_sot_pct_for awayteam_away_roll5_sot_pct_against awayteam_away_roll10_sot_pct_against awayteam_away_decay15_sot_pct_against awayteam_away_roll5_xg_per_shot_for awayteam_away_roll10_xg_per_shot_for awayteam_away_roll5_xg_per_shot_against awayteam_away_decay15_xg_per_shot_against awayteam_away_roll5_npxg_per_shot_for awayteam_away_decay15_npxg_per_shot_for awayteam_away_roll5_npxg_per_shot_against awayteam_away_roll10_npxg_per_shot_against awayteam_away_roll5_ppda_for awayteam_away_roll10_ppda_for awayteam_away_roll5_points_for awayteam_away_roll10_points_for awayteam_away_decay15_points_for awayteam_away_roll5_saves_for awayteam_away_roll10_saves_for awayteam_away_decay15_saves_for awayteam_away_roll5_saves_against awayteam_away_roll10_saves_against awayteam_away_decay15_saves_against awayteam_away_roll5_save_pct_for awayteam_away_roll10_save_pct_for awayteam_away_decay15_save_pct_for awayteam_away_roll5_save_pct_against awayteam_away_roll10_save_pct_against awayteam_away_decay15_save_pct_against awayteam_away_roll10_clean_sheet_for awayteam_away_decay15_clean_sheet_for awayteam_away_decay15_elo_for rest_days_diff both_roll5_goals_for_diff both_roll10_goals_for_diff both_decay15_goals_for_diff both_roll5_goals_against_diff both_roll10_goals_against_diff both_decay15_goals_against_diff both_roll5_ht_goals_for_diff both_roll10_ht_goals_for_diff both_decay15_ht_goals_for_diff both_roll5_ht_goals_against_diff both_roll10_ht_goals_against_diff both_decay15_ht_goals_against_diff both_roll5_xg_for_diff both_roll10_xg_for_diff both_decay15_xg_for_diff both_roll5_xg_against_diff both_roll10_xg_against_diff both_decay15_xg_against_diff both_roll5_npxg_for_diff both_roll10_npxg_for_diff both_decay15_npxg_for_diff both_roll5_npxg_against_diff both_roll10_npxg_against_diff both_decay15_npxg_against_diff both_roll5_shots_for_diff both_roll10_shots_for_diff both_decay15_shots_for_diff both_roll5_shots_against_diff both_roll10_shots_against_diff both_decay15_shots_against_diff both_roll5_sot_for_diff both_roll10_sot_for_diff both_decay15_sot_for_diff both_roll5_sot_against_diff both_roll10_sot_against_diff both_decay15_sot_against_diff both_roll5_corners_for_diff both_roll10_corners_for_diff both_decay15_corners_for_diff both_roll5_corners_against_diff both_roll10_corners_against_diff both_decay15_corners_against_diff both_roll5_deep_completions_for_diff both_roll10_deep_completions_for_diff both_decay15_deep_completions_for_diff both_roll5_deep_completions_against_diff both_roll10_deep_completions_against_diff both_decay15_deep_completions_against_diff both_roll5_sot_pct_for_diff both_roll10_sot_pct_for_diff both_decay15_sot_pct_for_diff both_roll5_sot_pct_against_diff both_roll10_sot_pct_against_diff both_decay15_sot_pct_against_diff both_roll5_xg_per_shot_for_diff both_roll10_xg_per_shot_for_diff both_decay15_xg_per_shot_for_diff both_roll5_xg_per_shot_against_diff both_roll10_xg_per_shot_against_diff both_decay15_xg_per_shot_against_diff both_roll5_npxg_per_shot_for_diff both_roll10_npxg_per_shot_for_diff both_decay15_npxg_per_shot_for_diff both_roll5_npxg_per_shot_against_diff both_roll10_npxg_per_shot_against_diff both_decay15_npxg_per_shot_against_diff both_roll5_ppda_for_diff both_roll10_ppda_for_diff both_decay15_ppda_for_diff both_roll5_points_for_diff both_roll10_points_for_diff both_decay15_points_for_diff both_roll5_saves_for_diff both_roll10_saves_for_diff both_decay15_saves_for_diff both_roll5_saves_against_diff both_roll10_saves_against_diff both_decay15_saves_against_diff both_roll5_save_pct_for_diff both_roll10_save_pct_for_diff both_decay15_save_pct_for_diff both_roll5_save_pct_against_diff both_roll10_save_pct_against_diff both_decay15_save_pct_against_diff both_roll5_clean_sheet_for_diff both_roll10_clean_sheet_for_diff both_decay15_clean_sheet_for_diff both_roll5_std_goals_for_diff both_roll10_std_goals_for_diff both_roll5_std_points_for_diff both_roll10_std_points_for_diff both_roll5_std_xg_for_diff both_roll10_std_xg_for_diff win_streak_diff loss_streak_diff unbeaten_streak_diff nowin_streak_diff matches_last_14d_diff elo_momentum5_diff h2h_goal_diff_last4 h2h_points_last4 season_progress home_position away_position home_pts_to_1st away_pts_to_1st home_pts_to_ucl away_pts_to_ucl home_pts_to_europe away_pts_to_europe home_pts_to_relegation away_pts_to_relegation position_diff
feature_infos=-1:0:4:3:1:2 [1305.6899498281241:1906.4993183814745] [1309.8900095146864:1907.5312625945271] [-526.65080719338494:496.33849058374471] [2:8] [0:5.7999999999999998] [0:4.5] [0:4.1349477310161618] [0:5] [0:5] [0:5] [0:2.7999999999999998] [0:2.2000000000000002] [0:2.2623613302479937] [0:5] [0:5] [0:5] [0.030934:3.9588540000000001] [0.030934:3.3536800474668045] [0.084219837500000005:3.6942124531250009] [0.16546805000000001:3.3415660000000003] [4.2000000000000002:24.600000000000001] [5:24] [5:24] [3.3999999999999999:27] [4.2999999999999998:27] [4.8554341585779994:27] [0:13.4] [0:13.5] [0:12.00671393637786] [0.80000000000000004:15] [1.2:15] [1.4503118820066616:15] [0:12] [0:10.800000000000001] [0:10] [0:12] [0:12] [0:12] [0:21.399999999999999] [0:18.600000000000001] [0:24] [0:24] [0:0.83000000000000007] [0:0.75326839826839831] [0:0.75] [0.095238095238095205:0.77396825396825408] [0.14694444444444441:0.75] [0.1475840336134453:0.75] [0.015467:0.3153881168831168] [0.015467:0.2943423863636363] [0.026729684090908999:0.29696789848484839] [0.026729684090908999:0.28732714285714278] [0.015467:0.25330961282051279] [0.026729684090908999:0.27159123181818179] [3.827586206896552:47.017441860465119] [3.827586206896552:54.540009469696962] [0:3] [0:3] [0:3] [0.20000000000000001:13] [0.59999999999999998:13] [0.85232533246428932:13] [0:12] [0:11.800000000000001] [0:10.284388039952956] [0.013333333333333501:1] [0.074999999999999997:1] [0.09375:1] [0:1] [0:1] [0:1] [0:1] [0:1] [0:1] [1320.8806346503814:1902.1456776186683] [0:4.1472882706655438] [0:3.0110906108363231] [0:2.1213203435596424] [0:2.1213203435596424] [0.0133852876821282:2.3876968291566665] [0.0133852876821282:1.8512116975286617] [0:17] [0:14] [0:30] [0:4] [-62.956151611328096:66.063833195788447] [0:5.7999999999999998] [0:4.7999999999999998] [0:4.387083619049462] [0:5] [0:5] [0:5] [0:3.2000000000000002] [0:3] [0:3] [0:3] [0:3] [0:3] [0.1147990499999999:4.4200320000000008] [0.067255087500000005:3.9657100000000001] [0.057137100000000003:3.9338700000000002] [0.057137100000000003:3.9338700000000002] [4:27.399999999999999] [4:26.699999999999999] [3.25:25.318543287972524] [3:26] [3:26] [3:26] [0:15.4] [0:13.800000000000001] [0:13.459860484584976] [0.59999999999999998:13.4] [1:11.199999999999999] [1:11] [0:12.6] [0:10.699999999999999] [0:10.244287256029454] [0:12] [0:12] [0:12] [0:23.800000000000001] [0:20.399999999999999] [0:18] [0:18] [0:0.78452380952380951] [0:0.77777777777777779] [0:0.77777777777777779] [0.082626262626262603:0.82857142857142851] [0.1176470588235294:0.82857142857142851] [0.1176470588235294:0.80714285714285716] [0.0233202857142857:0.29575133603896098] [0.0175698833333333:0.34344909090909093] [0.0233202857142857:0.23933670508658] [0.0194485124999999:0.2360225] [0.0175698833333333:0.28099071428571432] [0.0175698833333333:0.28099071428571432] [2.3125:67.333333333333329] [2.3125:67.333333333333329] [0:3] [0:3] [0:3] [0:9.8000000000000007] [0.5:9] [0.861328125:9] [0:14] [0:12.199999999999999] [0:11.86669335614652] [-0.099999999999999895:1] [0:1] [0:1] [0:1] [0:1] [0:1] [0:1] [0:1] [0:1] [1337.0696313897561:1887.2246240660847] [2:8] [0:5] [0:4.2999999999999998] [0:4] [0:5] [0:5] [0:5] [0:3] [0:3] [0:3] [0:3] [0:3] [0:3.2197265625] [0.26435949999999991:3.5914514999999998] [0.057137100000000003:3.5996480000000002] [0.057137100000000003:3.13646] [0.22841892:4.1356240000000009] [3.6000000000000001:25] [5:23] [5:22.620768952294789] [2.6000000000000001:27] [4.4000000000000004:27] [4.7485048887557486:27] [0.59999999999999998:13.4] [1:13.5] [0.375:11.839175188883903] [0.59999999999999998:13.800000000000001] [1.3:11.800000000000001] [1.5978947836171715:15.984375] [1:12.199999999999999] [1:10.5] [0.25:10] [0:12] [0:12] [0:12] [0:21.800000000000001] [0:18.899999999999999] [0:18] [0:18] [0.066071428571428503:0.80666666666666664] [0.1214285714285714:0.77777777777777779] [0.034090909090908998:0.77777777777777779] [0.092307692307692299:0.80000000000000004] [0.1176470588235294:0.80000000000000004] [0.1176470588235294:0.80000000000000004] [0.029186278571428501:0.28732714285714278] [0.029186278571428501:0.28732714285714278] [0.028568550000000002:0.2994733333333332] [0.028568550000000002:0.2994733333333332] [0.029186278571428501:0.25344811588235289] [0.028568550000000002:0.2718474818181818] [2.3125:67.333333333333329] [2.3125:67.333333333333329] [0:3] [0:3] [0:3] [0.20000000000000001:11.199999999999999] [0.80000000000000004:9.3000000000000007] [0.974086094244902:12.921875] [0.20000000000000001:12] [0.75:12] [0.25:10.039300617089092] [0:1] [0:1] [0:1] [0:1] [0:1] [0:1] [0:1] [0:1] [0:1] [1321.4262973311031:1900.3172410378691] [0:3.8340579025361623] [0:2.9814239699997214] [0:2.1213203435596424] [0:2.1213203435596424] [0.049673536123372497:2.4672104214021147] [0.049673536123372497:2.131881690443445] [0:18] [0:15] [0:44] [0:29] [0:4] [-67.223453951587544:61.824703872732925] [0:4.7999999999999998] [0:4] [0:4] [0:4.5999999999999996] [0:4.5] [0:4.671875] [0:3] [0:3] [0:3] [0:3] [0:3] [0:4.5] [0.22284300000000001:4.2596800000000004] [0.033221500000000001:3.5486040000000001] [0.033221500000000001:3.246623] [0.22284300000000001:4.2596800000000004] [3:24.199999999999999] [3:23] [2.5:23] [4:28.199999999999999] [5.2000000000000002:27] [5.7363066380462353:27] [0:11.6] [0:10.5] [0:10.037476859521078] [0.80000000000000004:19] [1:19] [1:19] [0:10.800000000000001] [0:9.4000000000000004] [0:9.75] [0:13] [0:13] [0:13.25] [0:19.800000000000001] [0:16.600000000000001] [0:19] [0:22] [0:0.79920634920634925] [0:0.78888888888888897] [0:0.78055555555555556] [0.0977777777777777:0.76212121212121209] [0.1111111111111111:0.75] [0.1111111111111111:0.75] [0.016610750000000001:0.27705114857142848] [0.016610750000000001:0.274642] [0.032871499999999998:0.41834666666666659] [0.032871499999999998:0.41834666666666659] [0.016610750000000001:0.274642] [0.016610750000000001:0.274642] [0.032871499999999998:0.25167247619047611] [0.032871499999999998:0.24943666666666661] [3.4651162790697674:51.571428571428569] [3.4651162790697674:51.571428571428569] [0:3] [0:3] [0:3] [0:15] [0:15] [0:15] [0:10.4] [0:9] [0:8.6019015795543083] [0:1] [0:1] [0:1] [0:1] [0:1] [0:1] [0:1] [0:1] [1338.8845907396546:1890.002010928762] [-6:6] [-4.4000000000000004:5.2000000000000002] [-3.3999999999999999:3.7999999999999998] [-3.1984118037290656:3.3724059179628725] [-4.7999999999999998:3.3999999999999999] [-4.5:3.8999999999999999] [-4.4634159824738209:3.7289063616459162] [-2.6000000000000001:2.3999999999999999] [-2.2999999999999998:1.8999999999999999] [-2.2271105285613291:1.833047523197826] [-2.7999999999999998:4.2000000000000002] [-2.6000000000000001:4.5999999999999996] [-2.7409886722852157:4.5140109195340656] [-3.1573670200000001:3.266003599999999] [-2.7477253333333334:2.6518307499999998] [-2.4394520377787372:3.0358888593671387] [-2.5116174:2.3271649999999999] [-2.02244:1.84932684] [-3.0094657257883619:2.5516739761885634] [-3.2104028000000007:3.1137695999999999] [-2.5247673333333331:2.4668821000000003] [-2.2486483778062785:2.7725402057765929] [-2.8161372:2.1908394000000002] [-2.576047:1.9432853999999999] [-2.6282908186226663:2.7396859567407441] [-16.600000000000001:16.199999999999999] [-12.75:13.699999999999999] [-12.249499688982125:11.828126576987064] [-16.600000000000001:18.200000000000003] [-17.5:15.5] [-16.954911193150906:15.871016964178963] [-9.5999999999999996:10.199999999999999] [-8:7.2000000000000011] [-8.4576881540104036:7.8993677711629555] [-8:9.5999999999999996] [-7.2000000000000002:8.9000000000000004] [-9.3486938238798061:8.9549823939249045] [-8.5999999999999996:7.7999999999999989] [-6.2000000000000011:5.5999999999999996] [-5.77282351464493:6.0812705841379415] [-7.4000000000000004:8.1999999999999993] [-7.0999999999999996:6.5499999999999998] [-7.1824545827757085:6.8849398569964144] [-17.199999999999999:17.800000000000001] [-16.800000000000001:17.600000000000001] [-15.487288613442107:17.485472701076695] [-13:13.4] [-13:13.5] [-15.181760582385614:13.483555778720071] [-0.47719576719576717:0.47261904761904749] [-0.47651787296524128:0.4142857142857142] [-0.4846260679754924:0.4142857142857142] [-0.47361111111111098:0.37675053704465478] [-0.3466442189524031:0.38032425091248617] [-0.39903544988298451:0.39914484653105797] [-0.2507812261904761:0.2280801803751803] [-0.2507812261904761:0.2280801803751803] [-0.2507812261904761:0.1877318308080807] [-0.23201969999999991:0.2507812261904761] [-0.23201969999999991:0.2507812261904761] [-0.1686776607198969:0.2507812261904761] [-0.15183836624857591:0.15402061871070111] [-0.1420240833333333:0.14006484222672061] [-0.1420240833333333:0.15795326131628989] [-0.2146705833333333:0.1420240833333333] [-0.2146705833333333:0.1420240833333333] [-0.2146705833333333:0.17755249340277779] [-56.276812337088202:31.105782712595438] [-55.360197444122186:32.430104350022347] [-55.116579528589931:37.99025223379369] [-3:3] [-3:3] [-3:3] [-6.7999999999999998:10.199999999999999] [-5.7333333333333325:10.1] [-8.9290147594052485:10.484452432102568] [-7.8000000000000007:9.1999999999999993] [-6.7999999999999998:6.2000000000000002] [-6.6129982927620787:6.7600830194970563] [-0.76666666666666639:0.97142857142857164] [-0.66749999999999998:0.76642857142857146] [-0.67786110299150526:0.74356510476201099] [-0.8600000000000001:0.81269841269841281] [-0.69238095238095243:0.62285714285714278] [-0.76190030331052916:0.72108123680069969] [-1:1] [-0.90000000000000002:1] [-0.904296875:0.92722117015714878] [-3.2863353450309973:3.1472882706655438] [-2.1734072022474091:2.2222799730897087] [-2.1213203435596424:2.1213203435596424] [-2.1213203435596424:2.1213203435596424] [-2.2241319981800758:1.8487131247234851] [-1.6523368290205891:1.5563512638055064] [-18:17] [-14:12] [-44:43] [-26:29] [-3:3] [-98.414302614288076:88.890309466738472] [-6:7] [-1:3] [0.0071942446043165003:1] [1:20] [1:20] [-74:0] [-75:0] [-59:41] [-59:39] [-50:43] [-50:42] [-25:70] [-25:67] [-19:19]
tree_sizes=3376 3621 3532 3645 3662 3512 3619 3521 3644 3544 3634 3322 3541 3403 3626 3406 3644 3518 3650 3657 3510 3303 3423 3428 3489 3303 3302 3303 3209 3424 3557 3544 3530 3432 3512 3427 3199 3418 3547 3213 3555 3633 3340 3317 3649 3637 3522 3534 3412 3411 3539 3410 3330 3641 3511 3555 3553 3501 3498 3425 3449 3298 3543 3554 3288 3226 3637 3324 3431 3548 3327 3532 3525 3639 3513 3507 3434 3424 3315 3624 3345 3422 3440 3099 3653 3305 3090 2965 3211 2983 3201 2991 3307 3651 3549 3210 2876 3120 3541 3105 3213 3318 3444 3101 3087 2898 3431 3211 3322 2992 3299 3447 3117 3433 3196 3099 3328 3111 3338 3117 3436 3195 3208 3197 2964 3225 3416 3317 3541 3206 3083 3311 3306 3092 3412 3426 2752 3436 3216 3094 2860 3539 3209 3175 3326 2759 2994 2779 3337 2877 3089 3118 3204 2760 2984 3087 3116 2644 3311 2884 2778 2978 3229 3103 3325 3528 3106 3240 3641 3219 3640 3224 2887 3320 3202 2872 3108 3452 3202 2876 2770 3326 2994 3189 2986 3102 2651 3122 2989 2681 2884 3212 2764 3131 3326 3461 2562 2981 2973 2117 2979 2774 2987 2864 3228 2785 2558 3083 2101 2992 2884 2897 2769 3101 3119 2894 2439 2537 2643 2740 2531 2634 2550 2772 2327 2778 3409 3209 3007 2528 2982 2886 2770 3105 2655 2996 3212 2900 2747 2878 3323 3001 3401 2982 2675 3229 2118 3436 2645 2429 2330 2641 2559 2973 2669 3310 2786 2540 2558 2655 2774 2219 2082 2347 2994 2760 2546 3078 2445 2985 2335 3001 2543 2980 2546 2887 2972 2753 3304 3208 3297 2991 2791 3118 3320 2331 2441 2441 1351 1891 2766 2115 2559 2558 2118 2774 2013 2007 2114 1783 1877 1448 2423 2006 2654 2336 2762 3209 2116 2004 2548 1464 2660 2338 2118 3004 2986 1243 1784 2000 2119 2002 1352 1779 2116 3172 3112 3094 1887 3082 2560 2769 2656 1909 2878 2336 2333 1567 1895 1452 1896 2662 2940 2876 2880 2982 3207 2980 2567 1888 3104 1442 1676 2110 2214 1901 1235 1883 2432 1894 1565 1463 1458 1467 1920 1891 1999 1340 2006 2466 1899 2215 1791 2773 1685 2669 1034 3098 1679 3092 1356 2129 2758 2782 2332 1677 2662 2009 2653 1879 2526 2652 1569 1882 1138 1670 2337 2003 2109 2009 1901 2202 3098 2113 1891 1140 1560 1020 1903 1670 1779 1674 1566 1242 3194 2995 2002 2580 2549 1565 3106 1444 3217 2211 1029 2117 2011 1135 2000 2231 1353 1352 2761 2232 1355 1359 1896 1783 1238 2454 2114 2439 3330 1666 2437 2773 2661 1138 1780 2016

Tree=0
num_leaves=31
num_cat=0
split_feature=427 313 75 344 157 313 313 2 359 339 160 105 335 75 313 275 350 75 344 350 391 140 100 177 207 359 350 46 377 35
split_gain=1163.09 431.821 263.754 105.457 84.5555 74.8879 64.3439 62.7209 40.8065 37.581 32.8673 29.8601 28.6854 27.4799 27.2501 19.8682 19.7796 19.5741 18.1155 17.1527 16.8191 15.9982 15.924 14.6578 14.3912 14.2618 14.1158 13.732 12.3541 5.74763
threshold=1.5000000000000002 1611.1591738685872 1599.7801551482626 0.57492157730752347 1605.6152962040983 1589.5083164502196 1584.3149605651058 1700.0125734163146 -1.7723384708847669 0.19999999999999971 2.2250000000000005 12.035667533795062 -0.29847740947356211 1707.0398403102961 1726.4714335376291 7.0117839295759694 -0.4308722154603743 1607.5197138274023 1.367742172349786 0.68566328692513878 -0.6000000000000002 1.0500000000000003 2.1145825197623416 13.002522700821837 0.071308927525252461 -3.1670729080740134 -1.1068109160300112 0.38375491467596728 -0.004688383788758149 5.8592322005497932
decision_type=8 10 10 8 8 10 10 2 8 10 10 10 8 10 10 10 10 10 10 10 10 10 8 10 8 8 10 10 8 10
left_child=2 3 6 8 7 13 9 12 21 18 16 23 -3 28 20 -13 -7 -10 -1 -9 -6 -2 -12 -5 -8 -26 -11 -16 -4 -15
right_child=1 4 5 11 14 10 24 19 17 26 22 15 -14 29 27 -17 -18 -19 -20 -21 -22 -23 -24 -25 25 -27 -28 -29 -30 -31
leaf_value=0.41821821296887246 0.40024800220518125 0.4000017411241874 0.42125100110694474 0.40870237194435988 0.40840008605909456 0.4267464984895008 0.39673160853295736 0.40174134612439272 0.4187258427182689 0.42529936352031622 0.39996096780851842 0.41198934861452524 0.4070044972712748 0.42943350639961075 0.40027553383953079 0.42433083611722039 0.41864582939855527 0.42596633300460207 0.41283042738230041 0.39513162412281294 0.42073566228106563 0.41432802191505719 0.41813145449479622 0.40106548847728302 0.40230323963750891 0.41319281891695192 0.42033362298918214 0.4133693117275824 0.42739646720251856 0.43277061737834971
leaf_weight=267.74380859732628 18.679800599813461 131.47705806791782 48.136409237980843 122.61612701416016 22.272069945931435 70.647963806986809 9.818869546055792 66.097755968570709 285.22618608176708 100.10457244515419 13.6506235152483 232.77905362844467 178.65552881360054 117.34746530652046 30.175062507390976 18.200831353664398 87.172402799129486 58.194763407111168 115.67107294499874 220.80482247471809 39.99393205344677 23.708977684378624 11.495261907577513 44.304655268788338 19.158769845962524 83.10116420686245 285.46567070484161 15.805985122919081 353.47930365800858 155.90448962152004
leaf_count=1118 78 549 201 512 93 295 41 276 1191 418 57 972 746 490 126 76 364 243 483 922 167 99 48 185 80 347 1192 66 1476 651
internal_value=0.415971 0.408663 0.422313 0.414364 0.402166 0.426804 0.417941 0.400488 0.418653 0.419115 0.420348 0.410404 0.404036 0.428554 0.411418 0.412885 0.422272 0.419953 0.416593 0.396654 0.416323 0.408122 0.408268 0.406675 0.409888 0.411152 0.421623 0.404775 0.42666 0.431338
internal_weight=3247.89 1508.99 1738.9 803.71 705.282 857.834 881.064 597.035 385.81 768.985 182.966 417.901 310.133 674.868 108.247 250.98 157.82 343.421 383.415 286.903 62.266 42.3888 25.1459 166.921 112.079 102.26 385.57 45.981 401.616 273.252
internal_count=13562 6301 7261 3356 2945 3582 3679 2493 1611 3211 764 1745 1295 2818 452 1048 659 1434 1601 1198 260 177 105 697 468 427 1610 192 1677 1141
is_linear=0
shrinkage=1


Tree=1
num_leaves=32
num_cat=0
split_feature=313 89 346 344 29 356 359 29 401 401 352 338 100 313 346 359 371 313 338 415 291 136 7 189 204 202 100 346 352 313 29
split_gain=1094.14 375.234 221.63 171.513 88.4116 69.363 60.9788 56.8358 42.7033 37.6204 37.2187 32.8897 30.0401 26.8998 26.2476 23.356 22.5007 21.3431 20.6928 20.6258 18.742 18.6241 17.21 13.8834 12.9054 11.5442 10.0484 8.94528 7.62377 7.21313 2.7993
threshold=1611.1591738685872 1.7180831887059413 -0.79999999999999927 0.73710474884705779 5.1009004249596614 1.1241232653322577 -1.7723384708847669 5.924512058966303 0.16374296890983339 -0.13161909877342051 -0.11428571428571474 0.27659202786182263 1.2757837744287488 1640.1779471918624 0.59999999999999998 1.4367221449937702 0.0088359865934759512 1734.9629571707644 0.47577366119423087 0.41666666666666669 0.090123222249588367 0.098985436528405121 1.6242364606528719 5.6081164298992947 0.10282587027195021 0.29092554827478789 1.5181330297673037 -1.1928571428571422 1.5 1585.9807004601362 8.6510177150601368
decision_type=10 10 10 8 10 10 8 10 10 10 10 10 8 10 10 10 10 10 10 10 8 8 10 10 10 10 10 10 8 8 10
left_child=1 3 5 6 13 12 19 11 -8 21 15 16 24 25 -12 -5 -3 23 -15 -1 -14 -6 -11 -7 -2 -4 -13 -19 29 -9 -30
right_child=2 7 4 10 9 17 8 28 -10 22 14 26 20 18 -16 -17 -18 27 -20 -21 -22 -23 -24 -25 -26 -27 -28 -29 30 -31 -32
leaf_value=-0.014003850002261202 -0.0066911545318410317 0.0067567650001456548 0.0078990065804496572 -0.0068321558543097379 0.0037613083062941438 -0.011620505744144149 0.0033990907767120979 0.013589822304814529 0.0095090929951297306 -0.0016829201440228337 -0.0028896332966196299 -0.0083403869575399241 0.0083712767729378166 -0.0098124525373975147 0.0051664713823215622 0.0068262873919547364 0.011759101128734102 -0.023291506371201615 -0.02230933550535949 -0.0015112971189172064 -0.0088240477669584757 -0.011299306580007747 0.0086970758639276953 -0.018554426523102793 -0.017451835915665913 -0.0050559205108401412 0.0039074955956731579 -0.013633727485694185 0.017228487128033831 0.0033615402542921508 0.011018767258497011
leaf_weight=26.607881188392639 17.2856365442276 254.44231966137886 10.312867939472197 344.67612461745739 16.533460915088654 58.357065737247467 666.38204137980938 135.67625945806503 190.36929319798946 27.077252611517906 174.91008542478085 17.96451361477375 8.6309712380170804 101.2517449259758 74.702491372823715 17.00025449693203 214.62497644126415 115.87232787907124 20.656910866498947 47.924672767519951 164.62032699584961 29.732289984822273 87.350503757596016 104.23788867890835 87.693960845470428 64.982493549585342 16.75037145614624 13.938012316823004 117.4864065349102 9.5652619451284391 10.268669635057448
leaf_count=111 72 1064 43 1438 69 243 2785 568 796 113 730 75 36 422 312 71 898 482 86 200 686 124 365 434 365 271 70 58 492 40 43
internal_value=-0.00010621 0.00407189 -0.0105426 0.000824558 -0.00352389 -0.0149445 0.0038981 0.0105206 0.00475679 0.00274008 -0.00385785 0.00825491 -0.0108777 -0.00862831 -0.000478476 -0.00619001 0.00904574 -0.018814 -0.0119307 -0.00597188 -0.0079671 -0.00591652 0.00624052 -0.0160662 -0.0156805 -0.00328086 -0.00242965 -0.0222551 0.0147013 0.0129165 0.0167299
internal_weight=3247.89 2319.35 928.534 1542.57 357.898 570.636 931.284 776.779 856.751 160.694 611.289 503.782 278.231 197.204 249.613 361.676 469.067 292.405 121.909 74.5326 173.251 46.2658 114.428 162.595 104.98 75.2954 34.7149 129.81 272.997 145.242 127.755
internal_count=13562 9693 3869 6443 1493 2376 3892 3250 3581 671 2551 2107 1159 822 1042 1509 1962 1217 508 311 722 193 478 677 437 314 145 540 1143 608 535
is_linear=0
shrinkage=0.011377


Tree=2
num_leaves=31
num_cat=0
split_feature=347 229 157 344 356 229 347 157 2 287 343 335 338 157 2 157 348 157 59 388 2 401 347 103 219 353 310 204 309 157
split_gain=1207.48 377.492 279.788 84.7505 74.4597 70.5942 46.255 38.1103 33.3857 31.2132 30.6379 28.6227 28.1241 26.5858 25.4925 23.6505 21.4889 18.3346 17.3045 17.2815 16.3217 16.0946 15.1606 14.7478 13.1918 11.4166 11.3655 10.6521 10.1655 7.02375
threshold=-0.18083031121155052 1638.1266755724798 1596.4368521480849 0.61241615867843724 1.1241232653322577 1554.6496388112862 1.4180222617345206 1495.0010142361509 1710.0595749986269 0.12156315060976061 -0.99999999999999944 -0.017030041988018895 -0.34906902882720819 1574.8384973117493 1571.5387464975468 1603.964037108982 1.6000000000000003 1556.1262528170544 1.4132803185622873 1.0125000000000006 1508.5916764729016 -0.013323656832249849 -1.1307340366797902 10.450000000000001 2.1393987661333846 0.35914192961912678 0.6112513581725304 0.14389344455498268 0.61263347763347775 1624.9676762386082
decision_type=10 10 10 8 8 10 10 10 2 10 10 8 8 8 2 8 8 10 8 10 2 10 10 10 10 10 10 10 10 10
left_child=1 3 5 9 12 11 8 20 21 16 18 24 -3 22 -9 -14 -1 -13 -7 -12 -5 -4 -6 -11 -2 28 -10 -15 -8 -27
right_child=2 4 6 7 13 10 25 14 26 23 19 17 15 27 -16 -17 -18 -19 -20 -21 -22 -23 -24 -25 -26 29 -28 -29 -30 -31
leaf_value=0.0029350460088746195 -0.010660483681900961 0.0097142621535103394 0.0056506848589844569 -0.005097281743045151 -0.021241979782346661 -0.0043588554791121996 0.0031810176855842139 -0.00037153443875398841 -0.013853085111845737 -0.015808906408984868 -0.0042985260263310975 0.0034838272820926584 -0.01298991665594206 -0.0077947317942231257 -0.0074874417049673398 -0.00545464711826969 -0.0082304511111555272 0.0081345680322138514 0.0081189507312574311 -0.013018378325077441 -0.011844475157744007 0.010641945805256764 -0.013749516551308752 -0.0032980805459296874 5.9904539634304731e-05 0.0096188534851236566 0.0019637157346344544 -0.019944206594300927 0.012302898532087153 0.01509419982219592
leaf_weight=328.22824992239475 17.717614099383354 8.6351147741079313 119.44897021353245 67.656029999256134 212.28769278526306 24.444933533668518 21.942785635590553 158.00345255434513 10.066662296652796 16.055687993764877 107.21313579380512 431.25817434489727 217.12206211686134 36.829026237130165 110.91668955981731 71.756273910403252 23.934426978230476 147.19114458560944 34.946129187941551 40.556151866912842 147.94991402328014 279.17065557837486 41.905812874436378 50.771432846784592 91.932669088244438 33.642999425530434 14.127422183752058 12.525516912341116 56.737216964364052 312.77424892783165
leaf_count=1372 74 36 500 282 880 102 92 659 42 67 447 1803 902 153 462 299 100 616 146 169 616 1170 174 212 384 141 59 52 238 1313
internal_value=-0.000104887 -0.0075718 0.00633998 -0.00292372 -0.0145587 0.0019041 0.0110235 -0.00616394 0.00835878 0.000823252 -0.00391831 0.00365707 -0.0105135 -0.0185232 -0.00330668 -0.0111184 0.00217604 0.00466734 0.00298256 -0.00669215 -0.00972749 0.00914642 -0.0200071 -0.00630488 -0.00167215 0.0136738 -0.00461639 -0.0108796 0.00975957 0.0145626
internal_weight=3247.75 1504.58 1743.17 903.516 601.061 895.26 847.911 484.526 422.814 418.99 207.16 688.1 297.513 303.548 268.92 288.878 352.163 578.449 59.3911 147.769 215.606 398.62 254.194 66.8271 109.65 425.097 24.1941 49.3545 78.68 346.417
internal_count=13562 6266 7296 3770 2496 3741 3555 2019 1771 1751 864 2877 1237 1259 1121 1201 1472 2419 248 616 898 1670 1054 279 458 1784 101 205 330 1454
is_linear=0
shrinkage=0.011377


Tree=3
num_leaves=32
num_cat=0
split_feature=341 313 75 75 350 313 2 75 377 75 350 316 313 327 313 341 350 88 316 320 269 420 1 244 14 260 386 377 272 67 168
split_gain=1100.3 429.69 247.547 105.532 88.3665 61.8264 49.1861 37.3292 34.326 31.6815 30.7986 29.1015 25.3756 25.1829 23.7059 23.3164 21.1195 20.1246 19.9116 17.9769 17.9203 17.392 16.0569 14.7183 14.3604 16.8391 11.4785 11.3475 10.3824 9.66049 8.1292
threshold=-0.055829473384251892 1611.1591738685872 1599.7801551482626 1579.0924619506125 0.10249079270812221 1584.3149605651058 1664.3755311022817 1589.277325677303 -0.0086958044839496474 1551.1070001530904 0.99593921430645638 -0.21666666666666656 1612.6128683866634 -0.039698599999999744 1556.7251096419407 -1.5936775874188827 -0.34390119088431831 1.0500000000000003 -1.1999999999999995 -0.035854464147859248 4.3454598676853067 -5.4999999999999991 1692.347294410072 1.4933592685484356 0.70833333333333337 9.3172189740514302 -0.76106639587853586 0.0089008179596112031 4.816290990934438 0.63648809523809546 0.36666666666666675
decision_type=10 10 10 10 8 10 2 10 8 10 10 10 10 8 10 10 8 10 8 10 10 10 2 10 10 10 8 8 10 10 10
left_child=1 4 5 6 7 10 16 14 24 15 13 23 22 -2 -1 -6 -3 -12 -8 -14 -13 26 -10 -5 25 -4 -7 -11 -23 -26 -9
right_child=2 3 8 11 9 21 18 30 12 27 17 20 19 -15 -16 -17 -18 -19 -20 -21 -22 28 -24 -25 29 -27 -28 -29 -30 -31 -32
leaf_value=0.0022314808765252002 -0.00046964007044262223 -0.00070693681690117444 0.016194161515651 -0.0010302550600006742 -0.0083582841623735735 -0.014067987793867141 -0.021242489474191734 -0.001684610891992285 0.010904610244348856 -0.0044650025018675918 -0.010549784574942558 -0.0048290195509558638 0.010580726052066161 0.0056395533815198733 -0.0053449763181869633 -0.0028586326905406492 -0.012215000026819455 0.0008338856636589206 -0.015814276528169007 -0.00019478551078890688 0.0060676083631811331 -0.0077133049464455641 0.014550606886103042 -0.011883435508137705 0.0044172424114519403 0.0033113599689252107 -0.0018634209808133539 0.0040459938401537984 -0.023368467022758393 -0.01122832894730966 0.010104087547093422
leaf_weight=262.93236170709133 107.18554297089577 23.584003046154976 18.333470225334167 20.427574813365936 232.50722110271454 11.318160861730574 142.80060261487961 8.3500192016363126 307.75630190968513 29.705717533826828 27.801710426807404 48.257854670286179 47.455135315656662 471.34399719536304 67.091093719005585 174.84632609784603 165.84057518839836 72.539265766739845 226.19566962122917 34.67556993663311 32.817982688546181 12.748792394995691 318.19541622698307 77.811521112918854 9.5389777719974536 46.327714622020721 84.041489198803902 63.85478113591671 9.6377091258764249 10.987712398171423 80.568845078349113
leaf_count=1099 448 98 77 85 968 47 590 35 1293 124 116 201 199 1973 280 729 688 303 936 145 137 53 1340 323 40 194 350 267 40 46 338
internal_value=-0.000103585 -0.00658927 0.00665827 -0.0130574 -0.00140171 0.00217838 -0.0154958 0.00245405 0.011157 -0.00462657 0.0034984 -0.00546344 0.0119779 0.00450763 0.000691108 -0.00599782 -0.0107824 -0.00231999 -0.0179152 0.00603096 -0.000417754 -0.0054319 0.0127581 -0.00962711 0.00433303 0.00696504 -0.00331265 0.00134328 -0.0144564 -0.0039561 0.00899661
internal_weight=3247.48 1657.59 1589.89 737.736 919.856 796.617 558.421 418.942 793.27 500.914 678.871 179.315 708.082 578.53 330.023 407.354 189.425 100.341 368.996 82.1307 81.0758 117.746 625.952 98.2391 85.1879 64.6612 95.3597 93.5605 22.3865 20.5267 88.9189
internal_count=13562 6898 6664 3058 3840 3330 2312 1752 3334 2088 2840 746 2977 2421 1379 1697 786 419 1526 344 338 490 2633 408 357 271 397 391 93 86 373
is_linear=0
shrinkage=0.011377


Tree=4
num_leaves=32
num_cat=0
split_feature=347 157 347 359 343 329 275 347 427 427 320 424 424 362 275 343 325 244 401 320 134 287 325 353 366 347 260 63 402 38 157
split_gain=1155.13 269.649 243.728 118.809 62.7508 55.4606 46.4455 45.0367 40.7628 35.6775 35.6743 26.3486 25.526 25.1785 23.2996 21.9538 21.2718 19.0662 16.4618 16.1518 13.4483 12.8573 12.0671 11.2529 10.7244 9.84825 9.76038 9.54065 9.51034 8.02354 6.88067
threshold=-0.18083031121155052 1596.4368521480849 -1.8315084646750568 -1.8165888729651505 -0.20000000000000012 -0.085853143026728834 4.5024190414108753 1.4180222617345206 -1.0000000180025095e-35 2.5000000000000004 -0.27404168961204217 1.5000000000000002 5.5000000000000009 0.18463404326754992 6.4666246018819864 0.21666666666666765 -0.22361111111111101 1.3776148193850628 -0.013323656832249849 -0.46481131698041533 0.086624954251335762 0.12132615173425422 -0.10555555555555554 0.35914192961912678 0.034186369186369157 2.1484096690049772 12.331930274494432 3.5500000000000003 -0.25878508847625697 5.2831056535066443 1624.9676762386082
decision_type=10 10 8 8 8 8 8 10 8 8 10 8 10 10 8 8 10 10 10 10 10 10 10 10 10 10 8 10 10 10 10
left_child=2 5 6 9 21 13 22 12 -6 19 25 14 18 27 -8 -12 -15 -11 -3 -4 -13 -5 28 26 -14 -7 -9 -2 -1 -24 -25
right_child=1 7 3 4 8 10 11 23 -10 17 15 20 24 16 -16 -17 -18 -19 -20 -21 -22 -23 29 30 -26 -27 -28 -29 -30 -31 -32
leaf_value=-0.017598525511766362 -0.0021854895156070823 0.005372463990881554 0.0057997726243028116 0.0027149626244673199 0.00017225240238650372 0.0064215636486256306 -0.0098676072922684564 0.011158752057973322 -0.0068539201757210439 -0.0095722713417594769 0.0036572746413334619 -0.019016475414282571 0.0036445012272473677 0.0056837258901906579 0.0042463252295590545 -0.00090918391443643113 -0.011960327233479291 -0.016614645627261535 0.01045405026871081 -0.0070714542648771103 -0.010168011555642143 -0.0038187188164375669 -0.017564969912451572 0.0094388379506836085 -0.010803474177166053 0.017613258609085018 -0.00053550380253976977 0.008093962197411049 -0.002484527139639888 -0.022559706553867038 0.014870141820004347
leaf_weight=12.607838720083238 44.794802889227867 117.71753254532814 15.588461592793463 254.71835345029831 150.52339915931225 203.97953478991985 102.2675266712904 67.615506798028946 368.4979891628027 88.728385135531425 289.48260018229485 60.794227957725525 15.767404153943064 10.310552656650541 17.764677941799164 257.4587480276823 62.030265316367149 113.44563123583794 276.29495938122272 66.164262428879738 35.10289566218853 46.023023128509521 82.193168058991432 33.501028299331665 11.494360163807867 10.715067163109778 10.692504346370695 15.80911974608898 9.4230944067239744 84.743502467870712 310.82260356843472
leaf_count=52 187 494 65 1065 628 855 424 285 1531 368 1212 251 66 43 74 1075 258 469 1163 275 145 192 339 141 48 45 45 66 39 349 1313
internal_value=-0.000102305 0.00621886 -0.00738681 -0.00461696 -0.00242009 0.00186689 -0.0149368 0.0108321 -0.00481617 -0.0109596 0.00305044 -0.0113315 0.00819931 -0.00491326 -0.0077784 0.00150767 -0.00944494 -0.0135243 0.00893598 -0.00461664 -0.0157782 0.00171495 -0.0190562 0.0134563 -0.00244616 0.00698047 0.00956151 0.000495566 -0.0111366 -0.020101 0.0143419
internal_weight=3247.07 1738.49 1508.59 1103.69 819.763 894.581 404.897 843.906 519.021 283.927 761.636 215.929 421.274 132.945 120.032 546.941 72.3408 202.174 394.012 81.7527 95.8971 300.741 188.968 422.632 27.2618 214.695 78.308 60.6039 22.0309 166.937 344.324
internal_count=13562 7296 6266 4593 3416 3741 1673 3555 2159 1177 3187 894 1771 554 498 2287 301 837 1657 340 396 1257 779 1784 114 900 330 253 91 688 1454
is_linear=0
shrinkage=0.011377


Tree=5
num_leaves=31
num_cat=0
split_feature=3 3 3 263 344 345 335 327 356 3 343 344 172 285 21 47 35 249 320 337 279 194 3 21 130 296 355 403 69 280
split_gain=1527.7 297.649 234.903 62.9585 56.9218 33.7082 30.9046 28.596 28.3021 24.9067 19.834 18.9651 17.1738 16.7054 16.2681 14.133 14.03 13.0939 11.5156 10.8642 10.2794 9.24738 9.1436 8.8181 8.81577 9.98264 9.41656 7.21311 4.21587 0.99788
threshold=-42.705191247099371 120.52559837110608 -174.37746936163452 13.702504263922028 0.028921001212079706 0.48333333333333345 0.05814548664186741 -0.45839679999999966 1.0664043944261505 203.18497832383352 3.1000000000000014 0.6729571758435543 1.6275519000000001 0.35545693386963534 13.900000000000002 0.43054875679875687 5.5358910357516349 1.0000000180025095e-35 -0.54842592919690181 0.075002549999999862 6.611843839662094 3.1055555555555561 330.25227498129101 11.225000000000001 0.47210724458250175 1.2250000000000003 1.6944444444444444 0.17091736348752917 0.84681818181818214 0.4483549783549784
decision_type=2 2 2 10 8 10 10 8 10 2 8 8 10 10 10 10 10 10 10 10 10 8 2 10 8 8 10 8 10 8
left_child=2 4 8 5 14 10 12 13 20 17 -4 -9 -6 -5 18 -8 -7 -3 -2 -19 27 -16 28 -22 25 -10 -26 -1 -11 -24
right_child=1 9 3 7 6 16 15 11 24 22 -12 -13 -14 -15 21 -17 -18 19 -20 -21 23 -23 29 -25 26 -27 -28 -29 -30 -31
leaf_value=-0.015373717466145013 0.0073488600365926911 -0.0024596039054219326 -0.0085471241938406776 -0.0049802652040895189 -0.00065091896077176456 -0.0050718553776412795 0.0055592088416901988 0.0018170755245508496 -0.013767395466196514 0.01348827022529186 -0.013777446795391788 -0.0046092751335967989 -0.00825369742004331 -0.017338946289403984 -0.0038972237244404833 -0.0052694252537592188 0.005828620238753658 0.01100160627115376 0.0030582409150103256 0.0046304353687719136 0.0031646749341604731 0.0081747670642138802 0.018363833250522262 -0.012470908562417581 -0.0032033501793541489 -0.020975681245961979 -0.01817883891101121 -0.0079521388365345145 0.0054456719967556164 0.014861946189597415
leaf_weight=126.59793521463871 100.10123623907566 10.731094494462011 267.69612669944763 39.237216487526894 388.4647118896246 65.618642047047615 146.17252540588379 147.82539291679859 28.411833435297012 253.23434008657932 144.58908705413342 99.409453764557838 42.683256283402443 22.159882977604866 8.5686073750257474 17.459372073411942 19.919336542487144 312.43890450894833 424.01043747365475 38.992736384272575 8.4672824740409869 195.15696543455124 61.049899280071259 10.394806280732153 8.5092740356922167 202.26330815255642 15.078978002071379 19.606306701898575 8.7478043735027295 12.968736380338667
leaf_count=522 420 45 1110 163 1621 273 612 617 117 1072 598 413 178 92 36 73 83 1318 1777 164 35 820 259 43 35 831 62 81 37 55
internal_value=-0.000101049 0.00597726 -0.0101215 -0.00653011 0.00280485 -0.00903307 0.000193879 -0.00249269 -0.0170284 0.0119871 -0.0103816 -0.000766728 -0.00140371 -0.00944192 0.00493844 0.00440352 -0.00253292 0.0099168 0.00387782 0.0102948 -0.0133589 0.0076668 0.0142184 -0.00545043 -0.0194103 -0.0200882 -0.0127789 -0.0143789 0.0132199 0.0177512
internal_weight=3246.57 2020.78 1225.78 806.455 1322.62 497.823 594.78 308.632 419.33 698.164 412.285 247.235 431.148 61.3971 727.837 163.632 85.538 362.163 524.112 351.432 165.066 203.726 336.001 18.8621 254.263 230.675 23.5883 146.204 261.982 74.0186
internal_count=13562 8487 5075 3349 5537 2064 2484 1285 1726 2950 1708 1030 1799 255 3053 685 356 1527 2197 1482 681 856 1423 78 1045 948 97 603 1109 314
is_linear=0
shrinkage=0.011377


Tree=6
num_leaves=32
num_cat=0
split_feature=3 3 3 263 3 346 389 362 340 356 349 359 347 137 356 80 23 175 3 242 347 172 3 46 165 99 3 46 319 289 61
split_gain=1492.24 292.518 228.381 61.331 42.9857 34.4913 34.0454 30.5309 29.7426 27.4651 23.2464 22.2695 18.7314 18.7114 18.2429 17.4054 15.464 14.1819 14.1818 11.4071 10.7942 9.94243 9.78691 9.28463 10.3634 8.93968 8.19468 8.3149 7.30009 5.58891 0.872029
threshold=-42.705191247099371 94.009007139909855 -174.37746936163452 13.702504263922028 196.59505120573681 0.099999999999999825 0.64639563390363863 0.2662225645184671 -0.30000000000000021 1.0664043944261505 0.79999999999999949 2.4064794656781889 -1.7944571003125418 10.991023039762171 1.7467426247446929 1.0825451572536215 10.572074484482577 12.100000000000001 10.21945582572039 1.5500000000000003 0.37154484165678997 0.81944550000000016 330.25227498129101 0.28843010239348449 0.36666666666666675 1.5374119000000002 -197.65886133810554 0.37021614445813539 0.030952380952380901 0.083085938140104662 3.354166666666667
decision_type=2 2 2 10 2 10 8 10 10 10 10 8 10 8 8 8 10 8 2 10 10 10 2 8 10 8 2 10 10 8 10
left_child=2 6 9 5 11 12 7 18 15 23 -7 21 -4 17 -13 -5 -15 -8 -2 -9 -10 -3 29 25 -25 -1 28 -28 -11 -6 -24
right_child=1 4 3 8 22 10 13 19 20 26 -12 14 -14 16 -16 -17 -18 -19 -20 -21 -22 -23 30 24 -26 -27 27 -29 -30 -31 -32
leaf_value=-0.012558382784844753 0.0022106401982792422 -0.0032629547861270027 -0.014678882169208311 -0.0083137601951141955 0.0045668700932885581 0.0017949162164250362 0.0069870423912673585 0.00052468661350404337 -0.00082405128430867427 -0.014243268324373021 -0.0089135409103848415 0.011444232778125351 -0.0090013599111073983 -0.0088763541744177419 -0.0023974505662640571 -0.0012500926914587878 -0.0014134338576659911 -0.0020574218755736702 0.0055204215686378037 -0.0064643014652826245 0.0060746303969584463 0.0066438257973309676 0.01806698833242467 -0.0028955044961714955 -0.015083910373241053 0.0018386248124202316 -0.020147386002662998 -0.0097323912591470284 -0.020776435121035872 0.013274655995387078 0.014101305029543255
leaf_weight=13.124975427985193 268.63007490336895 14.025422587990759 101.41272346675396 107.43196293711662 9.8989885449409467 56.907869309186935 47.874290466308594 139.70420618355274 75.339527934789658 25.13147634267807 48.680379629135132 277.83354596793652 291.64260496199131 51.412911832332611 12.891309499740599 77.91285052895546 119.45272019505501 42.226620137691498 445.63212107121944 38.568982794880867 48.089727580547333 200.10419170558453 65.479814007878304 9.6973714083433133 132.91358330845833 9.705435171723364 18.023513808846474 22.138584971427917 189.75080919265747 276.04682029783726 8.2201253920793516
leaf_count=54 1124 59 418 446 42 237 200 584 314 103 202 1174 1207 214 54 324 499 176 1871 161 201 843 279 40 547 40 74 91 777 1172 35
internal_value=-9.98074e-05 0.00591749 -0.00998898 -0.00644805 0.010921 -0.00891551 0.00216755 0.00322445 -0.00246316 -0.0167881 -0.00314183 0.00877946 -0.0104664 -0.00144702 0.0108303 -0.00534468 -0.00365931 0.0027479 0.00427569 -0.00098721 0.00186352 0.00599473 0.0139269 -0.0131768 -0.0142554 -0.0064368 -0.0191304 -0.0144081 -0.0200127 0.0129734 0.0176256
internal_weight=3245.91 2018 1227.9 807.418 864.5 498.644 1153.5 892.535 308.774 420.486 105.588 504.854 393.055 260.967 290.725 185.345 170.866 90.1009 714.262 178.273 123.429 214.13 359.646 165.441 142.611 22.8304 255.044 40.1621 214.882 285.946 73.6999
internal_count=13562 8487 5075 3349 3658 2064 4829 3740 1285 1726 439 2130 1625 1089 1228 770 713 376 2995 745 515 902 1528 681 587 94 1045 165 880 1214 314
is_linear=0
shrinkage=0.011377


Tree=7
num_leaves=31
num_cat=0
split_feature=3 3 3 263 335 389 347 361 3 389 355 317 183 26 105 343 1 275 322 249 178 263 331 198 414 3 323 289 67 310
split_gain=1457.71 287.516 222.129 59.755 42.7317 38.8462 31.9515 31.7722 24.1933 23.9281 21.3169 20.7143 20.5708 19.4602 17.8169 17.3563 14.2708 14.1695 13.0967 12.8196 12.5786 11.7986 11.756 11.4938 10.5921 8.93699 8.85495 5.06888 4.70479 0.867096
threshold=-42.705191247099371 120.52559837110608 -174.37746936163452 13.702504263922028 0.028699172865386355 0.64639563390363863 -1.5978619641090344 -0.29999999999999932 203.18497832383352 -0.25954129476880466 0.82777777777777806 -0.4531331289421634 3.3610437188791691 12.908274415405495 12.035667533795062 -0.99999999999999944 1571.5037630933778 5.280423233207153 -0.10714285714285714 1.0000000180025095e-35 12.633333333333335 12.216604495041967 0.2851766 0.34972447143499769 -1.8749999999999998 330.25227498129101 -0.6030479656246065 0.083085938140104662 0.76335858585858596 0.5743043526338063
decision_type=2 2 2 10 8 8 10 10 2 8 10 10 10 10 8 8 2 8 10 10 10 10 10 10 8 2 10 8 10 10
left_child=2 4 10 6 13 16 9 15 19 -4 18 -7 -9 21 -8 -5 -6 -15 23 -3 -20 -2 -21 -1 28 27 -26 -10 -12 -27
right_child=1 8 3 7 5 11 14 12 25 -11 24 -13 -14 17 -16 -17 -18 -19 20 22 -22 -23 -24 -25 26 29 -28 -29 -30 -31
leaf_value=-0.022755398886364044 -0.0022926900575454801 -0.0025088435561055698 -0.0019945198994722889 0.0041380378102659895 0.0039344385033459432 -0.012817902405777525 -0.010922751609986502 0.0040298538127547367 0.0046937820536172258 -0.015793651497670702 -0.022788843300185175 0.0006653479248836014 -0.0093957742385279621 -0.0079665982666168849 -0.0054873987053272776 -0.0026637296827609317 0.0071571703746200668 -0.0010174931719645888 -0.010884162196929028 0.010583622553179515 0.0047165760739225869 0.0035395789807026608 0.00077513490256193537 -0.013417866374063647 -0.020758530412881827 0.013982074867292775 -0.015204279789571057 0.013308282450971281 -0.015741220933686486 0.017944155617253453
leaf_weight=20.944281131029129 62.777136847376823 10.720959722995756 19.151199266314507 86.260818541049957 425.49639861285686 16.090504854917526 111.48898461461067 17.51933778822422 9.1812404841184598 108.20700697600842 76.173601374030113 176.50833503901958 94.037535920739174 55.253894165158272 260.58186182379723 111.09541428089142 305.70866817235947 121.53084047138691 31.38544163107872 333.21790264546871 8.4963833391666395 157.56615221500397 16.614069908857346 92.587114185094833 53.141818180680275 8.1885687708854658 124.15268164873123 251.15398043394089 14.686444401741026 65.185541823506355
leaf_count=86 262 45 79 360 1785 67 461 73 39 445 311 738 390 230 1079 462 1288 507 129 1412 35 660 70 380 217 35 508 1070 60 279
internal_value=-9.85863e-05 0.00585841 -0.00985909 -0.00636733 0.00274289 0.00408454 -0.00880012 -0.00243401 0.011786 -0.013719 -0.0165543 -0.00046103 -0.00728698 -0.000377981 -0.00711623 0.000309018 0.0052819 -0.00318972 -0.0131706 0.00974235 -0.00755956 0.00187775 0.0101179 -0.0151412 -0.0184898 0.0139939 -0.0168695 0.0130047 -0.0216505 0.0175029
internal_weight=3245.1 2015.19 1229.91 808.342 1320.93 923.804 499.429 308.913 694.262 127.358 421.568 192.599 111.557 397.128 372.071 197.356 731.205 176.785 153.413 360.553 39.8818 220.343 349.832 113.531 268.155 333.709 177.294 260.335 90.86 73.3741
internal_count=13562 8487 5075 3349 5537 3878 2064 1285 2950 524 1726 805 463 1659 1540 822 3073 737 630 1527 164 922 1482 466 1096 1423 725 1109 371 314
is_linear=0
shrinkage=0.011377


Tree=8
num_leaves=32
num_cat=0
split_feature=341 317 1 343 180 317 171 316 317 114 359 1 414 185 415 356 161 342 9 359 358 407 359 343 291 353 426 332 324 40 383
split_gain=991.836 271.643 220.525 108.708 79.1154 45.6757 41.7166 33.8482 29.0225 28.8928 28.7349 26.6829 26.0152 24.1687 22.9948 20.1634 19.3325 21.5524 18.9728 17.7181 17.017 15.7221 14.1487 12.9509 12.8072 11.7469 11.6016 11.336 10.5441 9.64179 3.81939
threshold=-0.055829473384251892 -0.48565939110002093 1602.4602862557706 0.79999999999999949 11.138913863323147 -0.19129211014698969 1.2746903500000004 -1.3749999999999998 0.38397903993921351 4.3155868500099137 -1.8894652253633668 1648.8834703514319 -0.58333333333333315 3.8166666666666669 0.29166666666666669 1.4791096217743296 1.9605669198765918 1.1500000000000006 1.6833333333333336 0.8703414765555727 -2.3944444444444435 -0.13544417375245069 -1.6518899324703231 -3.7999999999999998 0.089910383786194606 0.055517057603666306 6.5000000000000009 0.3295848145854765 0.4333333333333334 6.3166666666666673 0.60581744621296096
decision_type=10 8 2 8 10 8 10 10 10 10 8 2 8 10 8 10 10 10 10 10 10 10 8 10 8 10 8 10 10 10 10
left_child=1 4 6 10 15 22 13 26 16 -9 21 -12 29 19 -7 24 28 -18 -15 -2 -14 -3 -5 30 -1 -17 -6 -25 -4 -8 -10
right_child=2 3 8 5 7 14 12 9 23 -11 11 -13 20 18 -16 25 17 -19 -20 -21 -22 -23 -24 27 -26 -27 -28 -29 -30 -31 -32
leaf_value=-0.0018244926626082251 -0.0047471270880271501 -0.012418234594568369 0.0095473384040017806 -0.014550507247551494 -0.0058004877573437199 -0.007883665164969517 -0.0079368756602589182 -0.0021645139257800402 0.015089913472603109 -0.0098682420702369492 0.0014855105110092126 0.0099548105606490217 -0.013634447314669647 0.0058608760344719497 -0.0014807470609636264 -0.018565624840223394 0.0049903033929746222 -0.015185236740769154 0.0014732109960222384 0.0061824489859270398 0.001265485195851518 -0.00085793766477209666 -0.0080990624477539856 0.011250189944511619 -0.013398141885016 -0.0073475713872833493 -0.020516409450563513 -0.0016768867240958716 0.00049157809748848777 -0.020949288421222848 0.0077862888198040716
leaf_weight=13.353635162115095 71.486315950751305 25.856361165642738 188.96294495463371 69.339219555258751 8.9866044968366605 105.60065422952175 31.392990052700043 131.9873358309269 167.86389034986496 120.6167676448822 348.77191239595413 55.863989025354385 11.092985630035399 363.18588615953922 232.36891879141331 181.16055136919022 25.717975407838821 9.3406073153018934 196.66503793001175 26.243178322911263 93.772263556718826 37.059453323483467 120.5867787450552 346.20306424796581 170.47914315760136 12.962120577692984 30.509416237473488 9.0031723976135236 18.259830594062805 9.6407371163368207 9.8404537588357908
leaf_count=55 298 107 801 285 37 437 130 547 718 498 1460 236 46 1526 967 739 108 39 824 110 392 154 499 1475 699 53 125 38 77 40 42
internal_value=-9.73868e-05 -0.00622189 0.00636396 -0.00245217 -0.0118222 -0.00599045 0.00218722 -0.00737492 0.010693 -0.0058432 0.00154269 0.00265492 -0.00331618 0.00340834 -0.00348153 -0.015259 0.0074277 -0.000384545 0.00431965 -0.00181176 -0.00031056 -0.00560971 -0.0104547 0.0121775 -0.0125577 -0.0178168 -0.0171695 0.0109224 0.00874957 -0.010996 0.0146858
internal_weight=3244.17 1665.5 1578.67 995.447 670.056 527.896 803.479 292.1 775.192 252.604 467.552 404.636 145.899 657.58 337.97 377.955 242.281 35.0586 559.851 97.7295 104.865 62.9158 189.926 532.911 183.833 194.123 39.496 355.206 207.223 41.0337 177.704
internal_count=13562 6898 6664 4145 2753 2188 3366 1207 3298 1045 1957 1696 608 2758 1404 1546 1025 147 2350 408 438 261 784 2273 754 792 162 1513 878 170 760
is_linear=0
shrinkage=0.011377


Tree=9
num_leaves=31
num_cat=0
split_feature=427 346 346 359 343 343 359 417 252 356 414 414 161 386 97 345 349 166 195 427 119 223 359 125 427 269 334 356 255 195
split_gain=955.455 291.398 153.092 107.569 79.9692 63.2996 63.2234 38.521 32.5364 32.2938 31.4061 30.6933 26.4046 21.9154 19.1811 18.2469 17.6983 17.6072 17.0796 15.7271 15.541 14.4167 13.9029 13.7591 12.2797 11.9472 11.8693 11.8622 10.808 10.5073
threshold=-1.0000000180025095e-35 -1.3111111111111111 1.0166666666666671 -1.5353549357234828 -0.70000000000000051 1.9000000000000015 -0.45378228074389948 6.5000000000000009 0.47222222222222227 0.5614676934880537 -1.4166666666666663 -0.70833333333333315 1.782695677320675 -0.37003171028838261 0.95000000000000007 0.80000000000000004 -0.59999999999999976 1.0500000000000003 5.366666666666668 -11.499999999999998 4.354166666666667 0.60970695970696009 0.6277308637733291 0.21421740626074989 -6.4999999999999991 4.3060306624075162 -0.18724524999999989 1.8090787487106725 1.6075895000000002 4.9000000000000012
decision_type=8 10 10 8 10 10 8 10 10 10 8 8 10 10 8 10 10 10 8 10 10 10 8 10 8 10 10 10 10 8
left_child=2 5 6 8 16 11 13 22 26 19 -6 17 18 -1 -10 -15 -5 -2 -7 -8 29 -22 25 -13 -11 -4 -3 -14 -24 -9
right_child=1 3 7 4 10 12 9 20 14 24 -12 23 27 15 -16 -17 -18 -19 -20 -21 21 -23 28 -25 -26 -27 -28 -29 -30 -31
leaf_value=-0.017530875239836673 -0.0086194416168065436 -0.018552795998810309 -0.0061743485434992799 0.0067922696642082284 -0.010817870143027328 -0.016023783777621269 0.012194129598881004 0.00033777853428271692 -0.0048798278973757256 0.0052307503040829439 -0.0021355019252730623 -0.016491414307312935 -0.015064751465015749 -0.0027737530294591811 -0.01725914183598375 0.0071251169807785208 0.0012470085506810873 -0.017595574706074844 -0.0075456728702976289 0.0058140917835381705 0.0099893075341422211 0.0013825568479500984 0.01341235062825589 -0.0026635613238057544 -0.0010866938701555129 0.0099054091032152111 -0.0092949088272250603 -0.020337067973441224 0.00022073697378260587 0.011478650811036405
leaf_weight=11.391397029161451 77.54007725417614 49.570599779486656 8.7563000470399874 159.81929711997509 60.300388142466545 54.686782509088516 56.1405408680439 12.535454288125036 145.35071410238743 58.658977389335632 510.25350667536259 10.163491725921629 106.83695687353611 159.84834030270576 18.235627248883247 28.379623204469681 139.58438467979431 44.564573049545288 70.363596469163895 459.06390616297722 36.189399898052216 82.925323471426964 401.07131680846214 111.42454014718533 124.01312379539013 18.845333278179169 28.122974798083305 114.67320166528225 8.2096323072910291 87.442395836114883
leaf_count=47 319 203 37 673 249 224 239 53 600 247 2123 42 436 667 75 119 585 182 289 1935 153 350 1717 461 519 80 116 466 35 371
internal_value=3.96393e-05 -0.00585012 0.00649061 -0.00241864 -0.000554443 -0.0123103 0.00343715 0.0106682 -0.00913998 0.00505213 -0.00305322 -0.0078668 -0.0154346 -0.00220869 -0.00626024 -0.00128101 0.00420718 -0.011896 -0.0112538 0.00650943 0.00677458 0.00399791 0.0126207 -0.00382001 0.000941768 0.00480282 -0.0152025 -0.0177945 0.0131478 0.0100822
internal_weight=3254.96 1701.49 1553.47 1111.24 869.958 590.253 897.496 655.975 241.28 697.877 570.554 243.693 346.561 199.619 163.586 188.228 299.404 122.105 125.05 515.204 219.093 119.115 436.883 121.588 182.672 27.6016 77.6936 221.51 409.281 99.9779
internal_count=13612 7043 6569 4624 3630 2419 3773 2796 994 2940 2372 1004 1415 833 675 786 1258 501 513 2174 927 503 1869 503 766 117 319 902 1752 424
is_linear=0
shrinkage=0.011377


Tree=10
num_leaves=32
num_cat=0
split_feature=341 313 417 344 317 317 344 317 414 422 89 317 329 320 122 22 306 59 341 262 120 137 355 320 320 48 329 390 128 127 392
split_gain=939.899 375.268 161.656 92.6564 54.8684 51.4461 43.5994 37.9952 30.9678 29.6094 27.9791 24.6453 23.9079 22.7782 22.4382 22.3148 21.6304 21.535 21.4936 19.8421 18.8959 17.0337 14.7521 13.8148 13.3554 11.0023 10.0138 9.73768 7.57156 7.09392 5.36481
threshold=-0.055829473384251892 1638.4381332752225 7.5000000000000009 1.0053548589299777 -0.20579633445829518 0.38397903993921351 1.367742172349786 -0.087831522685781538 -0.58333333333333315 2.5000000000000004 1.984984373437507 -0.42583333885566449 -0.060609931936530047 0.57380051058634218 5.2678571428571432 14.21111111111111 0.547559523809524 0.52432584847510344 -3.1824918709150221 12.050000000000002 5.2695301913555799 13.469730427914852 0.99999999999999989 -0.36211717771538909 -0.70487184099909783 0.38818920883579611 0.42651889793050263 0.20000000000000059 0.37111111111111111 0.37841448146929374 1.1446448919501666
decision_type=10 10 8 8 10 10 10 10 10 10 8 10 8 10 8 10 10 8 8 8 8 10 8 10 10 10 8 8 10 10 10
left_child=1 3 5 10 8 9 12 18 22 24 17 25 19 15 -10 -6 -13 -1 -5 -4 -14 -9 -3 30 -2 -8 -25 -11 -12 -15 -7
right_child=2 4 6 7 13 23 11 21 14 27 28 16 20 29 -16 -17 -18 -19 -20 -21 -22 -23 -24 26 -26 -27 -28 -29 -30 -31 -32
leaf_value=-0.011518772544375611 0.012371518481864406 -0.013411497007281873 -0.012824029523916085 -0.012220960860101378 -0.006029129640048759 0.012414137646548711 -0.0063805453276187044 0.00017792209397123412 -0.0176422371863422 -0.016053202431044633 0.014137132238809025 0.011492516266929624 0.0061436678868815051 -0.0087379235619435627 -0.0068314807538874395 0.0081307586368782568 -0.0015294763673809023 0.0012176653126458898 -0.0057551579980027138 0.0013452674162077499 0.00022913602156107379 -0.008727767638209703 -0.018076045017161882 0.0051445128782924192 0.0054956169828588829 -0.020763405517147532 0.011271382147384445 0.00016722707961496354 0.003786262919226313 -0.020165792474712653 0.015541063121493526
leaf_weight=17.821765005588531 46.660444393754005 142.15151523053646 14.937556579709051 95.14218981564045 69.94154891371727 152.93249790370464 21.27315337955952 163.60992628335953 34.103099226951599 9.3816003352403623 26.655761137604713 18.635439455509186 467.4106977134943 13.181331142783167 91.685348033905029 18.138347938656807 144.68278832733631 477.83306697010994 221.58082537353039 88.983429372310638 82.231358915567398 33.485380113124847 229.9156004935503 42.925257489085197 169.23936019837856 10.186804905533789 177.17212814092636 9.7776174843311328 13.946128278970717 15.12018311023712 133.11574511229992
leaf_count=74 199 581 62 391 289 656 88 681 139 39 113 78 1973 54 376 76 604 1999 915 372 346 139 934 182 716 42 758 41 59 62 574
internal_value=3.92925e-05 -0.00593641 0.00629609 -0.00180454 -0.013 0.0101777 0.00290466 -0.00525709 -0.0146441 0.00577896 0.00150347 -0.00181971 0.0043127 -0.00596641 -0.00976299 -0.00311261 -4.3236e-05 0.000759589 -0.00769765 -0.000691275 0.00525887 -0.00133499 -0.0162941 0.0122203 0.00698193 -0.0110401 0.0100767 -0.00777426 0.0105831 -0.0148457 0.0138695
internal_weight=3253.86 1664.31 1589.55 1050.08 614.237 741.205 848.341 513.818 497.856 235.059 536.257 194.778 653.563 116.381 125.788 88.0799 163.318 495.655 316.723 103.921 549.642 197.095 372.067 506.146 215.9 31.46 220.097 19.1592 40.6019 28.3015 286.048
internal_count=13612 6882 6730 4371 2511 3165 3565 2126 2030 995 2245 812 2753 481 515 365 682 2073 1306 434 2319 820 1515 2170 915 130 940 80 172 116 1230
is_linear=0
shrinkage=0.011377


Tree=11
num_leaves=29
num_cat=0
split_feature=341 244 75 350 329 350 350 75 359 329 359 157 415 426 167 192 75 359 192 216 377 345 4 371 386 88 304 284
split_gain=919.056 248.922 205.503 104.284 75.6035 49.9368 44.4225 43.055 40.4536 38.062 32.2566 32.0046 25.8014 21.3541 19.5704 19.3064 18.9419 18.939 18.7719 18.7422 17.32 17.0008 12.5739 11.7635 11.4149 11.0776 10.3573 10.1864
threshold=-0.055829473384251892 1.4708033733013353 1598.1479672953894 0.087825014243595859 -0.24912309955220943 0.44453078081701963 0.99593921430645638 1610.9119377131462 -3.3713709953841362 -0.023886999650526545 0.051011778314372404 1497.9574889358437 0.70833333333333337 30.500000000000004 0.72513579972850051 4.2406315322953185 1778.8042743102239 -0.42571631067433663 3.8957092396980579 3.3066519626115132 0.016544666149477503 -2.4999999999999996 7.5000000000000009 -0.048150406899930796 0.16509413708076062 0.81666666666666676 3.0041959626341161 0.44384541847041847
decision_type=10 10 10 8 10 10 10 10 8 8 8 10 8 10 10 10 10 10 10 10 10 10 10 10 10 8 10 10
left_child=1 3 6 7 5 12 10 15 23 19 18 -10 -3 16 -12 -1 -11 22 -2 26 25 -7 -6 -5 -19 -8 -4 -9
right_child=2 4 9 8 17 21 20 27 11 13 14 -13 -14 -15 -16 -17 -18 24 -20 -21 -22 -23 -24 -25 -26 -27 -28 -29
leaf_value=-0.00687529359346875 -0.016430450218728528 -0.011828741527798644 0.0013734916523492264 -0.0015382287008713826 -0.011023914832257955 -0.018448961428100607 -0.014387231577814184 0.011420231771507217 -0.0076136393632819602 0.010245341233946133 0.0056847932155972784 -0.0021290200271002232 -0.0023413295418931858 -0.002851051787235609 -0.001299735632568572 0.0011572080202119318 0.014692558040503005 -0.00063088873815363264 -4.4312587845300037e-05 0.011337724862730813 0.0082644276183086503 -0.013489410644699513 0.0011946077554080324 -0.015450117983383653 0.01215480306955859 -0.0038180859178366003 -0.011438898419479242 -0.00096713086034468565
leaf_weight=44.249598279595375 9.6157217025756818 88.857048943638802 18.505812764167786 9.045576795935629 30.572081491351128 156.75658364593983 14.514027178287504 63.266995593905449 239.81772015988827 577.97960565984249 427.87041758000851 323.52086520195007 63.72259521484375 14.266722828149794 59.08722211420536 310.43582844734192 157.90544550120831 24.783053949475288 153.15831676125526 14.218211904168127 14.082772836089132 208.771330088377 16.933932796120644 60.736867547035217 14.219441369175909 111.18155361711979 14.608319222927092 9.935999780893324
leaf_count=184 40 364 78 37 126 636 60 268 989 2475 1803 1342 264 60 248 1298 683 103 641 60 59 851 70 248 60 462 61 42
internal_value=3.89519e-05 -0.00586417 0.00623458 -0.002544 -0.0116905 -0.0133344 0.00211985 0.00179461 -0.00547626 0.0103081 0.00337159 -0.00446395 -0.00786681 0.0109324 0.00483721 0.000154952 0.0111997 -0.00184432 -0.00101275 0.000412372 -0.00369832 -0.0156165 -0.00666785 -0.0136474 0.00402992 -0.00503903 -0.00427792 0.00973837
internal_weight=3252.62 1665.63 1586.99 1061.01 604.616 518.108 789.51 427.888 633.121 797.484 649.732 563.339 152.58 750.152 486.958 354.685 735.885 86.5085 162.774 47.3323 139.778 365.528 47.506 69.7824 39.0025 125.696 33.1141 73.203
internal_count=13612 6882 6730 4408 2474 2115 3313 1792 2616 3417 2732 2331 628 3218 2051 1482 3158 359 681 199 581 1487 196 285 163 522 139 310
is_linear=0
shrinkage=0.011377


Tree=12
num_leaves=31
num_cat=0
split_feature=3 3 3 341 3 341 193 110 338 398 383 349 320 263 263 161 281 367 358 197 397 35 307 372 5 284 280 69 141 35
split_gain=1299.34 304.179 187.65 49.4219 43.3343 31.3987 28.7749 21.669 20.7358 18.5749 17.1596 17.0492 16.2823 15.88 15.5402 15.0187 14.8327 14.785 14.4874 13.8847 13.1741 11.6815 10.7843 10.5108 13.2267 10.1408 9.30969 7.79737 7.6732 5.80563
threshold=-54.172895703407328 94.009007139909855 -174.37746936163452 -3.1824918709150221 203.18497832383352 0.84814953155359174 4.1000000000000005 5.5500000000000007 0.40614974776618912 0.12150864598295912 0.7143164412296078 0.80000000000000016 0.42274598014399994 10.63518334362818 14.637577607228712 1.7924129599812428 0.35048283415930476 -0.035549112723025696 0.59999999999999998 0.41049161364950842 -0.086898656898656737 5.1903096511967819 0.76787743513947182 0.0072416732003431515 0.63333333333333341 0.33162595770051911 0.3626318126318126 0.84681818181818214 1.6396805663490557 5.0055038870085466
decision_type=2 2 2 10 2 10 10 10 10 8 10 8 10 10 10 10 10 10 10 10 10 8 10 10 8 10 10 10 10 10
left_child=2 5 15 11 7 8 18 13 9 -2 -9 17 19 -3 -8 23 -10 -4 -5 -7 -14 28 -23 24 -1 -13 -25 29 -17 -6
right_child=1 4 3 6 27 12 14 10 16 -11 -12 25 20 -15 -16 21 -18 -19 -20 -21 -22 22 -24 26 -26 -27 -28 -29 -30 -31
leaf_value=-0.0072670835549026903 0.0014866593383667638 -0.0071635091070318532 -0.012665304325162271 -0.0026483884798883129 0.010837350899548284 0.0064049055505914377 -0.0081032580956750845 0.011931360891156637 -0.00016583444868346602 -0.0046317695475605368 0.0032123460739165166 -0.0094747876802339613 -0.011162318811171225 0.0068124098115221162 -0.001742320638433863 -0.019592304647776261 -0.011696111325417501 -0.0027828213535725614 0.0054181130350035786 0.0015033432686537734 0.0015034131855068095 -0.015778087039401752 -0.0062417008494319252 -0.013798845765249418 -0.018216461702089772 -0.017425589032925282 -0.0051359550752385491 0.0035920328260127658 -0.013518020919120365 0.014774905229734649
leaf_weight=19.138861149549484 663.94555580615997 10.96660456061363 37.858547210693359 209.71723380684853 59.534076601266861 274.59365884959698 241.14895105361938 231.13322731852531 27.707107827067375 71.098860248923302 33.460648849606514 31.338018417358398 13.33491115272045 257.87663419544697 62.645337730646133 169.04610837996006 30.17491340637207 40.645135805010796 33.405752956867218 102.84451465308666 52.349530726671219 69.785425409674644 19.700914099812508 30.199061527848244 56.447744190692902 61.748546630144119 34.33762301504612 9.5123853087425214 32.097027614712715 263.52228674292564
leaf_count=78 2777 46 155 869 257 1160 993 991 115 297 143 128 56 1096 260 684 125 167 139 434 220 283 80 123 230 252 140 41 130 1143
internal_value=3.86128e-05 0.00535663 -0.00968827 -0.00612863 0.0105271 0.00173404 -0.00445717 0.00851736 0.000378441 0.000894777 0.0108289 -0.0114558 0.00415965 0.00624211 -0.00679172 -0.0156257 -0.00617764 -0.00754937 -0.00153983 0.00506944 -0.00106762 -0.0171013 -0.0136792 -0.0125647 -0.0154448 -0.0147496 -0.00919055 0.0137505 -0.0186234 0.0140495
internal_weight=3251.32 2102.05 1149.26 718.508 866.006 1236.05 546.917 533.437 792.926 735.044 264.594 171.59 443.123 268.843 303.794 430.753 57.882 78.5037 243.123 377.438 65.6844 290.629 89.4863 140.123 75.5866 93.0866 64.5367 332.569 201.143 323.056
internal_count=13612 8901 4711 2963 3717 5184 2261 2276 3314 3074 1134 702 1870 1142 1253 1748 240 322 1008 1594 276 1177 363 571 308 380 263 1441 814 1400
is_linear=0
shrinkage=0.011377


Tree=13
num_leaves=30
num_cat=0
split_feature=3 3 3 180 3 344 344 317 204 29 390 328 420 150 161 27 91 359 269 360 214 27 312 279 386 34 272 376 3
split_gain=1269.57 298.729 182.847 46.1699 42.7822 34.5495 25.5181 22.2806 21.1039 21.1022 16.8145 16.0381 15.5398 14.923 14.6391 15.791 14.547 14.2496 14.1511 14.1367 11.1607 10.2775 11.2764 10.1904 9.75946 9.51097 9.23066 7.95109 5.29323
threshold=-54.172895703407328 94.009007139909855 -174.37746936163452 13.530726584699329 203.18497832383352 1.0053548589299777 2.9439613483323623 -0.11338908709357458 0.1043966033250817 5.5916446615964785 0.40000000000000024 -0.68508864999999963 -2.4999999999999996 0.83703343965371102 1.7924129599812428 6.3000000000000016 1.1833333333333336 -1.5353549357234828 3.4376695265330923 -1.1499999999999992 2.9000000000000004 3.2250000000000005 0.19396438416895068 5.2541222028371388 -0.55385463594332363 6.6333333333333337 4.0188971456997669 -0.01546869928787715 330.25227498129101
decision_type=2 2 2 10 2 8 8 10 10 10 10 8 8 10 10 8 10 8 10 8 10 8 10 8 10 10 10 8 2
left_child=2 5 14 6 9 12 8 19 -4 18 17 -8 13 -2 21 25 -9 -5 -3 -7 -14 24 -23 -11 -1 -16 -12 -6 -29
right_child=1 4 3 10 27 7 11 16 -10 23 26 -13 20 -15 15 -17 -18 -19 -20 -21 -22 22 -24 -25 -26 -27 -28 28 -30
leaf_value=-0.0063936830454384254 0.0035442569917655069 -0.0056563162936308043 -0.0031717255271247135 -0.01013225827696407 0.0039644423641706939 0.0066135840778294951 -0.018449355543498434 0.0042854415344145908 -0.0085648449439926916 0.0044516303615152551 0.010714126558417384 -0.0094444332523550955 0.0027673860914875386 -0.0075083861644427317 -0.017897009596910738 -0.0058920359814360257 -0.0011445666887693162 -0.00038358257105553569 0.0073315598098836589 -0.0054937881842839669 -0.014565036762545717 -0.0056318275943891289 -0.016741800330417771 0.012958290178909093 -0.019024195291064069 -0.005762333560616709 -2.9374490417926521e-05 0.01316968553246238 0.016650745617764244
leaf_weight=45.742265686392784 781.89048330485821 11.192569106817244 194.73905797302723 25.739307567477226 10.638289153575895 13.709267556667326 30.27100034058094 107.09445363283157 181.46066537499428 20.947136595845222 22.465116769075394 166.42716291546822 8.567918926477434 16.134121045470238 266.48206013441086 16.02110368013382 158.16286396980286 78.909887075424194 358.84360766410828 139.04238274693489 10.947081431746481 14.211958304047583 70.816439390182495 141.29688106477261 9.5814656615257245 8.643482029438017 19.182207137346268 247.13305085897446 73.516530141234398
leaf_count=186 3293 47 804 106 46 57 123 448 746 90 94 682 36 68 1077 65 660 328 1530 576 46 58 288 609 39 35 80 1073 322
internal_value=3.82834e-05 0.0053032 -0.00956603 -0.00605306 0.0104369 0.00171502 -0.00750974 -0.000945515 -0.00577324 0.00843888 -0.000348417 -0.0108306 0.00307541 0.00332073 -0.0154211 -0.0168765 0.00104761 -0.00278187 0.00693858 -0.00440684 -0.00695394 -0.0124014 -0.0148855 0.0118603 -0.00858249 -0.017516 0.00576515 0.0136469 0.013968
internal_weight=3249.81 2099.12 1150.69 719.194 863.568 1235.55 572.898 418.009 376.2 532.28 146.297 196.698 817.54 798.025 431.499 291.147 265.257 104.649 370.036 152.752 19.515 140.352 85.0284 162.244 55.3237 275.126 41.6473 331.288 320.65
internal_count=13612 8901 4711 2963 3717 5184 2355 1741 1550 2276 608 805 3443 3361 1748 1177 1108 434 1577 633 82 571 346 699 225 1112 174 1441 1395
is_linear=0
shrinkage=0.011377


Tree=14
num_leaves=32
num_cat=0
split_feature=3 3 3 353 3 343 343 103 335 335 255 336 219 353 161 27 279 68 27 112 362 3 177 310 38 252 191 3 144 156 372
split_gain=1240.55 293.392 178.222 47.8767 42.2458 36.2341 29.1061 25.2168 20.6028 19.9395 19.9236 20.7306 19.7933 15.189 15.9709 18.5281 13.3557 13.0875 12.9265 11.932 13.2736 13.1946 11.1282 11.0748 9.02974 8.68193 7.84992 6.59917 5.34468 3.32632 1.56703
threshold=-54.172895703407328 94.009007139909855 -174.37746936163452 0.25121177632688291 203.18497832383352 3.1000000000000014 -0.80000000000000016 10.450000000000001 0.34137983581282333 0.081775015155544611 0.94898309000000014 0.48772569999999998 2.3958248385985894 -2.2425817642022818 1.782695677320675 6.3000000000000016 5.2958710403757809 0.62125836672046619 3.2250000000000005 3.9000000000000004 0.10534490164904306 6.0141836198129122 14.091026778435806 0.64220570003776001 5.253440545637706 0.47222222222222227 3.0500000000000003 330.25227498129101 1.6814648139391151 0.33075579001276101 0.012080636307113901
decision_type=2 2 2 10 2 8 8 10 10 8 10 10 10 10 10 10 8 10 10 10 10 2 10 10 10 10 10 2 10 10 10
left_child=2 6 13 5 9 12 19 23 -9 25 11 -5 -4 24 18 -16 -11 -12 -15 20 -2 -21 -7 -8 26 -3 -1 28 -6 -26 -29
right_child=1 4 3 10 27 22 7 8 -10 16 17 -13 -14 14 15 -17 -18 -19 -20 21 -22 -23 -24 -25 29 -27 -28 30 -30 -31 -32
leaf_value=-0.02255260723349925 0.0062254903537351967 -0.0074943833198717179 0.0021118790287098978 0.0044405093766234699 0.017257486887800669 -0.0094143841794743742 -0.01028550130574081 0.00054612664885525508 0.0078602416555348387 0.0036978024903716452 0.0015571319159024498 -0.010127720419059955 -0.0065406555344213954 -0.005739158118959497 -0.016643422234977844 -0.0016879799512608932 0.0099927485363612515 -0.0089145932889638201 -0.013621081445552637 -0.0022646520858550711 -0.0012688462106875463 0.0038279006529911264 -0.015282661641866407 -0.0024328768671375359 -0.022742673506083499 0.0044887119193627164 -0.010673556761292625 0.017129396512217204 0.012090928935442188 -0.017412872826307185 0.011759136492086437
leaf_weight=10.178713411092756 254.46609628200531 8.7530427277088148 38.069279313087463 89.263002216815948 29.316237568855286 95.187883153557777 31.759283661842346 568.83869427442551 54.637516766786575 48.995793417096138 23.000296041369438 14.726174145936964 337.8741200864315 44.267597332596779 199.3702821880579 11.338397637009619 399.7741432338953 47.007474735379219 68.877207905054092 70.162869244813919 34.759749203920364 133.62094534933567 74.724305614829063 86.801577985286713 51.834370091557503 73.59536337852478 24.719347774982452 65.653011783957481 227.06730128824711 21.59887632727623 7.9552417248487464
leaf_count=41 1076 37 158 371 128 390 132 2378 231 210 95 61 1390 180 805 46 1717 194 280 295 146 565 304 361 209 312 100 289 989 87 35
internal_value=3.79565e-05 0.00525036 -0.00944608 -0.00597868 0.0103478 -0.00763522 0.00169622 0.000272542 0.00118718 0.00836125 -0.000781597 0.00237693 -0.00566436 -0.0152213 -0.013987 -0.0158389 0.00930559 -0.00547373 -0.0105378 0.00383894 0.00532467 0.00173004 -0.0119955 -0.00453685 -0.0189103 0.00321437 -0.0141406 0.013545 0.012682 -0.0211761 0.0165499
internal_weight=3248.19 2096.16 1152.04 719.853 861.11 545.856 1235.05 742.037 623.476 531.118 173.997 103.989 375.943 432.185 323.853 210.709 448.77 70.0078 113.145 493.01 289.226 203.784 169.912 118.561 108.331 82.3484 34.8981 329.992 256.384 73.4332 73.6083
internal_count=13612 8901 4711 2963 3717 2242 5184 3102 2609 2276 721 432 1548 1748 1311 851 1927 289 460 2082 1222 860 694 493 437 349 141 1441 1117 296 324
is_linear=0
shrinkage=0.011377


Tree=15
num_leaves=30
num_cat=0
split_feature=347 2 1 344 1 1 344 2 2 386 161 349 161 347 98 163 271 118 180 65 260 33 121 36 229 335 253 25 337
split_gain=925.085 345.999 180.378 102.077 56.3732 39.2621 35.9841 35.2955 33.9487 32.2537 21.6212 20.5478 18.5365 17.8371 16.6101 16.0992 16.1811 15.2936 12.5041 12.409 12.3131 12.0255 11.9961 11.6905 11.6205 11.0687 10.7356 9.7386 6.55257
threshold=0.098290385781270015 1664.3755311022817 1613.2647371776209 0.96769783385241859 1597.5926481996719 1560.8888810023207 0.77317508011330383 1577.7745600418441 1706.8092713365979 -0.32457489369422204 1.2192953374031397 -0.69999999999999996 1.9059263258200765 1.5843815531740548 0.56588181301788631 0.81666666666666676 6.3166666666666673 4.9000000000000012 12.643110779866607 3.682297289551395 10.966502291241339 6.1000000000000005 11.675000000000002 7.1000000000000005 1611.0220665855743 0.33379086085857829 1.0438740927394756 10.316666666666668 -0.49401069999999986
decision_type=10 2 2 8 2 2 10 2 2 8 10 10 10 10 10 10 10 8 10 10 10 8 8 10 10 10 8 8 10
left_child=1 3 6 9 12 7 17 -5 13 11 26 -1 21 18 -11 19 -17 24 -4 -6 -7 -3 -10 -12 -2 -19 -8 -14 -15
right_child=2 4 8 5 15 20 10 -9 22 14 23 -13 27 28 -16 16 -18 25 -20 -21 -22 -23 -24 -25 -26 -27 -28 -29 -30
leaf_value=0.0041469287570978456 0.0064613580842294511 -0.013296945476023272 0.0071912419653415204 -0.0043578763061680693 -0.015170801901768291 0.0082755182416172149 0.00076966812226919221 -0.010426880997778146 -0.01017580666906405 0.0036963079414211058 -0.0070762509862403716 -0.0060470817521082361 -0.010373088974198091 0.014286272973806583 -0.00074889159103309194 9.7524759817233962e-05 -0.015198782302637132 0.00039753772436162927 0.011595829433315524 -0.0020083184622450797 -0.0012412327349265702 -0.0034479237517041025 0.0056488153573934757 0.0058534459403709136 -0.0023335603515196018 0.0080307865296768994 0.011251121897682905 -0.017859275503634673 0.011164205047282562
leaf_weight=32.888629049062729 321.05410897731781 135.97865653038025 170.83354394137859 301.21735279262066 31.62002557516098 23.849215090274811 151.74612937867641 210.90914371609688 12.472911655902864 337.13198348879814 72.773352682590485 115.30868585407734 24.959064468741417 210.87405514717102 160.63316974043846 54.035014122724533 10.725470736622809 139.27873726189137 163.2245959341526 13.127219840884207 67.096572205424309 18.207509592175484 12.323373779654501 10.332107380032538 20.691616848111153 29.861700877547264 13.797968879342077 230.98082493245602 148.54050359129906
leaf_count=137 1361 551 734 1244 129 100 635 860 52 1419 302 477 101 924 673 223 44 588 706 54 279 74 52 43 86 127 58 931 648
internal_value=3.7633e-05 -0.00551371 0.00668163 -0.002268 -0.0133153 -0.00563407 0.00281626 -0.00685738 0.010769 0.000874532 -0.000733193 -0.0037845 -0.0152517 0.0112367 0.00226173 -0.00606262 -0.00243564 0.00454386 0.00934355 -0.0113105 0.00125411 -0.0121342 -0.00230986 -0.00546819 0.00592873 0.0017455 0.00164365 -0.0171295 0.0129962
internal_weight=3246.47 1768.67 1477.8 1249.03 519.634 603.072 759.536 512.126 718.269 645.962 248.65 148.197 410.126 693.473 497.765 109.508 64.7605 510.886 334.058 44.7472 90.9458 154.186 24.7963 83.1055 341.746 169.14 165.544 255.94 359.415
internal_count=13612 7296 6316 5189 2107 2483 3200 2104 3116 2706 1038 614 1657 3012 2092 450 267 2162 1440 183 379 625 104 345 1447 715 693 1032 1572
is_linear=0
shrinkage=0.011377


Tree=16
num_leaves=32
num_cat=0
split_feature=3 3 3 342 3 341 341 359 352 347 338 398 223 320 282 197 167 262 398 343 352 100 27 272 394 401 313 271 3 33 369
split_gain=1187.68 283.784 169.755 47.4509 41.3065 33.4091 29.6764 26.3478 25.0022 20.4114 19.7004 18.0479 16.248 15.7628 14.0591 13.5462 13.1015 12.9012 12.8719 12.4438 12.0873 11.5948 10.7549 10.9607 9.00402 7.91463 7.75328 7.48589 6.5399 4.11417 0.783275
threshold=-54.172895703407328 94.009007139909855 -174.37746936163452 0.89999999999999958 203.18497832383352 -3.1824918709150221 0.84814953155359174 -0.84269120318756208 -0.89999999999999958 0.071460737046079761 0.40614974776618912 0.12150864598295912 0.42666666666666681 0.42274598014399994 0.36667257755160693 0.41049161364950842 0.93177104215616391 11.225000000000001 -0.074358625895832683 3.1000000000000014 -0.11428571428571474 1.3451321240855205 3.2250000000000005 3.7607725319520102 -0.074007936507936481 -0.06847011620293289 1704.200179169726 6.4222222222222234 330.25227498129101 4.5500000000000007 0.082206002996199859
decision_type=2 2 2 8 2 10 10 8 10 10 10 8 10 10 10 10 10 10 10 8 10 10 8 10 10 10 10 10 2 10 10
left_child=2 6 16 7 9 19 10 24 -9 17 11 -2 -7 15 -12 -8 22 -3 -15 -5 -11 26 25 -24 -4 -1 -18 -23 29 -6 -30
right_child=1 4 3 5 28 12 13 8 -10 20 14 -13 -14 18 -16 -17 21 -19 -20 -21 -22 27 23 -25 -26 -27 -28 -29 30 -31 -32
leaf_value=-0.0076470585075711648 0.0014309012622824805 -0.0075490692248645812 -0.0026925003928909303 -0.00916747968796096 0.0093955499120876654 0.0072621745714448339 0.0062428298119829844 -0.0066794483479644612 0.0028562272559120292 0.0059012715970160039 -0.0013786382784786615 -0.0045993988667149847 -0.0067268498698197943 -0.011323135813610415 -0.012773181830446456 0.0013946201940788596 -0.01352798352570272 0.0051347859654347506 0.0013663213064913655 -0.016348789465734846 0.010405648621971878 -0.0086931326969172228 -0.0022995020056144244 -0.015537430339639195 -0.0092074038017977231 -0.01631600896424722 -0.019593146983261912 -0.019571276042979917 0.016777608586886119 0.013173360809665533 0.012945003027870652
leaf_weight=61.348308742046356 663.15615966916084 11.677086308598517 45.471778213977814 55.971537619829178 45.551906391978264 11.162804335355757 273.5186140537262 48.443365633487701 134.12136369943619 101.40150351822376 34.268766775727272 71.126249492168427 285.61745919287205 12.869453877210615 23.724515080451965 102.6006865799427 34.699561357498169 93.156518071889877 52.739819347858429 70.793866142630577 322.65726646780968 30.738687306642532 8.5993984341621381 140.35738395154476 69.398802310228348 17.544403806328773 128.83807522058487 11.17752845585346 65.067596092820168 209.04239493608475 7.8746197670698157
leaf_count=248 2777 49 187 228 199 46 1160 200 558 436 142 297 1172 54 98 434 140 396 222 287 1395 124 35 567 285 71 518 45 289 918 35
internal_value=3.73091e-05 0.00515212 -0.00922568 -0.00584322 0.0101839 -0.00828913 0.00165993 -0.0023601 0.000325688 0.00821735 0.00034248 0.000846713 -0.0062005 0.00402279 -0.006041 0.00492042 -0.0148537 0.00372148 -0.00112246 -0.0131785 0.00932868 -0.0169378 -0.0129741 -0.0147735 -0.0066289 -0.00957576 -0.0183067 -0.0115957 0.0133591 0.0124977 0.0163648
internal_weight=3244.72 2090.43 1154.28 720.981 856.429 423.546 1234 297.435 182.565 528.892 792.276 734.282 296.78 441.729 57.9933 376.119 433.303 104.834 65.6093 126.765 424.059 205.454 227.849 148.957 114.871 78.8927 163.538 41.9162 327.537 254.594 72.9422
internal_count=13612 8901 4711 2963 3717 1733 5184 1230 758 2276 3314 3074 1218 1870 240 1594 1748 445 276 515 1831 827 921 602 472 319 658 169 1441 1117 324
is_linear=0
shrinkage=0.011377


Tree=17
num_leaves=31
num_cat=0
split_feature=317 2 1 1 342 2 346 357 1 1 161 273 357 2 424 263 166 320 342 358 276 383 407 82 107 119 86 41 76 351
split_gain=787.88 276.896 227.515 81.9771 68.9431 67.028 42.8304 38.6284 37.9043 25.6063 22.6168 20.9427 19.8699 19.9641 16.175 15.9461 14.2608 14.2481 13.4658 13.2474 11.449 11.0761 12.603 10.7167 10.638 9.60967 9.54773 8.56276 7.84806 5.90847
threshold=-0.095147735914595688 1664.3755311022817 1613.2647371776209 1593.1708153338343 2.7999999999999998 1566.3347840063714 0.91666666666666685 -1.1499999999999995 1617.9525977733128 1536.2950686928336 1.9059263258200765 5.7750000000000012 0.99999999999999978 1703.1616403126313 -27.499999999999996 13.922287088136008 0.58571428571428574 -0.38036287279101949 1.0000000180025095e-35 -0.80000000000000038 8.6333333333333346 1.9318427519499795 -0.075849708398003285 1.0000000180025095e-35 11.550000000000002 3.5857142857142867 -6.5698016680490801 4.4500000000000011 0.83666002653407556 1.8000000000000005
decision_type=10 2 2 2 8 2 10 8 2 2 10 10 10 2 8 8 10 10 10 8 8 8 8 2 10 10 10 8 10 10
left_child=1 3 5 4 7 9 11 -1 10 14 26 17 13 -7 -2 -6 -11 -4 25 -8 -20 28 -23 -12 -21 -10 -3 -14 -5 -13
right_child=2 8 6 21 15 12 19 -9 18 16 23 29 27 -15 -16 -17 -18 -19 20 24 -22 22 -24 -25 -26 -27 -28 -29 -30 -31
leaf_value=-0.0059236465950380261 0.009463686604341796 -0.0075095312977942414 0.0076563703429005439 0.0053659750215520295 -0.010303526196169564 -0.0049108520126148183 -0.0018162492049306487 0.00032626900087226929 -0.0085267292837821803 0.0068322735099875711 -0.017411861442559507 0.0087835136891186525 0.013524056454574844 -0.019592205644289554 0.00066484409745493555 -0.0043496846680368588 0.001820669730399701 0.00077206517656956957 -0.0013607484856547926 0.012663643240223668 -0.013723808244175219 -0.0098786540845009051 0.0052655820782740552 -0.011867342111481844 0.007676340352660801 0.0048249328275062247 -0.013295185716567367 2.564344140244899e-05 0.013982559314001471 0.015641100513661934
leaf_weight=184.80151429772377 28.886443555355072 65.941251054406166 65.486058324575424 24.482407495379448 190.11971513926983 145.48354935646057 9.1097240000963193 416.42201359570026 10.624746575951578 244.58414958417416 215.96559275686741 81.669768825173378 8.8005309253931063 13.066369220614432 423.55366970598698 83.975045248866081 105.09848000109196 95.929129377007484 14.596535876393316 432.45320869982243 28.91953207552433 8.3364306241273862 48.339485630393028 57.131234169006348 63.548506736755371 20.314782202243805 84.044334352016449 19.705501541495323 31.078267350792885 20.336860835552216
leaf_count=762 122 267 283 104 776 601 39 1737 44 1040 869 352 37 53 1776 346 446 407 60 1900 118 35 205 230 277 84 340 82 132 88
internal_value=3.69898e-05 -0.00606392 0.00519168 -0.00257693 -0.00375072 0.00158373 0.00983541 -0.00159475 -0.0129851 0.00301392 -0.0143025 0.00611589 -0.0045489 -0.00612126 0.00122674 -0.00847962 0.00532615 0.00356533 -0.00549847 0.0117751 -0.00957803 0.00657686 0.00303706 -0.0162522 0.0120248 0.000238417 -0.0107519 0.00419499 0.0101868 0.0101514
internal_weight=3242.8 1485.09 1757.71 987.555 875.318 989.179 768.533 601.224 497.538 802.123 423.082 263.422 187.056 158.55 452.44 274.095 349.683 161.415 74.4556 505.111 43.5161 112.237 56.6759 273.097 496.002 30.9395 149.986 28.506 55.5607 102.007
internal_count=13612 6109 7503 4097 3621 4157 3346 2499 2012 3384 1706 1130 773 654 1898 1122 1486 690 306 2216 178 476 240 1099 2177 128 607 119 236 440
is_linear=0
shrinkage=0.011377


Tree=18
num_leaves=32
num_cat=0
split_feature=347 313 75 75 344 350 332 75 359 59 347 229 353 347 262 313 278 338 75 372 335 350 257 265 193 347 151 278 207 110 244
split_gain=847.427 329.298 182.651 77.1118 72.0721 50.3638 39.4879 29.7952 28.2976 27.7491 27.3073 24.3279 23.7954 23.0006 22.0306 20.7921 20.2766 19.4169 17.4755 17.3511 16.2983 14.5804 14.3371 11.3001 10.7944 10.5274 9.79802 9.28301 9.12481 8.37423 7.44688
threshold=-0.015906715113983744 1619.2657562083343 1596.7850825392227 1577.5519600080554 0.96769783385241859 0.087825014243595859 -0.14259619592802833 1559.6433877650338 -0.65228049626370688 0.52432584847510344 -2.0338642291061313 1554.6496388112862 0.4646772132602659 0.79929965469261488 14.387500000000001 1484.6037771012234 7.6333333333333337 0.20424085149238913 1772.4340760035559 0.057205167676898212 0.37135116323239387 0.70310681490894955 1.0862746074107748 3.8660714285714293 5.9000000000000012 -0.6307915121962745 0.71668498168498196 4.1000000000000005 0.077279309027376106 5.5500000000000007 1.7025192736445354
decision_type=10 10 10 10 8 10 10 10 10 8 10 10 10 10 10 10 8 10 10 10 10 8 10 10 10 8 8 8 10 10 10
left_child=1 4 5 10 9 24 18 11 14 25 21 -6 20 22 -5 -11 -12 -10 23 -14 -7 -3 -8 -4 26 -1 -2 -15 -26 -9 -20
right_child=2 3 6 8 7 12 13 29 17 15 16 -13 19 27 -16 -17 -18 -19 30 -21 -22 -23 -24 -25 28 -27 -28 -29 -30 -31 -32
leaf_value=-0.020184957429436483 0.0039274540010074497 -0.011344246381940763 0.011549703001732987 -0.0084819956661489667 -0.0033517621174062981 -0.0040547095964714773 -0.008033306627030631 0.00089836698462549306 0.0086261736797199375 0.0061818491376924136 -0.013395388545160295 -0.009276209526766506 0.003799450436838703 0.00074394644858989656 0.0095499592937642996 0.00090458585994957006 -0.0072439440046015964 -0.0086198886950966305 0.015249544390109771 -0.012206711724571377 0.0093999098462594997 -0.017698257038647056 0.0034188148880362063 0.0079657483659872595 -0.010805439623398467 -0.003284966048745504 0.0077221482553941753 0.0096969345947497572 0.0021198792066384068 0.011737749033121962 0.004261649614706103
leaf_weight=9.4624175727367383 205.07051351666451 61.969897210597992 296.01972061395645 128.2721054404974 227.84380613267422 207.44208745658398 20.739983037114143 48.081161722540855 28.709121227264404 131.84884466230869 181.27159164845943 148.02251446247101 129.54114963114262 17.833965852856636 9.4099079966545087 361.91854409873486 112.41738650202751 11.970367580652235 140.86403228342533 9.3994398415088636 12.343594983220099 190.97558359801769 44.51664887368679 185.26177096366882 8.5267601162195188 9.6352801769971865 154.47386234998703 94.33358433842659 41.317605525255203 11.417012855410574 8.4758748114109022
leaf_count=39 871 250 1295 525 940 863 87 201 120 557 733 604 544 77 39 1516 458 49 627 39 52 767 190 805 36 40 655 410 174 48 37
internal_value=0.000129183 -0.00550981 0.00611547 -0.0112819 -0.00109652 0.00214307 0.0098915 -0.00450086 -0.00478591 0.00179332 -0.0134014 -0.00568505 -0.000969001 0.00514945 -0.00724919 0.00231385 -0.011041 0.00355021 0.0112256 0.00271617 -0.00329881 -0.0161418 -0.000220478 0.0101702 0.0048701 -0.0116618 0.00555794 0.00827385 -9.08275e-05 0.00297931 0.0146262
internal_weight=3249.39 1673.23 1576.16 724.996 948.23 768.115 808.046 435.364 178.362 512.865 546.634 375.866 358.726 177.424 137.682 493.767 293.689 40.6795 630.621 138.941 219.786 252.945 65.2566 481.281 409.389 19.0977 359.544 112.168 49.8444 59.4982 149.34
internal_count=13648 6886 6762 2941 3945 3234 3528 1793 733 2152 2208 1544 1498 764 564 2073 1191 169 2764 583 915 1017 277 2100 1736 79 1526 487 210 249 664
is_linear=0
shrinkage=0.011377


Tree=19
num_leaves=32
num_cat=0
split_feature=347 350 157 347 358 350 335 347 257 157 192 338 272 426 263 407 426 329 163 70 291 80 160 333 35 108 10 312 180 182 343
split_gain=828.892 235.634 169.314 113.896 66.8247 49.5893 43.0554 41.9345 36.0277 29.482 31.1194 22.3168 21.6026 19.5501 18.6587 16.7533 14.9959 14.8631 14.6055 14.2993 14.1264 13.9384 13.3491 12.7282 11.6934 11.7043 11.436 11.0839 10.4152 9.99377 7.80938
threshold=-0.015906715113983744 0.43039291550253639 1597.9291263717844 -1.8730612263367941 -0.70000000000000051 1.0106509017136651 -0.29312676406746435 1.1115283689353601 1.3760637314372086 1574.8384973117493 4.5641628219046693 -0.17256647865869126 4.1244076563855794 17.500000000000004 12.326713577019877 0.14424574773799542 -5.4999999999999991 -0.23668464095564162 0.81666666666666676 0.70719877344877358 0.10689894977136132 0.27340913147446783 1.9500000000000002 0.079431000000000113 5.1122888435231184 11.45885432322976 1.1939694839362385 0.4078471564457955 10.520783243556357 5.5357142857142865 3.725000000000001
decision_type=10 8 10 8 8 10 8 10 8 8 10 10 10 10 8 8 8 8 10 10 10 8 10 10 10 10 10 10 10 10 10
left_child=1 4 5 18 8 13 15 11 21 10 -6 26 23 16 -8 -5 -2 -14 30 -15 -10 -1 -11 -7 28 -26 -4 -13 -9 -20 -3
right_child=2 3 7 6 9 12 14 24 20 22 -12 27 17 19 -16 -17 -18 -19 29 -21 -22 -23 -24 -25 25 -27 -28 -29 -30 -31 -32
leaf_value=0.0048219682661225999 0.011726330759580652 -0.014759303085756835 0.010699306992311738 -0.01193422836204939 -0.0068297292685814632 -0.0030857086438277857 -0.007496886318801365 -0.0029311712679865854 0.0020892135323502489 0.0077067569554050567 0.0017051334588964317 0.0035250099577140916 -0.02062467121983412 0.0019866296224711993 -0.0024933955505890685 -0.0015648144703346565 0.0037012075068205363 -0.0056971211385687818 -0.0080554390874632998 -0.014830235317801161 -0.0058844026944415281 -0.0097420535092136683 -0.00063789070893274368 0.0068302724056406808 0.013178017000970734 0.0064317815519724904 0.0048564013906791529 -0.0071456849168121195 0.0094190708973146478 -0.014512309620643758 -0.020682274080751583
leaf_weight=9.0311608314514142 31.812893211841583 49.474156305193901 120.73232287168503 183.08540159463882 70.157002225518227 38.966607347130775 156.34483195841312 9.8883102536201459 82.39565098285675 119.18358564376831 261.01935960352421 84.031375646591187 9.7980725318193418 13.945521533489229 251.99830065667629 22.674364075064659 574.02909082174301 72.743152871727943 40.009348005056381 12.323501914739607 44.175411939620972 144.91825950145721 31.327517688274384 29.389115855097771 373.77148915827274 36.574003398418427 67.711373835802078 14.818469509482382 82.814779788255692 138.8300734013319 69.335041686892509
leaf_count=37 136 199 525 743 291 162 639 43 343 506 1091 360 40 58 1040 92 2430 301 162 51 182 593 131 123 1655 160 292 62 364 559 278
internal_value=0.000127878 -0.00544469 0.00605681 -0.00934746 -0.000776136 0.00230712 -0.00654784 0.00977164 -0.00519045 0.00179456 -0.000102824 0.00630352 -0.0035527 0.00370604 -0.00440924 -0.0107918 0.00412271 -0.00747005 -0.0151234 -0.00590172 -0.000693462 -0.00888738 0.00596966 0.00117713 0.0117522 0.0125769 0.00860012 0.00192487 0.00810127 -0.0130681 -0.0182165
internal_weight=3247.31 1673.96 1573.35 911.752 762.208 783.008 614.103 790.342 280.52 481.687 331.176 287.294 150.897 632.111 408.343 205.76 605.842 82.5412 297.649 26.269 126.571 153.949 150.511 68.3557 503.049 410.345 188.444 98.8498 92.7031 178.839 118.809
internal_count=13648 6886 6762 3712 3174 3301 2514 3461 1155 2019 1382 1239 626 2675 1679 835 2566 341 1198 109 525 630 637 285 2222 1815 817 422 407 721 477
is_linear=0
shrinkage=0.011377


Tree=20
num_leaves=31
num_cat=0
split_feature=341 2 1 1 350 2 2 335 2 333 2 115 1 344 341 350 91 350 186 129 74 157 170 350 102 291 134 320 67 365
split_gain=776.134 335.54 167.278 97.2252 60.5299 49.625 45.6137 37.8899 36.612 36.3462 25.3912 24.3723 23.0496 20.6949 20.4316 18.044 17.4803 16.2396 14.1505 13.7306 13.4282 12.8523 12.5479 12.481 12.4567 11.586 10.489 8.5427 8.18034 7.88534
threshold=-0.055829473384251892 1583.2494075235043 1602.4602862557706 1567.4324802073381 0.22561917138391416 1687.1482164670717 1485.7037030905371 0.31334650607844988 1712.5702809216916 -0.24764842999999986 1681.8108653111678 4.2250000000000005 1578.692017728345 1.0366754851104292 2.4471442484008405 -0.58903114392906109 1.3875000000000002 0.30948092448818337 4.3459554987916418 0.5621840878419827 0.12415648004645517 1520.0997994543593 0.4041696707740372 0.672293496619084 1.1745986000000002 0.082296894131428225 0.071550651521326766 0.6770923297818785 0.69501623376623389 -0.083023051619199692
decision_type=10 2 2 2 8 2 2 8 2 8 2 10 2 8 10 10 10 10 10 8 10 10 10 10 10 10 8 10 10 10
left_child=1 4 6 5 12 13 26 18 17 21 -11 20 19 -3 15 -9 -13 -5 25 -1 -6 -8 -10 -7 -14 -4 -2 -28 -20 -16
right_child=2 3 7 8 11 23 9 14 22 10 -12 16 24 -15 29 -17 -18 -19 28 -21 -22 -23 -24 -25 -26 -27 27 -29 -30 -31
leaf_value=0.0021856648382045096 -0.0044204272346754217 -0.005467732647093642 0.012342173169135847 0.0034304667903608337 -0.013956738273152256 -0.011544847768351024 -0.01224897156387989 0.011036797877424041 -0.012466996137531968 0.0018930551885704416 -0.013395980897435726 0.0018143480643657876 0.0098357119333890592 -0.011308024132955546 0.0022703154172104625 0.0043801750478590423 -0.0041637369955714034 -0.0043885882903573091 0.0044105988441658691 -0.012608141586147526 -0.0051313216507255449 -0.0020566363920700207 -0.0041602356018391644 -0.017083196772052844 -0.003231950987320513 -0.0005801907251794245 0.0069887681130220746 -0.0025203270767935478 0.011916689099542289 0.012705108684192149
leaf_weight=302.80617992579937 11.85957235097885 114.42223227024078 10.378909468650816 77.681944832205772 29.020558461546898 69.080328285694122 35.705301865935326 119.39806237816811 58.278683677315712 452.48833811283112 14.50816862285137 132.44754993915558 80.285408973693848 250.64045599102974 9.6143945753574354 94.419685423374176 121.27757924795151 61.677934661507607 38.234756827354431 8.3416434675455076 96.717783868312836 29.055321499705315 39.518035516142845 222.66494655609131 10.694639518857 66.541637137532234 246.97201561927795 12.858456850051878 37.007922455668449 390.63907010853291
leaf_count=1269 50 469 45 326 119 278 147 525 236 1903 59 550 345 1015 42 409 500 254 166 35 399 121 161 893 46 283 1052 54 161 1736
