tree
version=v4
num_class=1
num_tree_per_iteration=1
label_index=0
max_feature_idx=427
objective=binary sigmoid:1
feature_names=league home_elo away_elo elo_diff hometeam_rest_days hometeam_both_roll5_goals_for hometeam_both_roll10_goals_for hometeam_both_decay15_goals_for hometeam_both_roll5_goals_against hometeam_both_roll10_goals_against hometeam_both_decay15_goals_against hometeam_both_roll5_ht_goals_for hometeam_both_roll10_ht_goals_for hometeam_both_decay15_ht_goals_for hometeam_both_roll5_ht_goals_against hometeam_both_roll10_ht_goals_against hometeam_both_decay15_ht_goals_against hometeam_both_roll5_xg_for hometeam_both_decay15_xg_for hometeam_both_decay15_xg_against hometeam_both_roll5_npxg_against hometeam_both_roll5_shots_for hometeam_both_roll10_shots_for hometeam_both_decay15_shots_for hometeam_both_roll5_shots_against hometeam_both_roll10_shots_against hometeam_both_decay15_shots_against hometeam_both_roll5_sot_for hometeam_both_roll10_sot_for hometeam_both_decay15_sot_for hometeam_both_roll5_sot_against hometeam_both_roll10_sot_against hometeam_both_decay15_sot_against hometeam_both_roll5_corners_for hometeam_both_roll10_corners_for hometeam_both_decay15_corners_for hometeam_both_roll5_corners_against hometeam_both_roll10_corners_against hometeam_both_decay15_corners_against hometeam_both_roll5_deep_completions_for hometeam_both_roll10_deep_completions_for hometeam_both_roll5_deep_completions_against hometeam_both_roll10_deep_completions_against hometeam_both_roll5_sot_pct_for hometeam_both_roll10_sot_pct_for hometeam_both_decay15_sot_pct_for hometeam_both_roll5_sot_pct_against hometeam_both_roll10_sot_pct_against hometeam_both_decay15_sot_pct_against hometeam_both_roll5_xg_per_shot_for hometeam_both_decay15_xg_per_shot_for hometeam_both_roll5_xg_per_shot_against hometeam_both_roll10_xg_per_shot_against hometeam_both_roll5_npxg_per_shot_for hometeam_both_roll5_npxg_per_shot_against hometeam_both_roll5_ppda_for hometeam_both_decay15_ppda_for hometeam_both_roll5_points_for hometeam_both_roll10_points_for hometeam_both_decay15_points_for hometeam_both_roll5_saves_for hometeam_both_roll10_saves_for hometeam_both_decay15_saves_for hometeam_both_roll5_saves_against hometeam_both_roll10_saves_against hometeam_both_decay15_saves_against hometeam_both_roll5_save_pct_for hometeam_both_roll10_save_pct_for hometeam_both_decay15_save_pct_for hometeam_both_roll5_save_pct_against hometeam_both_roll10_save_pct_against hometeam_both_decay15_save_pct_against hometeam_both_roll5_clean_sheet_for hometeam_both_roll10_clean_sheet_for hometeam_both_decay15_clean_sheet_for hometeam_both_roll5_elo_for hometeam_both_roll5_std_goals_for hometeam_both_roll10_std_goals_for hometeam_both_roll5_std_points_for hometeam_both_roll10_std_points_for hometeam_both_roll5_std_xg_for hometeam_both_roll10_std_xg_for hometeam_win_streak hometeam_loss_streak hometeam_nowin_streak hometeam_matches_last_14d hometeam_elo_momentum5 hometeam_home_roll5_goals_for hometeam_home_roll10_goals_for hometeam_home_decay15_goals_for hometeam_home_roll5_goals_against hometeam_home_roll10_goals_against hometeam_home_decay15_goals_against hometeam_home_roll5_ht_goals_for hometeam_home_roll10_ht_goals_for hometeam_home_decay15_ht_goals_for hometeam_home_roll5_ht_goals_against hometeam_home_roll10_ht_goals_against hometeam_home_decay15_ht_goals_against hometeam_home_roll5_xg_for hometeam_home_decay15_npxg_for hometeam_home_roll5_npxg_against hometeam_home_roll10_npxg_against hometeam_home_roll5_shots_for hometeam_home_roll10_shots_for hometeam_home_decay15_shots_for hometeam_home_roll5_shots_against hometeam_home_roll10_shots_against hometeam_home_decay15_shots_against hometeam_home_roll5_sot_for hometeam_home_roll10_sot_for hometeam_home_decay15_sot_for hometeam_home_roll5_sot_against hometeam_home_roll10_sot_against hometeam_home_decay15_sot_against hometeam_home_roll5_corners_for hometeam_home_roll10_corners_for hometeam_home_decay15_corners_for hometeam_home_roll5_corners_against hometeam_home_roll10_corners_against hometeam_home_decay15_corners_against hometeam_home_roll5_deep_completions_for hometeam_home_roll10_deep_completions_for hometeam_home_roll5_deep_completions_against hometeam_home_decay15_deep_completions_against hometeam_home_roll5_sot_pct_for hometeam_home_roll10_sot_pct_for hometeam_home_decay15_sot_pct_for hometeam_home_roll5_sot_pct_against hometeam_home_roll10_sot_pct_against hometeam_home_decay15_sot_pct_against hometeam_home_roll5_xg_per_shot_for hometeam_home_roll5_xg_per_shot_against hometeam_home_roll5_npxg_per_shot_for hometeam_home_decay15_npxg_per_shot_for hometeam_home_roll5_npxg_per_shot_against hometeam_home_roll10_npxg_per_shot_against hometeam_home_roll5_ppda_for hometeam_home_roll10_ppda_for hometeam_home_roll5_points_for hometeam_home_roll10_points_for hometeam_home_decay15_points_for hometeam_home_roll5_saves_for hometeam_home_roll10_saves_for hometeam_home_decay15_saves_for hometeam_home_roll5_saves_against hometeam_home_roll10_saves_against hometeam_home_decay15_saves_against hometeam_home_roll5_save_pct_for hometeam_home_roll10_save_pct_for hometeam_home_decay15_save_pct_for hometeam_home_roll5_save_pct_against hometeam_home_roll10_save_pct_against hometeam_home_decay15_save_pct_against hometeam_home_roll5_clean_sheet_for hometeam_home_roll10_clean_sheet_for hometeam_home_decay15_clean_sheet_for hometeam_home_decay15_elo_for awayteam_rest_days awayteam_both_roll5_goals_for awayteam_both_roll10_goals_for awayteam_both_decay15_goals_for awayteam_both_roll5_goals_against awayteam_both_roll10_goals_against awayteam_both_decay15_goals_against awayteam_both_roll5_ht_goals_for awayteam_both_roll10_ht_goals_for awayteam_both_decay15_ht_goals_for awayteam_both_roll5_ht_goals_against awayteam_both_roll10_ht_goals_against awayteam_both_decay15_ht_goals_against awayteam_both_roll10_xg_for awayteam_both_roll5_xg_against awayteam_both_roll10_xg_against awayteam_both_roll5_npxg_for awayteam_both_roll5_shots_for awayteam_both_roll10_shots_for awayteam_both_decay15_shots_for awayteam_both_roll5_shots_against awayteam_both_roll10_shots_against awayteam_both_decay15_shots_against awayteam_both_roll5_sot_for awayteam_both_roll10_sot_for awayteam_both_decay15_sot_for awayteam_both_roll5_sot_against awayteam_both_roll10_sot_against awayteam_both_decay15_sot_against awayteam_both_roll5_corners_for awayteam_both_roll10_corners_for awayteam_both_decay15_corners_for awayteam_both_roll5_corners_against awayteam_both_roll10_corners_against awayteam_both_decay15_corners_against awayteam_both_roll5_deep_completions_for awayteam_both_roll10_deep_completions_for awayteam_both_roll5_deep_completions_against awayteam_both_roll10_deep_completions_against awayteam_both_roll5_sot_pct_for awayteam_both_roll10_sot_pct_for awayteam_both_decay15_sot_pct_for awayteam_both_roll5_sot_pct_against awayteam_both_roll10_sot_pct_against awayteam_both_decay15_sot_pct_against awayteam_both_roll5_xg_per_shot_for awayteam_both_roll10_xg_per_shot_for awayteam_both_roll5_xg_per_shot_against awayteam_both_roll10_xg_per_shot_against awayteam_both_roll5_npxg_per_shot_for awayteam_both_roll5_npxg_per_shot_against awayteam_both_roll5_ppda_for awayteam_both_roll10_ppda_for awayteam_both_roll5_points_for awayteam_both_roll10_points_for awayteam_both_decay15_points_for awayteam_both_roll5_saves_for awayteam_both_roll10_saves_for awayteam_both_decay15_saves_for awayteam_both_roll5_saves_against awayteam_both_roll10_saves_against awayteam_both_decay15_saves_against awayteam_both_roll5_save_pct_for awayteam_both_roll10_save_pct_for awayteam_both_decay15_save_pct_for awayteam_both_roll5_save_pct_against awayteam_both_roll10_save_pct_against awayteam_both_decay15_save_pct_against awayteam_both_roll5_clean_sheet_for awayteam_both_roll10_clean_sheet_for awayteam_both_decay15_clean_sheet_for awayteam_both_roll5_elo_for awayteam_both_roll5_std_goals_for awayteam_both_roll10_std_goals_for awayteam_both_roll5_std_points_for awayteam_both_roll10_std_points_for awayteam_both_roll5_std_xg_for awayteam_both_roll10_std_xg_for awayteam_win_streak awayteam_loss_streak awayteam_unbeaten_streak awayteam_nowin_streak awayteam_matches_last_14d awayteam_elo_momentum5 awayteam_away_roll5_goals_for awayteam_away_roll10_goals_for awayteam_away_decay15_goals_for awayteam_away_roll5_goals_against awayteam_away_roll10_goals_against awayteam_away_decay15_goals_against awayteam_away_roll5_ht_goals_for awayteam_away_roll10_ht_goals_for awayteam_away_decay15_ht_goals_for awayteam_away_roll5_ht_goals_against awayteam_away_roll10_ht_goals_against awayteam_away_decay15_ht_goals_against awayteam_away_roll5_xg_against awayteam_away_roll5_npxg_for awayteam_away_roll10_npxg_for awayteam_away_decay15_npxg_against awayteam_away_roll5_shots_for awayteam_away_roll10_shots_for awayteam_away_decay15_shots_for awayteam_away_roll5_shots_against awayteam_away_roll10_shots_against awayteam_away_decay15_shots_against awayteam_away_roll5_sot_for awayteam_away_roll10_sot_for awayteam_away_decay15_sot_for awayteam_away_roll5_sot_against awayteam_away_roll10_sot_against awayteam_away_decay15_sot_against awayteam_away_roll5_corners_for awayteam_away_roll10_corners_for awayteam_away_decay15_corners_for awayteam_away_roll5_corners_against awayteam_away_roll10_corners_against awayteam_away_decay15_corners_against awayteam_away_roll5_deep_completions_for awayteam_away_roll10_deep_completions_for awayteam_away_roll5_deep_completions_against awayteam_away_decay15_deep_completions_against awayteam_away_roll5_sot_pct_for awayteam_away_roll10_sot_pct_for awayteam_away_decay15_sot_pct_for awayteam_away_roll5_sot_pct_against awayteam_away_roll10_sot_pct_against awayteam_away_decay15_sot_pct_against awayteam_away_roll5_xg_per_shot_for awayteam_away_roll10_xg_per_shot_for awayteam_away_roll5_xg_per_shot_against awayteam_away_decay15_xg_per_shot_against awayteam_away_roll5_npxg_per_shot_for awayteam_away_decay15_npxg_per_shot_for awayteam_away_roll5_npxg_per_shot_against awayteam_away_roll10_npxg_per_shot_against awayteam_away_roll5_ppda_for awayteam_away_roll10_ppda_for awayteam_away_roll5_points_for awayteam_away_roll10_points_for awayteam_away_decay15_points_for awayteam_away_roll5_saves_for awayteam_away_roll10_saves_for awayteam_away_decay15_saves_for awayteam_away_roll5_saves_against awayteam_away_roll10_saves_against awayteam_away_decay15_saves_against awayteam_away_roll5_save_pct_for awayteam_away_roll10_save_pct_for awayteam_away_decay15_save_pct_for awayteam_away_roll5_save_pct_against awayteam_away_roll10_save_pct_against awayteam_away_decay15_save_pct_against awayteam_away_roll10_clean_sheet_for awayteam_away_decay15_clean_sheet_for awayteam_away_decay15_elo_for rest_days_diff both_roll5_goals_for_diff both_roll10_goals_for_diff both_decay15_goals_for_diff both_roll5_goals_against_diff both_roll10_goals_against_diff both_decay15_goals_against_diff both_roll5_ht_goals_for_diff both_roll10_ht_goals_for_diff both_decay15_ht_goals_for_diff both_roll5_ht_goals_against_diff both_roll10_ht_goals_against_diff both_decay15_ht_goals_against_diff both_roll5_xg_for_diff both_roll10_xg_for_diff both_decay15_xg_for_diff both_roll5_xg_against_diff both_roll10_xg_against_diff both_decay15_xg_against_diff both_roll5_npxg_for_diff both_roll10_npxg_for_diff both_decay15_npxg_for_diff both_roll5_npxg_against_diff both_roll10_npxg_against_diff both_decay15_npxg_against_diff both_roll5_shots_for_diff both_roll10_shots_for_diff both_decay15_shots_for_diff both_roll5_shots_against_diff both_roll10_shots_against_diff both_decay15_shots_against_diff both_roll5_sot_for_diff both_roll10_sot_for_diff both_decay15_sot_for_diff both_roll5_sot_against_diff both_roll10_sot_against_diff both_decay15_sot_against_diff both_roll5_corners_for_diff both_roll10_corners_for_diff both_decay15_corners_for_diff both_roll5_corners_against_diff both_roll10_corners_against_diff both_decay15_corners_against_diff both_roll5_deep_completions_for_diff both_roll10_deep_completions_for_diff both_decay15_deep_completions_for_diff both_roll5_deep_completions_against_diff both_roll10_deep_completions_against_diff both_decay15_deep_completions_against_diff both_roll5_sot_pct_for_diff both_roll10_sot_pct_for_diff both_decay15_sot_pct_for_diff both_roll5_sot_pct_against_diff both_roll10_sot_pct_against_diff both_decay15_sot_pct_against_diff both_roll5_xg_per_shot_for_diff both_roll10_xg_per_shot_for_diff both_decay15_xg_per_shot_for_diff both_roll5_xg_per_shot_against_diff both_roll10_xg_per_shot_against_diff both_decay15_xg_per_shot_against_diff both_roll5_npxg_per_shot_for_diff both_roll10_npxg_per_shot_for_diff both_decay15_npxg_per_shot_for_diff both_roll5_npxg_per_shot_against_diff both_roll10_npxg_per_shot_against_diff both_decay15_npxg_per_shot_against_diff both_roll5_ppda_for_diff both_roll10_ppda_for_diff both_decay15_ppda_for_diff both_roll5_points_for_diff both_roll10_points_for_diff both_decay15_points_for_diff both_roll5_saves_for_diff both_roll10_saves_for_diff both_decay15_saves_for_diff both_roll5_saves_against_diff both_roll10_saves_against_diff both_decay15_saves_against_diff both_roll5_save_pct_for_diff both_roll10_save_pct_for_diff both_decay15_save_pct_for_diff both_roll5_save_pct_against_diff both_roll10_save_pct_against_diff both_decay15_save_pct_against_diff both_roll5_clean_sheet_for_diff both_roll10_clean_sheet_for_diff both_decay15_clean_sheet_for_diff both_roll5_std_goals_for_diff both_roll10_std_goals_for_diff both_roll5_std_points_for_diff both_roll10_std_points_for_diff both_roll5_std_xg_for_diff both_roll10_std_xg_for_diff win_streak_diff loss_streak_diff unbeaten_streak_diff nowin_streak_diff matches_last_14d_diff elo_momentum5_diff h2h_goal_diff_last4 h2h_points_last4 season_progress home_position away_position home_pts_to_1st away_pts_to_1st home_pts_to_ucl away_pts_to_ucl home_pts_to_europe away_pts_to_europe home_pts_to_relegation away_pts_to_relegation position_diff
feature_infos=-1:0:4:3:1:2 [1305.6899498281241:1906.4993183814745] [1309.8900095146864:1907.5312625945271] [-526.65080719338494:496.33849058374471] [2:8] [0:5.7999999999999998] [0:4.5] [0:4.1349477310161618] [0:5] [0:5] [0:5] [0:2.7999999999999998] [0:2.2000000000000002] [0:2.2623613302479937] [0:5] [0:5] [0:5] [0.030934:3.9588540000000001] [0.030934:3.3536800474668045] [0.084219837500000005:3.6942124531250009] [0.16546805000000001:3.3415660000000003] [4.2000000000000002:24.600000000000001] [5:24] [5:24] [3.3999999999999999:27] [4.2999999999999998:27] [4.8554341585779994:27] [0:13.4] [0:13.5] [0:12.00671393637786] [0.80000000000000004:15] [1.2:15] [1.4503118820066616:15] [0:12] [0:10.800000000000001] [0:10] [0:12] [0:12] [0:12] [0:21.399999999999999] [0:18.600000000000001] [0:24] [0:24] [0:0.83000000000000007] [0:0.75326839826839831] [0:0.75] [0.095238095238095205:0.77396825396825408] [0.14694444444444441:0.75] [0.1475840336134453:0.75] [0.015467:0.3153881168831168] [0.015467:0.2943423863636363] [0.026729684090908999:0.29696789848484839] [0.026729684090908999:0.28732714285714278] [0.015467:0.25330961282051279] [0.026729684090908999:0.27159123181818179] [3.827586206896552:47.017441860465119] [3.827586206896552:54.540009469696962] [0:3] [0:3] [0:3] [0.20000000000000001:13] [0.59999999999999998:13] [0.85232533246428932:13] [0:12] [0:11.800000000000001] [0:10.284388039952956] [0.013333333333333501:1] [0.074999999999999997:1] [0.09375:1] [0:1] [0:1] [0:1] [0:1] [0:1] [0:1] [1320.8806346503814:1902.1456776186683] [0:4.1472882706655438] [0:3.0110906108363231] [0:2.1213203435596424] [0:2.1213203435596424] [0.0133852876821282:2.3876968291566665] [0.0133852876821282:1.8512116975286617] [0:17] [0:14] [0:30] [0:4] [-62.956151611328096:66.063833195788447] [0:5.7999999999999998] [0:4.7999999999999998] [0:4.387083619049462] [0:5] [0:5] [0:5] [0:3.2000000000000002] [0:3] [0:3] [0:3] [0:3] [0:3] [0.1147990499999999:4.4200320000000008] [0.067255087500000005:3.9657100000000001] [0.057137100000000003:3.9338700000000002] [0.057137100000000003:3.9338700000000002] [4:27.399999999999999] [4:26.699999999999999] [3.25:25.318543287972524] [3:26] [3:26] [3:26] [0:15.4] [0:13.800000000000001] [0:13.459860484584976] [0.59999999999999998:13.4] [1:11.199999999999999] [1:11] [0:12.6] [0:10.699999999999999] [0:10.244287256029454] [0:12] [0:12] [0:12] [0:23.800000000000001] [0:20.399999999999999] [0:18] [0:18] [0:0.78452380952380951] [0:0.77777777777777779] [0:0.77777777777777779] [0.082626262626262603:0.82857142857142851] [0.1176470588235294:0.82857142857142851] [0.1176470588235294:0.80714285714285716] [0.0233202857142857:0.29575133603896098] [0.0175698833333333:0.34344909090909093] [0.0233202857142857:0.23933670508658] [0.0194485124999999:0.2360225] [0.0175698833333333:0.28099071428571432] [0.0175698833333333:0.28099071428571432] [2.3125:67.333333333333329] [2.3125:67.333333333333329] [0:3] [0:3] [0:3] [0:9.8000000000000007] [0.5:9] [0.861328125:9] [0:14] [0:12.199999999999999] [0:11.86669335614652] [-0.099999999999999895:1] [0:1] [0:1] [0:1] [0:1] [0:1] [0:1] [0:1] [0:1] [1337.0696313897561:1887.2246240660847] [2:8] [0:5] [0:4.2999999999999998] [0:4] [0:5] [0:5] [0:5] [0:3] [0:3] [0:3] [0:3] [0:3] [0:3.2197265625] [0.26435949999999991:3.5914514999999998] [0.057137100000000003:3.5996480000000002] [0.057137100000000003:3.13646] [0.22841892:4.1356240000000009] [3.6000000000000001:25] [5:23] [5:22.620768952294789] [2.6000000000000001:27] [4.4000000000000004:27] [4.7485048887557486:27] [0.59999999999999998:13.4] [1:13.5] [0.375:11.839175188883903] [0.59999999999999998:13.800000000000001] [1.3:11.800000000000001] [1.5978947836171715:15.984375] [1:12.199999999999999] [1:10.5] [0.25:10] [0:12] [0:12] [0:12] [0:21.800000000000001] [0:18.899999999999999] [0:18] [0:18] [0.066071428571428503:0.80666666666666664] [0.1214285714285714:0.77777777777777779] [0.034090909090908998:0.77777777777777779] [0.092307692307692299:0.80000000000000004] [0.1176470588235294:0.80000000000000004] [0.1176470588235294:0.80000000000000004] [0.029186278571428501:0.28732714285714278] [0.029186278571428501:0.28732714285714278] [0.028568550000000002:0.2994733333333332] [0.028568550000000002:0.2994733333333332] [0.029186278571428501:0.25344811588235289] [0.028568550000000002:0.2718474818181818] [2.3125:67.333333333333329] [2.3125:67.333333333333329] [0:3] [0:3] [0:3] [0.20000000000000001:11.199999999999999] [0.80000000000000004:9.3000000000000007] [0.974086094244902:12.921875] [0.20000000000000001:12] [0.75:12] [0.25:10.039300617089092] [0:1] [0:1] [0:1] [0:1] [0:1] [0:1] [0:1] [0:1] [0:1] [1321.4262973311031:1900.3172410378691] [0:3.8340579025361623] [0:2.9814239699997214] [0:2.1213203435596424] [0:2.1213203435596424] [0.049673536123372497:2.4672104214021147] [0.049673536123372497:2.131881690443445] [0:18] [0:15] [0:44] [0:29] [0:4] [-67.223453951587544:61.824703872732925] [0:4.7999999999999998] [0:4] [0:4] [0:4.5999999999999996] [0:4.5] [0:4.671875] [0:3] [0:3] [0:3] [0:3] [0:3] [0:4.5] [0.22284300000000001:4.2596800000000004] [0.033221500000000001:3.5486040000000001] [0.033221500000000001:3.246623] [0.22284300000000001:4.2596800000000004] [3:24.199999999999999] [3:23] [2.5:23] [4:28.199999999999999] [5.2000000000000002:27] [5.7363066380462353:27] [0:11.6] [0:10.5] [0:10.037476859521078] [0.80000000000000004:19] [1:19] [1:19] [0:10.800000000000001] [0:9.4000000000000004] [0:9.75] [0:13] [0:13] [0:13.25] [0:19.800000000000001] [0:16.600000000000001] [0:19] [0:22] [0:0.79920634920634925] [0:0.78888888888888897] [0:0.78055555555555556] [0.0977777777777777:0.76212121212121209] [0.1111111111111111:0.75] [0.1111111111111111:0.75] [0.016610750000000001:0.27705114857142848] [0.016610750000000001:0.274642] [0.032871499999999998:0.41834666666666659] [0.032871499999999998:0.41834666666666659] [0.016610750000000001:0.274642] [0.016610750000000001:0.274642] [0.032871499999999998:0.25167247619047611] [0.032871499999999998:0.24943666666666661] [3.4651162790697674:51.571428571428569] [3.4651162790697674:51.571428571428569] [0:3] [0:3] [0:3] [0:15] [0:15] [0:15] [0:10.4] [0:9] [0:8.6019015795543083] [0:1] [0:1] [0:1] [0:1] [0:1] [0:1] [0:1] [0:1] [1338.8845907396546:1890.002010928762] [-6:6] [-4.4000000000000004:5.2000000000000002] [-3.3999999999999999:3.7999999999999998] [-3.1984118037290656:3.3724059179628725] [-4.7999999999999998:3.3999999999999999] [-4.5:3.8999999999999999] [-4.4634159824738209:3.7289063616459162] [-2.6000000000000001:2.3999999999999999] [-2.2999999999999998:1.8999999999999999] [-2.2271105285613291:1.833047523197826] [-2.7999999999999998:4.2000000000000002] [-2.6000000000000001:4.5999999999999996] [-2.7409886722852157:4.5140109195340656] [-3.1573670200000001:3.266003599999999] [-2.7477253333333334:2.6518307499999998] [-2.4394520377787372:3.0358888593671387] [-2.5116174:2.3271649999999999] [-2.02244:1.84932684] [-3.0094657257883619:2.5516739761885634] [-3.2104028000000007:3.1137695999999999] [-2.5247673333333331:2.4668821000000003] [-2.2486483778062785:2.7725402057765929] [-2.8161372:2.1908394000000002] [-2.576047:1.9432853999999999] [-2.6282908186226663:2.7396859567407441] [-16.600000000000001:16.199999999999999] [-12.75:13.699999999999999] [-12.249499688982125:11.828126576987064] [-16.600000000000001:18.200000000000003] [-17.5:15.5] [-16.954911193150906:15.871016964178963] [-9.5999999999999996:10.199999999999999] [-8:7.2000000000000011] [-8.4576881540104036:7.8993677711629555] [-8:9.5999999999999996] [-7.2000000000000002:8.9000000000000004] [-9.3486938238798061:8.9549823939249045] [-8.5999999999999996:7.7999999999999989] [-6.2000000000000011:5.5999999999999996] [-5.77282351464493:6.0812705841379415] [-7.4000000000000004:8.1999999999999993] [-7.0999999999999996:6.5499999999999998] [-7.1824545827757085:6.8849398569964144] [-17.199999999999999:17.800000000000001] [-16.800000000000001:17.600000000000001] [-15.487288613442107:17.485472701076695] [-13:13.4] [-13:13.5] [-15.181760582385614:13.483555778720071] [-0.47719576719576717:0.47261904761904749] [-0.47651787296524128:0.4142857142857142] [-0.4846260679754924:0.4142857142857142] [-0.47361111111111098:0.37675053704465478] [-0.3466442189524031:0.38032425091248617] [-0.39903544988298451:0.39914484653105797] [-0.2507812261904761:0.2280801803751803] [-0.2507812261904761:0.2280801803751803] [-0.2507812261904761:0.1877318308080807] [-0.23201969999999991:0.2507812261904761] [-0.23201969999999991:0.2507812261904761] [-0.1686776607198969:0.2507812261904761] [-0.15183836624857591:0.15402061871070111] [-0.1420240833333333:0.14006484222672061] [-0.1420240833333333:0.15795326131628989] [-0.2146705833333333:0.1420240833333333] [-0.2146705833333333:0.1420240833333333] [-0.2146705833333333:0.17755249340277779] [-56.276812337088202:31.105782712595438] [-55.360197444122186:32.430104350022347] [-55.116579528589931:37.99025223379369] [-3:3] [-3:3] [-3:3] [-6.7999999999999998:10.199999999999999] [-5.7333333333333325:10.1] [-8.9290147594052485:10.484452432102568] [-7.8000000000000007:9.1999999999999993] [-6.7999999999999998:6.2000000000000002] [-6.6129982927620787:6.7600830194970563] [-0.76666666666666639:0.97142857142857164] [-0.66749999999999998:0.76642857142857146] [-0.67786110299150526:0.74356510476201099] [-0.8600000000000001:0.81269841269841281] [-0.69238095238095243:0.62285714285714278] [-0.76190030331052916:0.72108123680069969] [-1:1] [-0.90000000000000002:1] [-0.904296875:0.92722117015714878] [-3.2863353450309973:3.1472882706655438] [-2.1734072022474091:2.2222799730897087] [-2.1213203435596424:2.1213203435596424] [-2.1213203435596424:2.1213203435596424] [-2.2241319981800758:1.8487131247234851] [-1.6523368290205891:1.5563512638055064] [-18:17] [-14:12] [-44:43] [-26:29] [-3:3] [-98.414302614288076:88.890309466738472] [-6:7] [-1:3] [0.0071942446043165003:1] [1:20] [1:20] [-74:0] [-75:0] [-59:41] [-59:39] [-50:43] [-50:42] [-25:70] [-25:67] [-19:19]
tree_sizes=3383 3527 3529 3431 3416 3615 3610 3619 3301 3661 3302 3502 3519 3508 3614 3542 3651 3514 3417 3520 3545 3525 3642 3664 3652 3520 3659 3631 3513 3527 3534 3318 3321 3554 3405 3288 3440 3325 3517 3429 3415 3319 3408 3633 3625 3186 3082 3192 3563 3203 3427 3202 3196 3327 3427 3517 3621 3422 3421 3552 3545 3534 3432 3530 3292 3545 3546 3423 3443 3547 3413 3445 2979 3194 3418 3093 3318 3550 3209 3523 3446 3227 3427 3554 3547 3535 3554 3311 3433 3435 3313 3218 3428 3232 3536 3303 3534 3534 3638 3305 2860 3425 2874 3074 3547 3545 3563 3305 3213 3526 3189 3201 3422 3074 3109 3201 3095 3429 3222 2982 3077 2971 3105 3219 3330 3089 3541 3178 3532 3538 3314 3191 3000 3217 3210 3551 3317 3541 3316 3307 2893 3528 2988 2869 2966 3315 2898 2999 3228 2885 3430 2667 3000 3103 2449 3097 3231 3332 2898 2779 2564 3006 3196 3438 3220 3191 3229 3558 3113 3329 2970 3101 2977 2989 3188 3205 2759 2994 2856 2758 3642 2975 3102 3107 2763 3446 3336 3196 2886 2775 2763 2964 2957 2559 2771 2970 3004 3221 3091 2870 2875 3215 3013 3217 2993 2997 2751 2349 3224 2874 2109 2794 2677 2677 2016 3437 2633 2775 2989 2671 3097 2983 3103 3215 2887 2969 2767 2993 2750 2769 2759 2771 2664 2882 2786 2685 3198 2762 2661 2557 2546 2896 2973 2652 2666 2445 3000 1885 3101 2654 2551 2125 3204 2104 2320 2775 2892 2214 2885 2122 2457 2547 2333 2298 3106 2879 2786 1780 2658 3193 2784 2230 2782 2776 2440 2571 2880 2117 2779 3208 3213 2331 3203 2559 2763 2447 2320 2678 1672 3203 2881 2973 2427 2118 2552 1565 2109 2095 3111 2085 2439 2767 2116 1792 2764 1894 3091 3324 2865 2112 2331 2224 2756 2330 1890 2549 2107 1778 2117 1452 3109 2449 1241 1248 2347 2545 1451 1576 2860 1457 1776 2339 2759 2555 3220 3218 2538 2653 2551 2421 2543 2540 1783 3220 2336 2436 2216 1671 2959 1766 1875 3099 1799 2542 1666 1679 1567 1133 1457 1133 2448 2224 2218 1996 2669 1887 1891 2223 2649 2232 2000 1235 1448 1659 1675 2329 1989 1771 2456 1680 2440 2543 2761 1345 2560 2447 1795 1898 2005 2115 2004 2450 2438 1995 2437 2218 2211 1999 2655 2108 3331 1904 1908 1780 2890 3528 3096 2666 1795 2669 3119 2771 2113 2001 2358 1788 1248 2353 926 2450 2462 2563 1799 2448 1890 1886 2100 2223 2894 1674 3096 1891 1881 1785 1673 2236 1667 2119 1789 1877 1790 1693 2674 1352 1353 2228 3217 1575 1357 1554

Tree=0
num_leaves=31
num_cat=0
split_feature=3 3 3 263 359 346 3 361 362 3 351 350 24 340 345 343 145 359 331 415 115 355 369 257 249 398 426 3 77 250
split_gain=1695.69 321.118 278.515 60.8322 37.537 37.5289 34.1692 33.1617 24.7713 24.7018 19.0399 18.7093 18.1214 17.5598 16.7197 14.9053 15.5132 14.6777 14.4465 12.3409 11.7895 11.7861 11.3546 11.2653 10.7863 10.5141 8.26819 7.23191 5.59151 0.790804
threshold=-24.093817542704066 -155.95712117706748 120.52559837110608 13.558464782730853 0.18782486344554927 0.60000000000000042 -239.27929261272433 -0.39999999999999897 -0.36916019367992353 203.18497832383352 -2.1749999999999994 -0.012046484647580949 14.900000000000002 -4.1499999999999986 1.7999999999999996 1.7500000000000002 3.9000000000000004 -1.2336999901120687 0.15687950000000014 -0.41666666666666657 7.4500000000000011 0.40000000000000019 -0.058249146191732291 1.1729971274740574 1.0000000180025095e-35 -0.13058564491556332 10.500000000000002 330.25227498129101 2.0493829816118896 0.60422226181136207
decision_type=2 2 2 10 10 10 2 10 8 2 10 10 8 10 10 10 10 10 10 8 8 10 10 8 10 10 8 2 10 8
left_child=1 6 5 4 13 8 17 12 22 18 -10 19 -5 -3 -9 16 -8 20 24 -7 -1 -6 -2 -20 -4 -13 -17 28 -11 -29
right_child=2 3 9 7 21 11 15 14 10 27 -12 25 -14 -15 -16 26 -18 -19 23 -21 -22 -23 -24 -25 -26 -27 -28 29 -30 -31
leaf_value=0.39456612489504228 0.41017901452050598 0.40179365654777605 0.41547476712296888 0.41848091167069451 0.4198164699384086 0.41229123208046831 0.40314228637202038 0.40858679284860211 0.41183834681670384 0.43066646564961908 0.4178504541451552 0.40938419828933548 0.4118129550515599 0.40777955835958163 0.42260431861999087 0.4039472037739143 0.41421244895068826 0.40905281984889014 0.40871274242797939 0.42484955098449856 0.40508145358161762 0.41073028837948289 0.42202332659547254 0.42390966856987944 0.42786860463653709 0.42027621781577246 0.39825153081135706 0.4346222469246912 0.42404358731477265 0.43088001960625627
leaf_weight=199.96966026723385 11.01629266142845 78.55095636844635 9.3399002999067289 176.73965182900429 38.317539691925049 10.537323415279387 76.874564006924629 136.74571977555752 81.185287222266197 246.42967714369297 425.56417520344257 12.453200399875639 75.198171645402908 330.24929521977901 11.974231153726576 46.22053225338459 20.835162207484245 10.537323415279387 9.1004156768322009 257.68545442819595 14.848046630620955 35.683208838105202 211.94389142096043 20.595677584409714 330.48877984285355 144.88819696009159 115.91055756807327 67.534663707017899 17.721862107515335 8.3819618076086027
leaf_count=835 46 328 39 738 160 44 321 571 339 1029 1777 52 314 1379 50 193 87 44 38 1076 62 149 885 86 1380 605 484 282 74 35
internal_value=0.416232 0.406614 0.42329 0.410699 0.407979 0.419844 0.399178 0.413976 0.418278 0.4289 0.416887 0.422529 0.41649 0.406629 0.409716 0.401991 0.405502 0.395936 0.426863 0.424356 0.395293 0.415436 0.421438 0.419251 0.427528 0.419414 0.399875 0.431113 0.430222 0.43421
internal_weight=3233.52 1368.65 1864.87 883.459 482.801 1155.27 485.196 400.658 729.71 709.593 506.749 425.564 251.938 408.8 148.72 259.841 97.7097 225.355 369.525 268.223 214.818 74.0007 222.96 29.6961 339.829 157.341 162.131 340.068 264.152 75.9166
internal_count=13502 5715 7787 3689 2016 4824 2026 1673 3047 2963 2116 1777 1052 1707 621 1085 408 941 1543 1120 897 309 931 124 1419 657 677 1420 1103 317
is_linear=0
shrinkage=1


Tree=1
num_leaves=31
num_cat=0
split_feature=3 3 3 263 361 339 3 3 347 349 347 319 275 361 340 230 150 256 347 186 99 356 40 148 35 108 28 260 376 355
split_gain=1656.64 311.847 273.58 59.5071 36.6324 35.9111 33.0562 24.3409 22.0723 21.7943 20.388 19.2414 17.371 16.8546 16.7658 14.8961 14.6951 14.3336 13.88 14.2008 13.4122 13.3034 12.6674 10.1787 8.97521 8.57505 8.50161 7.82197 7.58652 6.63706
threshold=-24.093817542704066 -155.95712117706748 120.52559837110608 12.524298005728772 -0.39999999999999897 -0.79999999999999927 -239.27929261272433 203.18497832383352 0.37154484165678997 1.2142857142857146 -0.015906715113983744 0.60714285714285721 6.3619794034347574 -0.11805555555555579 4.6500000000000021 0.44721359549995859 0.71150945041364355 1.4076164000000002 0.53546891514825157 3.8148194256344334 1.6095180000000002 1.0856079975573971 5.9500000000000011 0.81666666666666698 5.3484620532554796 9.5740196040563319 3.683333333333334 12.102333942020648 -0.018266935539713498 0.39999999999999974
decision_type=2 2 2 10 10 10 2 2 10 8 10 10 10 8 10 10 10 10 10 10 10 8 10 8 10 8 10 10 8 10
left_child=1 6 5 10 9 13 21 18 -6 -5 15 14 20 16 -7 -3 -2 -15 19 -4 -8 23 -13 -1 -20 -12 -14 -23 -9 -30
right_child=2 3 7 4 8 11 12 28 -10 -11 25 22 26 17 -16 -17 -18 -19 24 -21 -22 27 -24 -25 -26 -27 -28 -29 29 -31
leaf_value=-0.017461541339373832 0.0070809517257863306 0.0031355753310688276 -0.0025420187988215229 0.00045545417401961598 -0.0082420732879036045 0.0052130512675467016 -0.015860453739002602 0.0051547777657947845 0.0011320373893728016 -0.0071102107433121883 0.002694604605950827 -0.0054004695712052374 -0.010785194297479643 0.00020197133233371405 0.011712513676551085 -0.011505709918321366 -0.0015762039188929773 -0.01055884638991165 0.0094560042775169249 0.0089810438320931437 -0.0087268302385308718 -0.015729222587184784 0.0064773669586429862 -0.0046308650413523543 0.013733869774376593 -0.0063920235971531266 0.0053966163676231393 -0.02286946252851425 0.015740174851256578 0.010299270201198408
leaf_weight=65.156535968184471 88.033664613962173 9.3564746677875501 16.500456884503365 288.18045601248741 193.79874670505524 628.30322924256325 202.71676068007946 10.028059780597685 39.056966587901115 59.447731256484985 18.937544301152229 34.702894434332848 8.4052876979112643 277.25500884652138 55.958537414669991 229.36596830189228 35.649393990635872 17.002458184957504 104.66849651932716 85.772863402962685 41.059617504477501 23.562833040952682 17.469187214970589 9.1352703869342786 161.75528252124786 46.278512418270111 8.3974469453096372 128.41047009825706 296.74272722005844 32.231775373220444
leaf_count=271 368 39 69 1203 808 2626 844 42 163 248 79 145 35 1158 234 956 149 71 438 359 171 98 73 38 677 193 35 534 1243 135
internal_value=0.000151242 -0.00933851 0.0071397 -0.00531306 -0.00317753 0.00372517 -0.0166512 0.0127093 -0.00666959 -0.000838272 -0.00939148 0.00523686 -0.0138879 0.00106138 0.00574466 -0.0109317 0.00458539 -0.000419741 0.0106856 0.00712156 -0.0146592 -0.0198331 -0.00142249 -0.0158845 0.0120535 -0.00375285 -0.00269613 -0.0217629 0.0149101 0.0152073
internal_weight=3233.34 1371.27 1862.07 884.422 580.484 1154.37 486.844 707.7 232.856 347.628 303.938 736.434 260.579 417.941 684.262 238.722 123.683 294.257 368.697 102.273 243.776 226.265 52.1721 74.2918 266.424 65.2161 16.8027 151.973 339.003 328.975
internal_count=13502 5715 7787 3689 2422 4824 2026 2963 971 1451 1267 3078 1085 1746 2860 995 517 1229 1543 428 1015 941 218 309 1115 272 70 632 1420 1378
is_linear=0
shrinkage=0.011377


Tree=2
num_leaves=31
num_cat=0
split_feature=427 341 341 180 75 344 338 344 317 424 427 194 125 231 335 335 157 75 273 75 341 277 235 266 134 277 320 53 335 242
split_gain=1139.34 340.018 244.351 109.244 71.042 68.6044 62.1227 43.2499 37.1737 33.4972 31.1319 29.3729 24.787 24.7159 24.4359 22.9616 22.5693 20.536 19.2135 18.275 16.8005 20.2747 15.4662 15.24 14.551 12.6598 11.8287 10.287 10.0925 9.31471
threshold=1.5000000000000002 -1.2346690392698407 0.84814953155359174 10.739761410739986 1642.7249420938722 0.9065223404221181 0.26694182200218786 -0.34748792394501737 -0.15733354033849481 2.5000000000000004 -6.4999999999999991 5.5277777777777786 0.25540438319850084 1.7795130420052188 0.25759635157317495 -0.1867325073876154 1558.3966440353724 1599.7801551482626 4.6333333333333337 1562.0580019772447 2.3697189527767066 6.4222222222222234 0.89333010780605282 4.793408785348368 0.075843785335008226 5.0500000000000007 -0.54842592919690181 0.080566750075757518 0.6529417307465778 0.90000000000000013
decision_type=8 8 10 10 10 10 10 10 10 8 10 8 10 10 10 8 10 10 10 10 10 10 8 10 8 10 10 10 8 10
left_child=2 3 5 11 24 10 8 23 12 -9 17 25 -3 -12 22 27 -10 -1 -13 -17 21 -6 -8 -5 29 -2 -26 -7 -22 -4
right_child=1 6 4 7 20 15 14 9 16 -11 13 18 -14 -15 -16 19 -18 -19 -20 -21 28 -23 -24 -25 26 -27 -28 -29 -30 -31
leaf_value=0.0045017644231005252 -0.00098930751009891345 -0.01163203619317789 -0.009956900281951642 0.0016999500841743407 0.011594753081552365 -0.0018126381103881258 -0.0068009822942806004 -0.0079852713008340369 0.00078793055243871863 -0.01655517278022264 0.0029596514908042516 -0.019141152378816726 -0.00110826814748706 -0.015576082896606941 0.0062479554236002984 -0.0033521763347706241 0.0074445688408809876 0.01266214180927782 -0.013551766428999971 0.0033874627302015055 0.011481128000814259 -0.0019480277188231071 -0.015499073168144891 -0.0075940382180535049 0.011033964622359567 -0.017435182766327637 0.0065134057994982158 -0.01101405620326403 0.015783519953951473 0.0059640000146798664
leaf_weight=81.045928984880447 21.622531786561016 33.10726960003376 10.278628066182138 65.433089777827263 108.68259231746197 23.024558842182159 112.57545897364616 238.26268017292023 157.81810501217842 78.503071844577789 333.73611338436604 243.177404910326 231.7911419570446 9.5759932398796064 15.32280460000038 133.44922767579556 113.24404011666775 78.699487626552582 118.48049387335777 85.397973656654358 96.035681918263435 16.471914574503899 34.607329487800598 35.074623391032219 97.34214323759079 8.4181312769651395 325.9163463562727 49.694730967283249 267.37073510885239 8.8474799543619138
leaf_count=339 90 138 43 273 456 96 469 992 659 326 1395 1009 967 40 64 557 474 330 492 357 403 69 144 146 408 35 1364 207 1123 37
internal_value=0.000149663 -0.00707632 0.00646223 -0.012097 0.0104176 0.00182821 -0.00126119 -0.00804613 0.000607063 -0.0101093 0.00437321 -0.0164123 -0.00242377 0.00244243 -0.00742305 -0.0025627 0.00356911 0.00852238 -0.0173102 -0.00072207 0.0134084 0.00981204 -0.00884663 -0.00154313 0.00711456 -0.00560003 0.0075532 -0.00810134 0.0146467 -0.00259027
internal_weight=3233.01 1507.44 1725.57 808.972 930.946 794.624 698.466 417.273 535.961 316.766 503.058 391.699 264.898 343.312 162.506 291.566 271.062 159.745 361.658 218.847 488.561 125.155 147.183 100.508 442.385 30.0407 423.258 72.7193 363.406 19.1261
internal_count=13502 6278 7224 3363 3903 3321 2915 1737 2238 1318 2104 1626 1105 1435 677 1217 1133 669 1501 914 2051 525 613 419 1852 125 1772 303 1526 80
is_linear=0
shrinkage=0.011377


Tree=3
num_leaves=30
num_cat=0
split_feature=347 313 157 344 157 350 347 427 338 313 313 350 374 313 259 323 191 335 191 335 203 259 313 71 370 343 350 164 277
split_gain=1212.6 401.055 216.578 116.429 93.6707 58.7349 41.7725 37.043 33.2537 29.5416 27.87 27.6463 21.3294 20.6852 20.3391 20.3275 18.908 18.3005 16.6938 16.4053 16.402 15.6896 15.0038 14.9364 13.5644 13.0208 12.6143 9.31492 7.25473
threshold=-0.015906715113983744 1636.8929140482062 1596.4368521480849 0.61241615867843724 1580.5932685178595 0.99593921430645638 1.6154692388576275 2.5000000000000004 0.15547934597974142 1614.3128504443073 1734.9629571707644 -0.026500092312680096 -0.037082346942775443 1483.2841994272233 12.535714285714286 -0.40521105214185343 4.3375000000000012 -0.10891681421993964 3.2250000000000005 0.40000835987061029 0.12505417244397751 11.52777777777778 1585.9807004601362 0.7081179706590186 -0.021853834622207798 -1.9999999999999993 0.77600502594300436 0.85486694520713258 7.1125000000000007
decision_type=10 10 10 8 8 10 10 8 10 10 10 10 8 10 10 10 10 8 10 10 8 10 10 10 8 10 10 10 10
left_child=1 3 5 8 10 9 11 12 13 17 16 24 -5 -1 -9 20 -3 -2 -17 21 -6 -7 -13 -11 -4 -10 -12 -8 -29
right_child=2 4 6 7 15 19 27 14 25 23 26 22 -14 -15 -16 18 -18 -19 -20 -21 -22 -23 -24 -25 -26 -27 -28 28 -30
leaf_value=0.0072028061484149782 -0.001253206730151981 -0.017030158290953806 0.0026641696651050284 -0.014607894946209298 0.0012521259364922047 -0.0026738399770967068 0.0048816097071765008 -0.0066233761696520748 0.005197014639205984 0.00077388314909692725 -0.014941491909610864 0.0073571219443233334 -0.0010244308780162548 0.0013747103028350592 -0.01293350361723465 -0.012392974907928756 -0.011067595834760743 0.0056461833186120724 -0.0011939516665248522 0.0087610960062645023 -0.015950349112799241 -0.011876672354081403 -0.00086369221784636627 -0.013100705726052195 0.011318497269029682 -0.0085734746675267537 -0.021684287035301068 0.014589014207656374 0.0046369992158531576
leaf_weight=105.09034906327724 54.827238604426384 147.5440928786993 25.508173123002052 16.293183773756027 8.915479898452757 98.522508442401886 14.039665311574934 245.22955448925495 10.785510048270224 24.452125400304794 48.580636620521545 76.056458652019501 183.13202218711376 315.47676953673363 90.557906657457352 21.673850551247597 129.19762003421783 537.63685163855553 84.02723103761673 12.43482758104801 36.638629570603371 31.69847546517849 46.173120751976967 17.034957185387611 291.27165243029594 50.399899840354919 138.4648971259594 361.15919488668442 9.7508760392665845
leaf_count=440 229 611 107 68 37 411 59 1020 45 102 201 319 764 1318 376 90 536 2251 350 52 152 132 193 71 1224 210 572 1521 41
internal_value=0.000148096 -0.00675253 0.0071843 -0.00236646 -0.0140047 0.00287348 0.0112473 -0.00601867 0.00169097 0.00435771 -0.0165404 0.00884823 -0.00213455 0.00283114 -0.00832533 -0.00622953 -0.0142468 0.00500764 -0.00349086 -0.00372202 -0.0125829 -0.00491445 0.00425138 -0.0049226 0.0106218 -0.00614535 -0.0199334 0.0139831 0.0143275
internal_weight=3232.57 1632.01 1600.57 1016.97 615.042 776.607 823.959 535.213 481.753 633.951 463.787 439.009 199.425 420.567 335.787 151.255 276.742 592.464 105.701 142.656 45.5541 130.221 122.23 41.4871 316.78 61.1854 187.046 384.95 370.91
internal_count=13502 6790 6712 4241 2549 3248 3464 2228 2013 2653 1920 1843 832 1758 1396 629 1147 2480 440 595 189 543 512 173 1331 255 773 1621 1562
is_linear=0
shrinkage=0.011377


Tree=4
num_leaves=30
num_cat=0
split_feature=427 229 75 350 346 75 180 272 157 229 102 194 182 345 263 383 356 390 167 25 31 27 343 390 307 407 276 350 120
split_gain=1091.27 385.732 223.462 90.8171 85.1706 80.4555 57.8459 43.3663 38.1379 35.0695 32.1692 30.4225 25.7806 21.7016 20.2299 20.0246 19.7584 18.0798 17.6785 17.3326 17.2136 16.4545 15.78 13.7069 12.963 12.8351 12.3588 12.5869 9.07033
threshold=1.5000000000000002 1645.5015069276724 1598.1479672953894 0.19972294609397848 0.80000000000000016 1577.5519600080554 11.869192003449571 4.1244076563855794 1577.6310056347938 1633.8984838524898 1.3108388500000003 7.9500000000000011 5.3166666666666673 0.19999999999999954 13.774647935214221 5.2769963713275798 2.0355934816096721 0.62500000000000033 1.1905330967481398 15.950000000000001 3.5500000000000003 7.1000000000000005 4.3285714285714301 0.99999999999999978 0.61071054495281329 -0.23206136118530551 8.1000000000000014 1.1571622037212042 4.8920833058139896
decision_type=8 10 10 8 10 10 10 10 10 10 10 10 10 10 10 10 10 8 10 10 10 10 10 10 10 8 10 10 8
left_child=2 3 6 8 9 12 11 17 16 20 -9 15 25 19 21 -1 -2 -5 -11 -8 -4 -7 -14 -10 -15 -3 27 -6 -13
right_child=1 5 4 7 26 14 13 10 23 18 -12 28 22 24 -16 -17 -18 -19 -20 -21 -22 -23 -24 -25 -26 -27 -28 -29 -30
leaf_value=-0.00051231606831156459 0.0001498394445959692 -0.018298284850166911 0.011920552769105579 -0.0036792605262624301 0.013595294639356055 -0.0090997179631726339 0.0027823312951200637 -0.0057371925542542635 0.0044076837045078253 0.0010448883310225881 -0.013316335960902219 -0.0092285580729063333 -0.016626320805941071 0.0099684832331378981 0.010770107853565724 -0.015804658416578167 -0.015179882559477826 0.0035395367923571428 -0.015803263272808742 -0.0054203886701291179 0.0055675920449224916 0.0046410912800951614 -0.022075654540221947 0.013159292422599765 0.0047063959676883699 -0.010605956361958652 0.0017603054305276936 -0.0005022274067086153 -0.024256807195576376
leaf_weight=190.10310935974121 292.34450566768646 38.991916656494141 86.525370970368385 144.40555289387703 529.24681231379509 99.530645430088043 255.49959200620651 244.14195476472378 61.074301615357399 68.244683876633644 103.1201439499855 12.04238845407963 180.78734461963177 79.174182742834091 8.3883750289678556 11.768042936921118 11.301307260990141 65.170005053281784 9.1384375989437086 38.3428975045681 152.63875117897987 12.71683196723461 111.21031641960144 37.340280085802078 258.56929634511471 100.56421108543873 12.129932448267935 8.3212091922759992 9.1670625656843168
leaf_count=794 1220 161 364 601 2234 413 1069 1015 256 285 428 50 746 332 35 49 47 272 38 160 641 53 458 157 1084 416 51 35 38
internal_value=0.000146552 -0.00690839 0.00634134 -0.00254634 0.0104135 -0.0144832 0.0022139 -0.00552149 0.00157404 0.00571221 -0.00798801 -0.00276624 -0.0167793 0.00397299 -0.00626873 -0.00140413 -0.00042069 -0.00143429 -0.000944656 0.00171181 0.00786623 -0.00754258 -0.018702 0.0077288 0.00594011 -0.0127557 0.0131207 0.013377 -0.0157276
internal_weight=3232 1511.09 1720.91 958.898 866.245 552.19 854.667 556.838 402.06 316.547 347.262 223.081 431.554 631.586 120.636 201.871 303.646 209.576 77.3831 293.842 239.164 112.247 291.998 98.4146 337.743 139.556 549.698 537.568 21.2095
internal_count=13502 6278 7224 3996 3648 2282 3576 2316 1680 1328 1443 931 1781 2645 501 843 1267 873 323 1229 1005 466 1204 413 1416 577 2320 2269 88
is_linear=0
shrinkage=0.011377


Tree=5
num_leaves=32
num_cat=0
split_feature=347 2 1 350 1 350 2 1 2 331 1 2 322 350 1 359 165 327 420 22 66 54 263 101 371 33 338 122 194 338 375
split_gain=1162.61 383.138 215.857 120.945 75.2319 57.5229 54.1806 40.1282 37.6584 33.7917 25.3863 24.3546 20.3595 19.0872 18.33 18.237 16.7906 16.1249 14.6665 18.9844 14.5835 13.1169 12.1376 11.7474 10.8129 10.6601 9.81122 9.78037 9.49478 8.85475 5.878
threshold=-0.015906715113983744 1664.3755311022817 1602.4602862557706 -0.37184370522961568 1596.126363212295 0.99593921430645638 1580.3788158975178 1560.8888810023207 1636.3422565927956 0.16092395000000001 1733.5617793321426 1489.8820912808906 -0.39999999999999991 -0.94303368179828218 1551.7045077806151 -0.15420202963932625 0.77500000000000013 -0.12130419999999958 -4.4999999999999991 15.15 0.64666666666666706 0.11871649636363626 13.126512366003634 0.80386880000000016 -0.0036808897803613494 3.4500000000000006 0.48300805752486159 5.4722222222222232 7.3875000000000011 0.098204526416611315 -0.00037235287691279997
decision_type=10 2 2 8 2 10 2 2 2 10 2 2 8 10 2 10 10 8 10 10 8 10 10 8 10 10 10 10 10 10 10
left_child=1 3 5 14 12 11 9 -8 10 -5 13 23 26 -4 24 22 17 -7 29 -20 -14 -13 -6 -2 -1 -16 -3 -18 -12 -10 -17
right_child=2 4 8 6 15 16 7 -9 18 -11 28 21 20 -15 25 30 27 -19 19 -21 -22 -23 -24 -25 -26 -27 -28 -29 -30 -31 -32
leaf_value=-0.00092313949745142577 0.0007191527133802761 -0.017734367089897299 0.01294042264383268 -0.00057422752666944923 -0.0099132978580868912 -0.011595312482318801 -0.01081662901290755 -0.0011590208756785735 0.0090769696002959074 -0.0068332186293055333 0.015671057821618636 0.0032365290399296916 -0.010023719884959328 0.0084684102885251803 -0.0032976482826429484 -0.0026489868088950212 -0.014848396163632397 0.00041011234814537041 -0.014853406540607196 0.0053585184840539103 -0.016869211066096963 -0.0028988882451139323 0.0039769989696477074 0.0077348079353166113 0.0048687296531113198 0.0076428345187645177 -0.022780120941429581 -0.0025441843943057826 0.0062831674861153295 -0.0027043102320966671 0.010453800206171066
leaf_weight=135.54462170600891 35.475356116890907 153.62814848124981 228.87883986532688 310.27681908011436 75.801677778363228 17.075966253876686 263.98124694824219 70.589922666549683 46.375120252370834 174.4220325499773 218.81763648986816 307.17570601403713 66.764710336923599 268.6495653539896 12.8884409815073 8.4068064242601412 22.835034012794495 95.195867672562599 10.781938731670381 13.596489876508711 101.75205862522125 52.856415972113609 9.1173092871904355 239.84617142379284 60.268501341342926 108.73622910678387 74.05617755651474 13.206973060965536 14.9128201007843 10.039561137557028 9.3597636818885785
leaf_count=566 149 632 968 1294 314 71 1093 294 195 725 928 1286 275 1133 54 35 95 397 45 57 419 221 38 1007 252 456 304 55 63 42 39
internal_value=0.000145026 -0.00659554 0.00705405 -0.00294756 -0.0149073 0.00279445 -0.00525758 -0.00877914 0.0111647 -0.00282667 0.0119791 0.00428373 -0.0171565 0.0105258 0.00301423 -0.00622828 -0.00358508 -0.0014157 0.00379303 -0.00357964 -0.0141575 0.00233567 -0.00842146 0.00683099 0.000859354 0.00648313 -0.0193759 -0.0103412 0.0150723 0.00697967 0.00425209
internal_weight=3231.31 1635.59 1595.72 1136.71 498.887 783.667 819.27 334.571 812.052 484.699 731.259 635.354 396.201 497.528 317.438 102.686 148.314 112.272 80.7931 24.3784 168.517 360.032 84.919 275.322 195.813 121.625 227.684 36.042 233.73 56.4147 17.7666
internal_count=13502 6790 6712 4734 2056 3281 3406 1387 3431 2019 3092 2663 1630 2101 1328 426 618 468 339 102 694 1507 352 1156 818 510 936 150 991 237 74
is_linear=0
shrinkage=0.011377


Tree=6
num_leaves=32
num_cat=0
split_feature=346 229 1 338 1 229 1 229 229 229 338 1 334 229 92 16 312 274 105 1 325 271 425 356 192 124 1 192 99 194 404
split_gain=995.072 426.16 230.754 98.2574 90.4828 65.7156 52.685 36.4816 35.8244 32.0819 27.6173 22.9927 21.594 20.6037 20.1368 19.6122 18.5797 17.9547 16.3055 16.1385 15.9318 15.6206 15.0703 14.985 14.7693 12.6339 12.4556 10.9096 10.5266 8.65095 6.93349
threshold=0.099999999999999825 1633.8984838524898 1602.4602862557706 0.16427882573405553 1594.6623202548633 1563.4579917972708 1549.8036800657931 1641.8706855464222 1511.5163604680085 1709.4082019772343 0.40614974776618912 1751.0742551389837 -0.61351983333333338 1596.7229987421429 1.0683609196387203 0.31228958698045933 0.34949665335628211 6.7888888888888896 12.261093242046959 1440.111435492159 -0.14166666666666666 5.0500000000000007 1.0000000180025095e-35 0.50285739590384637 4.7394510454474661 3.1706885711035704 1562.8131801055636 3.3534611451490099 1.1993913 7.3875000000000011 -1.6653345369377346e-16
decision_type=10 10 2 10 2 10 2 10 8 10 10 2 8 10 8 10 10 10 10 2 10 10 8 10 10 10 2 10 8 10 8
left_child=1 3 5 6 9 10 8 11 -1 17 20 24 27 19 28 -8 30 -3 -16 -5 -2 -11 -12 -14 -4 -18 -15 -6 -7 -13 -9
right_child=2 4 7 13 12 14 15 16 -10 21 22 29 23 26 18 -17 25 -19 -20 -21 -22 -23 -24 -25 -26 -27 -28 -29 -30 -31 -32
leaf_value=0.0021988092031799285 0.0072738626794295628 -0.013000850230698281 0.0076858967076236023 -0.011208088889507391 -0.023030463227033608 -0.009142734108101333 0.011927717456126061 0.015286616886945235 -0.0038107590676394738 -0.014218299205611948 -0.013286260876522136 0.015957372784487413 0.0013821576278010292 -0.014752735102232774 -0.016696254469357418 0.0034651462636645937 0.0044732826960274296 0.0024566334022838557 -0.005042351081537411 -0.0038270218211676008 0.0032657480229987936 -0.02005076312008898 0.00058499519379578556 -0.0073347917490706053 0.011989405664047707 -0.0096692464853856738 8.3613118174639264e-05 -0.0083108910788546059 0.0046822016297791164 0.005904257345545099 0.0054418294420689114
leaf_weight=214.04138520359993 199.50572757422924 228.48139238357544 145.66706447303295 49.74167500436306 10.185847297310831 8.8886316865682584 42.531036227941513 13.770472094416617 320.85526561737061 89.689421534538269 16.567358702421188 182.72365859150887 58.816767528653145 56.414485737681389 19.041811436414719 212.9759279936552 15.967848613858221 10.154052197933195 84.600600197911263 167.46147093176842 360.16813012957573 176.73480772972107 26.10480435192585 45.088568985462189 354.91582004725933 16.746528595685959 8.4112242013216001 18.138907551765442 35.952938511967659 11.811337187886236 28.336137533187866
leaf_count=895 838 941 616 206 42 37 179 58 1335 368 69 778 245 233 79 893 67 42 352 696 1510 724 109 187 1504 70 35 75 150 50 119
internal_value=0.000143524 -0.00581159 0.00683857 -0.00143293 -0.0131799 0.00235074 0.000624101 0.011215 -0.00140593 -0.0153734 0.0040219 0.0120275 -0.00480121 -0.00719798 -0.00442826 0.00487404 0.00366569 -0.012343 -0.00718415 -0.00551763 0.0046946 -0.0180876 -0.00479999 -0.00240017 0.0107372 -0.00276529 -0.0128272 -0.0136069 0.00194062 0.0153473 0.00866297
internal_weight=3230.49 1709.72 1520.77 1072.43 637.29 750.83 790.404 769.939 534.897 505.06 602.346 695.118 132.23 282.029 148.484 255.507 74.821 238.635 103.642 217.203 559.674 266.424 42.6722 103.905 500.583 32.7144 64.8257 28.3248 44.8416 194.535 42.1066
internal_count=13502 7096 6406 4472 2624 3144 3302 3262 2230 2075 2526 2948 549 1170 618 1072 314 983 431 902 2348 1092 178 432 2120 137 268 117 187 828 177
is_linear=0
shrinkage=0.011377


Tree=7
num_leaves=32
num_cat=0
split_feature=3 3 3 344 344 272 355 359 340 3 407 339 3 3 344 353 319 43 16 100 347 272 344 407 231 313 3 66 391 2 372
split_gain=1464.81 265.71 248.559 65.2512 43.7573 33.8215 29.5068 29.1718 22.7708 22.5065 20.8524 20.6704 17.8612 17.0399 16.5412 15.4572 15.2627 14.2539 13.4826 16.2657 12.4326 12.3573 11.658 10.9085 10.3012 9.85818 7.01076 6.31526 4.70478 4.39133 0.81281
threshold=-24.093817542704066 -155.95712117706748 120.52559837110608 0.44493113368667109 0.80410050465062544 4.2122717606592248 0.8000000000000006 -1.5624798888681435 4.6500000000000021 203.18497832383352 0.24517948887717708 -2.0000000000000009 -132.36634845091643 -261.22566841256622 5.0023595814394808 0.081646319062766967 0.71111111111111136 0.31223747657571183 0.82042113993233479 1.2930680760522411 -1.7346064943984423 4.133612835433218 0.73710474884705779 -0.06409851776968678 1.3333333333333337 1619.2657562083343 330.25227498129101 0.64666666666666706 -0.19999999999999948 1532.4402297358592 0.010899576450624652
decision_type=2 2 2 8 8 10 10 8 10 2 10 10 2 2 8 10 10 10 8 10 10 10 8 8 8 10 2 10 8 2 10
left_child=1 6 4 7 8 10 18 20 16 15 -5 17 -9 27 -7 22 -2 -6 19 -1 -3 -15 -4 -17 -13 -20 28 -8 -11 -10 -28
right_child=2 3 9 5 11 14 13 12 29 26 -12 24 -14 21 -16 23 -18 -19 25 -21 -22 -23 -24 -25 -26 -27 30 -29 -30 -31 -32
leaf_value=-0.012110838845489481 0.0048366496950985266 0.0026464776654033964 0.0087697380368486171 -0.0045028797350663285 -0.010366551528949462 -0.0084566371830707369 -0.017708969651305306 -0.008759080549779006 0.0090868575778016974 0.0092497683636756107 0.0093860810299748604 0.0032271917118542131 0.0016023128577182426 -0.0065699374124956059 -0.015675136995533013 0.0059129440958211581 -0.003955321338768001 -0.0013284479187741886 -0.0059187367649223355 -0.0027940166436334433 -0.0092495863877236264 -0.016317414353296585 0.00020037059000926904 0.012639463335725326 -0.0029455885111566789 -0.018707256951760974 0.017784262794030527 -0.022902841492786 0.013958755732225025 0.015720799377829012 0.013946926325069333
leaf_weight=94.996188998222351 707.49388457834721 13.755192041397093 78.897217825055122 155.12564998865128 30.245048880577087 326.00995250046253 51.686274006962776 23.631734058260918 26.534905537962914 31.314661428332329 15.375421494245527 201.9631972014904 242.35689888894558 18.728013873100281 47.035927593708038 36.370636314153671 26.508870959281921 89.226068630814552 9.4491719603538495 32.58795277774334 65.461702212691307 168.06608159840107 27.79782247543335 220.99554634094238 42.319104254245758 45.08428618311882 65.91341795027256 73.777900248765945 227.40091364085674 25.26882803440094 8.1799318492412549
leaf_count=390 2973 57 334 644 126 1349 211 98 112 133 64 846 1011 77 194 154 111 372 39 134 272 689 117 938 177 185 282 301 970 107 35
internal_value=0.000142039 -0.0087108 0.00677357 -0.00499159 0.00352348 -0.0074483 -0.0153968 -0.00112322 0.00503368 0.0121348 -0.00325008 0.00026092 0.000681549 -0.0175198 -0.00936698 0.0101795 0.00451906 -0.00361698 -0.0117564 -0.00973149 -0.00718346 -0.0153404 0.00653752 0.0116891 0.00215766 -0.0164924 0.0142736 -0.0207638 0.013389 0.012324 0.0173615
internal_weight=3229.56 1383.13 1846.43 888.752 1149.56 543.547 494.376 345.206 785.806 696.87 170.501 363.753 265.989 312.258 373.046 364.061 734.003 119.471 182.118 127.584 79.2169 186.794 106.695 257.366 244.282 54.5335 332.809 125.464 258.716 51.8037 74.0933
internal_count=13502 5715 7787 3689 4824 2251 2026 1438 3303 2963 708 1521 1109 1278 1543 1543 3084 498 748 524 329 766 451 1092 1023 224 1420 512 1103 219 317
is_linear=0
shrinkage=0.011377


Tree=8
num_leaves=29
num_cat=0
split_feature=3 3 3 344 344 358 3 359 353 340 3 328 3 103 275 353 377 126 359 3 99 356 386 328 376 66 3 116
split_gain=1431.61 258.632 244.327 63.619 42.8514 28.6127 27.6881 25.4097 23.5184 22.3736 22.2194 20.9513 18.7377 16.0135 15.5863 15.2143 14.205 13.3382 13.2303 12.5433 12.3322 9.28998 9.10156 8.70747 7.48339 5.88437 5.63327 4.85927
threshold=-24.093817542704066 -155.95712117706748 120.52559837110608 0.44493113368667109 0.80410050465062544 0.099999999999999825 -239.27929261272433 1.6517919959864951 0.25121177632688291 4.6500000000000021 203.18497832383352 0.34861534999999994 -104.0598590531216 10.900000000000002 6.3619794034347574 0.081646319062766967 -0.043785538818855545 0.31598185768069004 -1.2336999901120687 70.237673105001946 1.6095180000000002 1.0856079975573971 -0.013526019192635399 0.69554645000000026 -0.018266935539713498 0.64666666666666706 330.25227498129101 6.7071428571428582
decision_type=2 2 2 8 8 8 2 10 10 10 2 10 2 10 10 10 10 10 10 2 10 8 8 10 8 8 2 8
left_child=1 6 4 5 9 16 18 8 -5 19 15 13 -7 -6 20 17 -3 -4 21 -2 -8 -1 -17 -13 -12 -16 -26 -11
right_child=2 3 10 7 11 12 14 -9 -10 27 24 23 -14 -15 25 22 -18 -19 -20 -21 -22 -23 -24 -25 26 -27 -28 -29
leaf_value=-0.015217081942914885 0.0034554234803844531 -0.016637907762010094 -0.0032232336028280473 -0.0090254762985831818 -0.0057258713272700119 -0.0058330249627470956 -0.01453789190678016 0.0068318978940187765 -0.0031546582529643919 0.0089622362058470618 0.0043920851098522362 0.010632832359389912 0.0034515309960384886 0.00056110859857493977 -0.0088209032147313418 0.00075980133128629489 -0.0037734752277768899 0.0081443159548557353 -0.0057266642766001684 0.0066504671193985451 -0.0077455024945506179 -0.020253867524847445 0.012013141005816094 -0.0017495854924291087 0.013643271339989759 0.0045808127272747518 0.017236353870658264 0.015965148254288672
leaf_weight=69.301752299070358 499.95023322105408 12.064967066049574 15.656868264079092 416.26835413277149 65.952977150678635 34.202257737517357 206.06936155259609 15.86342518031597 112.14062115550041 27.637410432100296 9.8581884950399381 32.40499110519886 158.5185040384531 255.86811438202858 8.4780690968036669 9.6747450381517393 140.48817764222622 90.873376056551933 10.734058871865271 233.32137018442154 41.620926946401596 150.81806187331676 246.96359734237194 9.5002169311046583 248.4532895386219 8.477064296603201 73.293749004602432 24.016088768839836
leaf_count=283 2100 50 66 1720 275 142 844 66 465 117 42 136 662 1070 35 41 584 385 44 984 171 614 1051 40 1063 35 315 102
internal_value=0.00014058 -0.00859967 0.00670753 -0.00493034 0.00348618 -0.00111019 -0.0151869 -0.00735368 -0.00777964 0.00498204 0.0120332 0.000257986 0.00180355 -0.000727236 -0.0126744 0.0100886 -0.00479135 0.00647322 -0.0180669 0.00447213 -0.0133968 -0.0186684 0.0115891 0.00782479 0.0141628 -0.00211846 0.014462 0.0122195
internal_weight=3228.47 1385.05 1843.43 889.546 1148.65 345.274 495.499 544.272 528.409 784.925 694.774 363.726 192.721 321.821 264.645 363.169 152.553 106.53 230.854 733.272 247.69 220.12 256.638 41.9052 331.605 16.9551 321.747 51.6535
internal_count=13502 5715 7787 3689 4824 1438 2026 2251 2185 3303 2963 1521 804 1345 1085 1543 634 451 941 3084 1015 897 1092 176 1420 70 1378 219
is_linear=0
shrinkage=0.011377


Tree=9
num_leaves=32
num_cat=0
split_feature=427 344 346 346 414 423 344 271 256 339 346 337 250 260 311 320 256 390 269 344 301 204 100 278 164 98 414 303 164 301 119
split_gain=928.54 254.594 169.04 107.489 71.3127 63.2922 49.3013 39.9806 39.2417 33.7923 29.8235 29.6494 27.9644 26.0851 22.6644 22.2254 20.4594 19.6343 17.0356 16.3207 15.6958 14.892 14.674 13.4604 13.4528 12.551 10.6648 10.5166 10.4052 10.1746 6.57401
threshold=1.5000000000000002 1.0053548589299777 0.60714285714285754 -1.6999999999999995 -0.58333333333333315 1.0000000180025095e-35 0.028921001212079706 4.354166666666667 1.2933116000000002 0.20000000000000059 2.4500000000000002 0.027012600000000105 0.59497457537300091 11.865684661409906 1.0000000180025095e-35 -0.7598096896269112 1.4240346500000001 -0.29999999999999988 4.3680940541898563 -0.34748792394501737 2.8556509498262437 0.14450464341498068 2.1310743912061825 6.2250000000000005 1.0020352113338389 0.4663478700221324 1.0000000180025095e-35 3.7888888888888892 0.86897152459260696 4.2752999615452021 5.0500000000000007
decision_type=8 8 10 8 8 10 10 10 10 10 10 10 10 8 10 10 10 8 10 10 10 10 10 8 10 10 8 10 10 10 10
left_child=2 4 6 12 8 10 15 23 20 13 19 18 28 -8 -9 27 26 -13 -6 -4 -2 -17 -18 -5 -14 -10 -7 -1 -3 -11 -12
right_child=1 3 5 7 11 16 9 14 25 29 30 17 24 -15 -16 21 22 -19 -20 -21 -22 -23 -24 -25 -26 -27 -28 -29 -30 -31 -32
leaf_value=0.012032376925072249 -0.012322692667541468 -0.016233140905733856 0.0068236794337237531 -0.0069675834635434556 -0.0023832593604576975 0.0089559309194152271 -0.00030371731243398819 0.0023946825559490697 -0.0079785529996525429 0.005669291938435927 0.014345888929099285 -0.0079883609860034888 -0.019741278624919541 -0.0074683962611134681 -0.01044624608929587 0.0040225817314622223 -0.00916132549271652 0.00099021525353713597 0.0048540301747408976 0.0019408717745967869 -0.0018031718368695625 -0.0072791317156961398 0.010921383212299711 -0.0011285689721585062 -0.014455426294989554 -0.018829464994707404 0.013826391400513265 -0.00082055850775835911 -0.0077485063164413294 -0.0061022203774775217 0.0042570456218472214
leaf_weight=64.194323346018791 21.546450674533844 25.742508947849274 239.27951383590698 83.948945835232735 50.604568243026733 70.720781460404396 181.80927784740925 18.858798161149025 23.108138114213943 99.019858732819557 62.479600057005882 55.55132757127285 136.62707811594009 103.06780935823917 312.72870409488678 368.1311262100935 9.4597978293895739 72.87143911421299 250.22434329986572 140.75331772863865 124.14773555099964 15.732086360454558 9.3732286095619184 130.65069824457169 114.82716500759125 34.319299966096878 330.28700774908066 9.4467977136373502 68.636604622006416 10.508352696895598 9.6669244617223722
leaf_count=272 89 105 1015 347 211 301 759 78 95 415 267 230 556 428 1287 1550 40 304 1049 593 516 66 40 542 469 141 1417 40 282 44 41
internal_value=1.11705e-06 -0.00646748 0.00572103 -0.0103822 -0.00094529 0.00924229 0.00211658 -0.00723947 -0.00649927 -0.000831063 0.00628863 0.00168278 -0.0153455 -0.00289605 -0.0097158 0.00465777 0.0124233 -0.00289338 0.00363646 0.00501535 -0.0033593 0.00355926 0.000831949 -0.00341295 -0.0173278 -0.0144643 0.0129676 0.0103831 -0.0100635 0.00453946 0.0129948
internal_weight=3248.32 1524.39 1723.93 892.021 632.373 872.02 851.91 546.187 203.122 394.405 452.179 429.252 345.833 284.877 331.588 457.504 419.841 128.423 300.829 380.033 145.694 383.863 18.833 214.6 251.454 57.4274 401.008 73.6411 94.3791 109.528 72.1465
internal_count=13589 6301 7288 3666 2635 3714 3574 2254 841 1646 1916 1794 1412 1187 1365 1928 1798 534 1260 1608 605 1616 80 889 1025 236 1718 312 387 459 308
is_linear=0
shrinkage=0.011377


Tree=10
num_leaves=29
num_cat=0
split_feature=3 3 3 344 180 345 3 3 343 313 352 131 10 335 42 111 132 253 100 345 338 219 370 110 3 77 288 300
split_gain=1340.34 298.803 155.867 56.0611 42.249 25.0676 24.3638 23.12 22.4185 22.2107 20.8165 18.0799 16.0393 15.7116 15.6763 14.985 14.7846 14.0381 13.5233 12.4332 11.8796 10.9769 10.7627 9.35427 8.53822 8.49042 8.18004 0.727253
threshold=-58.802967154653516 120.52559837110608 -159.08424105798596 1.0053548589299777 13.230795079125729 -1.7999999999999992 203.18497832383352 49.040915397306669 3.5000000000000009 1638.4381332752225 -1.0999999999999996 0.14213732567016313 1.8097857307628356 0.018843063645256303 6.4142857142857155 4.9745051105989377 0.15252656198412692 0.68218821274995955 1.7066296986229341 1.1500000000000001 0.26230634539963016 4.7129429996051462 -0.0070304553268952987 5.5500000000000007 330.25227498129101 1.7638342073763911 0.11334936393069482 2.9500000000000006
decision_type=2 2 2 8 10 10 2 2 8 10 8 10 8 8 10 10 10 10 10 10 10 10 10 10 2 10 10 10
left_child=2 3 9 7 8 15 20 14 11 10 26 -4 -12 -7 -2 -5 19 -9 22 -6 23 -10 -11 -3 25 -8 -1 -26
right_child=1 6 4 5 16 13 24 17 21 18 12 -13 -14 -15 -16 -17 -18 -19 -20 -21 -22 -23 -24 -25 27 -27 -28 -29
leaf_value=-0.011858492321826949 0.0033957866847152194 0.0075855788722299471 -0.0057001166539376313 -0.01003704943265374 -0.0016747522233848111 -0.0028336053582179899 0.013666698737037825 0.0084805535682971351 -0.010993079862397561 -0.017136940483860545 0.0060064086066829074 -0.014982716515280043 -0.0093391206733102368 0.0019794153717056055 -0.0011521389091149175 0.00063782453391893125 -0.015816096727934693 0.0041178621025146521 -0.005379210496458839 0.0078560059701128452 -0.0023143534832151926 -0.021806887550622343 -0.012415924600317711 0.011312465797251897 0.014771223640326686 0.0083824556771837661 -0.024290516755924866 0.017620654335551739
leaf_weight=24.437092781066895 463.9433781504631 151.07648703455925 307.03090626001358 55.265445724129677 126.43623597919941 136.62901191413403 205.64069172739983 168.59834894537926 109.47047811746597 333.15807737410069 15.087805956602095 29.800750732421875 21.197804823517799 245.57848836481571 124.3921857625246 24.586425930261612 8.446294501423834 220.24187128245831 15.380043417215346 20.601428613066673 10.902946785092352 13.678416371345518 77.05890429019928 206.45742519199848 14.791049361228941 48.741750255227089 9.5377094596624357 59.077369689941406
leaf_count=100 1948 643 1268 229 525 568 885 713 450 1355 62 123 87 1027 521 102 35 931 63 86 46 56 314 883 64 210 39 256
internal_value=1.19585e-06 0.00527358 -0.0101321 0.00231292 -0.00630755 -0.000952373 0.0113897 0.00385696 -0.0080406 -0.0148791 -0.00895115 -0.00652159 -0.00295731 0.000258782 0.00243415 -0.00674984 -0.00118025 0.00600963 -0.0158575 -0.000339044 0.00938106 -0.0121949 -0.0162503 0.00973783 0.013644 0.0126544 -0.015351 0.0170511
internal_weight=3247.24 2135.92 1111.32 1439.24 615.465 462.059 696.688 977.176 459.981 495.857 70.2604 336.832 36.2856 382.208 588.336 79.8519 155.484 388.84 425.597 147.038 368.437 123.149 410.217 357.534 328.251 254.382 33.9748 73.8684
internal_count=13589 9026 4563 6039 2543 1926 2987 4113 1897 2020 288 1391 149 1595 2469 331 646 1644 1732 611 1572 506 1669 1526 1415 1095 139 320
is_linear=0
shrinkage=0.011377


Tree=11
num_leaves=31
num_cat=0
split_feature=3 3 3 341 180 389 3 347 343 3 280 359 389 3 131 177 422 51 189 347 355 32 188 126 27 3 55 246 135 305
split_gain=1309.39 293.537 151.81 52.6167 41.1855 26.5072 24.0585 22.1005 21.8243 18.5056 18.2866 19.9108 18.0354 19.5234 17.5885 14.9157 14.377 13.4976 12.2663 12.0621 11.8192 10.6565 11.6415 9.79711 8.6958 8.45566 6.52365 4.77345 1.58969 1.31832
threshold=-58.802967154653516 120.52559837110608 -159.08424105798596 -0.055829473384251892 13.230795079125729 0.66076973687984297 203.18497832383352 -2.1116480342213837 3.5000000000000009 -6.5676291009967818 0.36088689088689091 -1.0657497978607273 0.15837327309824503 49.040915397306669 0.14213732567016313 9.3470455757667121 -23.499999999999996 0.14523822538572531 6.7077528467267422 -2.5813498572545499 2.0125000000000006 2.86658303662777 5.0500000000000007 0.32678111727453829 5.4500000000000011 330.25227498129101 13.601295323034455 1.4722222222222225 0.066591978676470515 0.50027777777777804
decision_type=2 2 2 10 10 8 2 8 8 2 10 8 10 2 10 10 10 10 8 10 10 10 8 10 8 2 10 10 8 10
left_child=2 3 7 5 8 9 21 20 14 -2 24 -12 13 -5 -4 -6 -17 -14 -7 -10 23 28 -23 -1 -9 26 -8 -22 -3 -27
right_child=1 6 4 12 15 18 25 10 19 -11 11 -13 17 -15 -16 16 -18 -19 -20 -21 27 22 -24 -25 -26 29 -28 -29 -30 -31
leaf_value=-0.011207290963875632 -0.0015160409629453515 0.011308901917684468 -0.0056296193233160369 0.0034441123618490824 0.012774181995165741 -0.0028235978941653678 0.013059212216971145 -0.016766306909468318 -0.022748994261710932 0.0031223017504514003 -0.012913847500432412 -0.0042421065707244051 0.0025990558336266693 0.0078477494871774852 -0.014774134239474155 -0.016260276121554309 -0.0011606023343273899 -0.0068666280130059484 -0.013329418863057996 -0.010850674153016392 -0.021448297691111534 0.01039589848842015 0.0060520674548899403 -0.017408330486334032 -0.005143947671748081 0.012947104483293739 0.0059626188230899645 -0.013462315050552634 0.017097563278718846 0.017525587337569568
leaf_weight=51.237358540296555 179.79144312441349 8.3985997438430804 307.33713555335999 279.48770433664322 9.3348856568336469 171.0063441246748 235.43900339305401 105.02607464790344 12.251834020018576 292.37598855793476 95.052895173430443 53.62371127307415 234.58202789723873 244.23547950387001 29.877235144376755 8.675617575645445 137.50482019782066 21.262759625911713 15.707505285739897 111.13413049280643 78.821680128574371 204.46524383127689 131.15441302955151 92.871806174516678 9.0637455731630308 9.4423342496156675 18.080035641789436 11.093567237257956 23.543162554502487 64.073304757475853
leaf_count=208 749 36 1268 1176 39 711 1017 428 50 1228 387 219 985 1036 123 36 571 89 65 456 319 875 560 377 37 41 78 45 101 279
internal_value=1.27756e-06 0.0052207 -0.0100025 0.00228788 -0.00622915 -7.88903e-05 0.0112942 -0.014682 -0.00793836 0.00135604 -0.0124166 -0.00978654 0.0042883 0.00549782 -0.00644003 -0.00116656 -0.00205723 0.00181218 -0.00370776 -0.0120328 -0.0172252 0.00929656 0.00869857 -0.015204 -0.0158434 0.0135393 0.0125533 -0.0204638 0.0155776 0.0169384
internal_weight=3245.95 2133.05 1112.91 1438.45 616.116 658.881 694.596 496.791 460.6 472.167 262.766 148.677 779.568 523.723 337.214 155.515 146.18 255.845 186.714 123.386 234.024 367.561 335.62 144.109 114.09 327.035 253.519 89.9152 31.9418 73.5156
internal_count=13589 9026 4563 6039 2543 2753 2987 2020 1897 1977 1071 606 3286 2212 1391 646 607 1074 776 506 949 1572 1435 585 465 1415 1095 364 137 320
is_linear=0
shrinkage=0.011377


Tree=12
num_leaves=31
num_cat=0
split_feature=3 3 3 344 344 276 3 356 327 187 403 3 316 340 363 365 34 419 3 312 110 188 277 165 34 43 376 355 213 35
split_gain=1279.83 258.105 183.344 46.4349 45.0769 25.2395 23.7635 23.2205 22.0331 22.1817 18.1239 16.818 14.7168 13.9789 13.5902 13.5292 13.4163 13.3418 11.7479 11.023 9.71161 10.887 9.7392 9.70959 13.8852 11.2881 9.52826 9.24341 9.10974 6.99114
threshold=-44.410277787394641 120.52559837110608 -159.08424105798596 0.96769783385241859 0.028921001212079706 5.1000000000000005 203.18497832383352 1.1421593804484853 -0.16041246666666648 4.7750000000000012 -0.73786478737262506 -10.73913982217084 -0.88749999999999984 4.5250000000000021 -0.0047789327975086499 -0.025425757886897594 6.2111111111111121 -10.499999999999998 41.912225877721205 0.21037604555230677 5.5500000000000007 5.0500000000000007 6.6125000000000007 0.90000000000000013 4.0500000000000007 0.44955677655677656 -0.018266935539713498 0.70000000000000007 1.4342347945865888 5.3999747306680588
decision_type=2 2 2 8 8 10 2 10 8 10 10 2 10 10 10 10 10 8 2 10 10 8 10 10 10 10 8 8 8 10
left_child=2 4 7 5 13 15 20 23 14 -10 27 -12 16 18 -5 -4 -9 -7 -2 -14 21 -3 -22 24 -1 -25 -8 -6 -15 -28
right_child=1 6 3 8 10 17 26 12 9 -11 11 -13 19 28 -16 -17 -18 -19 -20 -21 22 -23 -24 25 -26 -27 29 -29 -30 -31
leaf_value=-0.015701737519044703 0.0026613759425965942 0.0091649059853534665 -0.0029968106848488074 -0.008642047071554932 -0.0012225163348951417 -0.0045483051057413982 0.0027461951702299047 -0.019824899005530985 -0.00098051105218352431 -0.0083122759178440534 -0.0023607819666995778 0.0019655579182062005 -0.0066128727976195317 0.0046586117074849508 -0.015245459433815058 0.0026742673584721046 -0.005607346884030355 -0.014012301281490936 0.0056651896910691873 -0.015330193921423367 0.01157833110772759 0.0027759157272738253 0.0029770027908121001 -0.015911414686309397 -0.0070782638062648626 -0.0043174827131790628 0.01115450697660726 -0.014920447287615013 0.01434428110696759 0.014880706052196758
leaf_weight=33.653158202767372 352.39800687134266 105.20030714571476 106.46407623589039 104.38271526992321 11.273981481790541 75.431302323937416 10.456253126263617 145.91402550041676 80.617348939180374 158.34661471843719 162.2393164485693 410.708849593997 22.879934757947922 21.808242648839951 65.818510979413986 111.44505716860294 9.1386805623769742 25.911781877279282 323.1357959061861 105.21680173277855 191.34621345996857 51.41735751926899 18.720280513167381 82.432715907692909 85.890981987118721 12.533756002783774 92.284393772482872 14.697018638253214 29.722304075956345 223.06273497641087
leaf_count=137 1482 450 442 428 47 312 45 590 333 651 674 1722 93 93 270 464 37 107 1369 427 823 219 80 335 350 51 400 61 127 970
internal_value=1.35544e-06 0.00557034 -0.00916674 -0.00553015 0.00263026 -0.00227801 0.0112 -0.0144894 -0.00806752 -0.00583901 0.000318976 0.000740416 -0.0166289 0.00453412 -0.011196 -9.62837e-05 -0.0189873 -0.00696872 0.00409829 -0.0137736 0.00921292 0.00706772 0.010812 -0.0116651 -0.00950644 -0.0143818 0.0134361 -0.00897625 0.0102463 0.0137905
internal_weight=3244.55 2018.47 1226.08 728.417 1325.98 319.252 692.488 497.66 409.165 238.964 598.919 572.948 283.149 727.064 170.201 217.909 155.053 101.343 675.534 128.097 366.684 156.618 210.066 214.511 119.544 94.9665 325.803 25.971 51.5305 315.347
internal_count=13589 8562 5027 3007 5575 1325 2987 2020 1682 984 2504 2396 1147 3071 698 906 627 419 2851 520 1572 669 903 873 487 386 1415 108 220 1370
is_linear=0
shrinkage=0.011377


Tree=13
num_leaves=31
num_cat=0
split_feature=427 313 75 75 313 75 313 313 362 263 351 356 327 281 150 45 277 388 75 256 22 120 272 186 92 209 356 63 272 77
split_gain=851.163 333.838 209.773 70.2562 64.18 56.8566 50.4997 35.6784 33.5317 30.938 26.6073 24.8307 22.1418 24.4517 21.7468 20.8539 20.5853 19.689 17.315 17.288 19.2122 16.2143 16.035 15.3521 17.1589 14.0372 13.1049 12.3125 9.1482 5.62849
threshold=1.5000000000000002 1611.1591738685872 1622.6179365978226 1577.5519600080554 1666.7137628954661 1542.8567209554274 1576.6941452255476 1709.6009870019857 1.4680368529632137 13.702504263922028 -1.2749999999999997 0.91107488671776016 -0.17763109999999982 0.41860462005314941 0.83703343965371102 0.35705358840344653 6.6125000000000007 -1.3 1691.3770437822825 1.5075274500000002 14.112500000000002 5.0373293721164112 4.1151550000560624 4.1588621516231923 0.99315437791404815 16.591442577030815 1.0128868218261633 3.3666666666666667 5.1268190971051659 1.1595018087284048
decision_type=8 10 10 10 10 10 10 10 10 10 10 8 8 10 10 10 10 8 10 8 10 10 10 8 10 10 10 10 10 10
left_child=2 5 6 7 16 8 10 17 11 15 25 -2 21 -14 -12 -5 18 -3 -4 29 -21 -8 -10 27 -25 -1 -9 -7 -18 -6
right_child=1 3 4 9 19 23 12 26 22 -11 14 -13 13 -15 -16 -17 28 -19 -20 20 -22 -23 -24 24 -26 -27 -28 -29 -30 -31
leaf_value=1.1637164850797798e-05 0.00025585760928767474 0.0038600135997088479 0.0096859000437761068 -0.012079304422536769 -0.00066639694443117994 -0.0031492496051699981 -0.00568204850712975 -0.012932027788817311 -0.0021193919831540612 0.010213355356619465 0.0045593998042755234 -0.0057589382830924764 0.0016980781452424962 -0.012880953220972493 -0.0090041335435086765 -0.0030011655698532259 0.0083500877750129557 -0.011666569501907765 0.013524762549195157 -0.017176190895600397 0.00010591099845109263 -0.019616278010221731 -0.010228907123437238 0.012753158318934353 0.0036637354855126284 -0.014364873970930775 -0.018687145459210058 0.0064162250123676341 -0.0021079381237030311 0.010805754965448796
leaf_weight=163.77265278995037 340.28392188251019 10.920634686946867 280.49521586298943 54.356618881225586 8.8051921576261538 48.895527511835098 33.942805275321007 74.274066314101219 46.697685480117798 15.780520334839819 655.81699271500111 120.22054903209209 84.36342179775238 18.079443886876106 15.662342697381971 82.448480740189552 24.322435066103935 326.2614168971777 332.57561491429806 12.797122389078138 23.811391904950142 15.867992728948591 97.450019359588623 41.095199763774872 77.785330012440681 9.2870660424232465 165.53484424948692 27.052282452583313 19.501088514924049 14.876577362418173
leaf_count=688 1416 45 1205 223 37 204 140 301 193 66 2771 497 352 75 66 340 104 1331 1447 53 100 65 400 175 328 39 668 114 83 63
internal_value=1.43064e-06 -0.00616948 0.00550659 -0.0117343 0.0101989 -0.00109114 0.00213044 -0.0135499 -0.0028134 -0.00486848 0.00321775 -0.00131432 -0.00390052 -0.000874718 0.00424294 -0.00660858 0.01123 -0.0111636 0.0117685 -0.00103455 -0.00593495 -0.0101224 -0.00760211 0.00425369 0.00680631 -0.00075981 -0.016905 0.000257513 0.00369561 0.00653897
internal_weight=3243.03 1529.06 1713.98 729.577 717.185 799.481 996.793 576.991 604.652 152.586 844.539 460.504 152.254 102.443 671.479 136.805 656.894 337.182 613.071 60.2903 36.6085 49.8108 144.148 194.828 118.881 173.06 239.809 75.9478 43.8235 23.6818
internal_count=13589 6301 7288 2974 3092 3327 4196 2345 2506 629 3564 1913 632 427 2837 563 2839 1376 2652 253 153 205 593 821 503 727 969 318 187 100
is_linear=0
shrinkage=0.011377


Tree=14
num_leaves=32
num_cat=0
split_feature=3 3 3 179 343 343 276 3 182 3 280 359 6 3 115 263 38 359 74 179 402 358 3 188 117 29 387 3 144 33 262
split_gain=1224.97 249.846 174.525 43.1314 29.4023 28.7473 23.7446 23.1784 20.2402 17.8171 16.9951 16.2507 18.2568 14.856 17.7314 14.6603 14.1343 14.0251 12.9872 12.8571 11.5164 11.1461 9.70001 9.51302 11.9221 9.42225 8.72298 8.39751 7.66328 7.04469 0.762706
threshold=-44.410277787394641 120.52559837110608 -159.08424105798596 13.844444444444447 3.4000000000000017 -0.80000000000000016 4.7750000000000012 203.18497832383352 5.1125000000000007 -10.73913982217084 0.36088689088689091 -1.5055542688972785 0.88194444444444453 46.1383479252653 3.2250000000000005 17.274928838830309 5.1934718239523843 -1.0337323583968254 0.16242396187487224 10.738888888888892 7.2164496600635185e-16 -1.9999999999999993 -239.27929261272433 5.0500000000000007 5.6987473440724132 5.7274034841186099 -0.65833333333333321 330.25227498129101 2.4006680825236453 4.5500000000000007 11.844444444444447
decision_type=2 2 2 10 8 8 10 2 10 2 10 8 10 2 8 8 10 10 10 10 10 10 2 8 10 10 10 2 8 10 10
left_child=2 5 8 4 6 13 -4 23 10 19 28 12 -5 14 -2 -11 20 -12 -13 -7 -10 -6 -18 25 -25 -3 -15 29 -1 -9 -29
right_child=1 7 3 11 21 9 -8 27 16 15 17 18 -14 26 -16 -17 22 -19 -20 -21 -22 -23 -24 24 -26 -27 -28 30 -30 -31 -32
leaf_value=-0.021400361326133741 -0.0096981024167767278 0.0091342780911180203 -0.0029390496462350512 0.0047698108410377978 -0.013476213475772506 -0.0061109543953402493 -0.0082739843032240377 0.0082020634077901184 -0.011244052319415438 0.002568036760215909 -0.0089179610864503905 -0.0021250924731409542 -0.014315444348060868 0.0043545211099940296 0.0033987400241863876 -0.0063457043976971467 -0.019725834280840706 0.0043832689352935666 0.0057488213967491321 0.00014217469711381319 -0.019407334306196282 -0.0071183129352069534 -0.014772231853971959 0.0014721001917546923 0.0087907215873334037 0.014469279229025552 0.0084851624162208036 0.013354094216132938 -0.012494898012583199 0.013154222487042774 0.017073227437328621
leaf_weight=15.526526197791098 14.038035467267035 160.58528864383698 249.26016880571842 10.165334597229959 94.008869782090187 61.544159844517708 190.57311779260635 45.475533068180084 113.19890573620796 536.55554829537868 57.61589378118515 48.334157004952431 17.914173915982246 128.43700879812241 284.21207523345947 24.990931242704391 115.47730655968189 12.478396654129027 61.739226311445236 137.93136422336102 27.906661972403526 57.601473465561867 92.135356888175011 39.528130635619164 106.39834889769554 58.510003253817558 136.6467869579792 8.1961852312087995 64.786754116415977 205.37907367944717 64.365805074572563
leaf_count=63 59 691 1030 42 384 255 783 198 458 2256 234 201 74 547 1198 105 465 51 257 574 113 236 373 169 458 254 581 36 263 897 284
internal_value=1.50187e-06 0.00546594 -0.00894987 -0.0054033 -0.00674023 0.00257591 -0.00525071 0.0110254 -0.0141339 0.00113369 -0.0106444 0.000319929 -0.00740501 0.00452416 0.0027821 0.00217125 -0.0156389 -0.00654943 0.002291 -0.00178696 -0.0128591 -0.011061 -0.0175279 0.00906002 0.00680859 0.0105593 0.006484 0.0132435 -0.0142175 0.0122567 0.0166541
internal_weight=3241.52 2012.79 1228.72 729.597 591.444 1324.36 439.833 688.438 499.126 761.022 150.408 138.153 28.0795 563.334 298.25 561.546 348.718 70.0943 110.073 199.476 141.106 151.61 207.613 365.022 145.926 219.095 265.084 323.417 80.3133 250.855 72.562
internal_count=13589 8562 5027 3007 2433 5575 1813 2987 2020 3190 611 574 116 2385 1257 2361 1409 285 458 829 571 620 838 1572 627 945 1128 1415 326 1095 320
is_linear=0
shrinkage=0.011377


Tree=15
num_leaves=31
num_cat=0
split_feature=317 157 350 346 359 356 356 358 317 379 272 359 194 421 426 257 356 426 188 328 346 262 272 291 183 203 361 413 315 426
split_gain=792.155 264.273 218.169 80.7942 67.0448 50.8962 40.8956 32.209 30.4606 28.9738 23.2113 22.4163 21.4308 21.3228 23.2318 21.0932 19.9785 19.0843 17.4781 16.1854 15.5931 15.2079 12.4866 12.0751 13.3103 11.3589 10.1011 9.65296 9.63248 7.40928
threshold=-0.15733354033849481 1597.9291263717844 0.37554463317071379 -1.6999999999999995 -1.4716824817593135 0.8263361994525712 0.30949951845063134 -2.0857142857142859 -0.857708174360993 0.011587016455722602 5.33836907760438 -1.9237096090113213 7.4500000000000011 2.5000000000000004 8.5000000000000018 1.0581431040433695 1.0664043944261505 16.500000000000004 4.9500000000000011 0.3550112250000001 -0.32916666666666655 14.050000000000002 4.1960176399651852 0.094765368276509374 4.3645240937022187 0.12578024476356972 0.49999999999999983 -19.843231149216191 0.19999999999999982 26.500000000000004
decision_type=10 10 8 8 8 10 10 8 10 10 10 8 10 10 10 8 10 10 10 10 10 10 10 10 10 8 10 10 10 10
left_child=2 5 4 16 23 9 13 26 25 18 -9 -8 20 14 -3 -10 21 -11 -2 -13 -7 -4 -18 24 -1 -6 -5 -25 -14 -15
right_child=1 6 3 7 8 12 11 10 15 17 -12 19 28 29 -16 -17 22 -19 -20 -21 -22 -23 -24 27 -26 -27 -28 -29 -30 -31
leaf_value=-0.011291996062590869 0.0052337061587937163 0.010806200670871291 -0.012629489455477056 -0.0062348325351521648 0.0034623954785094812 -0.0059875595871474244 -0.011029756865513787 -0.0038122850767794581 -0.0084704252337687753 -0.00055419399258569606 -0.01180352404904393 0.0032211728887000185 -0.0033000608257120877 0.014281356583835218 0.0048848216729136572 0.0030599047454568629 -0.0062521882451457549 -0.014412919571244699 0.0012017788722545491 0.01132387258811429 -0.0001057575953005454 -0.0017247173492306819 -0.017267087621601916 -0.0022875935315036676 0.0025021376727235177 -0.010622275267209149 -0.013884257073574768 -0.010625239888715722 -0.017213793616394718 0.0046697015737610266
leaf_weight=13.474016308784483 358.891497656703 359.81157557666302 103.69790516793728 29.114191517233849 9.39844201505184 88.318746775388718 11.300055041909216 254.73350210487843 21.868870824575424 149.12037479877472 57.712754532694817 110.36082363128662 9.7862882912158984 196.26135016977787 112.64303238689899 336.10308444499969 14.225845620036123 14.074075430631636 227.35152772068977 44.900952577590942 171.90876947343349 19.708881050348282 212.82245036959648 21.857511222362518 27.58541551232338 34.971813023090363 96.463433429598808 101.49911057949066 18.883658990263939 10.976171687245367
leaf_count=56 1515 1560 421 119 39 365 47 1050 91 626 236 469 40 860 483 1409 58 58 954 194 719 81 859 90 114 144 392 416 77 47
internal_value=1.57153e-06 0.00477218 -0.00663239 -0.0105025 -0.00124819 0.000925955 0.00949135 -0.0072447 0.00125316 0.00248988 -0.00528856 0.00443862 -0.00313092 0.0107295 0.00939453 0.00235535 -0.0145741 -0.00174979 0.00367016 0.0055648 -0.00210216 -0.0108883 -0.0165772 -0.0073694 -0.00202395 -0.007638 -0.0121112 -0.00914827 -0.0124664 0.0137725
internal_weight=3239.83 1884.59 1355.24 788.479 566.758 1038.33 846.254 438.024 402.342 749.437 312.446 166.562 288.897 679.692 472.455 357.972 350.455 163.194 586.243 155.262 260.228 123.407 227.048 164.416 41.0594 44.3703 125.578 123.357 28.6699 207.238
internal_count=13589 8014 5575 3216 2359 4354 3660 1797 1683 3153 1286 710 1201 2950 2043 1500 1419 684 2469 663 1084 502 917 676 170 183 511 506 117 907
is_linear=0
shrinkage=0.011377


Tree=16
num_leaves=32
num_cat=0
split_feature=427 344 1 177 335 339 356 265 424 356 352 22 135 379 272 287 150 268 319 272 413 329 242 157 77 344 287 364 268 141 104
split_gain=799.332 218.232 204.505 82.9327 62.5124 46.5207 42.4946 41.7112 39.3402 34.6465 30.4339 27.832 26.7963 24.8453 22.2519 21.5356 18.1993 17.6314 16.2302 15.7967 15.4129 15.1682 15.0161 13.1995 12.4932 12.4889 11.9053 10.5049 7.39068 7.13478 5.96948
threshold=1.5000000000000002 1.0053548589299777 1613.2647371776209 13.197358177321725 -0.3447519456788411 0.19999999999999971 0.5614676934880537 3.8452380952380958 2.5000000000000004 1.8386193867971199 0.61428571428571488 14.450000000000001 0.10625713603839136 0.019237428355231952 4.1244076563855794 0.15192677405057659 0.80398843588848523 3.8166666666666669 -0.49999999999999989 4.1151550000560624 -6.0222370307624251 -0.070725588058506733 2.1000000000000005 1678.4521701337576 0.73786478737261607 0.11952963087418841 0.091017235760281312 -0.010897819214382648 6.1055555555555561 1.2406498362450245 16.550000000000004
decision_type=8 8 2 10 8 10 10 8 10 8 10 10 10 10 10 10 10 8 10 10 10 8 10 10 10 10 8 10 10 10 10
left_child=2 4 5 12 24 6 21 23 13 11 15 -5 17 -6 -8 -9 18 -3 -7 -14 -10 -1 -11 28 29 -18 -26 -12 -4 -2 -25
right_child=1 3 7 9 8 16 14 10 20 22 27 -13 19 -15 -16 -17 25 -19 -20 -21 -22 -23 -24 30 26 -27 -28 -29 -30 -31 -32
leaf_value=-0.0017281444428967657 -0.018814008931850017 -0.008791367938103747 0.0089899118076230567 -0.01124572683079202 0.0035876407640791945 0.0082930254472654129 0.00033632302212836975 0.0045665012505971955 -0.0019405516722645626 -0.014022341210455843 0.0062253395791933182 -0.00015191073896483613 -0.004109754213731105 -0.0032879652687874245 -0.0077540983418537806 -0.01281568345938016 0.001417271264752649 -0.0016546452417248332 0.0034944894762835655 -0.013043843018915535 -0.012416060520964001 0.0037786177709021509 -0.02068926476396887 0.011912704145989633 0.0064227164164159713 -0.015563773174764518 -0.0073569292855689417 0.012371473365618941 0.014765195421486804 -0.0064770162171416063 0.015703601360543936
leaf_weight=94.427888482809067 18.546872973442081 58.369176760315895 162.02983756363392 299.68773332238197 348.52745302021503 132.20743842422962 68.99089290201664 174.79406310617924 39.423041149973869 138.00068272650242 53.289761364459991 32.44743375480175 39.061597660183907 84.517203807830811 121.44596545398235 9.7368829697370511 14.121768668293955 192.92097173631191 294.58514179289341 74.518595039844513 33.754186525940895 205.89559864997864 64.096035957336426 94.623451471328735 8.9169705808162671 9.290088549256323 89.83913491666317 111.15831953287125 34.891089931130409 9.0383789092302305 125.07566873729229
leaf_count=395 76 239 700 1217 1463 563 289 749 163 558 230 133 161 352 504 41 60 796 1246 304 139 868 258 415 37 39 368 485 152 37 552
internal_value=1.63264e-06 -0.00596483 0.00535664 -0.00956692 -0.000844889 0.00180409 -0.000618748 0.00972287 0.000941798 -0.0124225 0.00682103 -0.0101621 -0.00538565 0.00224563 -0.00482295 0.00364898 0.00444525 -0.00331256 0.00498105 -0.00997177 -0.00677329 0.00204705 -0.0161372 0.0121534 -0.00800394 -0.00532017 -0.00611223 0.0103801 0.0100135 -0.014774 0.0140712
internal_weight=3238.23 1531.67 1706.56 899.102 632.563 940.965 490.76 765.599 506.222 534.232 348.979 332.135 364.87 433.045 190.437 184.531 450.204 251.29 426.793 113.58 73.1772 300.323 202.097 416.62 126.341 23.4119 98.7561 164.448 196.921 27.5853 219.699
internal_count=13589 6301 7288 3666 2635 3964 2056 3324 2117 2166 1505 1350 1500 1815 793 790 1908 1035 1809 465 302 1263 816 1819 518 99 405 715 852 113 967
is_linear=0
shrinkage=0.011377


Tree=17
num_leaves=31
num_cat=0
split_feature=347 313 75 75 1 344 313 344 59 421 244 313 180 338 25 313 45 192 266 332 364 416 347 362 349 71 260 25 175 335
split_gain=841.616 288.347 213.735 57.7892 57.4047 45.6221 43.1302 40.913 29.468 28.1004 23.6443 23.5714 19.9137 18.523 17.4971 16.7078 16.7038 14.6254 14.554 14.4369 13.6237 13.2587 12.1574 11.6284 11.0539 10.5278 9.55645 6.81693 4.66694 4.55314
threshold=-0.18083031121155052 1620.8936303824903 1599.7801551482626 1577.5519600080554 1558.4207812489549 1.0053548589299777 1666.7137628954661 0.96769783385241859 0.52432584847510344 2.5000000000000004 1.9967256105459843 1594.7548183326078 13.01669651398543 0.26694182200218786 19.750000000000004 1609.4298904607874 0.37849250316562061 5.1535878308955292 3.9877708906730418 -0.13377706283421917 -0.085241190531563038 0.13363095238095238 1.3168809594642725 0.7772666168135075 1.2999999999999996 0.69715571334456639 11.274230104984293 13.21111111111111 14.100000000000001 0.52293349975434089
decision_type=10 10 10 10 2 10 8 8 8 8 10 8 10 10 10 10 10 10 10 8 10 2 10 8 10 10 10 10 10 8
left_child=1 4 5 10 7 15 9 8 -1 18 17 16 20 26 -9 21 -7 -3 -4 28 -5 -2 -21 -12 -13 -17 -6 -15 -8 -11
right_child=2 3 6 12 13 11 19 14 -10 29 23 24 -14 27 -16 25 -18 -19 -20 22 -22 -23 -24 -25 -26 -27 -28 -29 -30 -31
leaf_value=-0.014118720457205613 -0.0006405099365565188 -0.01296688723844633 0.010220113611827192 -0.01421715878906573 0.0087923736418479385 0.0017900804192165518 0.01530651739575065 -0.0062600273671666014 0.00060731566323347019 0.010579904017818326 -0.0090457569754718928 -0.0041690829683308757 0.007164130604982972 -0.013982628687214695 0.010249653716324377 0.0021253851020920146 -0.0046403295158359316 -0.0069647960724993222 0.0061867126355697249 -0.0065376231636186952 -0.0052105878277113951 0.00459301336268194 0.0087745318991086525 -0.018930531626706715 -0.014186588244828798 -0.0090435905216867795 0.0029934040337649234 0.00038810658876349357 0.0031568075668567809 0.014648114543198126
leaf_weight=18.657020747661591 71.922941774129868 334.66775812208652 379.95643237233162 26.628782659769058 67.62358295917511 147.4954752177 8.1543755829334277 338.29305340349674 306.59978541731834 44.903281971812248 17.843237891793251 32.086934760212898 14.395138099789618 8.6312644481658953 8.5146206915378553 22.122332260012627 80.99773246049881 62.382188394665718 166.66467596590519 32.891276702284813 118.56274664402008 485.67921677231789 8.4283635318279249 113.71859800815582 25.682884231209755 21.567817881703377 80.722159013152122 8.4485008120536786 8.2345830798149091 174.09146125614643
leaf_count=77 304 1353 1654 109 287 616 35 1390 1281 196 72 132 60 36 35 92 338 254 720 137 487 2057 36 457 105 89 340 35 35 770
internal_value=1.6959e-06 -0.00614186 0.00548027 -0.011598 -0.00165825 0.00160723 0.0096554 -0.00313606 -0.000237353 0.0103703 -0.0134095 -0.00213102 -0.00559729 0.00434529 -0.00585452 0.003387 -0.000489267 -0.012024 0.00899043 0.000170102 -0.00686288 0.00391789 -0.00341304 -0.0175904 -0.00862361 -0.00338752 0.00563722 -0.00687275 0.00920547 0.0138142
internal_weight=3236.57 1525.69 1710.88 688.198 837.49 887.555 823.324 672.064 325.257 765.616 528.612 286.263 159.587 165.426 346.808 601.292 228.493 397.05 546.621 57.7086 145.192 557.602 41.3196 131.562 57.7698 43.6902 148.346 17.0798 16.389 218.995
internal_count=13589 6273 7316 2792 3481 3733 3583 2783 1358 3340 2136 1191 656 698 1425 2542 954 1607 2374 243 596 2361 173 529 237 181 627 71 70 966
is_linear=0
shrinkage=0.011377


Tree=18
num_leaves=30
num_cat=0
split_feature=3 3 3 353 3 343 350 339 255 329 122 115 356 279 3 98 421 255 200 176 208 254 339 74 353 3 130 219 356
split_gain=1184.04 254.405 179.586 48.2143 35.4319 28.7519 27.2397 18.7384 17.9319 17.1875 16.2463 15.0104 14.4211 14.5061 14.1736 13.8464 13.7158 13.1511 12.6406 12.4956 11.8289 11.6559 10.4557 10.1651 10.1278 9.36665 8.32166 6.63212 1.91953
threshold=-44.410277787394641 91.953534659924813 -174.37746936163452 0.25121177632688291 186.40830882912738 -0.99999999999999944 0.17063300332360451 -2.3999999999999995 0.82904660000000019 -0.2774461209207692 4.8166666666666673 7.4500000000000011 0.51686133986001448 5.6168084794455675 -293.34540638336858 0.43569794764494257 -23.499999999999996 1.512802 0.32000832500832505 12.725000000000001 0.099281858302775611 1.3767502000000003 -3.1499999999999995 0.33151176830300882 -0.21851642644638627 301.8430678063998 0.48260355322596249 2.8167280871825016 0.15641289090525004
decision_type=2 2 2 10 2 8 8 10 10 8 8 8 10 8 2 8 8 10 10 8 10 10 10 10 10 2 10 10 10
left_child=2 6 11 5 10 20 12 18 22 -7 19 14 15 -14 26 -2 -9 -12 -8 -3 -4 -16 -5 -10 -13 27 -1 -6 -27
right_child=1 4 3 8 25 9 7 16 23 -11 17 24 13 -15 21 -17 -18 -19 -20 -21 -22 -23 -24 -25 -26 28 -28 -29 -30
leaf_value=-0.01947614812772824 0.0065372030662275531 0.0043919308980330304 0.0010293074026330854 -0.006726354908989195 0.01331507005179661 -0.010961048916207538 -0.0086696236887076391 0.0074599577749020927 -0.0024729411962090921 -0.0065869499477360172 0.0090942563212008318 -0.013577027266571945 -0.0068064394905011554 0.0020156125963612945 -0.014945140983959576 0.0027524517167488946 0.00035000164630502622 -0.00065324326427374988 -0.0012374910412552556 -0.011084817131580863 -0.0073237011471663175 -0.0090578721882317442 0.0040522937680726448 -0.012266772772522493 -0.00050486023462880661 0.015924250830964579 -0.0081935575510712483 0.0097995071692613036 0.010073649903018645
leaf_weight=106.18613395094872 209.3016269505024 32.992662653326988 69.295794114470482 13.385161176323889 138.97569571435452 189.02849285304546 46.238364577293396 39.934603914618492 75.193702444434166 302.38509038090706 417.51407833397388 15.131718829274179 29.799563825130463 126.64302334189415 235.94640736281872 311.22473834455013 291.27160672843456 18.711104288697243 82.459578081965446 8.4870865941047651 32.107505843043327 53.437427937984467 89.609076574444771 16.781314954161644 15.570936813950537 100.56863115727901 9.2120679318904859 139.22961454093456 7.8787274956703177
leaf_count=426 888 141 287 55 614 769 192 167 310 1240 1803 61 125 533 951 1318 1222 80 342 36 133 216 372 69 63 450 37 613 35
internal_value=5.9479e-05 0.00544956 -0.00875848 -0.00551732 0.0101017 -0.00713144 0.00191252 -0.000224008 -0.000609262 -0.00826962 0.00802908 -0.0146216 0.00336404 0.000334853 -0.0152034 0.00427438 0.00120743 0.00867607 -0.00390809 0.00122394 -0.00161524 -0.0138582 0.00265102 -0.00426053 -0.00694918 0.0126623 -0.018576 0.0115559 0.0154998
internal_weight=3224.5 2001.23 1223.27 787.786 864.358 592.817 1136.87 459.904 194.969 491.414 477.705 435.485 676.969 156.443 404.782 520.526 331.206 436.225 128.698 41.4797 101.403 289.384 102.994 91.975 30.7027 386.653 115.398 278.205 108.447
internal_count=13548 8559 4989 3235 3772 2429 4787 1923 806 2009 2060 1754 2864 658 1630 2206 1389 1883 534 177 420 1167 427 379 124 1712 463 1227 485
is_linear=0
shrinkage=0.011377


Tree=19
num_leaves=31
num_cat=0
split_feature=347 2 1 344 1 2 350 1 350 2 350 1 359 344 167 347 231 287 34 2 364 315 345 356 224 406 407 359 280 1
split_gain=825.349 309.446 178.224 104.714 51.1163 40.3721 38.3248 26.8302 25.4865 23.7226 23.2971 22.1169 20.1624 19.3345 18.7733 17.7476 18.2704 16.2054 15.7582 14.8015 14.4575 14.4557 14.021 10.6283 10.3307 9.43646 8.86352 6.9887 6.59735 6.28696
threshold=0.029984758418375852 1664.3755311022817 1613.2647371776209 0.37054024809218605 1597.5926481996719 1583.2494075235043 0.060800215458212105 1532.1897065030205 -0.97857261214312252 1589.1679633916604 0.65449668384018522 1566.1773262577155 -1.5055542688972785 1.724560796271841 0.6814307518053706 1.446835032840567 1.6465452046971305 0.12576510166412014 6.6333333333333337 1758.3689058584428 0.030625486223144 -1.0499999999999998 -0.42500000000000021 -1.8013828556271134 0.73575396825396855 -0.15713581334956861 -0.18746666036962792 0.32867562360444946 0.34773115773115776 1645.1077600692679
decision_type=10 2 2 8 2 2 10 2 10 2 8 2 8 10 10 10 10 10 10 2 10 10 10 10 10 8 8 8 10 2
left_child=1 3 6 10 18 7 17 -5 26 14 12 -7 -1 21 -8 16 -10 23 19 -3 -19 -6 -15 -2 -12 -11 28 -17 -4 -28
right_child=2 4 8 5 13 11 9 -9 15 25 24 -13 -14 22 -16 27 -18 20 -20 -21 -22 -23 -24 -25 -26 -27 29 -29 -30 -31
leaf_value=-0.0025701554833039392 0.010214905123037455 -0.013190388222462136 -0.0018804249563609422 -0.0046725907443108125 -0.011170301130210529 -0.010165386158362913 0.0021709588066573739 0.0019895338925084711 0.0067681169423496092 -0.014136165615600492 -0.0097066251665469897 -0.0016329643569885869 0.0035213554419114275 -0.015365329704221234 -0.0067349155188474175 0.0008710717384769808 -0.0064714791228382253 -0.007556421137197007 -0.0025760994947147111 -0.017665504414049606 0.0063041499566002974 0.0017367174961474498 0.00055597475940115338 0.0046922265812729541 0.0021863016085218053 -0.0040135152607132163 0.0089890552746892428 0.011314418794513295 0.01119660985251531 0.013525161678879623
leaf_weight=86.223971948027611 51.641739517450333 232.95612755417824 9.3455890864133853 297.06436905264854 14.941617503762243 218.14815647900105 263.85130663216114 106.21263742446899 175.67618392407894 15.386412933468817 31.687739878892899 47.983272403478622 381.40202328562737 30.809902995824814 34.65820948779583 8.7439884990453702 14.609084293246267 24.849336296319962 13.612196967005728 162.55741295218468 16.015334084630013 45.203507050871849 9.3204034119844419 357.20567882061005 13.465518683195112 52.992476493120193 46.01056694984436 164.2890385389328 10.709223151206968 284.85437275469303
leaf_count=358 221 939 41 1224 61 886 1108 445 758 63 131 199 1609 125 145 38 62 105 55 652 68 187 38 1519 56 218 201 724 47 1265
internal_value=5.89223e-05 -0.00541845 0.00611149 -0.00222421 -0.0128313 -0.00518774 0.00248094 -0.00291787 0.0102623 -0.000247724 0.00164446 -0.00862717 0.00239807 -0.00555092 0.00113678 0.00814975 0.00575139 0.00470713 -0.0146156 -0.0150299 -0.00212332 -0.00146937 -0.0116668 0.00538994 -0.00615916 -0.00629221 0.0124493 0.0107869 0.00510123 0.0128945
internal_weight=3222.43 1691.59 1530.84 1182.19 509.401 669.408 816.6 403.277 714.238 366.888 512.779 266.131 467.626 100.275 298.51 363.318 190.285 449.712 409.126 395.514 40.8647 60.1451 40.1303 408.847 45.1533 68.3789 350.92 173.033 20.0548 330.865
internal_count=13548 6965 6583 4908 2057 2754 3447 1669 3136 1534 2154 1085 1967 411 1253 1582 820 1913 1646 1591 173 248 163 1740 187 281 1554 762 88 1466
is_linear=0
shrinkage=0.011377


Tree=20
num_leaves=31
num_cat=0
split_feature=347 229 157 344 157 350 317 229 229 341 157 26 124 180 377 341 229 157 229 194 6 289 157 295 341 350 250 70 194 356
split_gain=807.32 300.739 169.255 80.2505 60.6313 47.0942 36.5054 33.4621 27.2079 21.3263 19.7625 19.0215 19.0099 17.755 17.3807 17.1641 16.7643 16.3101 14.8712 14.4288 14.2652 14.2086 12.8964 12.6181 12.5736 12.3734 11.3958 7.74921 7.87828 6.61283
threshold=0.029984758418375852 1633.8984838524898 1616.945269954557 0.37054024809218605 1607.6316993044663 0.074205460073454452 -0.10683447517493519 1709.4082019772343 1576.9122245604156 2.4471442484008405 1574.8384973117493 15.812251324214783 8.0291476211228314 10.651573037553543 -0.0084114205388611477 -3.1824918709150221 1641.8706855464222 1701.6180122861276 1822.2886127765416 8.6333333333333346 1.267857142857143 0.10135955826206816 1573.4558980746556 10.345013851970085 -1.2613759311429182 0.68566328692513878 0.48617224747657212 0.74865079365079379 5.366666666666668 1.1241232653322577
decision_type=10 10 10 8 8 10 10 10 10 10 10 10 10 10 8 8 10 10 10 8 10 8 10 10 10 10 8 10 10 10
left_child=1 3 5 10 7 14 15 11 24 16 13 -3 -8 -1 20 -5 17 -4 19 -6 -2 -18 -16 -10 -7 -9 -12 29 -29 -11
right_child=2 4 9 6 18 8 12 25 23 27 26 -13 -14 -15 22 -17 21 -19 -20 -21 -22 -23 -24 -25 -26 -27 -28 28 -30 -31
leaf_value=-0.014808613275485846 0.0044944970778839338 -0.008962509649475741 0.006834477364114252 -0.010618796410314274 0.0047461213360334561 -0.0065941608754715234 0.00027497666442304432 -0.01147462759000158 -0.002841135217576213 0.012957754912609093 0.0097640879085319574 -0.018727921736656859 -0.015845338606103876 0.0010488004948651475 0.0047053959575326394 -0.0050638159572149889 -0.0089171801775112993 0.013076099473392404 -0.014794358847298737 -0.0049589428070999381 -0.0049876979670932017 0.0054761170058438158 0.0092347860928630506 -0.012097739035345006 0.0020123762531296416 -0.017068181592716298 0.0025066182438596156 0.010056356526075632 -0.0010454335581247072 0.0026492398934719066
leaf_weight=9.3841915130615217 46.173780664801598 231.64710894227028 150.09404782950878 98.257399365305901 27.270815014839172 23.995055451989174 191.45055079460144 67.55586102604866 54.203217715024948 322.97705958783627 55.613302633166313 29.067390650510788 9.9590682536363584 347.06276044249535 286.06306003034115 269.63724610209465 12.34337469935417 84.862308368086815 14.090281471610067 72.617597803473473 36.981402993202209 31.593458935618401 113.75887812674046 29.412248715758324 260.11747165024281 212.20056535303593 56.449089482426643 57.566303476691246 9.6548839807510358 8.2716718912124616
leaf_count=39 195 938 653 401 113 100 795 272 223 1437 238 117 41 1454 1217 1109 52 376 57 299 157 134 491 121 1094 851 241 255 42 36
internal_value=5.83664e-05 -0.00535463 0.00605303 -0.00154596 -0.0113943 0.00267426 -0.00441596 -0.0129846 -0.000393423 0.0102964 0.00194142 -0.0100516 -0.000522092 0.000631128 0.00500999 -0.0065476 0.00788288 0.00908911 -0.00385297 -0.00230891 0.000277024 0.00143144 0.00599425 -0.00609788 0.00128532 -0.0157177 0.00610875 0.0119855 0.00846127 0.0127005
internal_weight=3220.33 1692.26 1528.07 1037.81 654.45 850.705 569.304 540.471 367.728 677.363 468.509 260.714 201.41 356.447 482.977 367.895 278.893 234.956 113.979 99.8884 83.1552 43.9368 399.822 83.6155 284.113 279.756 112.062 398.47 67.2212 331.249
internal_count=13548 6965 6583 4318 2647 3598 2346 2178 1538 2985 1972 1055 836 1493 2060 1510 1215 1029 469 412 352 186 1708 344 1194 1123 479 1770 297 1473
is_linear=0
shrinkage=0.011377


Tree=21
num_leaves=31
num_cat=0
